{"learner":{"attributes":{"best_iteration":"99","best_ntree_limit":"100","scikit_learn":"{\"use_label_encoder\": false, \"n_estimators\": 100, \"objective\": \"binary:logistic\", \"max_depth\": 5, \"max_leaves\": null, \"max_bin\": null, \"grow_policy\": null, \"learning_rate\": 0.05, \"verbosity\": null, \"booster\": null, \"tree_method\": null, \"gamma\": 1, \"min_child_weight\": 5.0, \"max_delta_step\": null, \"subsample\": 0.9, \"sampling_method\": null, \"colsample_bytree\": 0.9, \"colsample_bylevel\": null, \"colsample_bynode\": null, \"reg_alpha\": null, \"reg_lambda\": null, \"scale_pos_weight\": null, \"base_score\": null, \"missing\": NaN, \"num_parallel_tree\": null, \"random_state\": 42, \"n_jobs\": null, \"monotone_constraints\": null, \"interaction_constraints\": null, \"importance_type\": null, \"gpu_id\": null, \"validate_parameters\": null, \"predictor\": null, \"enable_categorical\": false, \"max_cat_to_onehot\": null, \"eval_metric\": null, \"early_stopping_rounds\": null, \"callbacks\": null, \"classes_\": [0, 1], \"n_classes_\": 2, \"evals_result_\": {\"validation_0\": {\"logloss\": [0.6537259954403206, 0.6179756289643491, 0.5853984806288284, 0.5553921989912712, 0.5281906054386941, 0.5030971933615894, 0.48022438121738503, 0.45932743131904286, 0.44007002683980206, 0.4223914752975894, 0.40541331363200583, 0.3901642662167689, 0.3759914157883681, 0.3626644618362714, 0.35033049177899345, 0.3386800341334382, 0.3276938449341878, 0.31776686961796535, 0.30753086202643315, 0.29826523479157413, 0.28936588160089544, 0.281655917051396, 0.27484114273734717, 0.26841441474495986, 0.2620301628014736, 0.2558932063967585, 0.24980940616368968, 0.2439163763220526, 0.23850180026577167, 0.23336555287854793, 0.2291830308674085, 0.2248160720274255, 0.22107039833250952, 0.21693100073712973, 0.21307012942191716, 0.20965131651500699, 0.20651248805706426, 0.20341484364205326, 0.20053391443121166, 0.19764636396556287, 0.19510447066693132, 0.19267722331293882, 0.190169220175222, 0.1879135591845815, 0.18546722383707867, 0.183418102019612, 0.18156540343049832, 0.17986790408171302, 0.1780810536801395, 0.1767913122846363, 0.17538269861797187, 0.1738696191700659, 0.1720378810209337, 0.1702864448705165, 0.16911385614166669, 0.16759109634087452, 0.1663115584323255, 0.16533267353995146, 0.16452982571724578, 0.16342183873144916, 0.16255236365181228, 0.16150463975913446, 0.16069846959471631, 0.1599682031766228, 0.1592173504563252, 0.1586878910139816, 0.15786626226499625, 0.15717615398603516, 0.15662417564317846, 0.15591555855923128, 0.15551373170148122, 0.15525744872914077, 0.15491458772299713, 0.15459027992765015, 0.15374033492754546, 0.1530663315447531, 0.1524491555513825, 0.15224270727135214, 0.1518679259281461, 0.15168373904395607, 0.1511799789413582, 0.15084846670050983, 0.15043248667586354, 0.14995257911785614, 0.14973145257791046, 0.14976361964541443, 0.14969341657491078, 0.14987329192586532, 0.14952030547672376, 0.1488651004198558, 0.14876702376865683, 0.14837208332233437, 0.14811175064972823, 0.14815365054046015, 0.1480786428227583, 0.14780631595861374, 0.14749538735842244, 0.14756856593834158, 0.14725607860456938, 0.14718461460483148]}}, \"_estimator_type\": \"classifier\"}"},"feature_names":[],"feature_types":[],"gradient_booster":{"model":{"gbtree_model_param":{"num_parallel_tree":"1","num_trees":"100","size_leaf_vector":"0"},"tree_info":[0,0,0,0,0,0,0,0,0,0,0,0,0,0,0,0,0,0,0,0,0,0,0,0,0,0,0,0,0,0,0,0,0,0,0,0,0,0,0,0,0,0,0,0,0,0,0,0,0,0,0,0,0,0,0,0,0,0,0,0,0,0,0,0,0,0,0,0,0,0,0,0,0,0,0,0,0,0,0,0,0,0,0,0,0,0,0,0,0,0,0,0,0,0,0,0,0,0,0,0],"trees":[{"base_weights":[-1.7412158E0,-1.8101772E0,9.166667E-1,-1.8333334E0,8E-2,1.5E0,2.857143E-1,-1.8625592E0,-5.4545456E-1,-1.8813559E0,-9E-1,-0E0,-1E0,-1.9131025E0,-1.5846995E0],"categories":[],"categories_nodes":[],"categories_segments":[],"categories_sizes":[],"default_left":[1,1,1,1,0,0,0,1,1,1,0,0,0,1,1],"id":0,"left_children":[1,3,5,7,-1,-1,-1,9,11,-1,-1,-1,-1,-1,-1],"loss_changes":[8.38197E1,1.928479E1,3.9880953E0,1.5244263E1,0E0,0E0,0E0,5.9420166E0,2.7272727E0,8.5791016E-1,0E0,0E0,0E0,0E0,0E0],"parents":[2147483647,0,0,1,1,2,2,3,3,7,7,8,8,9,9],"right_children":[2,4,6,8,-1,-1,-1,10,12,-1,-1,-1,-1,-1,-1],"split_conditions":[5E-1,3.5E0,2.5E0,5E-1,4E-3,7.5E-2,1.4285715E-2,5E-1,2.5E0,-9.40678E-2,-4.4999998E-2,-0E0,-5E-2,-9.565513E-2,-7.923498E-2],"split_indices":[3497,3483,7455,2280,0,0,0,3196,6148,2407,0,0,0,2147483647,2147483647],"split_type":[0,0,0,0,0,0,0,0,0,0,0,0,0,0,0],"sum_hessian":[4.4725E2,4.3625E2,1.1E1,4.31E2,5.25E0,5E0,6E0,4.21E2,1E1,4.12E2,9E0,5E0,5E0,3.6725E2,4.475E1],"tree_param":{"num_deleted":"2","num_feature":"7834","num_nodes":"15","size_leaf_vector":"0"}},{"base_weights":[-1.6539524E0,-1.6917663E0,7.9375905E-1,-1.7201196E0,5.578943E-1,-1.7488759E0,-5.058436E-1,-1.7745672E0,-6.9249123E-1,-2.2987461E-1,-7.008955E-1,-1.7847395E0,-8.226305E-1,-5.4200012E-2,-1.1995914E0],"categories":[],"categories_nodes":[],"categories_segments":[],"categories_sizes":[],"default_left":[1,1,0,1,0,1,1,1,1,1,1,0,0,0,0],"id":1,"left_children":[1,3,-1,5,-1,7,-1,11,13,-1,-1,-1,-1,-1,-1],"loss_changes":[4.279248E1,2.911023E1,0E0,1.4342529E1,0E0,1.0321655E1,4.5765543E-1,2.5489502E0,3.7364388E0,0E0,0E0,0E0,0E0,0E0,0E0],"parents":[2147483647,0,0,1,1,3,3,5,5,6,6,7,7,8,8],"right_children":[2,4,-1,6,-1,8,-1,12,14,-1,-1,-1,-1,-1,-1],"split_conditions":[5E-1,5E-1,3.9687954E-2,5E-1,2.7894715E-2,5E-1,-2.5292179E-2,5E-1,9.9E1,-1.149373E-2,-3.5044774E-2,-8.9236975E-2,-4.1131526E-2,-2.7100006E-3,-5.997957E-2],"split_indices":[3509,3479,0,2282,0,3196,6742,3622,6742,2147483647,2147483647,0,0,0,0],"split_type":[0,0,0,0,0,0,0,0,0,0,0,0,0,0,0],"sum_hessian":[4.468265E2,4.403328E2,6.4937234E0,4.3508463E2,5.248142E0,4.2458932E2,1.0495328E1,4.1384473E2,1.0744576E1,5.248303E0,5.2470255E0,4.086036E2,5.2411356E0,5.2470074E0,5.4975696E0],"tree_param":{"num_deleted":"2","num_feature":"7834","num_nodes":"15","size_leaf_vector":"0"}},{"base_weights":[-1.5970689E0,-1.6662205E0,9.2911136E-1,-1.6897137E0,-1.5672775E-1,1.306157E0,4.7611967E-1,-1.7042797E0,-4.3097827E-1,-1.7195143E0,-7.8839993E-1,-1.7331096E0,-7.183069E-1],"categories":[],"categories_nodes":[],"categories_segments":[],"categories_sizes":[],"default_left":[1,1,1,1,0,0,0,1,0,1,0,0,0],"id":2,"left_children":[1,3,5,7,-1,-1,-1,9,-1,11,-1,-1,-1],"loss_changes":[7.920276E1,1.5092041E1,1.5107603E0,7.081665E0,0E0,0E0,0E0,4.5197754E0,0E0,4.3814697E0,0E0,0E0,0E0],"parents":[2147483647,0,0,1,1,2,2,3,3,7,7,9,9],"right_children":[2,4,6,8,-1,-1,-1,10,-1,12,-1,-1,-1],"split_conditions":[5E-1,5E-1,2.5E0,5E-1,-7.8363875E-3,6.530785E-2,2.3805983E-2,5E-1,-2.1548914E-2,5E-1,-3.9419997E-2,-8.665548E-2,-3.5915345E-2],"split_indices":[3497,3483,7455,3198,0,0,0,3196,0,2282,0,0,0],"split_type":[0,0,0,0,0,0,0,0,0,0,0,0,0],"sum_hessian":[4.4352933E2,4.32043E2,1.1486327E1,4.2530432E2,6.738673E0,5.240783E0,6.245544E0,4.2008914E2,5.2151785E0,4.123527E2,7.7364426E0,4.0610715E2,6.245547E0],"tree_param":{"num_deleted":"0","num_feature":"7834","num_nodes":"13","size_leaf_vector":"0"}},{"base_weights":[-1.5184484E0,-1.5822445E0,8.197269E-1,-1.6026428E0,8.509142E-2,1.2216655E0,2.6088712E-1,-1.6305754E0,-4.71211E-1,-1.6461375E0,-3.4056205E-1,-2.1743535E-3,-8.49495E-1,-1.6587862E0,-8.709043E-1],"categories":[],"categories_nodes":[],"categories_segments":[],"categories_sizes":[],"default_left":[1,1,1,1,0,0,0,1,1,1,0,0,0,0,0],"id":3,"left_children":[1,3,5,7,-1,-1,-1,9,11,13,-1,-1,-1,-1,-1],"loss_changes":[6.763965E1,1.4872803E1,2.4826012E0,1.2761108E1,0E0,0E0,0E0,7.8183594E0,2.077734E0,2.5966797E0,0E0,0E0,0E0,0E0,0E0],"parents":[2147483647,0,0,1,1,2,2,3,3,7,7,8,8,9,9],"right_children":[2,4,6,8,-1,-1,-1,10,12,14,-1,-1,-1,-1,-1],"split_conditions":[5E-1,5E-1,5E-1,5E-1,4.254571E-3,6.1083276E-2,1.3044356E-2,5E-1,3.3E1,5E-1,-1.7028103E-2,-1.0871767E-4,-4.247475E-2,-8.293931E-2,-4.3545216E-2],"split_indices":[3497,5814,3715,2280,0,0,0,3483,6742,3196,0,0,0,0,0],"split_type":[0,0,0,0,0,0,0,0,0,0,0,0,0,0,0],"sum_hessian":[4.4375583E2,4.3228442E2,1.1471403E1,4.2709808E2,5.186339E0,5.9824934E0,5.48891E0,4.1637744E2,1.07206335E1,4.111416E2,5.2358637E0,5.2352114E0,5.485422E0,4.0341965E2,7.7219377E0],"tree_param":{"num_deleted":"0","num_feature":"7834","num_nodes":"15","size_leaf_vector":"0"}},{"base_weights":[-1.4559134E0,-1.5177333E0,8.3754694E-1,-1.537511E0,8.149586E-2,4.619496E-1,1.0526358E0,-1.5669757E0,-3.668586E-1,-1.605161E0,-1.2556587E0,-4.0836255E-3,-6.5972704E-1,-1.6192604E0,-8.0565727E-1,-6.6383576E-1,-1.4611785E0],"categories":[],"categories_nodes":[],"categories_segments":[],"categories_sizes":[],"default_left":[1,1,1,1,0,1,1,1,1,1,1,0,0,0,0,0,0],"id":4,"left_children":[1,3,-1,7,-1,-1,-1,9,11,13,15,-1,-1,-1,-1,-1,-1],"loss_changes":[6.3661316E1,1.3689392E1,4.988823E-1,1.4038513E1,0E0,0E0,0E0,2.8935547E0,1.2411466E0,2.8013916E0,5.076355E0,0E0,0E0,0E0,0E0,0E0,0E0],"parents":[2147483647,0,0,1,1,2,2,3,3,7,7,8,8,9,9,10,10],"right_children":[2,4,-1,8,-1,-1,-1,10,12,14,16,-1,-1,-1,-1,-1,-1],"split_conditions":[5E-1,5E-1,4.1877348E-2,5E-1,4.074793E-3,2.309748E-2,5.263179E-2,5E-1,3.35E1,1.5E0,5E-1,-2.0418128E-4,-3.2986354E-2,-8.096302E-2,-4.0282864E-2,-3.319179E-2,-7.3058926E-2],"split_indices":[3497,5814,7801,2280,0,2147483647,2147483647,2407,6742,3646,7801,0,0,0,0,0,0],"split_type":[0,0,0,0,0,0,0,0,0,0,0,0,0,0,0,0,0],"sum_hessian":[4.390446E2,4.278502E2,1.1194404E1,4.2266174E2,5.1884656E0,5.22245E0,5.9719534E0,4.1195447E2,1.070725E1,3.6324405E2,4.8710434E1,5.235723E0,5.471526E0,3.559416E2,7.302446E0,1.3645718E1,3.506472E1],"tree_param":{"num_deleted":"2","num_feature":"7834","num_nodes":"17","size_leaf_vector":"0"}},{"base_weights":[-1.4293941E0,-1.4884274E0,7.2314644E-1,-1.5095239E0,1.5171075E-1,9.9671394E-1,3.0180717E-1,-1.5330192E0,-4.5504335E-1,-1.5452456E0,-5.2530646E-1,-1.5582054E0,-7.5722855E-1],"categories":[],"categories_nodes":[],"categories_segments":[],"categories_sizes":[],"default_left":[1,1,1,1,0,0,0,1,0,1,0,0,0],"id":5,"left_children":[1,3,5,7,-1,-1,-1,9,-1,11,-1,-1,-1],"loss_changes":[5.579303E1,1.474176E1,1.1015997E0,9.564331E0,0E0,0E0,0E0,4.17511E0,0E0,2.8986816E0,0E0,0E0,0E0],"parents":[2147483647,0,0,1,1,2,2,3,3,7,7,9,9],"right_children":[2,4,6,8,-1,-1,-1,10,-1,12,-1,-1,-1],"split_conditions":[5E-1,3.5E0,1.6E2,5E-1,7.5855376E-3,4.9835697E-2,1.5090358E-2,5E-1,-2.2752168E-2,5E-1,-2.6265323E-2,-7.791027E-2,-3.786143E-2],"split_indices":[3497,3483,6742,2280,0,0,0,3198,0,3196,0,0,0],"split_type":[0,0,0,0,0,0,0,0,0,0,0,0,0],"sum_hessian":[4.2959784E2,4.1843094E2,1.1166907E1,4.1319577E2,5.2351456E0,5.9427853E0,5.2241216E0,4.037459E2,9.449861E0,3.98379E2,5.3669186E0,3.9097174E2,7.4072714E0],"tree_param":{"num_deleted":"0","num_feature":"7834","num_nodes":"13","size_leaf_vector":"0"}},{"base_weights":[-1.3656273E0,-1.4248049E0,6.582592E-1,-1.444944E0,-1.4534317E-1,9.820217E-1,1.9839934E-1,-1.4705154E0,-3.696087E-1,-1.4849317E0,-4.012528E-1,-1.4956685E0,-7.5571764E-1],"categories":[],"categories_nodes":[],"categories_segments":[],"categories_sizes":[],"default_left":[1,1,1,1,0,0,0,1,0,1,0,0,0],"id":6,"left_children":[1,3,5,7,-1,-1,-1,9,-1,11,-1,-1,-1],"loss_changes":[5.12735E1,1.0319763E1,1.6846218E0,1.0516235E1,0E0,0E0,0E0,5.454834E0,0E0,1.899231E0,0E0,0E0,0E0],"parents":[2147483647,0,0,1,1,2,2,3,3,7,7,9,9],"right_children":[2,4,6,8,-1,-1,-1,10,-1,12,-1,-1,-1],"split_conditions":[5E-1,5E-1,5E-1,5E-1,-7.2671585E-3,4.9101084E-2,9.919967E-3,5E-1,-1.8480435E-2,5E-1,-2.006264E-2,-7.478343E-2,-3.7785884E-2],"split_indices":[3497,3483,3715,2280,0,0,0,3198,0,3196,0,0,0],"split_type":[0,0,0,0,0,0,0,0,0,0,0,0,0],"sum_hessian":[4.1927243E2,4.0764893E2,1.1623499E1,4.0120453E2,6.4444013E0,6.1547747E0,5.4687247E0,3.9152655E2,9.6779585E0,3.8593448E2,5.5920753E0,3.7929868E2,6.6358023E0],"tree_param":{"num_deleted":"0","num_feature":"7834","num_nodes":"13","size_leaf_vector":"0"}},{"base_weights":[-1.3251091E0,-1.3848958E0,6.5084994E-1,-1.4028474E0,-1.3953912E-1,1.1192689E0,1.9460732E-1,-1.4209255E0,-1.9042961E-1,-1.4432474E0,-3.665714E-1,-1.451133E0,-8.82731E-1],"categories":[],"categories_nodes":[],"categories_segments":[],"categories_sizes":[],"default_left":[1,1,1,1,0,0,0,1,0,1,0,1,1],"id":7,"left_children":[1,3,5,7,-1,-1,-1,9,-1,-1,-1,-1,-1],"loss_changes":[4.9734924E1,8.781372E0,2.5220323E0,8.403076E0,0E0,0E0,0E0,8.644104E0,0E0,4.0454102E-1,0E0,0E0,0E0],"parents":[2147483647,0,0,1,1,2,2,3,3,7,7,9,9],"right_children":[2,4,6,8,-1,-1,-1,10,-1,-1,-1,-1,-1],"split_conditions":[5E-1,5E-1,2.5E0,2.5E0,-6.976956E-3,5.5963445E-2,9.730366E-3,5E-1,-9.521481E-3,-7.2162375E-2,-1.832857E-2,-7.255665E-2,-4.413655E-2],"split_indices":[3497,3198,7455,3483,0,0,0,2280,0,3196,0,2147483647,2147483647],"split_type":[0,0,0,0,0,0,0,0,0,0,0,0,0],"sum_hessian":[4.123682E2,4.0054794E2,1.1820252E1,3.9473148E2,5.816457E0,5.1152515E0,6.705001E0,3.8876276E2,5.96872E0,3.8034164E2,8.421126E0,3.7349817E2,6.8434677E0],"tree_param":{"num_deleted":"2","num_feature":"7834","num_nodes":"13","size_leaf_vector":"0"}},{"base_weights":[-1.2963036E0,-1.352564E0,8.7295365E-1,-1.3794377E0,-2.828612E-1,-1.3909118E0,-4.391662E-1,-1.4272121E0,-1.1048651E0,-1.4392502E0,-7.310924E-1,-7.6013887E-1,-1.3180822E0],"categories":[],"categories_nodes":[],"categories_segments":[],"categories_sizes":[],"default_left":[1,1,0,1,0,1,0,1,1,0,0,0,0],"id":8,"left_children":[1,3,-1,5,-1,7,-1,9,11,-1,-1,-1,-1],"loss_changes":[5.037732E1,1.091626E1,0E0,3.5256348E0,0E0,2.3515625E0,0E0,1.7324219E0,2.455017E0,0E0,0E0,0E0,0E0],"parents":[2147483647,0,0,1,1,3,3,5,5,7,7,8,8],"right_children":[2,4,-1,6,-1,8,-1,10,12,-1,-1,-1,-1],"split_conditions":[5E-1,5E-1,4.3647684E-2,5E-1,-1.414306E-2,5E-1,-2.195831E-2,1.5E0,5E-1,-7.196251E-2,-3.655462E-2,-3.8006943E-2,-6.590411E-2],"split_indices":[3497,2280,0,3198,0,2407,0,3646,3253,0,0,0,0],"split_type":[0,0,0,0,0,0,0,0,0,0,0,0,0],"sum_hessian":[4.0210797E2,3.9230978E2,9.798188E0,3.8241302E2,9.89677E0,3.7732925E2,5.083774E0,3.3129703E2,4.6032215E1,3.2461588E2,6.681151E0,1.9335682E1,2.6696533E1],"tree_param":{"num_deleted":"0","num_feature":"7834","num_nodes":"13","size_leaf_vector":"0"}},{"base_weights":[-1.239997E0,-1.2934813E0,5.4792064E-1,-1.311216E0,-1.3781989E-1,8.550253E-1,1.3881294E-1,-1.3339843E0,-3.504597E-1,-1.3731426E0,-1.0343237E0,-1.3847183E0,-9.583605E-1,-4.9883243E-1,-1.2650166E0],"categories":[],"categories_nodes":[],"categories_segments":[],"categories_sizes":[],"default_left":[1,1,1,1,0,0,0,1,0,1,1,1,1,0,0],"id":9,"left_children":[1,3,5,7,-1,-1,-1,9,-1,-1,13,-1,-1,-1,-1],"loss_changes":[3.8627502E1,7.7163696E0,1.4166119E0,7.8311768E0,0E0,0E0,0E0,2.9241333E0,0E0,2.3052979E-1,5.15551E0,0E0,0E0,0E0,0E0],"parents":[2147483647,0,0,1,1,2,2,3,3,7,7,9,9,10,10],"right_children":[2,4,6,8,-1,-1,-1,10,-1,-1,14,-1,-1,-1,-1],"split_conditions":[5E-1,2.5E0,5E-1,5E-1,-6.8909945E-3,4.2751264E-2,6.9406475E-3,5E-1,-1.7522985E-2,-6.865713E-2,5E-1,-6.923591E-2,-4.7918025E-2,-2.4941621E-2,-6.325083E-2],"split_indices":[3497,3483,3715,2280,0,0,0,2407,0,3766,1383,2147483647,2147483647,0,0],"split_type":[0,0,0,0,0,0,0,0,0,0,0,0,0,0,0],"sum_hessian":[3.955336E2,3.8431366E2,1.1219946E1,3.7837262E2,5.9410567E0,5.78634E0,5.4336057E0,3.6923392E2,9.138697E0,3.233922E2,4.5841713E1,3.1233704E2,1.1055165E1,1.4754782E1,3.1086931E1],"tree_param":{"num_deleted":"2","num_feature":"7834","num_nodes":"15","size_leaf_vector":"0"}},{"base_weights":[-1.2021945E0,-1.2493187E0,7.807592E-1,-1.2766441E0,4.4943383E-1,-1.3072598E0,-1.9265053E-1,-1.3250705E0,-2.5139645E-1,2.0453742E-1,-5.614791E-1,-1.3432287E0,-4.602971E-1],"categories":[],"categories_nodes":[],"categories_segments":[],"categories_sizes":[],"default_left":[1,1,0,1,0,1,1,1,0,0,0,0,0],"id":10,"left_children":[1,3,-1,5,-1,7,9,11,-1,-1,-1,-1,-1],"loss_changes":[3.691626E1,1.8030945E1,0E0,1.2040161E1,0E0,6.437622E0,1.7770281E0,4.937805E0,0E0,0E0,0E0,0E0,0E0],"parents":[2147483647,0,0,1,1,3,3,5,5,6,6,7,7],"right_children":[2,4,-1,6,-1,8,10,12,-1,-1,-1,-1,-1],"split_conditions":[5E-1,3.5E0,3.903796E-2,5E-1,2.2471692E-2,5E-1,2.8E1,5E-1,-1.2569822E-2,1.0226871E-2,-2.8073955E-2,-6.716143E-2,-2.3014857E-2],"split_indices":[3501,3483,0,2280,0,3198,6742,3196,0,0,0,0,0],"split_type":[0,0,0,0,0,0,0,0,0,0,0,0,0],"sum_hessian":[3.8362012E2,3.7507654E2,8.543583E0,3.693833E2,5.693261E0,3.5903687E2,1.0346413E1,3.5283023E2,6.2066374E0,5.196159E0,5.1502533E0,3.450321E2,7.7981443E0],"tree_param":{"num_deleted":"0","num_feature":"7834","num_nodes":"13","size_leaf_vector":"0"}},{"base_weights":[-1.1844529E0,-1.2406585E0,5.999559E-1,-1.2619575E0,1.8710378E-1,9.6615547E-1,1.7319225E-1,-1.2875447E0,-2.9922494E-1,-1.3023621E0,-2.6352227E-1,-1.3293816E0,-1.0768033E0],"categories":[],"categories_nodes":[],"categories_segments":[],"categories_sizes":[],"default_left":[1,1,1,1,0,0,0,1,0,1,0,1,1],"id":11,"left_children":[1,3,5,7,-1,-1,-1,9,-1,-1,-1,-1,-1],"loss_changes":[3.8385254E1,1.1310547E1,1.7290616E0,8.456909E0,0E0,0E0,0E0,4.9576416E0,0E0,6.6571045E-1,0E0,0E0,0E0],"parents":[2147483647,0,0,1,1,2,2,3,3,7,7,9,9],"right_children":[2,4,6,8,-1,-1,-1,10,-1,-1,-1,-1,-1],"split_conditions":[5E-1,3.5E0,5E-1,5E-1,9.355189E-3,4.8307773E-2,8.659612E-3,5E-1,-1.4961247E-2,-6.5118104E-2,-1.3176113E-2,-6.646908E-2,-5.3840168E-2],"split_indices":[3497,3483,1492,2280,0,0,0,3198,0,979,0,2147483647,2147483647],"split_type":[0,0,0,0,0,0,0,0,0,0,0,0,0],"sum_hessian":[3.7430573E2,3.631712E2,1.1134527E1,3.5794757E2,5.2236366E0,5.3122506E0,5.8222766E0,3.4835178E2,9.595777E0,3.431152E2,5.236598E0,3.0204037E2,4.1074818E1],"tree_param":{"num_deleted":"2","num_feature":"7834","num_nodes":"13","size_leaf_vector":"0"}},{"base_weights":[-1.1429896E0,-1.1942877E0,7.6347053E-1,-1.2119932E0,-1.11521944E-1,-1.2327491E0,-2.858408E-1,-1.2501605E0,-1.3466677E-1,-1.2675045E0,-3.2994127E-1],"categories":[],"categories_nodes":[],"categories_segments":[],"categories_sizes":[],"default_left":[1,1,0,1,0,1,0,1,0,0,0],"id":12,"left_children":[1,3,-1,5,-1,7,-1,9,-1,-1,-1],"loss_changes":[3.732315E1,6.822876E0,0E0,6.510376E0,0E0,6.501892E0,0E0,5.061157E0,0E0,0E0,0E0],"parents":[2147483647,0,0,1,1,3,3,5,5,7,7],"right_children":[2,4,-1,6,-1,8,-1,10,-1,-1,-1],"split_conditions":[5E-1,5E-1,3.8173527E-2,2.5E0,-5.5760974E-3,5E-1,-1.4292041E-2,5E-1,-6.733339E-3,-6.337523E-2,-1.6497064E-2],"split_indices":[3497,3198,0,2280,0,3483,0,3196,0,0,0],"split_type":[0,0,0,0,0,0,0,0,0,0,0],"sum_hessian":[3.7131293E2,3.619474E2,9.36553E0,3.5600656E2,5.9408274E0,3.4787924E2,8.1273365E0,3.4231302E2,5.566234E0,3.3561014E2,6.7028728E0],"tree_param":{"num_deleted":"0","num_feature":"7834","num_nodes":"11","size_leaf_vector":"0"}},{"base_weights":[-1.1246991E0,-1.1777105E0,5.866765E-1,-1.1980157E0,-6.27423E-2,8.995126E-1,1.6353385E-1,-1.2164037E0,-4.271501E-1,-1.2325388E0,-4.4078365E-1,-1.2676121E0,-9.417128E-1],"categories":[],"categories_nodes":[],"categories_segments":[],"categories_sizes":[],"default_left":[1,1,1,1,0,0,0,1,0,1,0,0,0],"id":13,"left_children":[1,3,5,7,-1,-1,-1,9,-1,11,-1,-1,-1],"loss_changes":[3.347998E1,7.8689575E0,1.3787088E0,4.364502E0,0E0,0E0,0E0,3.6615906E0,0E0,2.1579895E0,0E0,0E0,0E0],"parents":[2147483647,0,0,1,1,2,2,3,3,7,7,9,9],"right_children":[2,4,6,8,-1,-1,-1,10,-1,12,-1,-1,-1],"split_conditions":[5E-1,5E-1,1.6E2,5E-1,-3.1371152E-3,4.497563E-2,8.176693E-3,5E-1,-2.1357505E-2,5E-1,-2.2039182E-2,-6.338061E-2,-4.708564E-2],"split_indices":[3497,3483,6742,2280,0,0,0,3196,0,2407,0,0,0],"split_type":[0,0,0,0,0,0,0,0,0,0,0,0,0],"sum_hessian":[3.604212E2,3.498947E2,1.0526481E1,3.4356348E2,6.3312597E0,5.40482E0,5.1216607E0,3.3499463E2,8.568846E0,3.275907E2,7.4039106E0,2.8933823E2,3.82525E1],"tree_param":{"num_deleted":"0","num_feature":"7834","num_nodes":"13","size_leaf_vector":"0"}},{"base_weights":[-1.0874554E0,-1.1331277E0,3.9101753E-1,-1.1606102E0,-2.5087485E-1,5.9347683E-1,1.254448E-1,-1.1801373E0,-4.141069E-2,3.0600604E-1,-8.1329286E-1,-1.1974224E0,-1.5208223E-1,-1.2358571E0,-9.0064406E-1],"categories":[],"categories_nodes":[],"categories_segments":[],"categories_sizes":[],"default_left":[1,1,1,1,1,1,1,1,0,0,0,1,0,0,0],"id":14,"left_children":[1,3,-1,7,9,-1,-1,11,-1,-1,-1,13,-1,-1,-1],"loss_changes":[2.4597046E1,8.128174E0,5.418531E-1,7.304657E0,3.9338686E0,0E0,0E0,5.693878E0,0E0,0E0,0E0,2.594696E0,0E0,0E0,0E0],"parents":[2147483647,0,0,1,1,2,2,3,3,4,4,7,7,11,11],"right_children":[2,4,-1,8,10,-1,-1,12,-1,-1,-1,14,-1,-1,-1],"split_conditions":[5E-1,5E-1,1.9550877E-2,5E-1,1.5E0,2.9673843E-2,6.27224E-3,5E-1,-2.0705345E-3,1.5300303E-2,-4.0664643E-2,5E-1,-7.604112E-3,-6.1792858E-2,-4.5032203E-2],"split_indices":[3497,2280,2644,3483,7455,2147483647,2147483647,3198,0,0,0,2407,0,0,0],"split_type":[0,0,0,0,0,0,0,0,0,0,0,0,0,0,0],"sum_hessian":[3.5670218E2,3.4623987E2,1.0462309E1,3.3547424E2,1.0765638E1,5.235966E0,5.2263427E0,3.2966794E2,5.8062973E0,5.6385303E0,5.1271076E0,3.2405475E2,5.61319E0,2.840979E2,3.9956837E1],"tree_param":{"num_deleted":"2","num_feature":"7834","num_nodes":"15","size_leaf_vector":"0"}},{"base_weights":[-1.067014E0,-1.1057901E0,6.9153E-1,-1.138044E0,6.041657E-1,-1.1645107E0,-2.1402587E-1,-1.1802301E0,-1.9636351E-1,-1.1991833E0,-3.453702E-1],"categories":[],"categories_nodes":[],"categories_segments":[],"categories_sizes":[],"default_left":[1,1,0,1,0,1,0,1,0,0,0],"id":15,"left_children":[1,3,-1,5,-1,7,-1,9,-1,-1,-1],"loss_changes":[2.4332E1,1.9359192E1,0E0,7.885254E0,0E0,4.6859436E0,0E0,4.6140747E0,0E0,0E0,0E0],"parents":[2147483647,0,0,1,1,3,3,5,5,7,7],"right_children":[2,4,-1,6,-1,8,-1,10,-1,-1,-1],"split_conditions":[5E-1,3.5E0,3.45765E-2,5E-1,3.0208284E-2,5E-1,-1.0701294E-2,5E-1,-9.818176E-3,-5.995917E-2,-1.726851E-2],"split_indices":[3501,3483,0,2282,0,3198,0,3196,0,0,0],"split_type":[0,0,0,0,0,0,0,0,0,0,0],"sum_hessian":[3.4461493E2,3.3754324E2,7.0716767E0,3.316225E2,5.920756E0,3.2213528E2,9.487199E0,3.1677292E2,5.3623667E0,3.093144E2,7.458534E0],"tree_param":{"num_deleted":"0","num_feature":"7834","num_nodes":"11","size_leaf_vector":"0"}},{"base_weights":[-1.0493191E0,-1.0954555E0,8.3656496E-1,-1.1231022E0,3.9446977E-1,-1.151039E0,-2.4926856E-1,-1.1675746E0,-1.4028609E-1,-4.880062E-1,2.970397E-2,-1.1847721E0,-3.5467523E-1],"categories":[],"categories_nodes":[],"categories_segments":[],"categories_sizes":[],"default_left":[1,1,0,1,0,1,1,1,0,1,1,0,0],"id":16,"left_children":[1,3,-1,5,-1,7,-1,11,-1,-1,-1,-1,-1],"loss_changes":[2.9926392E1,1.3866913E1,0E0,7.5301514E0,0E0,5.0176697E0,7.602032E-1,3.8420715E0,0E0,0E0,0E0,0E0,0E0],"parents":[2147483647,0,0,1,1,3,3,5,5,6,6,7,7],"right_children":[2,4,-1,6,-1,8,-1,12,-1,-1,-1,-1,-1],"split_conditions":[5E-1,3.5E0,4.182825E-2,5E-1,1.9723488E-2,5E-1,-1.2463428E-2,5E-1,-7.0143044E-3,-2.440031E-2,1.4851985E-3,-5.923861E-2,-1.7733762E-2],"split_indices":[3501,3483,0,2280,0,3198,6621,3196,0,2147483647,2147483647,0,0],"split_type":[0,0,0,0,0,0,0,0,0,0,0,0,0],"sum_hessian":[3.3241827E2,3.2488928E2,7.528967E0,3.1921228E2,5.67702E0,3.090157E2,1.0196601E1,3.0388898E2,5.1267004E0,5.0907593E0,5.1058416E0,2.9714517E2,6.743792E0],"tree_param":{"num_deleted":"2","num_feature":"7834","num_nodes":"13","size_leaf_vector":"0"}},{"base_weights":[-1.0102164E0,-1.0650636E0,4.6663687E-1,-1.1034844E0,-4.7288948E-1,7.4262905E-1,1.297628E-1,-1.1251891E0,-5.544328E-1,5.2855915E-1,-9.4456524E-1,-1.1713268E0,-7.681783E-1,2.4183704E-1,-1.112706E0,-4.952268E-1,-1.2059968E0,-1.1894842E0,-8.291279E-1,-1.4050615E-1,-1.1461812E0],"categories":[],"categories_nodes":[],"categories_segments":[],"categories_sizes":[],"default_left":[1,1,1,1,1,0,0,1,1,0,1,1,1,0,0,0,0,1,1,0,0],"id":17,"left_children":[1,3,5,7,9,-1,-1,11,13,-1,15,-1,19,-1,-1,-1,-1,-1,-1,-1,-1],"loss_changes":[2.673291E1,6.590454E0,1.0466094E0,2.8655396E0,1.0322503E1,0E0,0E0,3.723816E0,6.0952787E0,0E0,1.1056547E0,5.4641724E-1,8.150169E0,0E0,0E0,0E0,0E0,0E0,0E0,0E0,0E0],"parents":[2147483647,0,0,1,1,2,2,3,3,4,4,7,7,8,8,10,10,11,11,12,12],"right_children":[2,4,6,8,10,-1,-1,12,14,-1,16,-1,20,-1,-1,-1,-1,-1,-1,-1,-1],"split_conditions":[5E-1,6.5E0,1.175E2,5E-1,5E-1,3.7131455E-2,6.48814E-3,2.5E0,3.45E1,2.6427958E-2,5E-1,-5.856634E-2,4.95E1,1.2091852E-2,-5.56353E-2,-2.476134E-2,-6.029984E-2,-5.947421E-2,-4.1456398E-2,-7.0253075E-3,-5.730906E-2],"split_indices":[3497,5913,6742,3766,7801,0,0,979,6742,0,3747,3311,6742,0,0,0,0,2147483647,2147483647,0,0],"split_type":[0,0,0,0,0,0,0,0,0,0,0,0,0,0,0,0,0,0,0,0,0],"sum_hessian":[3.2289578E2,3.116024E2,1.1293411E1,2.9180624E2,1.979614E1,5.545586E0,5.747825E0,2.797E2,1.2106216E1,6.299859E0,1.3496283E1,2.456703E2,3.4029713E1,5.2231727E0,6.8830442E0,6.0286903E0,7.4675922E0,2.3094034E2,1.4729967E1,1.3306327E1,2.0723387E1],"tree_param":{"num_deleted":"2","num_feature":"7834","num_nodes":"21","size_leaf_vector":"0"}},{"base_weights":[-1.0079362E0,-1.0431875E0,9.32076E-1,-1.0773036E0,5.0806093E-1,-1.1065797E0,4.1301824E-2,-1.1393247E0,-7.671217E-2,-1.1602097E0,-7.098086E-2],"categories":[],"categories_nodes":[],"categories_segments":[],"categories_sizes":[],"default_left":[1,1,0,1,0,1,0,1,0,0,0],"id":18,"left_children":[1,3,-1,5,-1,7,-1,9,-1,-1,-1],"loss_changes":[2.2443054E1,1.6891144E1,0E0,9.952057E0,0E0,9.854828E0,0E0,6.2914734E0,0E0,0E0,0E0],"parents":[2147483647,0,0,1,1,3,3,5,5,7,7],"right_children":[2,4,-1,6,-1,8,-1,10,-1,-1,-1],"split_conditions":[5E-1,5E-1,4.66038E-2,5E-1,2.5403047E-2,5E-1,2.0650912E-3,5E-1,-3.8356085E-3,-5.8010485E-2,-3.549043E-3],"split_indices":[5814,3501,0,3483,0,2280,0,3198,0,0,0],"split_type":[0,0,0,0,0,0,0,0,0,0,0],"sum_hessian":[3.1295563E2,3.0782455E2,5.1310854E0,3.014993E2,6.3252544E0,2.938202E2,7.679098E0,2.8466296E2,9.157225E0,2.7912045E2,5.5425143E0],"tree_param":{"num_deleted":"0","num_feature":"7834","num_nodes":"11","size_leaf_vector":"0"}},{"base_weights":[-9.747783E-1,-1.0343747E0,5.325125E-1,-1.0605674E0,3.423149E-1,9.1268665E-1,2.8484516E-2,-8.1436974E-1,-1.1550013E0,-9.5599043E-1,5.196479E-1,-1.0587841E0,1.2952738E-1],"categories":[],"categories_nodes":[],"categories_segments":[],"categories_sizes":[],"default_left":[1,1,1,1,0,0,0,1,0,1,0,0,0],"id":19,"left_children":[1,3,5,7,-1,-1,-1,9,-1,11,-1,-1,-1],"loss_changes":[2.7858337E1,1.0920197E1,2.3160663E0,5.7447815E0,0E0,0E0,0E0,1.6198055E1,0E0,8.560043E0,0E0,0E0,0E0],"parents":[2147483647,0,0,1,1,2,2,3,3,7,7,9,9],"right_children":[2,4,6,8,-1,-1,-1,10,-1,12,-1,-1,-1],"split_conditions":[5E-1,3.5E0,5E-1,5E-1,1.7115746E-2,4.5634333E-2,1.4242259E-3,2.5E0,-5.7750065E-2,5E-1,2.5982395E-2,-5.2939206E-2,6.4763688E-3],"split_indices":[3497,3483,3715,7801,0,0,0,979,0,3646,0,0,0],"split_type":[0,0,0,0,0,0,0,0,0,0,0,0,0],"sum_hessian":[3.0299457E2,2.9177203E2,1.1222542E1,2.865498E2,5.222231E0,5.9350867E0,5.287455E0,8.210872E1,2.0444109E2,7.448472E1,7.6239996E0,6.806399E1,6.4207263E0],"tree_param":{"num_deleted":"0","num_feature":"7834","num_nodes":"13","size_leaf_vector":"0"}},{"base_weights":[-9.4365E-1,-9.808145E-1,1.0070513E0,-1.0151582E0,6.1330587E-1,-1.0480407E0,1.9820717E-1,-1.0813311E0,-5.154463E-2,-1.1399986E0,-6.9106895E-1],"categories":[],"categories_nodes":[],"categories_segments":[],"categories_sizes":[],"default_left":[1,1,0,1,0,1,0,1,0,0,0],"id":20,"left_children":[1,3,-1,5,-1,7,-1,9,-1,-1,-1],"loss_changes":[2.2445587E1,1.655188E1,0E0,1.15867E1,0E0,9.160919E0,0E0,5.366516E0,0E0,0E0,0E0],"parents":[2147483647,0,0,1,1,3,3,5,5,7,7],"right_children":[2,4,-1,6,-1,8,-1,10,-1,-1,-1],"split_conditions":[5E-1,5E-1,5.035257E-2,5E-1,3.0665293E-2,5E-1,9.910359E-3,5E-1,-2.5772315E-3,-5.699993E-2,-3.455345E-2],"split_indices":[5814,3501,0,3483,0,2280,0,2407,0,0,0],"split_type":[0,0,0,0,0,0,0,0,0,0,0],"sum_hessian":[2.9498343E2,2.8995642E2,5.027007E0,2.8419687E2,5.759544E0,2.768309E2,7.36596E0,2.6779932E2,9.03161E0,2.3113249E2,3.6666817E1],"tree_param":{"num_deleted":"0","num_feature":"7834","num_nodes":"11","size_leaf_vector":"0"}},{"base_weights":[-9.498035E-1,-9.930047E-1,5.785349E-1,-1.0203379E0,3.870376E-1,-1.0548621E0,-9.698599E-2,-1.1189405E0,-6.478963E-1,-1.1367706E0,-5.200038E-1,2.4515752E-1,-8.2079E-1],"categories":[],"categories_nodes":[],"categories_segments":[],"categories_sizes":[],"default_left":[1,1,0,1,0,1,0,1,1,0,0,0,0],"id":21,"left_children":[1,3,-1,5,-1,7,-1,9,11,-1,-1,-1,-1],"loss_changes":[1.950946E1,1.0929047E1,0E0,8.635956E0,0E0,6.163086E0,0E0,1.8311768E0,6.1159496E0,0E0,0E0,0E0,0E0],"parents":[2147483647,0,0,1,1,3,3,5,5,7,7,8,8],"right_children":[2,4,-1,6,-1,8,-1,10,12,-1,-1,-1,-1],"split_conditions":[5E-1,3.5E0,2.8926745E-2,5E-1,1.9351881E-2,5E-1,-4.8492993E-3,5E-1,5E-1,-5.683853E-2,-2.600019E-2,1.2257877E-2,-4.10395E-2],"split_indices":[3501,3483,0,2280,0,2407,0,3766,7455,0,0,0,0],"split_type":[0,0,0,0,0,0,0,0,0,0,0,0,0],"sum_hessian":[2.857801E2,2.782647E2,7.5153737E0,2.73116E2,5.148711E0,2.6313495E2,9.981062E0,2.2582797E2,3.7306965E1,2.1842749E2,7.4004908E0,5.9832916E0,3.1323675E1],"tree_param":{"num_deleted":"0","num_feature":"7834","num_nodes":"13","size_leaf_vector":"0"}},{"base_weights":[-9.0946585E-1,-9.610528E-1,5.1337904E-1,-9.837275E-1,1.3313228E-1,-1.0061774E0,6.321366E-2,-1.0279013E0,3.2733396E-2,-1.0493385E0,-2.0431584E-1],"categories":[],"categories_nodes":[],"categories_segments":[],"categories_sizes":[],"default_left":[1,1,0,1,0,1,0,1,0,0,0],"id":22,"left_children":[1,3,-1,5,-1,7,-1,9,-1,-1,-1],"loss_changes":[2.0943253E1,6.8101196E0,0E0,6.265381E0,0E0,5.8651123E0,0E0,4.2545166E0,0E0,0E0,0E0],"parents":[2147483647,0,0,1,1,3,3,5,5,7,7],"right_children":[2,4,-1,6,-1,8,-1,10,-1,-1,-1],"split_conditions":[5E-1,5E-1,2.5668953E-2,3.5E0,6.656614E-3,5.5E0,3.1606832E-3,5E-1,1.6366699E-3,-5.2466925E-2,-1.0215792E-2],"split_indices":[3497,3198,0,3483,0,2280,0,3196,0,0,0],"split_type":[0,0,0,0,0,0,0,0,0,0,0],"sum_hessian":[2.7760815E2,2.682085E2,9.399659E0,2.6286218E2,5.3463182E0,2.5738196E2,5.480203E0,2.5212065E2,5.2613096E0,2.4545753E2,6.6631193E0],"tree_param":{"num_deleted":"0","num_feature":"7834","num_nodes":"11","size_leaf_vector":"0"}},{"base_weights":[-8.927923E-1,-9.4889456E-1,4.941729E-1,-1.0209607E0,-5.6367093E-1,6.7723817E-1,2.2452633E-1,-1.047582E0,-3.04467E-1,1.5379563E-1,-8.9978176E-1,-1.0737549E0,-5.828278E-1,6.3902575E-1,-4.740324E-1,-5.46946E-1,-1.1663767E0,-1.1020615E0,-6.664858E-1,1.8896542E-2,-1.056733E0,-9.494193E-1,-2.0239179E-1],"categories":[],"categories_nodes":[],"categories_segments":[],"categories_sizes":[],"default_left":[1,1,1,1,1,1,1,1,0,1,1,1,1,0,0,1,0,0,0,0,0,0,0],"id":23,"left_children":[1,3,-1,7,9,-1,-1,11,-1,13,15,17,19,-1,-1,21,-1,-1,-1,-1,-1,-1,-1],"loss_changes":[2.1661041E1,6.7009583E0,4.0306568E-1,3.8690643E0,1.0637685E1,0E0,0E0,1.9443054E0,0E0,4.794458E0,2.1647053E0,1.557785E0,3.8558726E0,0E0,0E0,1.8472371E0,0E0,0E0,0E0,0E0,0E0,0E0,0E0],"parents":[2147483647,0,0,1,1,2,2,3,3,4,4,7,7,9,9,10,10,11,11,12,12,15,15],"right_children":[2,4,-1,8,10,-1,-1,12,-1,14,16,18,20,-1,-1,22,-1,-1,-1,-1,-1,-1,-1],"split_conditions":[5E-1,5E-1,2.4708645E-2,5E-1,5E-1,3.386191E-2,1.1226317E-2,5.5E0,-1.5223349E-2,5E-1,5E-1,5E-1,5E-1,3.195129E-2,-2.3701621E-2,1.1833334E1,-5.8318835E-2,-5.5103075E-2,-3.332429E-2,9.4482716E-4,-5.2836653E-2,-4.747097E-2,-1.011959E-2],"split_indices":[3497,2407,1492,3766,7801,2147483647,2147483647,5913,0,1383,1420,5852,5733,0,0,6967,0,0,0,0,0,0,0],"split_type":[0,0,0,0,0,0,0,0,0,0,0,0,0,0,0,0,0,0,0,0,0,0,0],"sum_hessian":[2.713506E2,2.6110483E2,1.0245757E1,2.1856606E2,4.253878E1,5.202297E0,5.04346E0,2.102906E2,8.27546E0,1.374371E1,2.8795069E1,1.9783885E2,1.2451745E1,7.7421727E0,6.0015364E0,1.370639E1,1.5088678E1,1.8338686E2,1.4452004E1,5.909056E0,6.5426884E0,5.512152E0,8.194239E0],"tree_param":{"num_deleted":"2","num_feature":"7834","num_nodes":"23","size_leaf_vector":"0"}},{"base_weights":[-8.6586154E-1,-9.1273195E-1,6.161462E-1,-9.48368E-1,4.832281E-1,-9.8680717E-1,-1.9976461E-2,-1.0130316E0,1.1399405E-1,2.2149087E-1,-2.546739E-1,-1.0665487E0,-6.6595054E-1],"categories":[],"categories_nodes":[],"categories_segments":[],"categories_sizes":[],"default_left":[1,1,0,1,0,1,1,1,0,1,1,0,0],"id":24,"left_children":[1,3,-1,5,-1,7,-1,11,-1,-1,-1,-1,-1],"loss_changes":[1.9124298E1,1.3364212E1,0E0,9.020157E0,0E0,7.1367645E0,6.85003E-1,3.7042847E0,0E0,0E0,0E0,0E0,0E0],"parents":[2147483647,0,0,1,1,3,3,5,5,6,6,7,7],"right_children":[2,4,-1,6,-1,8,-1,12,-1,-1,-1,-1,-1],"split_conditions":[5E-1,3.5E0,3.080731E-2,5E-1,2.4161404E-2,5E-1,-9.988231E-4,5E-1,5.6997025E-3,1.1074544E-2,-1.2733695E-2,-5.3327437E-2,-3.3297528E-2],"split_indices":[3501,3483,0,2280,0,3198,6742,2407,0,2147483647,2147483647,0,0],"split_type":[0,0,0,0,0,0,0,0,0,0,0,0,0],"sum_hessian":[2.6622287E2,2.5843372E2,7.789181E0,2.5231328E2,6.120422E0,2.4222142E2,1.0091856E1,2.3666312E2,5.558303E0,5.0019226E0,5.089934E0,2.0325061E2,3.3412514E1],"tree_param":{"num_deleted":"2","num_feature":"7834","num_nodes":"13","size_leaf_vector":"0"}},{"base_weights":[-8.8027096E-1,-9.366575E-1,4.6053246E-1,-6.6812235E-1,-1.0424836E0,-8.2005274E-1,6.347329E-1,-1.0569879E0,-4.79842E-1,-9.1795814E-1,2.5016007E-1,-8.9549774E-1,-1.1013575E0,-7.181692E-1,-1.1072464E0,-9.3137354E-1,-5.480764E-1],"categories":[],"categories_nodes":[],"categories_segments":[],"categories_sizes":[],"default_left":[1,1,0,1,1,1,0,1,1,1,0,1,1,0,0,1,1],"id":25,"left_children":[1,3,-1,5,-1,9,-1,-1,-1,13,-1,-1,-1,-1,-1,-1,-1],"loss_changes":[1.9728607E1,6.273636E0,0E0,1.4796047E1,9.14032E-1,7.0428123E0,0E0,2.2427368E-1,0E0,1.4658585E0,0E0,1.00746155E-2,0E0,0E0,0E0,0E0,0E0],"parents":[2147483647,0,0,1,1,3,3,4,4,5,5,7,7,9,9,11,11],"right_children":[2,4,-1,6,-1,10,-1,-1,-1,14,-1,-1,-1,-1,-1,-1,-1],"split_conditions":[5E-1,5E-1,2.3026623E-2,2.5E0,-5.212418E-2,5.5E0,3.1736646E-2,-5.2849393E-2,-2.39921E-2,5E-1,1.2508004E-2,-4.4774886E-2,-5.5067874E-2,-3.590846E-2,-5.536232E-2,-4.6568677E-2,-2.740382E-2],"split_indices":[3497,7801,0,979,6700,5913,0,2147483647,2147483647,5778,0,2147483647,2147483647,0,0,2147483647,2147483647],"split_type":[0,0,0,0,0,0,0,0,0,0,0,0,0,0,0,0,0],"sum_hessian":[2.5424347E2,2.442722E2,9.971276E0,7.111931E1,1.731529E2,6.402384E1,7.0954647E0,1.6794484E2,5.2080536E0,5.8788048E1,5.235794E0,4.0763294E1,1.2718154E2,3.0933046E1,2.7855003E1,3.542444E1,5.3388557E0],"tree_param":{"num_deleted":"6","num_feature":"7834","num_nodes":"17","size_leaf_vector":"0"}},{"base_weights":[-8.238388E-1,-8.669348E-1,1.0583793E0,-9.0098226E-1,5.530187E-1,-9.299557E-1,3.6530456E-1,-9.7040486E-1,7.085511E-2,-9.946969E-1,4.2553354E-2],"categories":[],"categories_nodes":[],"categories_segments":[],"categories_sizes":[],"default_left":[1,1,0,1,0,1,0,1,0,0,0],"id":26,"left_children":[1,3,-1,5,-1,7,-1,9,-1,-1,-1],"loss_changes":[2.128572E1,1.2392715E1,0E0,9.168762E0,0E0,9.604126E0,0E0,5.614914E0,0E0,0E0,0E0],"parents":[2147483647,0,0,1,1,3,3,5,5,7,7],"right_children":[2,4,-1,6,-1,8,-1,10,-1,-1,-1],"split_conditions":[5E-1,5E-1,5.2918967E-2,5E-1,2.7650936E-2,5E-1,1.8265229E-2,5E-1,3.5427555E-3,-4.9734846E-2,2.1276677E-3],"split_indices":[5814,3479,0,3501,0,2280,0,3198,0,0,0],"split_type":[0,0,0,0,0,0,0,0,0,0,0],"sum_hessian":[2.500991E2,2.4502824E2,5.0708566E0,2.3964749E2,5.38076E0,2.3454651E2,5.1009707E0,2.2546445E2,9.08207E0,2.2020175E2,5.262698E0],"tree_param":{"num_deleted":"0","num_feature":"7834","num_nodes":"11","size_leaf_vector":"0"}},{"base_weights":[-8.420786E-1,-8.816833E-1,7.971604E-1,-9.1493434E-1,4.8763913E-1,-9.6170604E-1,-3.7744412E-1,-9.9107E-1,-3.4423217E-2,6.716545E-1,-9.508236E-1,-8.2570094E-1,-1.051717E0,-1.1099765E0,-6.1285776E-1],"categories":[],"categories_nodes":[],"categories_segments":[],"categories_sizes":[],"default_left":[1,1,0,1,0,1,1,1,0,0,1,0,0,1,1],"id":27,"left_children":[1,3,-1,5,-1,7,9,11,-1,-1,-1,-1,-1,-1,-1],"loss_changes":[1.6552368E1,1.1321304E1,0E0,5.5079193E0,0E0,5.7980804E0,1.2874418E1,1.2134705E0,0E0,0E0,4.9463272E-2,0E0,0E0,0E0,0E0],"parents":[2147483647,0,0,1,1,3,3,5,5,6,6,7,7,10,10],"right_children":[2,4,-1,6,-1,8,10,12,-1,-1,-1,-1,-1,-1,-1],"split_conditions":[5E-1,5E-1,3.985802E-2,5E-1,2.4381956E-2,2.5E0,5E-1,5E-1,-1.7211608E-3,3.358273E-2,-4.7541182E-2,-4.128505E-2,-5.258585E-2,-5.5498827E-2,-3.0642888E-2],"split_indices":[5814,3479,0,3270,0,2280,3253,7801,0,0,5820,0,0,2147483647,2147483647],"split_type":[0,0,0,0,0,0,0,0,0,0,0,0,0,0,0],"sum_hessian":[2.4313365E2,2.3784926E2,5.2843924E0,2.3253448E2,5.314765E0,2.1319342E2,1.9341063E1,2.0658286E2,6.610575E0,6.774509E0,1.2566552E1,5.935412E1,1.4722873E2,6.9903927E0,5.57616E0],"tree_param":{"num_deleted":"2","num_feature":"7834","num_nodes":"15","size_leaf_vector":"0"}},{"base_weights":[-7.947566E-1,-8.378882E-1,9.480378E-1,-8.7904704E-1,5.667351E-1,-9.23014E-1,3.8383346E-2,-9.593785E-1,2.270604E-1,2.5257885E-1,-1.8651813E-1,-9.8488724E-1,-3.6914647E-2],"categories":[],"categories_nodes":[],"categories_segments":[],"categories_sizes":[],"default_left":[1,1,0,1,0,1,1,1,0,1,1,0,0],"id":28,"left_children":[1,3,-1,5,-1,7,-1,11,-1,-1,-1,-1,-1],"loss_changes":[1.858348E1,1.3880035E1,0E0,9.122116E0,0E0,9.209946E0,5.8964676E-1,4.8724365E0,0E0,0E0,0E0,0E0,0E0],"parents":[2147483647,0,0,1,1,3,3,5,5,6,6,7,7],"right_children":[2,4,-1,6,-1,8,-1,12,-1,-1,-1,-1,-1],"split_conditions":[5E-1,5E-1,4.740189E-2,5E-1,2.8336754E-2,5E-1,1.9191673E-3,5E-1,1.1353021E-2,1.2628943E-2,-9.325907E-3,-4.9244363E-2,-1.8457323E-3],"split_indices":[5814,3501,0,2280,0,3483,3302,3198,0,2147483647,2147483647,0,0],"split_type":[0,0,0,0,0,0,0,0,0,0,0,0,0],"sum_hessian":[2.3565369E2,2.3046915E2,5.18454E0,2.2427162E2,6.1975226E0,2.1400935E2,1.0262275E1,2.0761066E2,6.3986883E0,5.193211E0,5.069063E0,2.0195827E2,5.652383E0],"tree_param":{"num_deleted":"2","num_feature":"7834","num_nodes":"13","size_leaf_vector":"0"}},{"base_weights":[-7.888968E-1,-8.298546E-1,8.024196E-1,-8.7259436E-1,5.788429E-1,-9.127483E-1,2.5524348E-1,-9.5566183E-1,1.2808411E-1,-1.0188411E0,-5.539733E-1],"categories":[],"categories_nodes":[],"categories_segments":[],"categories_sizes":[],"default_left":[1,1,0,1,0,1,0,1,0,0,0],"id":29,"left_children":[1,3,-1,5,-1,7,-1,9,-1,-1,-1],"loss_changes":[1.5514221E1,1.3906708E1,0E0,1.00346985E1,0E0,9.467087E0,0E0,4.537842E0,0E0,0E0,0E0],"parents":[2147483647,0,0,1,1,3,3,5,5,7,7],"right_children":[2,4,-1,6,-1,8,-1,10,-1,-1,-1],"split_conditions":[5E-1,5E-1,4.012098E-2,5E-1,2.8942144E-2,5E-1,1.2762174E-2,5E-1,6.4042057E-3,-5.094206E-2,-2.7698666E-2],"split_indices":[5814,3501,0,3483,0,2280,0,2407,0,0,0],"split_type":[0,0,0,0,0,0,0,0,0,0,0],"sum_hessian":[2.2681593E2,2.2159106E2,5.2248735E0,2.1543535E2,6.1557217E0,2.0821313E2,7.222207E0,2.0004701E2,8.166119E0,1.715314E2,2.851561E1],"tree_param":{"num_deleted":"0","num_feature":"7834","num_nodes":"11","size_leaf_vector":"0"}},{"base_weights":[-7.768411E-1,-8.4001666E-1,4.7656673E-1,-8.944694E-1,-2.4043863E-1,6.509326E-1,2.2357355E-1,-9.5115596E-1,-4.878735E-1,6.020434E-1,-8.898404E-1,-9.861034E-1,-3.2048088E-1,-6.3520454E-2,-1.1468543E0,-1.0176083E0,-2.4246621E-1,3.0252612E-1,-4.754289E-1],"categories":[],"categories_nodes":[],"categories_segments":[],"categories_sizes":[],"default_left":[1,1,1,1,1,1,1,1,1,0,0,1,0,1,0,0,0,0,0],"id":30,"left_children":[1,3,-1,7,9,-1,-1,11,13,-1,-1,15,-1,17,-1,-1,-1,-1,-1],"loss_changes":[1.8030197E1,6.716934E0,3.53894E-1,4.013733E0,1.0955338E1,0E0,0E0,3.4187775E0,7.1487045E0,0E0,0E0,3.5034943E0,0E0,2.6719732E0,0E0,0E0,0E0,0E0,0E0],"parents":[2147483647,0,0,1,1,2,2,3,3,4,4,7,7,8,8,11,11,13,13],"right_children":[2,4,-1,8,10,-1,-1,12,14,-1,-1,16,-1,18,-1,-1,-1,-1,-1],"split_conditions":[5E-1,4.5E0,2.3828337E-2,5E-1,5E-1,3.2546632E-2,1.1178678E-2,5E-1,8.5E0,3.010217E-2,-4.449202E-2,5E-1,-1.6024044E-2,5E-1,-5.7342716E-2,-5.0880414E-2,-1.2123311E-2,1.5126306E-2,-2.3771446E-2],"split_indices":[3497,5913,6742,5852,5733,2147483647,2147483647,3302,6940,0,0,3766,0,4930,0,0,0,0,0],"split_type":[0,0,0,0,0,0,0,0,0,0,0,0,0,0,0,0,0,0,0],"sum_hessian":[2.2164227E2,2.1132088E2,1.0321398E1,1.9327603E2,1.804485E1,5.179026E0,5.142371E0,1.6845161E2,2.4824417E1,7.8864827E0,1.0158366E1,1.5907333E2,9.378269E0,1.5767361E1,9.057055E0,1.5225452E2,6.8188167E0,8.48904E0,7.2783203E0],"tree_param":{"num_deleted":"2","num_feature":"7834","num_nodes":"19","size_leaf_vector":"0"}},{"base_weights":[-7.595157E-1,-8.160136E-1,3.5182527E-1,-5.4237264E-1,-9.3972355E-1,-6.687552E-1,6.218745E-1,-9.883368E-1,-4.3116632E-1,-7.8333277E-1,7.0755775E-3,-1.0334044E0,-7.1803623E-1,1.3358392E-1,-7.860727E-1,-9.532432E-1,-6.126429E-1,-1.0534179E0,-6.235285E-1,-2.7244428E-2,-9.3092924E-1],"categories":[],"categories_nodes":[],"categories_segments":[],"categories_sizes":[],"default_left":[1,1,0,1,1,1,0,1,1,1,0,1,1,0,0,1,1,1,1,0,0],"id":31,"left_children":[1,3,-1,5,7,9,-1,11,13,-1,-1,-1,19,-1,-1,-1,-1,-1,-1,-1,-1],"loss_changes":[1.3734604E1,6.399933E0,0E0,1.0114281E1,3.015236E0,4.6469975E0,0E0,7.9629517E-1,2.8948436E0,9.026451E-1,0E0,2.1234131E-1,3.1104755E0,0E0,0E0,0E0,0E0,0E0,0E0,0E0,0E0],"parents":[2147483647,0,0,1,1,3,3,4,4,5,5,7,7,8,8,9,9,11,11,12,12],"right_children":[2,4,-1,6,8,10,-1,12,14,-1,-1,-1,20,-1,-1,-1,-1,-1,-1,-1,-1],"split_conditions":[5E-1,5E-1,1.7591264E-2,5E-1,6.5E0,5E-1,3.1093726E-2,2.5E0,5E-1,-3.916664E-2,3.537789E-4,-5.167022E-2,5.1E1,6.679196E-3,-3.9303634E-2,-4.766216E-2,-3.0632144E-2,-5.2670896E-2,-3.1176424E-2,-1.3622214E-3,-4.6546463E-2],"split_indices":[3497,5778,0,3646,5913,2407,0,979,5923,6967,0,3715,6742,0,0,2147483647,2147483647,2147483647,2147483647,0,0],"split_type":[0,0,0,0,0,0,0,0,0,0,0,0,0,0,0,0,0,0,0,0,0],"sum_hessian":[2.1317178E2,2.0311182E2,1.0059967E1,6.4912506E1,1.3819931E2,5.8939987E1,5.9725227E0,1.2528029E2,1.2919022E1,5.026004E1,8.679946E0,1.0495744E2,2.0322844E1,5.2262607E0,7.692761E0,2.2889957E1,2.7370083E1,9.857415E1,6.3832946E0,5.053453E0,1.526939E1],"tree_param":{"num_deleted":"4","num_feature":"7834","num_nodes":"21","size_leaf_vector":"0"}},{"base_weights":[-7.403595E-1,-7.884384E-1,5.261871E-1,-6.3124824E-1,-1.0560309E0,-7.204459E-1,4.692392E-1,-7.8318876E-1,3.4745734E-2,-8.4571856E-1,-2.0766445E-1],"categories":[],"categories_nodes":[],"categories_segments":[],"categories_sizes":[],"default_left":[1,1,0,1,0,1,0,1,0,0,0],"id":32,"left_children":[1,3,-1,5,-1,7,-1,9,-1,-1,-1],"loss_changes":[1.32200775E1,7.8719864E0,0E0,1.313467E1,0E0,5.7597847E0,0E0,3.8458252E0,0E0,0E0,0E0],"parents":[2147483647,0,0,1,1,3,3,5,5,7,7],"right_children":[2,4,-1,6,-1,8,-1,10,-1,-1,-1],"split_conditions":[3.5E0,5E-1,2.6309356E-2,4.5E0,-5.2801546E-2,5E-1,2.346196E-2,5E-1,1.7372867E-3,-4.228593E-2,-1.0383222E-2],"split_indices":[3483,5733,0,5913,0,3270,0,3646,0,0,0],"split_type":[0,0,0,0,0,0,0,0,0,0,0],"sum_hessian":[2.0928635E2,2.0199596E2,7.2904024E0,1.2936366E2,7.263228E1,1.1998396E2,9.3797035E0,1.1074589E2,9.238074E0,9.946924E1,1.1276651E1],"tree_param":{"num_deleted":"0","num_feature":"7834","num_nodes":"11","size_leaf_vector":"0"}},{"base_weights":[-7.1283793E-1,-7.60185E-1,9.2032504E-1,-8.0707645E-1,6.076732E-1,-8.6175066E-1,1.5161684E-1,-8.9432174E-1,1.0401582E-1,5.735259E-1,-2.990024E-1,-9.537333E-1,-5.3399634E-1],"categories":[],"categories_nodes":[],"categories_segments":[],"categories_sizes":[],"default_left":[1,1,0,1,0,1,1,1,0,0,0,0,0],"id":33,"left_children":[1,3,-1,5,-1,7,9,11,-1,-1,-1,-1,-1],"loss_changes":[1.6527336E1,1.328463E1,0E0,1.0262016E1,0E0,5.8497925E0,2.3158278E0,3.2829132E0,0E0,0E0,0E0,0E0,0E0],"parents":[2147483647,0,0,1,1,3,3,5,5,6,6,7,7],"right_children":[2,4,-1,6,-1,8,10,12,-1,-1,-1,-1,-1],"split_conditions":[5E-1,5E-1,4.6016254E-2,5E-1,3.0383661E-2,5E-1,3.5E0,5E-1,5.200791E-3,2.8676296E-2,-1.4950121E-2,-4.7686666E-2,-2.6699817E-2],"split_indices":[5814,3501,0,2280,0,3483,6148,2407,0,0,0,0,0],"split_type":[0,0,0,0,0,0,0,0,0,0,0,0,0],"sum_hessian":[2.0368959E2,1.9847026E2,5.219323E0,1.922884E2,6.1818566E0,1.8200954E2,1.0278868E1,1.7614299E2,5.866556E0,5.167682E0,5.1111856E0,1.4979709E2,2.6345896E1],"tree_param":{"num_deleted":"0","num_feature":"7834","num_nodes":"13","size_leaf_vector":"0"}},{"base_weights":[-7.036451E-1,-7.4953693E-1,7.5927764E-1,-7.9903674E-1,2.8356698E-1,-8.867086E-1,-3.7913546E-1,-9.4911915E-1,-5.3345364E-2,3.0367637E-1,-7.53542E-1,-9.881194E-1,-5.888395E-1,4.0726605E-1,-4.6432593E-1,-1.6558908E-1,7.512123E-1,-1.7509562E-1,-9.461821E-1],"categories":[],"categories_nodes":[],"categories_segments":[],"categories_sizes":[],"default_left":[1,1,0,1,0,1,1,1,1,1,1,0,0,0,0,0,0,0,0],"id":34,"left_children":[1,3,-1,5,-1,7,9,11,13,15,17,-1,-1,-1,-1,-1,-1,-1,-1],"loss_changes":[1.3844627E1,1.0056862E1,0E0,6.4265137E0,0E0,7.814636E0,8.787268E0,1.3941269E0,2.3841922E0,2.7639422E0,2.2756624E0,0E0,0E0,0E0,0E0,0E0,0E0,0E0,0E0],"parents":[2147483647,0,0,1,1,3,3,5,5,6,6,7,7,8,8,9,9,10,10],"right_children":[2,4,-1,6,-1,8,10,12,14,16,18,-1,-1,-1,-1,-1,-1,-1,-1],"split_conditions":[5E-1,5E-1,3.7963882E-2,5E-1,1.417835E-2,5E-1,5E-1,2.5E0,3.65E1,1.5E0,3.5E0,-4.9405973E-2,-2.9441973E-2,2.0363303E-2,-2.3216298E-2,-8.279454E-3,3.7560616E-2,-8.754781E-3,-4.7309104E-2],"split_indices":[5814,3497,0,2407,0,3646,7801,979,6742,6621,6148,0,0,0,0,0,0,0,0],"split_type":[0,0,0,0,0,0,0,0,0,0,0,0,0,0,0,0,0,0,0],"sum_hessian":[1.9673994E2,1.9122874E2,5.511197E0,1.8270142E2,8.527334E0,1.5022417E2,3.2477253E1,1.396285E2,1.0595673E1,1.1568497E1,2.0908758E1,1.2441765E2,1.5210839E1,5.000425E0,5.5952477E0,5.9546866E0,5.6138105E0,5.700527E0,1.5208231E1],"tree_param":{"num_deleted":"0","num_feature":"7834","num_nodes":"19","size_leaf_vector":"0"}},{"base_weights":[-7.274759E-1,-7.720317E-1,3.2103208E-1,-8.094383E-1,3.756495E-1,-5.090128E-1,-9.4227475E-1,-6.6778624E-1,8.9477503E-1,-8.057725E-1,-1.0560895E0,-8.206553E-1,3.8662723E-1,-8.762461E-1,-2.6293087E-1],"categories":[],"categories_nodes":[],"categories_segments":[],"categories_sizes":[],"default_left":[1,1,0,1,0,1,1,1,0,1,0,0,0,0,0],"id":35,"left_children":[1,3,-1,5,-1,7,9,11,-1,13,-1,-1,-1,-1,-1],"loss_changes":[9.133675E0,8.149475E0,0E0,6.595726E0,0E0,1.3197723E1,1.0407181E0,8.595997E0,0E0,2.048973E0,0E0,0E0,0E0,0E0,0E0],"parents":[2147483647,0,0,1,1,3,3,5,5,6,6,7,7,9,9],"right_children":[2,4,-1,6,-1,8,10,12,-1,14,-1,-1,-1,-1,-1],"split_conditions":[3.5E0,5E-1,1.6051603E-2,5E-1,1.8782476E-2,4.5E0,2.5E0,2.5E0,4.473875E-2,5E-1,-5.2804478E-2,-4.1032765E-2,1.9331362E-2,-4.3812305E-2,-1.3146544E-2],"split_indices":[3483,3501,0,7801,0,5913,7801,979,0,5852,0,0,0,0,0],"split_type":[0,0,0,0,0,0,0,0,0,0,0,0,0,0,0],"sum_hessian":[1.8920483E2,1.8174535E2,7.459498E0,1.7629408E2,5.451266E0,5.553252E1,1.2076156E2,5.036083E1,5.1716924E0,5.858188E1,6.217968E1,4.417764E1,6.1831875E0,5.1306854E1,7.2750235E0],"tree_param":{"num_deleted":"0","num_feature":"7834","num_nodes":"15","size_leaf_vector":"0"}},{"base_weights":[-6.801502E-1,-7.216546E-1,6.629918E-1,-7.857335E-1,1.9943325E-2,-8.320797E-1,1.7163604E-1,9.629919E-1,-5.6125677E-1,-6.853301E-1,-1.0920182E0,-7.991361E-1,-1.3962537E-1],"categories":[],"categories_nodes":[],"categories_segments":[],"categories_sizes":[],"default_left":[1,1,0,1,1,1,0,0,0,1,0,0,0],"id":36,"left_children":[1,3,-1,5,7,9,-1,-1,-1,11,-1,-1,-1],"loss_changes":[1.0911705E1,8.665642E0,0E0,7.578079E0,9.009985E0,5.355179E0,0E0,0E0,0E0,6.406559E0,0E0,0E0,0E0],"parents":[2147483647,0,0,1,1,3,3,4,4,5,5,9,9],"right_children":[2,4,-1,6,8,10,-1,-1,-1,12,-1,-1,-1],"split_conditions":[5E-1,6.5E0,3.3149593E-2,5E-1,5E-1,5E-1,8.581802E-3,4.8149597E-2,-2.8062839E-2,5E-1,-5.4600913E-2,-3.9956804E-2,-6.9812685E-3],"split_indices":[3509,5913,0,3483,7801,5733,0,0,0,2407,0,0,0],"split_type":[0,0,0,0,0,0,0,0,0,0,0,0,0],"sum_hessian":[1.861561E2,1.8102496E2,5.131131E0,1.665725E2,1.4452475E1,1.5900589E2,7.5665927E0,5.2602887E0,9.192186E0,1.03954414E2,5.5051483E1,8.563164E1,1.8322777E1],"tree_param":{"num_deleted":"0","num_feature":"7834","num_nodes":"13","size_leaf_vector":"0"}},{"base_weights":[-6.690112E-1,-7.1747196E-1,8.2133776E-1,-7.70936E-1,2.5215328E-1,-5.0314313E-1,-8.9764804E-1,-6.3413215E-1,5.9803486E-1,-9.417375E-1,-4.210382E-1,-7.4208343E-1,-8.3388776E-2,-9.6909434E-1,-4.566898E-1,1.8291737E-1,-9.231838E-1],"categories":[],"categories_nodes":[],"categories_segments":[],"categories_sizes":[],"default_left":[1,1,0,1,0,1,1,1,0,1,1,0,0,1,1,0,0],"id":37,"left_children":[1,3,-1,5,-1,7,9,11,-1,-1,15,-1,-1,-1,-1,-1,-1],"loss_changes":[1.382019E1,9.419777E0,0E0,5.279747E0,0E0,8.532741E0,1.9859695E0,2.9704018E0,0E0,9.237747E-1,3.6288502E0,0E0,0E0,0E0,0E0,0E0,0E0],"parents":[2147483647,0,0,1,1,3,3,5,5,6,6,7,7,9,9,10,10],"right_children":[2,4,-1,6,-1,8,10,12,-1,-1,16,-1,-1,-1,-1,-1,-1],"split_conditions":[5E-1,5E-1,4.106689E-2,5E-1,1.2607664E-2,5E-1,4.5E0,5E-1,2.9901743E-2,-4.7086876E-2,3E0,-3.710417E-2,-4.169439E-3,-4.8454717E-2,-2.2834491E-2,9.145869E-3,-4.615919E-2],"split_indices":[5814,3497,0,5778,0,3646,5852,2407,0,3302,6940,0,0,2147483647,2147483647,0,0],"split_type":[0,0,0,0,0,0,0,0,0,0,0,0,0,0,0,0,0],"sum_hessian":[1.8219394E2,1.7695848E2,5.235463E0,1.6790529E2,9.053196E0,5.55265E1,1.12378784E2,5.0002644E1,5.5238576E0,1.0197E2,1.0408786E1,4.1517395E1,8.48525E0,9.5581245E1,6.38875E0,5.013966E0,5.3948197E0],"tree_param":{"num_deleted":"2","num_feature":"7834","num_nodes":"17","size_leaf_vector":"0"}},{"base_weights":[-6.320251E-1,-6.9508094E-1,3.743946E-1,-5.298119E-1,-9.7245073E-1,6.397292E-1,4.368763E-2,-6.860598E-1,4.063918E-1,-8.1921136E-1,-1.1092558E0,-7.479034E-1,3.3152172E-1,1.1794425E0,-7.845908E-1,-9.60025E-1,-4.118433E-2,-8.0539405E-1,-1.06095105E-1],"categories":[],"categories_nodes":[],"categories_segments":[],"categories_sizes":[],"default_left":[1,1,1,1,1,1,1,1,1,1,0,1,0,0,0,0,0,0,0],"id":38,"left_children":[1,3,-1,7,9,-1,-1,11,13,15,-1,17,-1,-1,-1,-1,-1,-1,-1],"loss_changes":[1.1595833E1,7.2063065E0,9.532089E-1,1.6040152E1,3.8465118E-1,0E0,0E0,6.082226E0,1.5691992E1,3.5675144E0,0E0,3.1506767E0,0E0,0E0,0E0,0E0,0E0,0E0,0E0],"parents":[2147483647,0,0,1,1,2,2,3,3,4,4,7,7,8,8,9,9,11,11],"right_children":[2,4,-1,8,10,-1,-1,12,14,16,-1,18,-1,-1,-1,-1,-1,-1,-1],"split_conditions":[5E-1,5E-1,1.871973E-2,2.5E0,5.75E1,3.198646E-2,2.1843815E-3,5E-1,5E-1,9.5E0,-5.546279E-2,2.5E0,1.6576087E-2,5.8972128E-2,-3.922954E-2,-4.8001252E-2,-2.0592164E-3,-4.0269703E-2,-5.304755E-3],"split_indices":[3497,5733,2644,979,6742,2147483647,2147483647,3766,1956,5916,0,3253,0,0,0,0,0,0,0],"split_type":[0,0,0,0,0,0,0,0,0,0,0,0,0,0,0,0,0,0,0],"sum_hessian":[1.7762431E2,1.6744278E2,1.0181534E1,1.0674789E2,6.0694893E1,5.130652E0,5.050882E0,9.170925E1,1.5038637E1,3.1924023E1,2.877087E1,8.670477E1,5.0044746E0,9.12525E0,5.9133873E0,2.6833548E1,5.090475E0,7.934269E1,7.362085E0],"tree_param":{"num_deleted":"2","num_feature":"7834","num_nodes":"19","size_leaf_vector":"0"}},{"base_weights":[-6.2800044E-1,-6.787266E-1,8.343607E-1,-7.5246567E-1,3.361308E-2,-8.306423E-1,-1.6871196E-1,8.6825526E-1,-4.6227357E-1,-8.698477E-1,-5.58917E-2,5.392627E-1,-1.0556962E0,-7.563538E-1,-1.0710883E0,9.6307315E-2,8.881999E-1],"categories":[],"categories_nodes":[],"categories_segments":[],"categories_sizes":[],"default_left":[1,1,0,1,1,1,1,0,0,1,0,1,0,0,0,0,0],"id":39,"left_children":[1,3,-1,5,7,9,11,-1,-1,13,-1,15,-1,-1,-1,-1,-1],"loss_changes":[1.3308937E1,8.774895E0,0E0,6.750412E0,7.264781E0,3.9882202E0,1.2555448E1,0E0,0E0,2.07753E0,0E0,1.6574297E0,0E0,0E0,0E0,0E0,0E0],"parents":[2147483647,0,0,1,1,3,3,4,4,5,5,6,6,9,9,11,11],"right_children":[2,4,-1,6,8,10,12,-1,-1,14,-1,16,-1,-1,-1,-1,-1],"split_conditions":[5E-1,5E-1,4.1718036E-2,5E-1,5E-1,5E-1,5E-1,4.3412764E-2,-2.311368E-2,5E-1,-2.794585E-3,1.5E0,-5.278481E-2,-3.781769E-2,-5.3554416E-2,4.8153657E-3,4.4409998E-2],"split_indices":[5814,3270,0,3646,3253,2280,2693,0,0,5807,0,6621,0,0,0,0,0],"split_type":[0,0,0,0,0,0,0,0,0,0,0,0,0,0,0,0,0],"sum_hessian":[1.7077998E2,1.655725E2,5.2074866E0,1.4998972E2,1.5582774E1,1.3190234E2,1.8087372E1,5.5278177E0,1.0054956E1,1.25432236E2,6.470112E0,1.0276713E1,7.810658E0,8.3243645E1,4.2188595E1,5.090554E0,5.1861587E0],"tree_param":{"num_deleted":"0","num_feature":"7834","num_nodes":"17","size_leaf_vector":"0"}},{"base_weights":[-5.994328E-1,-6.7327464E-1,1.3015772E-1,-7.1181667E-1,3.778277E-1,9.1173524E-1,-3.2577506E-1,-5.6945646E-1,-9.656761E-1,-1.7588864E-1,-4.207508E-1,-6.9258016E-1,1.8525073E-1,-7.886464E-1,1.3002016E-1,9.496907E-1,-7.766561E-1],"categories":[],"categories_nodes":[],"categories_segments":[],"categories_sizes":[],"default_left":[1,1,1,1,0,0,1,1,0,1,1,1,1,0,0,0,0],"id":40,"left_children":[1,3,5,7,-1,-1,-1,11,-1,-1,-1,13,15,-1,-1,-1,-1],"loss_changes":[9.197765E0,6.4964066E0,6.1338453E0,4.821495E0,0E0,0E0,8.374858E-2,9.203548E0,0E0,0E0,0E0,6.7545967E0,1.1390416E1,0E0,0E0,0E0,0E0],"parents":[2147483647,0,0,1,1,2,2,3,3,6,6,7,7,11,11,12,12],"right_children":[2,4,6,8,-1,-1,-1,12,-1,-1,-1,14,16,-1,-1,-1,-1],"split_conditions":[6.5E0,5E-1,5E-1,5E-1,1.8891385E-2,4.558676E-2,-1.6288754E-2,2.5E0,-4.8283808E-2,-8.7944325E-3,-2.103754E-2,5E-1,5E-1,-3.943232E-2,6.501008E-3,4.7484536E-2,-3.8832806E-2],"split_indices":[5913,3501,7801,5733,0,0,5913,979,0,2147483647,2147483647,3646,3253,0,0,0,0],"split_type":[0,0,0,0,0,0,0,0,0,0,0,0,0,0,0,0,0],"sum_hessian":[1.6809991E2,1.5272029E2,1.5379618E1,1.4762976E2,5.0905333E0,5.2979517E0,1.0081666E1,9.666488E1,5.0964878E1,5.01661E0,5.065056E0,8.3177536E1,1.3487344E1,7.45165E1,8.661033E0,7.5221176E0,5.9652257E0],"tree_param":{"num_deleted":"2","num_feature":"7834","num_nodes":"17","size_leaf_vector":"0"}},{"base_weights":[-6.135231E-1,-6.650947E-1,4.501297E-1,-7.141725E-1,2.7498868E-1,-7.5920755E-1,8.911617E-2,-8.157268E-1,-2.5725403E-1,-8.8648033E-1,-3.4288922E-1,3.161202E-1,-8.726868E-1],"categories":[],"categories_nodes":[],"categories_segments":[],"categories_sizes":[],"default_left":[1,1,0,1,0,1,0,1,1,0,0,0,0],"id":41,"left_children":[1,3,-1,5,-1,7,-1,9,11,-1,-1,-1,-1],"loss_changes":[9.252567E0,7.397194E0,0E0,5.443733E0,0E0,3.7853317E0,0E0,3.9150848E0,5.8203835E0,0E0,0E0,0E0,0E0],"parents":[2147483647,0,0,1,1,3,3,5,5,7,7,8,8],"right_children":[2,4,-1,6,-1,8,-1,10,12,-1,-1,-1,-1],"split_conditions":[3.5E0,5E-1,2.2506485E-2,5E-1,1.3749435E-2,5E-1,4.4558086E-3,2.5E0,5E-1,-4.4324018E-2,-1.7144462E-2,1.580601E-2,-4.363434E-2],"split_indices":[3483,3196,0,2280,0,3646,0,979,2693,0,0,0,0],"split_type":[0,0,0,0,0,0,0,0,0,0,0,0,0],"sum_hessian":[1.6221776E2,1.5507365E2,7.144093E0,1.4760799E2,7.465679E0,1.3982385E2,7.784125E0,1.2511139E2,1.4712466E1,1.0806601E2,1.7045378E1,7.868263E0,6.8442035E0],"tree_param":{"num_deleted":"0","num_feature":"7834","num_nodes":"13","size_leaf_vector":"0"}},{"base_weights":[-6.049882E-1,-6.501838E-1,6.5415704E-1,-7.0110595E-1,2.0359948E-1,-4.8255175E-1,-9.294635E-1,-6.00079E-1,3.0659273E-1,-9.9119204E-1,-6.2460953E-1,-7.159798E-1,3.7792984E-1,-1.0526853E0,-5.218073E-1,-1.7784806E-1,-1.1283499E0],"categories":[],"categories_nodes":[],"categories_segments":[],"categories_sizes":[],"default_left":[1,1,0,1,0,1,1,1,0,1,1,0,0,0,0,0,0],"id":42,"left_children":[1,3,-1,5,-1,7,9,11,-1,13,15,-1,-1,-1,-1,-1,-1],"loss_changes":[9.549053E0,6.893387E0,0E0,6.8758926E0,0E0,7.3316917E0,7.1112823E-1,7.9123154E0,0E0,1.0983086E0,3.0866833E0,0E0,0E0,0E0,0E0,0E0,0E0],"parents":[2147483647,0,0,1,1,3,3,5,5,6,6,7,7,9,9,10,10],"right_children":[2,4,-1,6,-1,8,10,12,-1,14,16,-1,-1,-1,-1,-1,-1],"split_conditions":[5E-1,5E-1,3.270785E-2,1.5E0,1.0179974E-2,2.5E0,5E-1,5E-1,1.5329637E-2,1.5E0,3.5E0,-3.5798993E-2,1.8896492E-2,-5.2634265E-2,-2.6090367E-2,-8.892403E-3,-5.6417495E-2],"split_indices":[5814,3497,0,7801,0,979,5852,3646,0,5913,7043,0,0,0,0,0,0],"split_type":[0,0,0,0,0,0,0,0,0,0,0,0,0,0,0,0,0],"sum_hessian":[1.5932484E2,1.5427109E2,5.053754E0,1.4575656E2,8.51453E0,7.6067635E1,6.968893E1,6.64159E1,9.651734E0,5.6081806E1,1.3607118E1,5.9618603E1,6.7972937E0,4.848693E1,7.5948744E0,7.928488E0,5.67863E0],"tree_param":{"num_deleted":"0","num_feature":"7834","num_nodes":"17","size_leaf_vector":"0"}},{"base_weights":[-5.834629E-1,-4.0600362E-1,-9.0995455E-1,-5.615057E-1,3.346033E-1,-9.7169405E-1,-3.1710735E-1,-6.377567E-1,4.2760387E-1,9.244795E-1,-6.1832845E-1,-1.0271099E0,-6.9265157E-1,-7.059567E-1,2.419631E-1,1.284093E0,3.6907184E-1,-2.6690465E-1,-9.9809545E-1,-7.6221615E-1,-1.0518351E-1],"categories":[],"categories_nodes":[],"categories_segments":[],"categories_sizes":[],"default_left":[1,1,1,1,1,1,0,1,0,1,0,0,1,1,0,0,0,0,0,0,0],"id":43,"left_children":[1,3,5,7,9,11,-1,13,-1,15,-1,-1,17,19,-1,-1,-1,-1,-1,-1,-1],"loss_changes":[8.813679E0,1.2221546E1,1.7052269E0,6.814022E0,1.1116147E1,5.1445007E-2,0E0,5.0260544E0,0E0,1.920332E0,0E0,0E0,1.1959305E0,2.466858E0,0E0,0E0,0E0,0E0,0E0,0E0,0E0],"parents":[2147483647,0,0,1,1,2,2,3,3,4,4,5,5,7,7,9,9,12,12,13,13],"right_children":[2,4,6,8,10,12,-1,14,-1,16,-1,-1,18,20,-1,-1,-1,-1,-1,-1,-1],"split_conditions":[5E-1,2.5E0,4.5E0,5E-1,5E-1,1.5E0,-1.5855368E-2,5E-1,2.1380194E-2,5E-1,-3.0916423E-2,-5.1355492E-2,5E-1,5E-1,1.2098155E-2,6.4204656E-2,1.8453592E-2,-1.3345233E-2,-4.9904775E-2,-3.8110808E-2,-5.259176E-3],"split_indices":[5733,979,5852,3766,1956,5913,0,2280,0,7801,0,0,5561,3302,0,0,0,0,0,0,0],"split_type":[0,0,0,0,0,0,0,0,0,0,0,0,0,0,0,0,0,0,0,0,0],"sum_hessian":[1.5749652E2,1.0348983E2,5.4006695E1,8.573108E1,1.7758755E1,4.8334118E1,5.67258E0,7.992484E1,5.806233E0,1.0987326E1,6.771428E0,3.808906E1,1.0245054E1,7.43578E1,5.567043E0,5.8728247E0,5.114501E0,5.062478E0,5.182576E0,6.774509E1,6.6127133E0],"tree_param":{"num_deleted":"0","num_feature":"7834","num_nodes":"21","size_leaf_vector":"0"}},{"base_weights":[-5.9026706E-1,-1.0112813E0,-4.349058E-1,-7.169243E-1,-1.0791756E0,-5.9598327E-1,1.228641E-1,-7.022003E-1,4.9105585E-1,4.694766E-1,-7.6887083E-1,-7.877405E-1,-1.3805349E-1,8.605775E-2,1.2418125E0,-5.226822E-1,-8.860312E-1,4.458217E-1,-7.2202724E-1,5.5552816E-1,-3.2736614E-1],"categories":[],"categories_nodes":[],"categories_segments":[],"categories_sizes":[],"default_left":[1,1,1,1,1,1,1,1,0,1,0,1,1,1,0,0,0,0,0,0,0],"id":44,"left_children":[1,-1,5,-1,-1,7,9,11,-1,13,-1,15,17,19,-1,-1,-1,-1,-1,-1,-1],"loss_changes":[9.712601E0,4.7367096E-2,1.0417034E1,0E0,0E0,1.0679054E1,8.591086E0,3.8458214E0,0E0,5.7550426E0,0E0,1.3852196E0,4.414203E0,2.957864E0,0E0,0E0,0E0,0E0,0E0,0E0,0E0],"parents":[2147483647,0,0,1,1,2,2,5,5,6,6,7,7,9,9,11,11,12,12,13,13],"right_children":[2,-1,6,-1,-1,8,10,12,-1,14,-1,16,18,20,-1,-1,-1,-1,-1,-1,-1],"split_conditions":[1.1416666E1,-5.056406E-2,5E-1,-3.5846215E-2,-5.395878E-2,5E-1,5E-1,2.5E0,2.4552792E-2,2.5E0,-3.8443543E-2,5E-1,5E-1,5E-1,6.2090624E-2,-2.613411E-2,-4.4301562E-2,2.2291085E-2,-3.6101364E-2,2.7776409E-2,-1.6368307E-2],"split_indices":[6967,7455,2407,2147483647,2147483647,3646,1415,979,0,979,0,5778,4930,1383,0,0,0,0,0,0,0],"split_type":[0,0,0,0,0,0,0,0,0,0,0,0,0,0,0,0,0,0,0,0,0],"sum_hessian":[1.5421362E2,4.0083088E1,1.1413054E2,9.67901E0,3.0404078E1,8.8503296E1,2.562724E1,8.094774E1,7.555559E0,1.879518E1,6.8320594E0,6.99457E1,1.1002036E1,1.3302637E1,5.492543E0,2.063026E1,4.9315445E1,5.619778E0,5.382258E0,6.068137E0,7.2345E0],"tree_param":{"num_deleted":"2","num_feature":"7834","num_nodes":"21","size_leaf_vector":"0"}},{"base_weights":[-5.1452744E-1,-6.01105E-1,2.2599404E-1,-2.5779912E-1,-7.67947E-1,1.0077225E0,-3.3192652E-1,-3.9445832E-1,5.5209893E-1,-9.109158E-1,-4.1932163E-1,-2.4951884E-1,-7.6680684E-1,-9.57037E-1,-5.3345925E-1,-9.890584E-2,-8.56605E-1,-1.122235E-1,-5.613607E-1,-4.6182978E-1,5.7696766E-1],"categories":[],"categories_nodes":[],"categories_segments":[],"categories_sizes":[],"default_left":[1,1,1,1,1,0,0,1,0,1,1,1,0,1,1,1,0,0,0,0,0],"id":45,"left_children":[1,3,5,7,9,-1,-1,11,-1,-1,15,17,-1,-1,-1,19,-1,-1,-1,-1,-1],"loss_changes":[9.862755E0,7.598015E0,7.577868E0,5.3111715E0,4.1581497E0,0E0,0E0,1.9651384E0,0E0,5.991821E-1,3.8866496E0,1.2319129E0,0E0,0E0,0E0,4.556234E0,0E0,0E0,0E0,0E0,0E0],"parents":[2147483647,0,0,1,1,2,2,3,3,4,4,7,7,9,9,10,10,11,11,15,15],"right_children":[2,4,6,8,10,-1,-1,12,-1,-1,16,18,-1,-1,-1,20,-1,-1,-1,-1,-1],"split_conditions":[5E-1,5E-1,5E-1,5E-1,5E-1,5.0386127E-2,-1.6596327E-2,1.5E0,2.7604947E-2,-4.554579E-2,5E-1,5E-1,-3.834034E-2,-4.785185E-2,-2.6672963E-2,5E-1,-4.283025E-2,-5.611175E-3,-2.8068036E-2,-2.309149E-2,2.8848384E-2],"split_indices":[3270,6477,3253,3646,5913,0,0,7801,0,5102,1956,3253,0,2147483647,2147483647,2407,0,0,0,0,0],"split_type":[0,0,0,0,0,0,0,0,0,0,0,0,0,0,0,0,0,0,0,0,0],"sum_hessian":[1.5071613E2,1.3510829E2,1.5607829E1,4.5019062E1,9.0089226E1,6.164396E0,9.443433E0,3.8958332E1,6.0607324E0,6.2745052E1,2.7344175E1,2.9244722E1,9.713609E0,5.454477E1,8.200282E0,1.6488525E1,1.0855648E1,2.1249172E1,7.9955497E0,1.09339905E1,5.5545354E0],"tree_param":{"num_deleted":"2","num_feature":"7834","num_nodes":"21","size_leaf_vector":"0"}},{"base_weights":[-5.4402953E-1,-5.906416E-1,6.188599E-1,-6.3761854E-1,5.726173E-1,-4.664378E-1,-9.4443923E-1,-5.796381E-1,6.281502E-1,-1.1006547E0,-6.7700756E-1,-6.9499856E-1,2.2984795E-2,-3.0508083E-1,-9.373192E-1],"categories":[],"categories_nodes":[],"categories_segments":[],"categories_sizes":[],"default_left":[1,1,0,1,0,1,1,1,0,0,1,0,0,0,0],"id":46,"left_children":[1,3,-1,5,-1,7,9,11,-1,-1,13,-1,-1,-1,-1],"loss_changes":[8.319424E0,8.102737E0,0E0,6.7324715E0,0E0,1.1471043E1,1.2573395E0,5.6996555E0,0E0,0E0,1.6767921E0,0E0,0E0,0E0,0E0],"parents":[2147483647,0,0,1,1,3,3,5,5,6,6,7,7,10,10],"right_children":[2,4,-1,6,-1,8,10,12,-1,-1,14,-1,-1,-1,-1],"split_conditions":[5E-1,5E-1,3.0942995E-2,5E-1,2.8630866E-2,4.5E0,2.5E0,2.5E0,3.1407513E-2,-5.5032738E-2,7.5E0,-3.474993E-2,1.1492398E-3,-1.5254042E-2,-4.6865962E-2],"split_indices":[5814,3479,0,5733,0,5913,5916,979,0,0,5733,0,0,0,0],"split_type":[0,0,0,0,0,0,0,0,0,0,0,0,0,0,0],"sum_hessian":[1.4573814E2,1.4059477E2,5.1433716E0,1.3557173E2,5.0230393E0,8.8638794E1,4.693293E1,8.0757454E1,7.881342E0,2.766011E1,1.9272821E1,6.765327E1,1.3104187E1,8.8294735E0,1.0443347E1],"tree_param":{"num_deleted":"0","num_feature":"7834","num_nodes":"15","size_leaf_vector":"0"}},{"base_weights":[-5.195921E-1,-9.302515E-1,-3.7102363E-1,-5.941938E-1,-1.0618694E0,-4.5487845E-1,5.993476E-1,-8.052355E-1,-2.746927E-1,-5.605363E-1,2.2803463E-1,-6.8694913E-1,1.1099088E-1,1.0655346E0,-7.1493924E-1,-7.345464E-1,-4.7124162E-2,8.3197325E-1,-7.2887963E-1],"categories":[],"categories_nodes":[],"categories_segments":[],"categories_sizes":[],"default_left":[1,1,1,1,0,1,0,1,1,1,1,1,1,0,0,0,0,0,0],"id":47,"left_children":[1,3,5,-1,-1,9,-1,-1,-1,11,13,15,17,-1,-1,-1,-1,-1,-1],"loss_changes":[8.395706E0,1.0231934E0,8.968588E0,6.415758E-1,0E0,7.2666283E0,0E0,0E0,0E0,7.374199E0,1.1792129E1,2.1729698E0,9.37487E0,0E0,0E0,0E0,0E0,0E0,0E0],"parents":[2147483647,0,0,1,1,2,2,3,3,5,5,9,9,10,10,11,11,12,12],"right_children":[2,4,6,-1,-1,10,-1,-1,-1,12,14,16,18,-1,-1,-1,-1,-1,-1],"split_conditions":[1.1416666E1,1.55E1,5E-1,-2.9709691E-2,-5.309347E-2,5E-1,2.996738E-2,-4.0261775E-2,-1.3734636E-2,2.5E0,5E-1,5E-1,5E-1,5.327673E-2,-3.574696E-2,-3.672732E-2,-2.3562082E-3,4.1598663E-2,-3.6443982E-2],"split_indices":[6967,6742,3497,6742,0,3646,0,2147483647,2147483647,979,7789,3311,3253,0,0,0,0,0,0],"split_type":[0,0,0,0,0,0,0,0,0,0,0,0,0,0,0,0,0,0,0],"sum_hessian":[1.4226674E2,3.6397808E1,1.05868935E2,1.1795388E1,2.460242E1,9.793693E1,7.9320064E0,6.187824E0,5.607565E0,8.4969894E1,1.2967037E1,7.1489296E1,1.3480596E1,6.7987614E0,6.1682763E0,6.640157E1,5.087727E0,7.258757E0,6.2218385E0],"tree_param":{"num_deleted":"2","num_feature":"7834","num_nodes":"19","size_leaf_vector":"0"}},{"base_weights":[-4.6687335E-1,-9.690903E-1,-2.8714734E-1,-6.546522E-1,-1.0899894E0,-4.0154144E-1,5.698626E-1,-8.069297E-1,-3.991994E-1,2.396725E-2,-5.9064966E-1,9.1534334E-1,5.4014135E-2,1.8566859E-1,-5.5915314E-1,-4.70849E-1,-9.65016E-1,-8.522421E-2,4.9826583E-1,-5.6917435E-1,2.9731217E-1],"categories":[],"categories_nodes":[],"categories_segments":[],"categories_sizes":[],"default_left":[1,1,1,1,1,1,1,1,1,1,1,0,0,1,0,1,0,0,0,0,0],"id":48,"left_children":[1,-1,5,-1,-1,9,11,-1,-1,13,15,-1,-1,17,-1,19,-1,-1,-1,-1,-1],"loss_changes":[1.2433474E1,6.814194E-1,1.053614E1,1.7168951E-1,0E0,7.525178E0,2.2307363E0,0E0,0E0,2.9024892E0,2.44565E0,0E0,0E0,2.07378E0,0E0,4.016593E0,0E0,0E0,0E0,0E0,0E0],"parents":[2147483647,0,0,1,1,2,2,3,3,5,5,6,6,9,9,10,10,13,13,15,15],"right_children":[2,-1,6,-1,-1,10,12,-1,-1,14,16,-1,-1,18,-1,20,-1,-1,-1,-1,-1],"split_conditions":[1.1416666E1,-4.8454516E-2,5E-1,-3.273261E-2,-5.4499473E-2,5E-1,5E-1,-4.0346485E-2,-1.995997E-2,5E-1,5E-1,4.576717E-2,2.7007067E-3,5E-1,-2.7957657E-2,3.5E0,-4.82508E-2,-4.2612106E-3,2.4913292E-2,-2.8458718E-2,1.4865609E-2],"split_indices":[6967,6742,3270,2147483647,2147483647,6477,6940,2147483647,2147483647,5733,1415,0,0,6621,0,5852,0,0,0,0,0],"split_type":[0,0,0,0,0,0,0,0,0,0,0,0,0,0,0,0,0,0,0,0,0],"sum_hessian":[1.3983246E2,3.5695316E1,1.04137146E2,1.1694573E1,2.4000742E1,9.234267E1,1.179448E1,5.9743757E0,5.7201977E0,2.8681114E1,6.3661552E1,6.59988E0,5.1945996E0,2.2988043E1,5.69307E0,4.9938503E1,1.372305E1,1.2705225E1,1.0282819E1,4.450133E1,5.437169E0],"tree_param":{"num_deleted":"4","num_feature":"7834","num_nodes":"21","size_leaf_vector":"0"}},{"base_weights":[-4.616555E-1,-5.37166E-1,5.3073794E-1,-6.3536566E-1,1.7852694E-1,-3.5667968E-1,-7.8619105E-1,9.5057875E-1,-3.349775E-1,-7.6757276E-1,-1.03180036E-1,-8.614547E-1,-3.1767535E-1,1.0499202E-1,-7.600292E-1,-9.0796655E-1,-3.9254397E-1,-7.145461E-1,1.2681423E-1],"categories":[],"categories_nodes":[],"categories_segments":[],"categories_sizes":[],"default_left":[1,1,0,1,1,1,1,0,0,0,1,1,1,0,0,1,1,0,0],"id":49,"left_children":[1,3,-1,5,7,9,11,-1,-1,-1,13,-1,17,-1,-1,-1,-1,-1,-1],"loss_changes":[1.0558891E1,9.102585E0,0E0,4.456299E0,6.7459993E0,4.23333E0,2.275383E0,0E0,0E0,0E0,3.7389765E0,9.892273E-1,2.1350598E0,0E0,0E0,0E0,0E0,0E0,0E0],"parents":[2147483647,0,0,1,1,3,3,4,4,5,5,6,6,10,10,11,11,12,12],"right_children":[2,4,-1,6,8,10,12,-1,-1,-1,14,-1,18,-1,-1,-1,-1,-1,-1],"split_conditions":[5E-1,4.5E0,2.6536897E-2,5E-1,5E-1,1.1416666E1,5E-1,4.7528937E-2,-1.6748875E-2,-3.8378637E-2,1.5E0,-4.3072738E-2,5E-1,5.249601E-3,-3.800146E-2,-4.539833E-2,-1.9627199E-2,-3.5727303E-2,6.340712E-3],"split_indices":[3483,5913,0,5778,7801,6967,5102,0,0,0,7801,5916,2407,0,0,2147483647,2147483647,0,0],"split_type":[0,0,0,0,0,0,0,0,0,0,0,0,0,0,0,0,0,0,0],"sum_hessian":[1.361007E2,1.2690342E2,9.197274E0,1.11690674E2,1.5212748E1,4.0402412E1,7.128826E1,5.7366133E0,9.476134E0,1.4641828E1,2.5760586E1,6.0698757E1,1.0589502E1,2.0199131E1,5.5614557E0,5.4369453E1,6.3293033E0,5.273444E0,5.316058E0],"tree_param":{"num_deleted":"2","num_feature":"7834","num_nodes":"19","size_leaf_vector":"0"}},{"base_weights":[-4.921384E-1,-5.877385E-1,1.6020998E-1,-2.594535E-1,-7.592195E-1,6.5967816E-1,-8.477293E-1,-9.175289E-2,-8.07275E-1,-8.233535E-1,-1.4294305E-1,1.0413796E0,2.4347426E-1,-2.0393285E-1,4.394171E-1,-7.0163214E-1,-1.1962014E0,-3.471539E-1,1.7675552E-1,-8.167411E-1,-1.5289342E-1],"categories":[],"categories_nodes":[],"categories_segments":[],"categories_sizes":[],"default_left":[1,1,1,1,1,1,0,1,0,1,0,0,0,1,0,1,0,0,0,0,0],"id":50,"left_children":[1,3,5,7,9,11,-1,13,-1,15,-1,-1,-1,17,-1,19,-1,-1,-1,-1,-1],"loss_changes":[8.565289E0,6.4843483E0,9.695247E0,3.8067617E0,2.9431572E0,1.7635331E0,0E0,2.0839908E0,0E0,2.3345032E0,0E0,0E0,0E0,1.605283E0,0E0,3.358017E0,0E0,0E0,0E0,0E0,0E0],"parents":[2147483647,0,0,1,1,2,2,3,3,4,4,5,5,7,7,9,9,13,13,15,15],"right_children":[2,4,6,8,10,12,-1,14,-1,16,-1,-1,-1,18,-1,20,-1,-1,-1,-1,-1],"split_conditions":[4.5E0,5E-1,2.5E0,5E-1,2.5E0,5E-1,-4.238647E-2,4.5E0,-4.036375E-2,5E-1,-7.147153E-3,5.206898E-2,1.2173713E-2,5E-1,2.1970855E-2,5E-1,-5.9810072E-2,-1.7357696E-2,8.837776E-3,-4.0837057E-2,-7.6446715E-3],"split_indices":[5913,5778,5733,4930,1015,7801,0,6148,0,1420,0,0,0,979,0,5913,0,0,0,0,0],"split_type":[0,0,0,0,0,0,0,0,0,0,0,0,0,0,0,0,0,0,0,0,0],"sum_hessian":[1.3483237E2,1.1768495E2,1.7147413E1,4.124264E1,7.644231E1,1.169678E1,5.4506335E0,3.2470245E1,8.772394E0,6.893268E1,7.509628E0,5.3177605E0,6.3790193E0,2.7317104E1,5.153143E0,5.413981E1,1.4792874E1,1.9913439E1,7.4036646E0,4.434844E1,9.791369E0],"tree_param":{"num_deleted":"0","num_feature":"7834","num_nodes":"21","size_leaf_vector":"0"}},{"base_weights":[-4.411537E-1,-4.9570447E-1,7.88295E-1,-3.3210158E-1,-8.3004457E-1,-8.2690835E-1,-1.479987E-1,-9.467155E-1,-1.6889183E-1,-6.370443E-1,-1.0577497E0,-3.3809024E-1,4.707481E-1,-3.453083E-1,-9.3343824E-1,8.9156404E-2,-5.357435E-1,7.9523486E-1,-1.7856675E-1],"categories":[],"categories_nodes":[],"categories_segments":[],"categories_sizes":[],"default_left":[1,1,0,1,1,1,1,0,0,1,0,1,1,0,0,0,0,0,0],"id":51,"left_children":[1,3,-1,5,7,9,11,-1,-1,13,-1,15,17,-1,-1,-1,-1,-1,-1],"loss_changes":[9.341513E0,6.747856E0,0E0,7.883275E0,3.0429115E0,3.6110497E-1,7.835973E0,0E0,0E0,1.0154276E0,0E0,4.313289E0,3.461979E0,0E0,0E0,0E0,0E0,0E0,0E0],"parents":[2147483647,0,0,1,1,3,3,4,4,5,5,6,6,9,9,11,11,12,12],"right_children":[2,4,-1,6,8,10,12,-1,-1,14,-1,16,18,-1,-1,-1,-1,-1,-1],"split_conditions":[5E-1,5E-1,3.941475E-2,1.1416666E1,5E-1,2.5E0,5E-1,-4.7335774E-2,-8.444591E-3,5E-1,-5.288749E-2,5E-1,1.5E0,-1.7265415E-2,-4.6671912E-2,4.45782E-3,-2.6787175E-2,3.9761744E-2,-8.928338E-3],"split_indices":[5814,5807,0,6967,3646,7455,2407,0,0,7801,0,5778,1383,0,0,0,0,0,0],"split_type":[0,0,0,0,0,0,0,0,0,0,0,0,0,0,0,0,0,0,0],"sum_hessian":[1.3245906E2,1.2740299E2,5.0560765E0,8.688217E1,4.052082E1,2.2613394E1,6.4268776E1,3.4075703E1,6.445116E0,1.4470916E1,8.142477E0,4.9511448E1,1.475733E1,8.38385E0,6.0870657E0,1.5833887E1,3.3677563E1,9.690098E0,5.0672317E0],"tree_param":{"num_deleted":"0","num_feature":"7834","num_nodes":"19","size_leaf_vector":"0"}},{"base_weights":[-4.734877E-1,-9.519446E-1,-3.1204692E-1,-7.5549585E-1,-1.1422732E0,-7.606566E-2,-7.4161863E-1,-4.609386E-1,-9.696902E-1,-3.128906E-1,8.0139256E-1,-8.7694716E-1,-2.834089E-1,-1.1370048E-1,-8.155756E-1,1.3242364E0,8.3833896E-2,-6.060318E-1,-9.905778E-1,4.7096096E-2,-7.248249E-1,-9.5637333E-1,-4.634222E-1],"categories":[],"categories_nodes":[],"categories_segments":[],"categories_sizes":[],"default_left":[1,1,1,1,1,1,1,1,1,1,1,1,0,1,1,0,0,1,1,0,0,1,1],"id":52,"left_children":[1,-1,5,-1,-1,9,11,-1,-1,13,15,-1,-1,19,-1,-1,-1,-1,-1,-1,-1,-1,-1],"loss_changes":[9.655869E0,3.3427238E-1,9.86091E0,7.3351765E-1,0E0,1.3603944E1,1.8953266E0,0E0,0E0,5.045991E0,5.1181383E0,2.066307E-1,0E0,3.7602074E0,2.7091217E-1,0E0,0E0,0E0,0E0,0E0,0E0,0E0,0E0],"parents":[2147483647,0,0,1,1,2,2,3,3,5,5,6,6,9,9,10,10,11,11,13,13,14,14],"right_children":[2,-1,6,-1,-1,10,12,-1,-1,14,16,-1,-1,20,-1,-1,-1,-1,-1,-1,-1,-1,-1],"split_conditions":[1.1416666E1,-4.759723E-2,5E-1,-3.7774794E-2,-5.711366E-2,2.5E0,9.5E0,-2.3046931E-2,-4.848451E-2,1.2416666E1,1.5E0,-4.384736E-2,-1.41704455E-2,5E-1,-4.0778782E-2,6.621182E-2,4.191695E-3,-3.030159E-2,-4.9528893E-2,2.354805E-3,-3.6241245E-2,-4.781867E-2,-2.317111E-2],"split_indices":[6967,7455,5733,2147483647,2147483647,979,5916,2147483647,2147483647,6967,1383,5733,0,2693,6621,0,0,2147483647,2147483647,0,0,2147483647,2147483647],"split_type":[0,0,0,0,0,0,0,0,0,0,0,0,0,0,0,0,0,0,0,0,0,0,0],"sum_hessian":[1.27852936E2,3.102086E1,9.683208E1,1.7710398E1,1.3310463E1,6.3258614E1,3.3573463E1,8.783463E0,8.926936E0,5.0320564E1,1.2938048E1,2.5213116E1,8.360347E0,3.6917934E1,1.3402631E1,6.995415E0,5.942633E0,9.321757E0,1.5891358E1,2.9958351E1,6.959584E0,8.348824E0,5.0538073E0],"tree_param":{"num_deleted":"8","num_feature":"7834","num_nodes":"23","size_leaf_vector":"0"}},{"base_weights":[-4.4491893E-1,-5.008462E-1,7.592323E-1,-6.457438E-1,-5.0277982E-2,-7.487411E-1,1.6636646E-1,-7.3299235E-1,2.1707222E-1,-8.143129E-1,-1.3109059E-2,6.5556747E-1,-3.3379537E-1,5.709671E-1,-4.9395302E-1,-8.8172704E-1,-2.7566904E-1,-4.5345657E-2,9.9707216E-1],"categories":[],"categories_nodes":[],"categories_segments":[],"categories_sizes":[],"default_left":[1,1,0,1,1,1,1,0,1,1,0,0,0,1,0,0,0,0,0],"id":53,"left_children":[1,3,-1,5,7,9,11,-1,13,15,-1,-1,-1,17,-1,-1,-1,-1,-1],"loss_changes":[8.967951E0,7.9625435E0,0E0,7.8682213E0,5.796075E0,3.9611092E0,2.9685335E0,0E0,6.0604935E0,2.5015717E0,0E0,0E0,0E0,4.1936283E0,0E0,0E0,0E0,0E0,0E0],"parents":[2147483647,0,0,1,1,3,3,4,4,5,5,6,6,8,8,9,9,13,13],"right_children":[2,4,-1,6,8,10,12,-1,14,16,-1,-1,-1,18,-1,-1,-1,-1,-1],"split_conditions":[5E-1,5E-1,3.7961613E-2,5E-1,1.1416666E1,5E-1,3.15E1,-3.664962E-2,5E-1,5E-1,-6.5545295E-4,3.2778375E-2,-1.6689768E-2,1.5E0,-2.4697652E-2,-4.4086352E-2,-1.3783452E-2,-2.267283E-3,4.9853608E-2],"split_indices":[5814,2407,0,3646,6967,5852,6742,0,5733,946,0,0,0,6621,0,0,0,0,0],"split_type":[0,0,0,0,0,0,0,0,0,0,0,0,0,0,0,0,0,0,0],"sum_hessian":[1.2651813E2,1.214609E2,5.0572295E0,9.157746E1,2.9883436E1,8.133947E1,1.023799E1,7.9191465E0,2.196429E1,7.458431E1,6.755156E0,5.01863E0,5.2193604E0,1.4796625E1,7.1676655E0,6.5721924E1,8.8623905E0,6.413625E0,8.383E0],"tree_param":{"num_deleted":"0","num_feature":"7834","num_nodes":"19","size_leaf_vector":"0"}},{"base_weights":[-4.0771824E-1,-9.0849364E-1,-2.4129364E-1,-5.259063E-1,-1.043942E0,-7.860589E-3,-6.807169E-1,-1.7258358E-1,1.1823957E0,-8.1403166E-1,-2.5056186E-1,2.7129445E-2,-7.829477E-1,-9.020614E-1,-4.624144E-1,3.1973287E-1,-3.594967E-1,-9.482178E-1,-4.0892482E-1],"categories":[],"categories_nodes":[],"categories_segments":[],"categories_sizes":[],"default_left":[1,1,1,0,0,1,1,1,0,1,0,1,1,1,1,0,0,1,1],"id":54,"left_children":[1,3,5,-1,-1,7,9,11,-1,-1,-1,15,-1,-1,-1,-1,-1,-1,-1],"loss_changes":[1.0203953E1,1.048851E0,9.763106E0,0E0,0E0,1.259613E1,1.6899929E0,6.895487E0,0E0,3.4951591E-1,0E0,5.031159E0,4.737339E-1,0E0,0E0,0E0,0E0,0E0,0E0],"parents":[2147483647,0,0,1,1,2,2,5,5,6,6,7,7,9,9,11,11,12,12],"right_children":[2,4,6,-1,-1,8,10,12,-1,-1,-1,16,-1,-1,-1,-1,-1,-1,-1],"split_conditions":[1.1416666E1,1.15E1,5E-1,-2.6295317E-2,-5.21971E-2,4.5E0,1.5E0,1.225E1,5.9119787E-2,-4.0701583E-2,-1.25280935E-2,5E-1,-3.914739E-2,-4.510307E-2,-2.3120722E-2,1.5986644E-2,-1.7974837E-2,-4.741089E-2,-2.044624E-2],"split_indices":[6967,6742,5733,0,0,5913,5913,6967,0,7455,0,3253,6621,2147483647,2147483647,0,0,2147483647,2147483647],"split_type":[0,0,0,0,0,0,0,0,0,0,0,0,0,0,0,0,0,0,0],"sum_hessian":[1.2406598E2,2.9834475E1,9.423151E1,9.077337E0,2.0757137E1,6.220466E1,3.2026848E1,5.5393585E1,6.811075E0,2.3768145E1,8.258702E0,4.2457058E1,1.2936527E1,1.7757078E1,6.011066E0,2.4265583E1,1.8191473E1,7.9073215E0,5.0292063E0],"tree_param":{"num_deleted":"4","num_feature":"7834","num_nodes":"19","size_leaf_vector":"0"}},{"base_weights":[-4.0858155E-1,-8.6148673E-1,-2.628067E-1,-9.61724E-1,-3.758391E-1,-4.5812562E-2,-6.861978E-1,-2.5624052E-1,7.7861416E-1,-8.581204E-1,-1.6715754E-2,1.14983186E-1,-4.776667E-1,1.4613787E0,-2.2270799E-1,-3.6360073E-1,-1.0003486E0,-2.1538168E-1,5.2691674E-1,-8.0353475E-1,2.266975E-1],"categories":[],"categories_nodes":[],"categories_segments":[],"categories_sizes":[],"default_left":[1,1,1,0,0,1,1,1,1,1,0,1,1,0,0,0,0,0,0,0,0],"id":55,"left_children":[1,3,5,-1,-1,7,9,11,13,15,-1,17,19,-1,-1,-1,-1,-1,-1,-1,-1],"loss_changes":[7.9083767E0,1.0776539E0,8.664406E0,0E0,0E0,1.1241605E1,3.6688995E0,4.2848225E0,9.343143E0,1.4257374E0,0E0,2.8396518E0,7.6251597E0,0E0,0E0,0E0,0E0,0E0,0E0,0E0,0E0],"parents":[2147483647,0,0,1,1,2,2,5,5,6,6,7,7,8,8,9,9,11,11,12,12],"right_children":[2,4,6,-1,-1,8,10,12,14,16,-1,18,20,-1,-1,-1,-1,-1,-1,-1,-1],"split_conditions":[1.1416666E1,5E-1,5E-1,-4.80862E-2,-1.8791957E-2,2.5E0,1.35E1,5E-1,5E-1,5E-1,-8.357877E-4,1.5E0,5E-1,7.306894E-2,-1.1135399E-2,-1.8180037E-2,-5.0017428E-2,-1.0769084E-2,2.6345838E-2,-4.0176738E-2,1.1334876E-2],"split_indices":[6967,946,5807,0,0,979,3715,5778,1492,5778,0,6148,5913,0,0,0,0,0,0,0,0],"split_type":[0,0,0,0,0,0,0,0,0,0,0,0,0,0,0,0,0,0,0,0,0],"sum_hessian":[1.2221287E2,2.8562586E1,9.365028E1,2.2863325E1,5.6992607E0,6.264963E1,3.100065E1,5.045947E1,1.2190163E1,2.4442154E1,6.558497E0,1.90323E1,3.1427168E1,6.974833E0,5.215329E0,6.253955E0,1.8188198E1,1.0826637E1,8.205665E0,2.1390324E1,1.0036843E1],"tree_param":{"num_deleted":"0","num_feature":"7834","num_nodes":"21","size_leaf_vector":"0"}},{"base_weights":[-3.876032E-1,-2.1138762E-1,-7.6010823E-1,-7.675941E-1,-2.0944975E-2,-9.370474E-1,-1.1902163E-1,-5.4038316E-1,-1.0270625E0,-2.0253357E-1,7.1233445E-1,-2.069816E-1,-8.9577216E-1,-3.579757E-1,6.666483E-1,1.2521442E0,-8.6472705E-2,4.0469315E-2,-6.0306185E-1],"categories":[],"categories_nodes":[],"categories_segments":[],"categories_sizes":[],"default_left":[1,1,1,1,1,0,0,1,0,1,1,0,0,1,0,0,0,0,0],"id":56,"left_children":[1,3,5,7,9,-1,-1,11,-1,13,15,-1,-1,17,-1,-1,-1,-1,-1],"loss_changes":[7.661068E0,8.699224E0,4.1854877E0,6.805506E-1,8.4424715E0,0E0,0E0,1.3885622E0,0E0,7.0924797E0,5.5375586E0,0E0,0E0,4.290248E0,0E0,0E0,0E0,0E0,0E0],"parents":[2147483647,0,0,1,1,2,2,3,3,4,4,7,7,9,9,10,10,13,13],"right_children":[2,4,6,8,10,-1,-1,12,-1,14,16,-1,-1,18,-1,-1,-1,-1,-1],"split_conditions":[5E-1,1.1416666E1,1.35E1,2.5E0,2.5E0,-4.6852373E-2,-5.951082E-3,5E-1,-5.1353127E-2,5E-1,5E-1,-1.034908E-2,-4.478861E-2,5E-1,3.333242E-2,6.2607214E-2,-4.3236353E-3,2.0234657E-3,-3.0153094E-2],"split_indices":[5807,6967,3715,7455,979,0,0,7801,0,3646,1492,0,0,6477,0,0,0,0,0],"split_type":[0,0,0,0,0,0,0,0,0,0,0,0,0,0,0,0,0,0,0],"sum_hessian":[1.1815913E2,8.1277725E1,3.6881405E1,1.995796E1,6.1319763E1,2.8542147E1,8.339258E0,1.2283883E1,7.674076E0,4.9728775E1,1.1590987E1,7.1544647E0,5.129419E0,4.2683517E1,7.045257E0,6.5781527E0,5.012834E0,1.6573801E1,2.6109718E1],"tree_param":{"num_deleted":"0","num_feature":"7834","num_nodes":"19","size_leaf_vector":"0"}},{"base_weights":[-3.7163433E-1,-1.8780333E-1,-7.589049E-1,-3.2210997E-1,8.361393E-1,-8.8836944E-1,-5.067396E-1,-4.2872843E-1,5.3156257E-1,-7.238983E-2,-8.4207296E-1,-1.3366209E-1,-6.789025E-1,-6.4961123E-1,1.4425834E-1,-8.6257493E-1,8.3868936E-2],"categories":[],"categories_nodes":[],"categories_segments":[],"categories_sizes":[],"default_left":[1,1,1,1,0,0,1,1,0,0,0,1,1,0,0,0,0],"id":57,"left_children":[1,3,5,7,-1,-1,9,11,-1,-1,-1,13,15,-1,-1,-1,-1],"loss_changes":[8.207096E0,1.1389314E1,7.7155876E-1,6.7998157E0,0E0,0E0,2.127213E0,4.6883802E0,0E0,0E0,0E0,4.5318465E0,4.946581E0,0E0,0E0,0E0,0E0],"parents":[2147483647,0,0,1,1,2,2,3,3,6,6,7,7,11,11,12,12],"right_children":[2,4,6,8,-1,-1,10,12,-1,-1,-1,14,16,-1,-1,-1,-1],"split_conditions":[5E-1,4.5E0,3.5E0,5E-1,4.1806966E-2,-4.4418473E-2,7.5E0,5E-1,2.6578128E-2,-3.6194918E-3,-4.210365E-2,1.1416666E1,1.65E1,-3.2480564E-2,7.212917E-3,-4.3128747E-2,4.193447E-3],"split_indices":[5733,5913,5916,3270,0,0,5733,5778,0,0,0,6967,6621,0,0,0,0],"split_type":[0,0,0,0,0,0,0,0,0,0,0,0,0,0,0,0,0],"sum_hessian":[1.1628257E2,7.9859505E1,3.6423065E1,7.120521E1,8.654294E0,2.2399786E1,1.4023281E1,6.374201E1,7.463201E0,6.6393514E0,7.3839293E0,2.9950888E1,3.3791122E1,1.0017102E1,1.9933786E1,2.7127968E1,6.6631536E0],"tree_param":{"num_deleted":"0","num_feature":"7834","num_nodes":"17","size_leaf_vector":"0"}},{"base_weights":[-3.5561675E-1,-1.718645E-1,-7.445091E-1,-3.0078802E-1,7.492803E-1,-8.5018134E-1,-3.919663E-1,-4.191449E-1,2.1344744E-1,-6.591992E-1,-9.969255E-1,-5.040857E-1,1.858015E-1,7.6773137E-1,-4.5043287E-1,-3.3284602E-1,-9.222477E-1,-2.3779398E-1,-7.496156E-1],"categories":[],"categories_nodes":[],"categories_segments":[],"categories_sizes":[],"default_left":[1,1,1,1,0,1,0,1,1,1,1,1,0,0,0,1,1,0,0],"id":58,"left_children":[1,3,5,7,-1,-1,-1,11,13,-1,-1,17,-1,-1,-1,-1,-1,-1,-1],"loss_changes":[8.2309675E0,9.813702E0,1.0539036E0,4.443603E0,0E0,1.2172508E-1,0E0,3.0992575E0,5.514991E0,9.8312473E-1,0E0,3.192854E0,0E0,0E0,0E0,0E0,0E0,0E0,0E0],"parents":[2147483647,0,0,1,1,2,2,3,3,5,5,7,7,8,8,9,9,11,11],"right_children":[2,4,6,8,-1,-1,-1,12,14,-1,-1,18,-1,-1,-1,-1,-1,-1,-1],"split_conditions":[5E-1,4.5E0,1.5E0,2.5E0,3.7464015E-2,-4.2509068E-2,-1.9598316E-2,5E-1,1.5E0,-3.295996E-2,-4.9846273E-2,5E-1,9.290076E-3,3.838657E-2,-2.2521643E-2,-1.66423E-2,-4.6112385E-2,-1.1889699E-2,-3.7480783E-2],"split_indices":[5733,5913,5913,979,0,6621,0,3302,7801,2147483647,2147483647,5778,0,0,0,2147483647,2147483647,0,0],"split_type":[0,0,0,0,0,0,0,0,0,0,0,0,0,0,0,0,0,0,0],"sum_hessian":[1.1597372E2,7.97389E1,3.6234818E1,7.053963E1,9.199271E0,2.679241E1,9.442409E0,5.7492107E1,1.3047516E1,1.40278425E1,1.2764567E1,5.055972E1,6.9323907E0,7.0254383E0,6.022078E0,7.2716074E0,6.7562346E0,2.5198711E1,2.5361008E1],"tree_param":{"num_deleted":"4","num_feature":"7834","num_nodes":"19","size_leaf_vector":"0"}},{"base_weights":[-3.2694897E-1,-8.374674E-1,-1.683801E-1,-5.0535995E-1,-9.6788776E-1,4.923568E-2,-6.08641E-1,-1.4023565E-1,7.074566E-1,-8.750413E-1,6.509152E-2,-2.843913E-1,6.512682E-1,1.261404E0,-1.5066513E-1,-5.215391E-1,3.9606762E-1],"categories":[],"categories_nodes":[],"categories_segments":[],"categories_sizes":[],"default_left":[1,1,1,1,1,1,1,1,1,0,0,1,0,0,0,0,0],"id":59,"left_children":[1,-1,5,-1,-1,7,9,11,13,-1,-1,15,-1,-1,-1,-1,-1],"loss_changes":[9.268356E0,6.931057E-1,8.646781E0,0E0,0E0,7.72091E0,5.410059E0,5.6948957E0,6.761899E0,0E0,0E0,6.910591E0,0E0,0E0,0E0,0E0,0E0],"parents":[2147483647,0,0,1,1,2,2,5,5,6,6,7,7,8,8,11,11],"right_children":[2,-1,6,-1,-1,8,10,12,14,-1,-1,16,-1,-1,-1,-1,-1],"split_conditions":[1.1416666E1,-4.187337E-2,5E-1,-2.5267998E-2,-4.839439E-2,2.5E0,5E-1,5E-1,5E-1,-4.3752067E-2,3.2545761E-3,5E-1,3.256341E-2,6.30702E-2,-7.533257E-3,-2.6076956E-2,1.980338E-2],"split_indices":[6967,6742,5807,2147483647,2147483647,979,5852,3646,1492,0,0,5913,0,0,0,0,0],"split_type":[0,0,0,0,0,0,0,0,0,0,0,0,0,0,0,0,0],"sum_hessian":[1.1523346E2,2.6294838E1,8.893862E1,8.789014E0,1.7505825E1,6.011343E1,2.8825191E1,4.7288273E1,1.2825157E1,2.0443026E1,8.382164E0,4.054462E1,6.74365E0,7.508317E0,5.3168397E0,3.0239393E1,1.0305227E1],"tree_param":{"num_deleted":"2","num_feature":"7834","num_nodes":"17","size_leaf_vector":"0"}},{"base_weights":[-3.4384987E-1,-8.463937E-1,-1.8773249E-1,-4.992464E-1,-9.869174E-1,3.638359E-2,-6.556768E-1,2.5342065E-1,-7.4824387E-1,-8.0806595E-1,-2.4447821E-1,9.603595E-2,1.2348375E0,-4.1234243E-1,-9.8869693E-1,-9.325845E-1,-3.892445E-1,2.2421889E-1,-6.570175E-1],"categories":[],"categories_nodes":[],"categories_segments":[],"categories_sizes":[],"default_left":[1,1,1,1,1,1,1,1,1,1,0,1,0,1,1,1,1,0,0],"id":60,"left_children":[1,-1,5,-1,-1,7,9,11,-1,-1,-1,17,-1,-1,-1,-1,-1,-1,-1],"loss_changes":[8.758112E0,8.075352E-1,9.2529955E0,0E0,0E0,1.0484045E1,1.5915232E0,7.310909E0,6.706867E-1,7.0074177E-1,0E0,4.25332E0,0E0,0E0,0E0,0E0,0E0,0E0,0E0],"parents":[2147483647,0,0,1,1,2,2,5,5,6,6,7,7,8,8,9,9,11,11],"right_children":[2,-1,6,-1,-1,8,10,12,-1,-1,-1,18,-1,-1,-1,-1,-1,-1,-1],"split_conditions":[1.1416666E1,-4.2319685E-2,5E-1,-2.4962319E-2,-4.934587E-2,1.2166666E1,1.5E0,4.5E0,-3.7412193E-2,-4.04033E-2,-1.2223911E-2,5.5E0,6.1741877E-2,-2.0617122E-2,-4.9434848E-2,-4.6629228E-2,-1.9462226E-2,1.12109445E-2,-3.2850876E-2],"split_indices":[6967,6742,5733,2147483647,2147483647,6967,5913,5913,6742,7455,0,7801,0,2147483647,2147483647,2147483647,2147483647,0,0],"split_type":[0,0,0,0,0,0,0,0,0,0,0,0,0,0,0,0,0,0,0],"sum_hessian":[1.1265639E2,2.5654078E1,8.700231E1,8.704179E0,1.69499E1,5.9451164E1,2.7551144E1,4.7099823E1,1.2351339E1,1.9397377E1,8.153768E0,4.1536663E1,5.5631623E0,6.285564E0,6.065776E0,1.4006468E1,5.3909087E0,3.6094925E1,5.4417367E0],"tree_param":{"num_deleted":"6","num_feature":"7834","num_nodes":"19","size_leaf_vector":"0"}},{"base_weights":[-3.3533332E-1,-4.153191E-1,5.1943773E-1,-2.2719547E-1,-8.3885217E-1,-7.1968883E-1,-5.486364E-2,-9.920829E-1,-5.010946E-1,-3.8329205E-1,-9.013031E-1,1.5217286E-1,-6.982772E-1,-1.6022037E-1,-7.757765E-1,-7.43185E-2,6.27882E-1,-9.2800784E-1,-3.081509E-1],"categories":[],"categories_nodes":[],"categories_segments":[],"categories_sizes":[],"default_left":[1,1,0,1,1,1,1,0,1,1,1,1,1,1,1,0,0,1,1],"id":61,"left_children":[1,3,-1,5,7,-1,11,-1,-1,-1,-1,15,-1,-1,-1,-1,-1,-1,-1],"loss_changes":[7.75078E0,7.883505E0,0E0,6.032277E0,1.0967026E0,7.824402E-1,7.3100414E0,0E0,9.647882E-1,0E0,0E0,4.5432954E0,9.099717E-1,0E0,0E0,0E0,0E0,0E0,0E0],"parents":[2147483647,0,0,1,1,3,3,4,4,5,5,6,6,8,8,11,11,12,12],"right_children":[2,4,-1,6,8,-1,12,-1,-1,-1,-1,16,-1,-1,-1,-1,-1,-1,-1],"split_conditions":[5E-1,5E-1,2.5971888E-2,1.1416666E1,5E-1,-3.598444E-2,1.2416666E1,-4.9604144E-2,-2.5054729E-2,-1.9164603E-2,-4.5065157E-2,5E-1,-3.491386E-2,-8.011019E-3,-3.8788825E-2,-3.715925E-3,3.13941E-2,-4.6400394E-2,-1.5407545E-2],"split_indices":[3483,5733,0,6967,5913,6742,6967,0,6621,2147483647,2147483647,2407,6621,2147483647,2147483647,0,0,2147483647,2147483647],"split_type":[0,0,0,0,0,0,0,0,0,0,0,0,0,0,0,0,0,0,0],"sum_hessian":[1.0921065E2,1.0033578E2,8.874869E0,7.053998E1,2.97958E1,1.746162E1,5.3078354E1,1.9164268E1,1.0631531E1,7.21256E0,1.0249062E1,4.07344E1,1.2343954E1,5.4506674E0,5.180864E0,2.8167336E1,1.2567064E1,6.9013014E0,5.4426527E0],"tree_param":{"num_deleted":"6","num_feature":"7834","num_nodes":"19","size_leaf_vector":"0"}},{"base_weights":[-3.151864E-1,-7.9277813E-1,-1.7434363E-1,-4.6591198E-1,-9.281161E-1,-8.989324E-4,-7.399241E-1,2.2526126E-1,-5.4448605E-1,-8.980072E-1,-4.1072568E-1,6.74259E-2,1.2391784E0,-2.718851E-1,-8.8727784E-1,-6.6842005E-2,8.2441527E-1,-5.226153E-1,7.178567E-2],"categories":[],"categories_nodes":[],"categories_segments":[],"categories_sizes":[],"default_left":[1,1,1,1,1,1,1,1,1,1,1,1,0,1,0,0,0,0,0],"id":62,"left_children":[1,-1,5,-1,-1,7,-1,11,13,-1,-1,15,-1,17,-1,-1,-1,-1,-1],"loss_changes":[7.3301067E0,6.736765E-1,8.536137E0,0E0,0E0,8.433409E0,6.939831E-1,7.669464E0,1.6421213E0,0E0,0E0,4.4234076E0,0E0,1.1291473E0,0E0,0E0,0E0,0E0,0E0],"parents":[2147483647,0,0,1,1,2,2,5,5,6,6,7,7,8,8,11,11,13,13],"right_children":[2,-1,6,-1,-1,8,-1,12,14,-1,-1,16,-1,18,-1,-1,-1,-1,-1],"split_conditions":[1.1416666E1,-3.9638907E-2,1.2416666E1,-2.32956E-2,-4.6405803E-2,5E-1,-3.6996204E-2,4.5E0,5E-1,-4.490036E-2,-2.0536285E-2,5E-1,6.195892E-2,5E-1,-4.4363894E-2,-3.3421002E-3,4.1220766E-2,-2.6130766E-2,3.5892837E-3],"split_indices":[6967,6742,6967,2147483647,2147483647,5733,6621,5913,7789,2147483647,2147483647,3270,0,7254,0,0,0,0,0],"split_type":[0,0,0,0,0,0,0,0,0,0,0,0,0,0,0,0,0,0,0],"sum_hessian":[1.100278E2,2.400365E1,8.602415E1,8.329341E0,1.5674311E1,6.6601326E1,1.9422821E1,4.7446674E1,1.9154654E1,1.1954388E1,7.468434E0,4.197844E1,5.4682364E0,1.1668539E1,7.486114E0,3.6428738E1,5.5496993E0,6.445466E0,5.223073E0],"tree_param":{"num_deleted":"4","num_feature":"7834","num_nodes":"19","size_leaf_vector":"0"}},{"base_weights":[-3.5974342E-1,-4.402551E-1,4.8801613E-1,-2.5528023E-1,-8.7733245E-1,-3.720012E-1,5.606427E-1,-9.864435E-1,-5.0744927E-1,-1.8153608E-1,-6.9485885E-1,-3.5337797E-1,5.6064117E-1,-9.331462E-1,-2.9752636E-1],"categories":[],"categories_nodes":[],"categories_segments":[],"categories_sizes":[],"default_left":[1,1,0,1,1,1,0,1,1,1,1,0,0,0,0],"id":63,"left_children":[1,3,-1,5,-1,9,-1,-1,-1,11,13,-1,-1,-1,-1],"loss_changes":[7.5960407E0,7.8033314E0,0E0,6.9868503E0,6.7443275E-1,3.7397928E0,0E0,0E0,0E0,5.4137163E0,1.8974352E0,0E0,0E0,0E0,0E0],"parents":[2147483647,0,0,1,1,3,3,4,4,5,5,9,9,10,10],"right_children":[2,4,-1,6,-1,10,-1,-1,-1,12,14,-1,-1,-1,-1],"split_conditions":[5E-1,5E-1,2.4400806E-2,4.5E0,-4.3866623E-2,1.5E0,2.8032137E-2,-4.9322177E-2,-2.5372464E-2,2.5E0,1.5E0,-1.76689E-2,2.8032059E-2,-4.665731E-2,-1.4876318E-2],"split_indices":[3483,5733,0,5913,5913,7801,0,2147483647,2147483647,979,3253,0,0,0,0],"split_type":[0,0,0,0,0,0,0,0,0,0,0,0,0,0,0],"sum_hessian":[1.071421E2,9.8288345E1,8.853754E0,7.017412E1,2.8114223E1,6.1867767E1,8.306353E0,2.042283E1,7.691394E0,3.9894733E1,2.1973032E1,3.2819626E1,7.075111E0,1.289259E1,9.080441E0],"tree_param":{"num_deleted":"2","num_feature":"7834","num_nodes":"15","size_leaf_vector":"0"}},{"base_weights":[-3.2672605E-1,-1.8822145E-1,-7.833223E-1,-3.1745204E-1,3.568746E-1,-9.186653E-1,-2.3032835E-1,-4.5337006E-1,2.5753915E-1,9.075278E-1,-2.8020763E-1,-5.817344E-1,-4.354361E-2,6.3781834E-1,-2.1460263E-1,-3.371407E-1,-8.479146E-1,3.5248676E-1,-4.0575883E-1],"categories":[],"categories_nodes":[],"categories_segments":[],"categories_sizes":[],"default_left":[1,1,1,1,1,0,0,1,1,0,0,1,1,0,0,0,0,0,0],"id":64,"left_children":[1,3,5,7,9,-1,-1,11,13,-1,-1,15,17,-1,-1,-1,-1,-1,-1],"loss_changes":[6.558734E0,5.9373817E0,1.6119089E0,5.3812504E0,5.9779587E0,0E0,0E0,2.8599482E0,2.5637424E0,0E0,0E0,2.4279833E0,2.1745706E0,0E0,0E0,0E0,0E0,0E0,0E0],"parents":[2147483647,0,0,1,1,2,2,3,3,4,4,7,7,8,8,11,11,12,12],"right_children":[2,4,6,8,10,-1,-1,12,14,-1,-1,16,18,-1,-1,-1,-1,-1,-1],"split_conditions":[5E-1,5E-1,5E-1,2.5E0,5E-1,-4.5933265E-2,-1.1516417E-2,5E-1,2.5E0,4.537639E-2,-1.4010382E-2,5E-1,1.5E0,3.1890918E-2,-1.07301315E-2,-1.6857035E-2,-4.239573E-2,1.762434E-2,-2.0287942E-2],"split_indices":[4783,3646,3311,979,3601,0,0,5913,7455,0,0,5778,7455,0,0,0,0,0,0],"split_type":[0,0,0,0,0,0,0,0,0,0,0,0,0,0,0,0,0,0,0],"sum_hessian":[1.05042076E2,8.167798E1,2.3364094E1,6.636248E1,1.5315498E1,1.8238932E1,5.125161E0,5.3845783E1,1.2516699E1,7.987289E0,7.3282094E0,4.068356E1,1.3162224E1,6.738431E0,5.778268E0,2.238266E1,1.8300901E1,6.300447E0,6.8617764E0],"tree_param":{"num_deleted":"0","num_feature":"7834","num_nodes":"19","size_leaf_vector":"0"}},{"base_weights":[-3.114608E-1,-3.9327633E-1,4.647659E-1,-2.237223E-1,-8.092366E-1,-3.3745244E-1,5.087574E-1,-9.825607E-1,-4.576629E-1,-1.3371369E-1,-7.021164E-1,-3.1512043E-1,6.140424E-1,-9.1289854E-1,-3.4504443E-1],"categories":[],"categories_nodes":[],"categories_segments":[],"categories_sizes":[],"default_left":[1,1,0,1,1,1,0,0,0,1,1,0,0,0,0],"id":65,"left_children":[1,3,-1,5,7,9,-1,-1,-1,11,13,-1,-1,-1,-1],"loss_changes":[6.769431E0,6.4744453E0,0E0,5.8715897E0,1.192234E0,4.351067E0,0E0,0E0,0E0,5.567612E0,1.2813196E0,0E0,0E0,0E0,0E0],"parents":[2147483647,0,0,1,1,3,3,4,4,5,5,9,9,10,10],"right_children":[2,4,-1,6,8,10,-1,-1,-1,12,14,-1,-1,-1,-1],"split_conditions":[5E-1,5E-1,2.3238296E-2,4.5E0,3.5E0,1.5E0,2.5437871E-2,-4.9128037E-2,-2.2883145E-2,2.5E0,1.5E0,-1.5756022E-2,3.070212E-2,-4.5644928E-2,-1.7252222E-2],"split_indices":[3483,5733,0,5913,5916,7801,0,0,0,979,3253,0,0,0,0],"split_type":[0,0,0,0,0,0,0,0,0,0,0,0,0,0,0],"sum_hessian":[1.0271464E2,9.336696E1,9.347681E0,6.7422134E1,2.5944822E1,5.8827457E1,8.594679E0,1.6175587E1,9.769236E0,3.8618095E1,2.0209362E1,3.1544043E1,7.0740523E0,1.1729013E1,8.480348E0],"tree_param":{"num_deleted":"0","num_feature":"7834","num_nodes":"15","size_leaf_vector":"0"}},{"base_weights":[-2.7466547E-1,-7.3980683E-1,-1.4416927E-1,-3.1721294E-1,-9.0946317E-1,2.076864E-1,-3.2822847E-1,3.5203934E-1,-3.3489946E-1,-5.915921E-1,1.07937895E-1,7.062492E-2,7.202938E-1,-8.3294785E-1,-2.2905803E-1,4.610319E-1,-3.8153952E-1,-2.8339577E-1,4.421629E-1,1.0544706E-1,-5.126253E-1,7.0833427E-1,8.501404E-2],"categories":[],"categories_nodes":[],"categories_segments":[],"categories_sizes":[],"default_left":[1,1,1,0,0,1,1,1,0,1,1,1,0,0,1,1,0,0,0,0,0,0,0],"id":66,"left_children":[1,3,5,-1,-1,7,9,11,-1,13,15,17,-1,-1,19,21,-1,-1,-1,-1,-1,-1,-1],"loss_changes":[6.0827746E0,1.2958374E0,5.305557E0,0E0,0E0,2.3413157E0,6.2075214E0,2.3233078E0,0E0,2.7406187E0,3.8021686E0,1.9792126E0,0E0,0E0,1.454963E0,1.1153324E0,0E0,0E0,0E0,0E0,0E0,0E0,0E0],"parents":[2147483647,0,0,1,1,2,2,5,5,6,6,7,7,9,9,10,10,11,11,14,14,15,15],"right_children":[2,4,6,-1,-1,8,10,12,-1,14,16,18,-1,-1,20,22,-1,-1,-1,-1,-1,-1,-1],"split_conditions":[1.1416666E1,1.55E1,5E-1,-1.5860647E-2,-4.547316E-2,5E-1,5E-1,1.75E1,-1.6744973E-2,5E-1,5E-1,5E-1,3.601469E-2,-4.1647393E-2,5E-1,5E-1,-1.9076977E-2,-1.4169789E-2,2.2108145E-2,5.272353E-3,-2.5631264E-2,3.5416715E-2,4.250702E-3],"split_indices":[6967,6742,5778,0,0,4930,5913,6742,0,979,1956,6621,0,0,5923,5923,0,0,0,0,0,0,0],"split_type":[0,0,0,0,0,0,0,0,0,0,0,0,0,0,0,0,0,0,0,0,0,0,0],"sum_hessian":[1.0096896E2,2.1097988E1,7.987097E1,6.8658094E0,1.4232179E1,2.7387486E1,5.248349E1,2.190968E1,5.477807E0,3.2501976E1,1.998151E1,1.3094696E1,8.814983E0,1.8732986E1,1.3768991E1,1.1641676E1,8.339834E0,6.826904E0,6.267792E0,6.605304E0,7.1636877E0,6.489701E0,5.1519756E0],"tree_param":{"num_deleted":"0","num_feature":"7834","num_nodes":"23","size_leaf_vector":"0"}},{"base_weights":[-2.252538E-1,-7.5509894E-1,-8.209857E-2,-2.813776E-1,-9.8705554E-1,1.09722614E-1,-5.069883E-1,2.693824E-1,-4.829654E-1,-7.9157066E-1,1.5859166E-1,4.3560365E-1,-2.750127E-1,-7.406431E-1,-1.707258E-1,-8.9497876E-1,-5.063536E-1,1.8259914E-1,1.1617807E0,-1.1245909E-1,-3.9654383E-1],"categories":[],"categories_nodes":[],"categories_segments":[],"categories_sizes":[],"default_left":[1,1,1,0,0,1,1,1,1,1,0,1,1,1,1,1,1,0,0,1,1],"id":67,"left_children":[1,3,5,-1,-1,7,9,11,-1,-1,-1,17,-1,-1,-1,-1,-1,-1,-1,-1,-1],"loss_changes":[7.6520386E0,2.0859566E0,6.672842E0,0E0,0E0,5.501099E0,4.9425135E0,4.2240314E0,8.714752E-1,7.715702E-2,0E0,6.2427907E0,1.7710316E-1,0E0,0E0,0E0,0E0,0E0,0E0,0E0,0E0],"parents":[2147483647,0,0,1,1,2,2,5,5,6,6,7,7,8,8,9,9,11,11,12,12],"right_children":[2,4,6,-1,-1,8,10,12,-1,-1,-1,18,-1,-1,-1,-1,-1,-1,-1,-1,-1],"split_conditions":[1.1416666E1,1.55E1,5E-1,-1.4068881E-2,-4.9352776E-2,1.2416666E1,5E-1,5E-1,-2.414827E-2,-3.9578535E-2,7.929583E-3,2.5E0,-1.3750635E-2,-3.7032153E-2,-8.536289E-3,-4.474894E-2,-2.5317682E-2,9.129957E-3,5.8089036E-2,-5.6229546E-3,-1.9827193E-2],"split_indices":[6967,6742,5807,0,0,6967,5852,5733,6621,6940,0,979,6742,2147483647,2147483647,2147483647,2147483647,0,0,2147483647,2147483647],"split_type":[0,0,0,0,0,0,0,0,0,0,0,0,0,0,0,0,0,0,0,0,0],"sum_hessian":[1.00701004E2,2.0511032E1,8.018997E1,7.4694185E0,1.3041614E1,5.57588E1,2.443117E1,4.4355656E1,1.1403146E1,1.6981209E1,7.4499593E0,3.4133457E1,1.02221985E1,5.4957285E0,5.907418E0,1.0893707E1,6.0875015E0,2.6242027E1,7.8914294E0,5.196709E0,5.02549E0],"tree_param":{"num_deleted":"6","num_feature":"7834","num_nodes":"21","size_leaf_vector":"0"}},{"base_weights":[-2.6286766E-1,-7.592478E-1,-1.24678366E-1,-3.4622678E-1,-9.404558E-1,4.5908686E-2,-5.057479E-1,-6.012268E-1,1.6047996E-1,-7.586011E-1,2.715611E-1,2.8348875E-1,-6.502084E-1,-5.412177E-1,-1.013645E0,1.1803352E-1,8.161876E-1,-6.904236E-1,-2.9755345E-1],"categories":[],"categories_nodes":[],"categories_segments":[],"categories_sizes":[],"default_left":[1,1,1,0,0,1,1,0,1,1,0,1,0,1,1,0,0,1,1],"id":68,"left_children":[1,3,5,-1,-1,7,9,-1,11,-1,-1,15,-1,-1,-1,-1,-1,-1,-1],"loss_changes":[6.7566724E0,1.2875967E0,5.179923E0,0E0,0E0,4.227285E0,5.043631E0,0E0,4.9832425E0,4.9568653E-1,0E0,3.6477134E0,0E0,2.422576E-1,0E0,0E0,0E0,0E0,0E0],"parents":[2147483647,0,0,1,1,2,2,5,5,6,6,8,8,9,9,11,11,13,13],"right_children":[2,4,6,-1,-1,8,10,-1,12,-1,-1,16,-1,-1,-1,-1,-1,-1,-1],"split_conditions":[1.1416666E1,1.55E1,5E-1,-1.731134E-2,-4.702279E-2,1.5E0,1.35E1,-3.006134E-2,5E-1,-3.7930056E-2,1.35780545E-2,2.5E0,-3.2510422E-2,-2.7060885E-2,-5.0682254E-2,5.901676E-3,4.080938E-2,-3.452118E-2,-1.4877672E-2],"split_indices":[6967,6742,5807,0,0,6742,3715,0,1415,7789,0,979,0,2147483647,2147483647,0,0,2147483647,2147483647],"split_type":[0,0,0,0,0,0,0,0,0,0,0,0,0,0,0,0,0,0,0],"sum_hessian":[9.888181E1,2.0554647E1,7.832716E1,7.1556616E0,1.3398986E1,5.4713856E1,2.3613312E1,7.590822E0,4.712303E1,1.7835587E1,5.7777243E0,4.1479504E1,5.6435304E0,1.1314163E1,6.5214243E0,3.2581367E1,8.898133E0,5.8800535E0,5.4341097E0],"tree_param":{"num_deleted":"4","num_feature":"7834","num_nodes":"19","size_leaf_vector":"0"}},{"base_weights":[-2.7040938E-1,-3.4408572E-1,7.2267765E-1,-2.0839491E-1,-8.8666385E-1,-5.006352E-2,-6.222646E-1,-1.0006816E0,-5.304592E-1,-1.92043E-1,5.5110145E-1,-8.890454E-1,4.37929E-3,-3.5561898E-1,5.8025265E-1],"categories":[],"categories_nodes":[],"categories_segments":[],"categories_sizes":[],"default_left":[1,1,0,1,1,1,1,1,1,1,0,0,0,0,0],"id":69,"left_children":[1,3,-1,5,-1,9,11,-1,-1,13,-1,-1,-1,-1,-1],"loss_changes":[7.4817348E0,6.640567E0,0E0,4.9141345E0,2.0993996E-1,4.8576813E0,3.4803038E0,0E0,0E0,5.989434E0,0E0,0E0,0E0,0E0,0E0],"parents":[2147483647,0,0,1,1,3,3,4,4,5,5,6,6,9,9],"right_children":[2,4,-1,6,-1,10,12,-1,-1,14,-1,-1,-1,-1,-1],"split_conditions":[3.5E0,1.5E0,3.613388E-2,2.5E0,-4.4333193E-2,2.5E0,5E-1,-5.0034083E-2,-2.6522962E-2,5E-1,2.7555073E-2,-4.4452272E-2,2.1896452E-4,-1.778095E-2,2.9012633E-2],"split_indices":[3483,5733,0,7801,5913,979,2407,2147483647,2147483647,3646,0,0,0,0,0],"split_type":[0,0,0,0,0,0,0,0,0,0,0,0,0,0,0],"sum_hessian":[9.785697E1,9.170683E1,6.1501403E0,7.446765E1,1.7239182E1,5.4672802E1,1.979485E1,1.1688507E1,5.5506744E0,4.477796E1,9.894837E0,1.3590311E1,6.2045374E0,3.739669E1,7.3812714E0],"tree_param":{"num_deleted":"2","num_feature":"7834","num_nodes":"15","size_leaf_vector":"0"}},{"base_weights":[-2.6411963E-1,-9.8514415E-2,-6.460386E-1,-5.915716E-1,4.839441E-2,-7.854255E-1,-7.043025E-2,-1.7485566E-1,-8.6625165E-1,-6.25639E-2,7.9829127E-1,-8.900791E-1,-3.979964E-1,5.254431E-2,-7.328133E-1,-6.4451015E-1,1.9562282E-1],"categories":[],"categories_nodes":[],"categories_segments":[],"categories_sizes":[],"default_left":[1,1,1,1,1,1,0,0,0,1,0,1,1,1,0,0,0],"id":70,"left_children":[1,3,5,7,9,-1,-1,-1,-1,13,-1,-1,-1,15,-1,-1,-1],"loss_changes":[6.0321918E0,4.983784E0,2.269126E0,1.6546926E0,4.512306E0,5.8742905E-1,0E0,0E0,0E0,3.7143216E0,0E0,0E0,0E0,4.274425E0,0E0,0E0,0E0],"parents":[2147483647,0,0,1,1,2,2,3,3,4,4,5,5,9,9,13,13],"right_children":[2,4,6,8,10,-1,-1,-1,-1,14,-1,-1,-1,16,-1,-1,-1],"split_conditions":[5E-1,1.1416666E1,5E-1,1.55E1,5E-1,-3.9271276E-2,-3.5215125E-3,-8.742783E-3,-4.3312583E-2,1.5E0,3.9914563E-2,-4.4503953E-2,-1.989982E-2,1.5E0,-3.6640666E-2,-3.222551E-2,9.781141E-3],"split_indices":[5807,6967,3646,6742,3270,5913,0,0,0,3747,0,2147483647,2147483647,6742,0,0,0],"split_type":[0,0,0,0,0,0,0,0,0,0,0,0,0,0,0,0,0],"sum_hessian":[9.538024E1,6.740882E1,2.7971426E1,1.4779359E1,5.262946E1,2.2225E1,5.746427E0,6.521777E0,8.257582E0,4.6644314E1,5.985145E0,1.6476828E1,5.7481723E0,4.0594284E1,6.0500317E0,6.3165455E0,3.4277737E1],"tree_param":{"num_deleted":"2","num_feature":"7834","num_nodes":"17","size_leaf_vector":"0"}},{"base_weights":[-2.3098841E-1,-7.361964E-1,-9.469813E-2,-3.3894145E-1,-8.670716E-1,1.1705244E-1,-5.7068086E-1,2.2218546E-1,-7.457781E-1,-7.6508474E-1,3.9928187E-2,8.811141E-2,1.0709648E0,-4.2750317E-1,-9.695491E-1,-6.442427E-2,7.340018E-1],"categories":[],"categories_nodes":[],"categories_segments":[],"categories_sizes":[],"default_left":[1,1,1,1,1,1,1,1,0,1,0,1,0,1,1,0,0],"id":71,"left_children":[1,-1,5,-1,-1,7,9,11,-1,-1,-1,15,-1,-1,-1,-1,-1],"loss_changes":[6.439963E0,7.4272823E-1,7.686851E0,0E0,0E0,4.987521E0,2.8139677E0,5.385346E0,0E0,8.165674E-1,0E0,4.2515316E0,0E0,0E0,0E0,0E0,0E0],"parents":[2147483647,0,0,1,1,2,2,5,5,6,6,7,7,9,9,11,11],"right_children":[2,-1,6,-1,-1,8,10,12,-1,-1,-1,16,-1,-1,-1,-1,-1],"split_conditions":[1.1416666E1,-3.680982E-2,5E-1,-1.6947074E-2,-4.3353584E-2,2.5E0,1.35E1,5E-1,-3.7288904E-2,-3.825424E-2,1.9964094E-3,2.5E0,5.3548243E-2,-2.1375159E-2,-4.8477456E-2,-3.2212136E-3,3.6700092E-2],"split_indices":[6967,6742,5807,2147483647,2147483647,3747,3715,3302,0,6742,0,979,0,2147483647,2147483647,0,0],"split_type":[0,0,0,0,0,0,0,0,0,0,0,0,0,0,0,0,0],"sum_hessian":[9.354193E1,1.89384E1,7.460353E1,5.582684E0,1.3355716E1,5.215528E1,2.2448252E1,4.715241E1,5.002871E0,1.6835295E1,5.612957E0,4.167344E1,5.4789696E0,7.5163093E0,9.318985E0,3.4440186E1,7.233256E0],"tree_param":{"num_deleted":"4","num_feature":"7834","num_nodes":"17","size_leaf_vector":"0"}},{"base_weights":[-2.5545368E-1,-3.3322313E-1,4.5455253E-1,-1.7053951E-1,-7.454055E-1,-3.330653E-1,2.9063636E-1,-9.750391E-1,-3.7135574E-1,-1.0360456E-1,-7.9038465E-1,5.723497E-1,-2.7409187E-1,-3.4825552E-1,2.0160985E-1,1.6702336E-1,8.8992417E-1],"categories":[],"categories_nodes":[],"categories_segments":[],"categories_sizes":[],"default_left":[1,1,0,1,1,1,1,0,0,1,0,1,0,0,0,0,0],"id":72,"left_children":[1,3,-1,5,7,9,11,-1,-1,13,-1,15,-1,-1,-1,-1,-1],"loss_changes":[5.2845044E0,5.5297546E0,0E0,4.727712E0,1.6630526E0,4.7609816E0,2.8031895E0,0E0,0E0,2.4508612E0,0E0,1.3215661E0,0E0,0E0,0E0,0E0,0E0],"parents":[2147483647,0,0,1,1,3,3,4,4,5,5,6,6,9,9,11,11],"right_children":[2,4,-1,6,8,10,12,-1,-1,14,-1,16,-1,-1,-1,-1,-1],"split_conditions":[5E-1,5E-1,2.2727627E-2,5E-1,2.5E0,1.5E0,1.5E0,-4.8751958E-2,-1.8567787E-2,5E-1,-3.951923E-2,2.85E1,-1.3704593E-2,-1.7412776E-2,1.0080493E-2,8.351169E-3,4.449621E-2],"split_indices":[3483,5733,0,2407,5916,7801,1383,0,0,6621,0,6742,0,0,0,0,0],"split_type":[0,0,0,0,0,0,0,0,0,0,0,0,0,0,0,0,0],"sum_hessian":[9.1961494E1,8.336131E1,8.600183E0,6.078423E1,2.2577085E1,4.5150322E1,1.5633906E1,1.2993507E1,9.583578E0,3.0881851E1,1.4268471E1,1.0421613E1,5.2122936E0,1.7063349E1,1.3818501E1,5.248625E0,5.172988E0],"tree_param":{"num_deleted":"0","num_feature":"7834","num_nodes":"17","size_leaf_vector":"0"}},{"base_weights":[-2.6059097E-1,-3.3206084E-1,4.5895547E-1,-2.0948367E-1,-7.9508346E-1,-3.162679E-1,3.4666032E-1,-4.1470984E-1,-9.475541E-1,-1.8582305E-1,-7.615656E-1,-1.4906737E-1,7.597902E-1,-2.7613643E-1,3.3202466E-1],"categories":[],"categories_nodes":[],"categories_segments":[],"categories_sizes":[],"default_left":[1,1,0,1,1,1,1,1,1,1,0,0,0,0,0],"id":73,