{"learner":{"attributes":{"best_iteration":"99","best_ntree_limit":"100","scikit_learn":"{\"use_label_encoder\": false, \"n_estimators\": 100, \"objective\": \"binary:logistic\", \"max_depth\": 5, \"max_leaves\": null, \"max_bin\": null, \"grow_policy\": null, \"learning_rate\": 0.05, \"verbosity\": null, \"booster\": null, \"tree_method\": null, \"gamma\": 1, \"min_child_weight\": 5.0, \"max_delta_step\": null, \"subsample\": 0.9, \"sampling_method\": null, \"colsample_bytree\": 0.9, \"colsample_bylevel\": null, \"colsample_bynode\": null, \"reg_alpha\": null, \"reg_lambda\": null, \"scale_pos_weight\": null, \"base_score\": null, \"missing\": NaN, \"num_parallel_tree\": null, \"random_state\": 42, \"n_jobs\": null, \"monotone_constraints\": null, \"interaction_constraints\": null, \"importance_type\": null, \"gpu_id\": null, \"validate_parameters\": null, \"predictor\": null, \"enable_categorical\": false, \"max_cat_to_onehot\": null, \"eval_metric\": null, \"early_stopping_rounds\": null, \"callbacks\": null, \"classes_\": [0, 1], \"n_classes_\": 2, \"evals_result_\": {\"validation_0\": {\"logloss\": [0.6500441701655942, 0.611221118973509, 0.5756220938736347, 0.5430755973842813, 0.5135535808623748, 0.486248783828509, 0.46112339715139566, 0.43792012288343474, 0.4169843224885181, 0.3971141785488286, 0.3789994797541308, 0.3619724255401015, 0.3461630601090074, 0.3315012415413571, 0.3177467985593054, 0.3051567839679651, 0.2932210250480755, 0.28223143875178663, 0.27221267790337705, 0.26244405531855225, 0.2533473268974262, 0.24511537025874144, 0.23733434784986718, 0.22998678381308546, 0.2232458686016141, 0.21692274649190846, 0.21088960628461895, 0.20523354598484084, 0.1998040085148447, 0.19486999963481333, 0.19036622273655812, 0.18611214335320558, 0.18207503519033014, 0.17836611160240218, 0.1747312296606539, 0.171508138393053, 0.16841303730508275, 0.16527703491101955, 0.16263576746687344, 0.16020270467644993, 0.15789171257499524, 0.15550956324390744, 0.15333813507674585, 0.1512332904282804, 0.14944141616412251, 0.147705403214581, 0.14616386827024533, 0.14471777354298132, 0.14337984710651616, 0.1419651549042462, 0.14052250766831195, 0.13948345229852635, 0.13856979835992975, 0.13746194266544526, 0.13658892221039667, 0.13555281343142098, 0.13490853825918936, 0.13412134260919764, 0.13351327035527952, 0.13304414102407094, 0.13245360560049813, 0.13220523879343488, 0.13140744106137095, 0.13063960062333335, 0.12971711772921923, 0.12914959733296716, 0.128709982240137, 0.12847366732502516, 0.12818629384154648, 0.12777991918135614, 0.1274654326608052, 0.12689022309027534, 0.1267701251504529, 0.12636391506623368, 0.12626872028275607, 0.12602862079663926, 0.1258179969739795, 0.12532169711321908, 0.12514219059445814, 0.12484776899196671, 0.12441652375749465, 0.1244562791920892, 0.12411498959963106, 0.12380936050833533, 0.12331274630158229, 0.1229462070920265, 0.12280394390803247, 0.12258476766699665, 0.12227185935079701, 0.12180650457148862, 0.12143915337450216, 0.12129579226187617, 0.12111643663378811, 0.12097198605541792, 0.12095653748448355, 0.12090967105620581, 0.12077749211540321, 0.12070790773583741, 0.1202381139492001, 0.12006509905521234]}}, \"_estimator_type\": \"classifier\"}"},"feature_names":[],"feature_types":[],"gradient_booster":{"model":{"gbtree_model_param":{"num_parallel_tree":"1","num_trees":"100","size_leaf_vector":"0"},"tree_info":[0,0,0,0,0,0,0,0,0,0,0,0,0,0,0,0,0,0,0,0,0,0,0,0,0,0,0,0,0,0,0,0,0,0,0,0,0,0,0,0,0,0,0,0,0,0,0,0,0,0,0,0,0,0,0,0,0,0,0,0,0,0,0,0,0,0,0,0,0,0,0,0,0,0,0,0,0,0,0,0,0,0,0,0,0,0,0,0,0,0,0,0,0,0,0,0,0,0,0,0],"trees":[{"base_weights":[-1.8795315E0,-1.8983625E0,-3.0769232E-1,-1.9182243E0,-1.2380953E0,-1.9264531E0,-1.2E0,-7.4285716E-1,-1.625E0],"categories":[],"categories_nodes":[],"categories_segments":[],"categories_sizes":[],"default_left":[1,1,0,1,1,1,1,0,0],"id":0,"left_children":[1,3,-1,-1,7,-1,-1,-1,-1],"loss_changes":[1.2683838E1,3.4312744E0,0E0,2.1777344E-1,1.8107147E0,0E0,0E0,0E0,0E0],"parents":[2147483647,0,0,1,1,3,3,4,4],"right_children":[2,4,-1,-1,8,-1,-1,-1,-1],"split_conditions":[5E-1,1.5E0,-1.5384616E-2,-9.591122E-2,5E-1,-9.6322656E-2,-6.0000002E-2,-3.7142858E-2,-8.1250004E-2],"split_indices":[1997,4883,0,953,5068,2147483647,2147483647,0,0],"split_type":[0,0,0,0,0,0,0,0,0],"sum_hessian":[4.4725E2,4.4175E2,5.5E0,4.27E2,1.475E1,4.205E2,6.5E0,7.75E0,7E0],"tree_param":{"num_deleted":"2","num_feature":"7834","num_nodes":"9","size_leaf_vector":"0"}},{"base_weights":[-1.7901428E0,-1.8094668E0,-8.5754186E-1,-1.8195992E0,-8.557291E-1,-1.8315555E0,-1.1474711E0],"categories":[],"categories_nodes":[],"categories_segments":[],"categories_sizes":[],"default_left":[1,1,0,1,0,0,0],"id":1,"left_children":[1,3,-1,5,-1,-1,-1],"loss_changes":[6.517578E0,2.6733398E0,0E0,1.3720703E0,0E0,0E0,0E0],"parents":[2147483647,0,0,1,1,3,3],"right_children":[2,4,-1,6,-1,-1,-1],"split_conditions":[5.5E0,3.75E1,-4.2877093E-2,3.5E0,-4.2786457E-2,-9.1577776E-2,-5.7373554E-2],"split_indices":[4883,6625,0,3555,0,0,0],"split_type":[0,0,0,0,0,0,0],"sum_hessian":[4.4675253E2,4.3676227E2,9.990247E0,4.3127267E2,5.489608E0,4.2204004E2,9.232622E0],"tree_param":{"num_deleted":"0","num_feature":"7834","num_nodes":"7","size_leaf_vector":"0"}},{"base_weights":[-1.7208564E0,-1.7366165E0,-3.9011154E-1,-1.7548748E0,-1.1423559E0,-1.76306E0,-1.1244E0,-6.1835593E-1,-1.5323867E0],"categories":[],"categories_nodes":[],"categories_segments":[],"categories_sizes":[],"default_left":[1,1,0,1,1,1,1,0,0],"id":2,"left_children":[1,3,-1,-1,7,-1,-1,-1,-1],"loss_changes":[8.639404E0,2.7558594E0,0E0,2.0483398E-1,2.3109531E0,0E0,0E0,0E0,0E0],"parents":[2147483647,0,0,1,1,3,3,4,4],"right_children":[2,4,-1,-1,8,-1,-1,-1,-1],"split_conditions":[5E-1,1.5E0,-1.9505577E-2,-8.7743744E-2,5E-1,-8.8153E-2,-5.6220002E-2,-3.0917797E-2,-7.6619335E-2],"split_indices":[1997,4883,0,1540,5068,2147483647,2147483647,0,0],"split_type":[0,0,0,0,0,0,0,0,0],"sum_hessian":[4.4324594E2,4.377566E2,5.4893456E0,4.2281287E2,1.494371E1,4.1562064E2,7.192237E0,7.4799385E0,7.463772E0],"tree_param":{"num_deleted":"2","num_feature":"7834","num_nodes":"9","size_leaf_vector":"0"}},{"base_weights":[-1.6549771E0,-1.6701418E0,-3.7390825E-1,-1.6936789E0,-1.1654645E0,-1.3933847E0,-5.089352E-1],"categories":[],"categories_nodes":[],"categories_segments":[],"categories_sizes":[],"default_left":[1,1,0,0,1,0,0],"id":3,"left_children":[1,3,-1,-1,5,-1,-1],"loss_changes":[8.003418E0,3.2364502E0,0E0,0E0,2.695366E0,0E0,0E0],"parents":[2147483647,0,0,1,1,4,4],"right_children":[2,4,-1,-1,6,-1,-1],"split_conditions":[5E-1,5E-1,-1.8695412E-2,-8.468395E-2,5E-1,-6.966924E-2,-2.5446761E-2],"split_indices":[1997,4883,0,0,1440,0,0],"split_type":[0,0,0,0,0,0,0],"sum_hessian":[4.4312045E2,4.3763617E2,5.4842677E0,4.1588428E2,2.175191E1,1.531338E1,6.43853E0],"tree_param":{"num_deleted":"0","num_feature":"7834","num_nodes":"7","size_leaf_vector":"0"}},{"base_weights":[-1.5864689E0,-1.6168215E0,-9.773968E-1,-1.6275718E0,-7.332544E-1,-1.2782516E0,-2.6269734E-1,-1.6354938E0,-9.24679E-1,-7.7738744E-1,-1.4884806E0],"categories":[],"categories_nodes":[],"categories_segments":[],"categories_sizes":[],"default_left":[1,1,1,1,0,1,0,1,1,1,1],"id":4,"left_children":[1,3,5,-1,-1,-1,-1,-1,-1,-1,-1],"loss_changes":[6.534424E0,2.7635498E0,4.688095E0,7.7490234E-1,0E0,5.4701424E-1,0E0,0E0,0E0,0E0,0E0],"parents":[2147483647,0,0,1,1,2,2,3,3,5,5],"right_children":[2,4,6,-1,-1,-1,-1,-1,-1,-1,-1],"split_conditions":[5E-1,1.5E0,5E-1,-8.1378594E-2,-3.666272E-2,-6.3912585E-2,-1.3134867E-2,-8.177469E-2,-4.623395E-2,-3.8869374E-2,-7.442403E-2],"split_indices":[4883,953,1440,6625,0,7455,0,2147483647,2147483647,2147483647,2147483647],"split_type":[0,0,0,0,0,0,0,0,0,0,0],"sum_hessian":[4.379449E2,4.1558023E2,2.2364655E1,4.0975275E2,5.827503E0,1.5184274E1,7.1803813E0,4.038741E2,5.878608E0,5.8779774E0,9.306296E0],"tree_param":{"num_deleted":"4","num_feature":"7834","num_nodes":"11","size_leaf_vector":"0"}},{"base_weights":[-1.5329103E0,-1.544433E0,-5.9377176E-1,-1.5541859E0,-6.5694803E-1,-1.5618973E0,-8.803333E-1,-1.5680383E0,-8.87915E-1,-1.5742636E0,-9.427167E-1],"categories":[],"categories_nodes":[],"categories_segments":[],"categories_sizes":[],"default_left":[1,1,0,1,0,1,1,1,1,1,1],"id":5,"left_children":[1,3,-1,-1,-1,-1,-1,-1,-1,-1,-1],"loss_changes":[3.7244873E0,2.6411133E0,0E0,7.958374E-1,0E0,3.1195068E-1,0E0,9.918213E-2,0E0,0E0,0E0],"parents":[2147483647,0,0,1,1,3,3,5,5,7,7],"right_children":[2,4,-1,-1,-1,-1,-1,-1,-1,-1,-1],"split_conditions":[5E-1,5.5E0,-2.9688587E-2,-7.7709295E-2,-3.28474E-2,-7.809486E-2,-4.4016667E-2,-7.8401916E-2,-4.4395752E-2,-7.871318E-2,-4.7135837E-2],"split_indices":[5192,3555,0,3748,0,2147483647,2147483647,2147483647,2147483647,2147483647,2147483647],"split_type":[0,0,0,0,0,0,0,0,0,0,0],"sum_hessian":[4.2792062E2,4.2209726E2,5.823352E0,4.1676605E2,5.3312087E0,4.1074768E2,6.0183845E0,4.0572437E2,5.0233035E0,4.0022247E2,5.501894E0],"tree_param":{"num_deleted":"6","num_feature":"7834","num_nodes":"11","size_leaf_vector":"0"}},{"base_weights":[-1.4849024E0,-1.5002981E0,-2.6333463E-1,-1.5127877E0,-8.2944703E-1,-1.5208945E0,-8.528478E-1,-1.5295217E0,-8.765203E-1],"categories":[],"categories_nodes":[],"categories_segments":[],"categories_sizes":[],"default_left":[1,1,0,1,0,1,1,1,1],"id":6,"left_children":[1,3,-1,-1,-1,-1,-1,-1,-1],"loss_changes":[7.4697266E0,2.2036133E0,0E0,8.6431885E-1,0E0,8.709717E-1,0E0,0E0,0E0],"parents":[2147483647,0,0,1,1,3,3,5,5],"right_children":[2,4,-1,-1,-1,-1,-1,-1,-1],"split_conditions":[5E-1,5.5E0,-1.3166732E-2,-7.563939E-2,-4.1472353E-2,-7.604473E-2,-4.2642392E-2,-7.647609E-2,-4.3826014E-2],"split_indices":[1997,4883,0,953,0,2147483647,2147483647,2147483647,2147483647],"split_type":[0,0,0,0,0,0,0,0,0],"sum_hessian":[4.171831E2,4.1176535E2,5.417767E0,4.0300732E2,8.758023E0,3.96828E2,6.179326E0,3.9022977E2,6.598225E0],"tree_param":{"num_deleted":"4","num_feature":"7834","num_nodes":"9","size_leaf_vector":"0"}},{"base_weights":[-1.4327034E0,-1.4477971E0,-2.5502366E-1,-1.4584422E0,-5.152043E-1,-1.4662544E0,-8.5824317E-1,-1.4748242E0,-9.03448E-1,-1.4815035E0,-8.581997E-1],"categories":[],"categories_nodes":[],"categories_segments":[],"categories_sizes":[],"default_left":[1,1,0,1,0,1,1,1,1,1,1],"id":7,"left_children":[1,3,-1,-1,-1,-1,-1,-1,-1,-1,-1],"loss_changes":[6.930725E0,3.2718506E0,0E0,6.1779785E-1,0E0,5.6591797E-1,0E0,3.1878662E-1,0E0,0E0,0E0],"parents":[2147483647,0,0,1,1,3,3,5,5,7,7],"right_children":[2,4,-1,-1,-1,-1,-1,-1,-1,-1,-1],"split_conditions":[5E-1,1.5E0,-1.27511835E-2,-7.292211E-2,-2.5760217E-2,-7.331272E-2,-4.291216E-2,-7.374121E-2,-4.51724E-2,-7.407518E-2,-4.2909987E-2],"split_indices":[1997,968,0,953,0,2147483647,2147483647,2147483647,2147483647,2147483647,2147483647],"split_type":[0,0,0,0,0,0,0,0,0,0,0],"sum_hessian":[4.09673E2,4.0426242E2,5.4105706E0,3.9914255E2,5.119886E0,3.9258966E2,6.5528812E0,3.851052E2,7.4844594E0,3.7959082E2,5.514361E0],"tree_param":{"num_deleted":"6","num_feature":"7834","num_nodes":"11","size_leaf_vector":"0"}},{"base_weights":[-1.388144E0,-1.4154403E0,-8.447809E-1,-1.4261491E0,-6.635262E-1,-1.1439526E0,-1.2847643E-1,-1.4351549E0,-7.8134847E-1,-7.809357E-1,-1.374623E0],"categories":[],"categories_nodes":[],"categories_segments":[],"categories_sizes":[],"default_left":[1,1,1,1,0,1,0,0,0,1,1],"id":8,"left_children":[1,3,5,7,-1,-1,-1,-1,-1,-1,-1],"loss_changes":[4.7385254E0,2.109375E0,4.485839E0,1.0462646E0,0E0,1.9285965E-1,0E0,0E0,0E0,0E0,0E0],"parents":[2147483647,0,0,1,1,2,2,3,3,5,5],"right_children":[2,4,6,8,-1,-1,-1,-1,-1,-1,-1],"split_conditions":[5E-1,5E-1,5E-1,1.5E0,-3.317631E-2,-5.719763E-2,-6.423821E-3,-7.175775E-2,-3.9067425E-2,-3.9046787E-2,-6.873115E-2],"split_indices":[4883,6641,1440,1540,0,1492,0,0,0,2147483647,2147483647],"split_type":[0,0,0,0,0,0,0,0,0,0,0],"sum_hessian":[3.991048E2,3.7848627E2,2.0618532E1,3.722874E2,6.198856E0,1.4122929E1,6.495603E0,3.6595053E2,6.3368735E0,7.1912384E0,6.93169E0],"tree_param":{"num_deleted":"2","num_feature":"7834","num_nodes":"11","size_leaf_vector":"0"}},{"base_weights":[-1.3663785E0,-1.3803309E0,-4.6853524E-1,-1.3922569E0,-5.237021E-1,-1.4009827E0,-6.3681155E-1,-1.4097648E0,-8.298094E-1,-1.4187461E0,-9.856768E-1],"categories":[],"categories_nodes":[],"categories_segments":[],"categories_sizes":[],"default_left":[1,1,0,1,0,1,0,1,1,1,1],"id":9,"left_children":[1,3,-1,5,-1,-1,-1,-1,-1,-1,-1],"loss_changes":[4.27063E0,3.2144775E0,0E0,1.6134644E0,0E0,7.1087646E-1,0E0,2.6245117E-3,0E0,0E0,0E0],"parents":[2147483647,0,0,1,1,3,3,5,5,7,7],"right_children":[2,4,-1,6,-1,-1,-1,-1,-1,-1,-1],"split_conditions":[5E-1,7.5E0,-2.3426762E-2,5E-1,-2.6185105E-2,-7.004914E-2,-3.1840578E-2,-7.048824E-2,-4.1490473E-2,-7.0937306E-2,-4.9283843E-2],"split_indices":[5192,4883,0,953,0,2920,0,2147483647,2147483647,2147483647,2147483647],"split_type":[0,0,0,0,0,0,0,0,0,0,0],"sum_hessian":[3.915375E2,3.8501703E2,6.520496E0,3.7911374E2,5.903288E0,3.7394E2,5.1737394E0,3.6683154E2,7.1084414E0,3.569272E2,9.904361E0],"tree_param":{"num_deleted":"4","num_feature":"7834","num_nodes":"11","size_leaf_vector":"0"}},{"base_weights":[-1.3125329E0,-1.3320059E0,-4.3514314E-1,-1.3450853E0,-5.177122E-1,-1.3568888E0,-5.785843E-1,-1.3659538E0,-6.569531E-1,-1.3793998E0,-9.6130186E-1],"categories":[],"categories_nodes":[],"categories_segments":[],"categories_sizes":[],"default_left":[1,1,0,1,0,1,0,1,0,1,1],"id":10,"left_children":[1,3,-1,5,-1,7,-1,-1,-1,-1,-1],"loss_changes":[5.909607E0,3.2557983E0,0E0,2.5134888E0,0E0,1.3760986E0,0E0,5.936279E-1,0E0,0E0,0E0],"parents":[2147483647,0,0,1,1,3,3,5,5,7,7],"right_children":[2,4,-1,6,-1,8,-1,-1,-1,-1,-1],"split_conditions":[5.5E0,1.5E0,-2.1757158E-2,2.5E0,-2.588561E-2,2.9E1,-2.8929217E-2,-6.829769E-2,-3.2847654E-2,-6.896999E-2,-4.8065092E-2],"split_indices":[4883,953,0,2920,0,6625,0,3420,0,2147483647,2147483647],"split_type":[0,0,0,0,0,0,0,0,0,0,0],"sum_hessian":[3.788117E2,3.700799E2,8.731783E0,3.63588E2,6.491885E0,3.5731537E2,6.272652E0,3.518075E2,5.5078645E0,3.3816208E2,1.3645423E1],"tree_param":{"num_deleted":"2","num_feature":"7834","num_nodes":"11","size_leaf_vector":"0"}},{"base_weights":[-1.2813393E0,-1.3000154E0,-3.9331652E-2,-1.3111128E0,-4.5489573E-1,-1.3216171E0,-6.7343897E-1,-1.3313391E0,-6.765196E-1,-1.3387331E0,-6.9141775E-1],"categories":[],"categories_nodes":[],"categories_segments":[],"categories_sizes":[],"default_left":[1,1,0,1,0,1,0,1,0,1,1],"id":11,"left_children":[1,3,-1,5,-1,7,-1,-1,-1,-1,-1],"loss_changes":[8.536072E0,2.8238525E0,0E0,1.5176392E0,0E0,1.3104858E0,0E0,7.128906E-1,0E0,0E0,0E0],"parents":[2147483647,0,0,1,1,3,3,5,5,7,7],"right_children":[2,4,-1,6,-1,8,-1,-1,-1,-1,-1],"split_conditions":[5E-1,1.5E0,-1.9665826E-3,1.5E0,-2.2744788E-2,7.5E0,-3.367195E-2,-6.656696E-2,-3.382598E-2,-6.693666E-2,-3.4570888E-2],"split_indices":[1997,968,0,953,0,4883,0,1384,0,2147483647,2147483647],"split_type":[0,0,0,0,0,0,0,0,0,0,0],"sum_hessian":[3.6920407E2,3.6368857E2,5.5155187E0,3.5843057E2,5.2579794E0,3.5156668E2,6.863917E0,3.45299E2,6.2676516E0,3.4027533E2,5.023697E0],"tree_param":{"num_deleted":"2","num_feature":"7834","num_nodes":"11","size_leaf_vector":"0"}},{"base_weights":[-1.2618375E0,-1.2778413E0,-1.397494E-1,-1.3004903E0,-8.2906145E-1,-1.3123195E0,-8.581265E-1,-2.1010008E-1,-1.2122744E0,-1.3222288E0,-9.0776336E-1,-3.4435302E-1,-1.1947405E0,-4.9773717E-1,-1.1662501E0],"categories":[],"categories_nodes":[],"categories_segments":[],"categories_sizes":[],"default_left":[1,1,0,1,1,1,1,0,0,1,1,0,0,1,1],"id":12,"left_children":[1,3,-1,5,7,-1,11,-1,-1,-1,-1,-1,-1,-1,-1],"loss_changes":[6.4085693E0,2.5965576E0,0E0,6.655884E-1,4.519492E0,1.2908936E-1,1.6305456E0,0E0,0E0,0E0,5.9789276E-1,0E0,0E0,0E0,0E0],"parents":[2147483647,0,0,1,1,3,3,4,4,5,5,6,6,10,10],"right_children":[2,4,-1,6,8,-1,12,-1,-1,-1,-1,-1,-1,-1,-1],"split_conditions":[5E-1,5E-1,-6.9874697E-3,5.5E0,4.5E0,-6.5615974E-2,5E-1,-1.0505005E-2,-6.061372E-2,-6.611144E-2,-4.538817E-2,-1.7217651E-2,-5.9737027E-2,-2.488686E-2,-5.8312505E-2],"split_indices":[1997,4883,0,3253,7455,1384,3715,0,0,2147483647,2147483647,0,0,2147483647,2147483647],"split_type":[0,0,0,0,0,0,0,0,0,0,0,0,0,0,0],"sum_hessian":[3.6581317E2,3.6053226E2,5.280922E0,3.4140445E2,1.9127787E1,3.3059735E2,1.0807095E1,7.9061394E0,1.1221647E1,3.2047916E2,1.01182165E1,5.0786095E0,5.728485E0,5.0435057E0,5.0747113E0],"tree_param":{"num_deleted":"4","num_feature":"7834","num_nodes":"15","size_leaf_vector":"0"}},{"base_weights":[-1.2470392E0,-1.2771431E0,-6.873706E-1,-1.2894388E0,-3.9786375E-1,-9.9284774E-1,-2.9272817E-2,-1.299799E0,-5.2641153E-1,-5.997307E-1,-1.2548195E0,-1.3073312E0,-8.1263226E-1],"categories":[],"categories_nodes":[],"categories_segments":[],"categories_sizes":[],"default_left":[1,1,1,1,0,1,0,1,0,1,1,1,1],"id":13,"left_children":[1,3,5,7,-1,-1,-1,-1,-1,-1,-1,-1,-1],"loss_changes":[5.10376E0,3.1168823E0,4.049411E0,1.9296875E0,0E0,6.712713E-1,0E0,1.3226318E-1,0E0,0E0,0E0,0E0,0E0],"parents":[2147483647,0,0,1,1,2,2,3,3,5,5,7,7],"right_children":[2,4,6,8,-1,-1,-1,-1,-1,-1,-1,-1,-1],"split_conditions":[5E-1,3.7E1,5E-1,1.5E0,-1.9893188E-2,-4.9642388E-2,-1.4636408E-3,-6.498995E-2,-2.6320577E-2,-2.9986534E-2,-6.2740974E-2,-6.536656E-2,-4.0631615E-2],"split_indices":[4883,6625,1440,1540,0,1492,0,3541,0,2147483647,2147483647,2147483647,2147483647],"split_type":[0,0,0,0,0,0,0,0,0,0,0,0,0],"sum_hessian":[3.5403247E2,3.3474496E2,1.9287504E1,3.2966843E2,5.0765195E0,1.2825483E1,6.4620204E0,3.245582E2,5.1102242E0,6.444343E0,6.38114E0,3.1795865E2,6.5995774E0],"tree_param":{"num_deleted":"4","num_feature":"7834","num_nodes":"13","size_leaf_vector":"0"}},{"base_weights":[-1.2148373E0,-1.2314808E0,-9.5738195E-2,-1.2490298E0,-8.1994045E-1,-1.2586758E0,-5.5450785E-1,-3.035807E-1,-1.0654275E0,-1.2732472E0,-7.882465E-1,-2.5617352E-1,-1.1714929E0],"categories":[],"categories_nodes":[],"categories_segments":[],"categories_sizes":[],"default_left":[1,1,0,1,1,1,0,0,0,0,1,0,0],"id":14,"left_children":[1,3,-1,5,7,9,-1,-1,-1,-1,11,-1,-1],"loss_changes":[6.403137E0,1.4667358E0,0E0,1.5053711E0,1.8335428E0,1.2144775E0,0E0,0E0,0E0,0E0,2.2176504E0,0E0,0E0],"parents":[2147483647,0,0,1,1,3,3,4,4,5,5,10,10],"right_children":[2,4,-1,6,8,10,-1,-1,-1,-1,12,-1,-1],"split_conditions":[5E-1,5E-1,-4.78691E-3,5E-1,5E-1,5.5E0,-2.7725393E-2,-1.5179035E-2,-5.327138E-2,-6.3662365E-2,5.5E0,-1.2808676E-2,-5.8574647E-2],"split_indices":[1997,4077,0,6498,3253,3253,0,0,0,0,6148,0,0],"split_type":[0,0,0,0,0,0,0,0,0,0,0,0,0],"sum_hessian":[3.4910922E2,3.4389432E2,5.214901E0,3.27878E2,1.601635E1,3.2258533E2,5.2926517E0,5.881596E0,1.0134754E1,3.1123825E2,1.134708E1,5.4496255E0,5.8974543E0],"tree_param":{"num_deleted":"0","num_feature":"7834","num_nodes":"13","size_leaf_vector":"0"}},{"base_weights":[-1.1810173E0,-1.2162513E0,-5.9768367E-1,-1.2287445E0,-3.801114E-1,-5.3679813E-2,-9.587095E-1,-1.2387961E0,-7.3076445E-1,-1.2152896E0,-5.5206215E-1,-1.2468829E0,-7.933086E-1,-1.2577565E0,-8.6528844E-1],"categories":[],"categories_nodes":[],"categories_segments":[],"categories_sizes":[],"default_left":[1,1,1,1,0,0,1,1,1,1,1,1,1,1,1],"id":15,"left_children":[1,3,5,-1,-1,-1,-1,-1,-1,-1,-1,-1,-1,-1,-1],"loss_changes":[6.2110596E0,2.848175E0,4.1110263E0,6.5771484E-1,0E0,0E0,6.521044E-1,1.0827637E-1,0E0,0E0,0E0,1.4590454E-1,0E0,0E0,0E0],"parents":[2147483647,0,0,1,1,2,2,3,3,6,6,7,7,11,11],"right_children":[2,4,6,-1,-1,-1,-1,-1,-1,-1,-1,-1,-1,-1,-1],"split_conditions":[5E-1,3.25E1,4.5E0,-6.1437227E-2,-1.900557E-2,-2.6839906E-3,-4.7935475E-2,-6.1939806E-2,-3.6538225E-2,-6.076448E-2,-2.7603108E-2,-6.2344145E-2,-3.966543E-2,-6.2887825E-2,-4.3264423E-2],"split_indices":[4883,6625,7455,3541,0,0,5656,2147483647,2147483647,2147483647,2147483647,2147483647,2147483647,2147483647,2147483647],"split_type":[0,0,0,0,0,0,0,0,0,0,0,0,0,0,0],"sum_hessian":[3.3656287E2,3.1636887E2,2.0194002E1,3.1124878E2,5.1200957E0,8.513822E0,1.168018E1,3.0363242E2,7.6163607E0,5.9422617E0,5.7379174E0,2.9645203E2,7.1803794E0,2.8600623E2,1.0445795E1],"tree_param":{"num_deleted":"8","num_feature":"7834","num_nodes":"15","size_leaf_vector":"0"}},{"base_weights":[-1.1558237E0,-1.1762353E0,4.5611333E-2,-1.1881613E0,-4.726417E-1,-1.205074E0,-6.7465097E-1,-1.21624E0,-6.002378E-1,-1.0269915E-1,-1.1410538E0,-1.2307444E0,-6.789676E-1],"categories":[],"categories_nodes":[],"categories_segments":[],"categories_sizes":[],"default_left":[1,1,0,1,0,1,1,1,0,0,0,0,0],"id":16,"left_children":[1,3,-1,5,-1,7,9,11,-1,-1,-1,-1,-1],"loss_changes":[8.014404E0,2.1171875E0,0E0,1.9075623E0,0E0,1.3095093E0,3.153336E0,1.4674683E0,0E0,0E0,0E0,0E0,0E0],"parents":[2147483647,0,0,1,1,3,3,5,5,6,6,7,7],"right_children":[2,4,-1,6,-1,8,10,12,-1,-1,-1,-1,-1],"split_conditions":[5E-1,1.5E0,2.2805666E-3,5.5E0,-2.3632085E-2,3.5E0,1.5E0,1.5E0,-3.001189E-2,-5.134958E-3,-5.705269E-2,-6.1537217E-2,-3.394838E-2],"split_indices":[1997,953,0,3253,0,4883,7789,1384,0,0,0,0,0],"split_type":[0,0,0,0,0,0,0,0,0,0,0,0,0],"sum_hessian":[3.236226E2,3.1823694E2,5.38566E0,3.1225546E2,5.981462E0,3.009953E2,1.1260165E1,2.9454672E2,6.4485617E0,5.605864E0,5.654301E0,2.8554733E2,8.999395E0],"tree_param":{"num_deleted":"0","num_feature":"7834","num_nodes":"13","size_leaf_vector":"0"}},{"base_weights":[-1.1400123E0,-1.1689984E0,-5.7792825E-1,-1.1805832E0,-4.7533473E-1,-7.098744E-2,-1.0251575E0,-1.1910601E0,-7.257399E-1,-1.1993643E0,-6.932467E-1,-1.2076889E0,-7.643054E-1],"categories":[],"categories_nodes":[],"categories_segments":[],"categories_sizes":[],"default_left":[1,1,1,1,0,0,0,1,1,1,1,1,1],"id":17,"left_children":[1,3,5,-1,-1,-1,-1,-1,-1,-1,-1,-1,-1],"loss_changes":[4.44281E0,1.8316956E0,3.868485E0,5.2804565E-1,0E0,0E0,0E0,3.428955E-1,0E0,8.389282E-2,0E0,0E0,0E0],"parents":[2147483647,0,0,1,1,2,2,3,3,7,7,9,9],"right_children":[2,4,6,-1,-1,-1,-1,-1,-1,-1,-1,-1,-1],"split_conditions":[1.5E0,5.5E0,5E-1,-5.9029162E-2,-2.3766737E-2,-3.549372E-3,-5.1257875E-2,-5.9553005E-2,-3.6286995E-2,-5.9968214E-2,-3.4662336E-2,-6.038445E-2,-3.8215272E-2],"split_indices":[1440,4883,2389,7027,0,0,0,2147483647,2147483647,2147483647,2147483647,2147483647,2147483647],"split_type":[0,0,0,0,0,0,0,0,0,0,0,0,0],"sum_hessian":[3.1315488E2,2.9677097E2,1.6383915E1,2.9120557E2,5.5653887E0,8.222414E0,8.161501E0,2.8306683E2,8.138744E0,2.7703616E2,6.0306644E0,2.700922E2,6.943962E0],"tree_param":{"num_deleted":"6","num_feature":"7834","num_nodes":"13","size_leaf_vector":"0"}},{"base_weights":[-1.1088439E0,-1.1471779E0,-5.217285E-1,-1.1573128E0,-5.1061666E-1,-8.425966E-1,1.4813647E-1,-1.1704302E0,-7.042939E-1,-3.9864072E-1,-1.1740441E0,-1.1820463E0,-7.5100553E-1,-1.1913455E0,-7.27043E-1],"categories":[],"categories_nodes":[],"categories_segments":[],"categories_sizes":[],"default_left":[1,1,1,1,0,1,0,1,1,0,0,1,1,1,1],"id":18,"left_children":[1,3,5,-1,-1,9,-1,-1,-1,-1,-1,-1,-1,-1,-1],"loss_changes":[6.234558E0,1.242279E0,4.51862E0,8.331299E-1,0E0,1.5877972E0,0E0,4.2556763E-1,0E0,0E0,0E0,2.3626709E-1,0E0,0E0,0E0],"parents":[2147483647,0,0,1,1,2,2,3,3,5,5,7,7,11,11],"right_children":[2,4,6,-1,-1,10,-1,-1,-1,-1,-1,-1,-1,-1,-1],"split_conditions":[5E-1,5E-1,5E-1,-5.786564E-2,-2.5530834E-2,5E-1,7.4068233E-3,-5.852151E-2,-3.5214696E-2,-1.9932037E-2,-5.8702208E-2,-5.9102315E-2,-3.7550278E-2,-5.9567273E-2,-3.635215E-2],"split_indices":[4883,6641,1440,3253,0,1492,0,2147483647,2147483647,0,0,2147483647,2147483647,2147483647,2147483647],"split_type":[0,0,0,0,0,0,0,0,0,0,0,0,0,0,0],"sum_hessian":[3.0260312E2,2.8316098E2,1.944215E1,2.7791815E2,5.242819E0,1.29710865E1,6.4710646E0,2.6855823E2,9.359928E0,6.4860725E0,6.485014E0,2.595516E2,9.00664E0,2.5276738E2,6.7842193E0],"tree_param":{"num_deleted":"6","num_feature":"7834","num_nodes":"15","size_leaf_vector":"0"}},{"base_weights":[-1.0920815E0,-1.1143929E0,1.0410206E-1,-1.1445047E0,-6.151267E-1,-1.1569699E0,-4.150638E-1,-7.1196385E-2,-9.767125E-1,-1.1695654E0,-6.093958E-1,-1.1827787E0,-6.1647695E-1],"categories":[],"categories_nodes":[],"categories_segments":[],"categories_sizes":[],"default_left":[1,1,0,1,1,1,0,0,0,1,0,0,0],"id":19,"left_children":[1,3,-1,5,7,9,-1,-1,-1,11,-1,-1,-1],"loss_changes":[7.9377136E0,3.622589E0,0E0,1.9772034E0,3.5753064E0,1.1160889E0,0E0,0E0,0E0,1.1571655E0,0E0,0E0,0E0],"parents":[2147483647,0,0,1,1,3,3,4,4,5,5,9,9],"right_children":[2,4,-1,6,8,10,-1,-1,-1,12,-1,-1,-1],"split_conditions":[5E-1,5E-1,5.205103E-3,5.5E0,4.5E0,5E-1,-2.075319E-2,-3.5598192E-3,-4.8835628E-2,1.5E0,-3.046979E-2,-5.9138935E-2,-3.0823847E-2],"split_indices":[1997,4883,0,1015,7455,7027,0,0,0,1384,0,0,0],"split_type":[0,0,0,0,0,0,0,0,0,0,0,0,0],"sum_hessian":[2.9207486E2,2.8679395E2,5.2809205E0,2.6926184E2,1.753209E1,2.6416153E2,5.100312E0,7.4787583E0,1.005333E1,2.5711145E2,7.050077E0,2.5000044E2,7.111024E0],"tree_param":{"num_deleted":"0","num_feature":"7834","num_nodes":"13","size_leaf_vector":"0"}},{"base_weights":[-1.0694349E0,-1.1058091E0,-5.26228E-1,-1.1204627E0,-2.9838517E-1,-1.1864111E-1,-1.1033086E0,-1.134962E0,-6.309291E-1,-5.9525925E-1,3.8574833E-1,-1.1591245E0,-8.1483346E-1,-1.1741632E0,-5.485748E-1,-1.08302966E-1,-1.1014683E0],"categories":[],"categories_nodes":[],"categories_segments":[],"categories_sizes":[],"default_left":[1,1,1,1,0,1,0,1,0,0,0,1,1,0,0,0,0],"id":20,"left_children":[1,3,5,7,-1,9,-1,11,-1,-1,-1,13,15,-1,-1,-1,-1],"loss_changes":[5.041046E0,2.810669E0,4.518764E0,1.1344299E0,0E0,3.2841337E0,0E0,1.004425E0,0E0,0E0,0E0,1.48526E0,4.143548E0,0E0,0E0,0E0,0E0],"parents":[2147483647,0,0,1,1,2,2,3,3,5,5,7,7,11,11,12,12],"right_children":[2,4,6,8,-1,10,-1,12,-1,-1,-1,14,16,-1,-1,-1,-1],"split_conditions":[5E-1,5E-1,4.5E0,5.5E0,-1.4919259E-2,1.5E0,-5.516543E-2,5E-1,-3.1546455E-2,-2.9762963E-2,1.9287417E-2,1.5E0,6.55E1,-5.870816E-2,-2.742874E-2,-5.4151486E-3,-5.5073418E-2],"split_indices":[4883,953,3715,3253,0,3253,0,3258,0,0,0,1384,6742,0,0,0,0],"split_type":[0,0,0,0,0,0,0,0,0,0,0,0,0,0,0,0,0],"sum_hessian":[2.8358087E2,2.648128E2,1.876809E1,2.597117E2,5.1011E0,1.1705902E1,7.062187E0,2.5096014E2,8.75154E0,5.9260125E0,5.779889E0,2.3091078E2,2.0049374E1,2.2445891E2,6.45187E0,6.184053E0,1.386532E1],"tree_param":{"num_deleted":"0","num_feature":"7834","num_nodes":"17","size_leaf_vector":"0"}},{"base_weights":[-1.0430149E0,-1.0830767E0,-4.3118173E-1,-1.0965203E0,-6.342541E-1,-9.6178454E-1,1.8821517E-2,-1.1085018E0,-6.141113E-1,-1.1178428E0,-5.6223464E-1,-1.12798E0,-5.607795E-1],"categories":[],"categories_nodes":[],"categories_segments":[],"categories_sizes":[],"default_left":[1,1,1,1,1,0,0,1,1,1,1,1,1],"id":21,"left_children":[1,-1,5,-1,-1,-1,-1,-1,-1,-1,-1,-1,-1],"loss_changes":[6.2697754E0,8.569946E-1,4.447781E0,7.55249E-1,0E0,0E0,0E0,6.0217285E-1,0E0,7.0077515E-1,0E0,0E0,0E0],"parents":[2147483647,0,0,1,1,2,2,3,3,7,7,9,9],"right_children":[2,-1,6,-1,-1,-1,-1,-1,-1,-1,-1,-1,-1],"split_conditions":[5E-1,-5.4153837E-2,1.1708334E1,-5.4826017E-2,-3.1712707E-2,-4.808923E-2,9.4107585E-4,-5.542509E-2,-3.0705566E-2,-5.589214E-2,-2.8111732E-2,-5.6399E-2,-2.8038977E-2],"split_indices":[1440,3561,6967,2147483647,2147483647,0,0,2147483647,2147483647,2147483647,2147483647,2147483647,2147483647],"split_type":[0,0,0,0,0,0,0,0,0,0,0,0,0],"sum_hessian":[2.738452E2,2.562934E2,1.7551844E1,2.474387E2,8.8546715E0,7.532694E0,1.001915E1,2.4017567E2,7.263032E0,2.3510905E2,5.0666323E0,2.2990054E2,5.208502E0],"tree_param":{"num_deleted":"8","num_feature":"7834","num_nodes":"13","size_leaf_vector":"0"}},{"base_weights":[-1.0329416E0,-1.0588841E0,-1.8282028E-1,-1.073478E0,-3.0309862E-1,-1.0888735E0,-4.8776382E-1,-1.1014447E0,-4.1230342E-1,-1.1202421E0,-5.8687097E-1],"categories":[],"categories_nodes":[],"categories_segments":[],"categories_sizes":[],"default_left":[1,1,0,1,0,1,0,1,0,0,0],"id":22,"left_children":[1,3,-1,5,-1,7,-1,9,-1,-1,-1],"loss_changes":[5.6770325E0,2.5213623E0,0E0,1.7485962E0,0E0,1.6341553E0,0E0,1.6683655E0,0E0,0E0,0E0],"parents":[2147483647,0,0,1,1,3,3,5,5,7,7],"right_children":[2,4,-1,6,-1,8,-1,10,-1,-1,-1],"split_conditions":[5.5E0,1.5E0,-9.141014E-3,1.5E0,-1.5154931E-2,1.81E2,-2.4388192E-2,3.5E0,-2.0615172E-2,-5.6012105E-2,-2.934355E-2],"split_indices":[4883,1540,0,1384,0,6621,0,3420,0,0,0],"split_type":[0,0,0,0,0,0,0,0,0,0,0],"sum_hessian":[2.6518738E2,2.5709616E2,8.091217E0,2.5181343E2,5.2827144E0,2.4452698E2,7.2864537E0,2.394498E2,5.07718E0,2.2987541E2,9.574395E0],"tree_param":{"num_deleted":"0","num_feature":"7834","num_nodes":"11","size_leaf_vector":"0"}},{"base_weights":[-1.0259199E0,-1.0467108E0,-4.4077355E-2,-1.0770859E0,-5.418393E-1,-1.0897132E0,-4.1204628E-1,7.776572E-2,-9.8542863E-1,-1.1029866E0,-5.8763814E-1,-1.1169163E0,-5.830966E-1],"categories":[],"categories_nodes":[],"categories_segments":[],"categories_sizes":[],"default_left":[1,1,0,1,1,1,0,0,0,1,1,1,1],"id":23,"left_children":[1,3,-1,5,7,-1,-1,-1,-1,-1,-1,-1,-1],"loss_changes":[5.234955E0,3.3008423E0,0E0,1.5489197E0,4.580591E0,9.0374756E-1,0E0,0E0,0E0,9.8349E-1,0E0,0E0,0E0],"parents":[2147483647,0,0,1,1,3,3,4,4,5,5,9,9],"right_children":[2,4,-1,6,8,-1,-1,-1,-1,-1,-1,-1,-1],"split_conditions":[1.5E0,5E-1,-2.2038678E-3,2.15E1,4.5E0,-5.448566E-2,-2.0602314E-2,3.888286E-3,-4.927143E-2,-5.5149328E-2,-2.9381907E-2,-5.5845816E-2,-2.9154832E-2],"split_indices":[953,4883,0,6625,7455,1384,0,0,0,2147483647,2147483647,2147483647,2147483647],"split_type":[0,0,0,0,0,0,0,0,0,0,0,0,0],"sum_hessian":[2.5770773E2,2.5229915E2,5.4085855E0,2.369122E2,1.5386958E1,2.3187102E2,5.04117E0,6.7638755E0,8.623082E0,2.247329E2,7.1381288E0,2.1775017E2,6.9827213E0],"tree_param":{"num_deleted":"4","num_feature":"7834","num_nodes":"13","size_leaf_vector":"0"}},{"base_weights":[-1.0092074E0,-1.0499417E0,-4.5454428E-1,-1.0659666E0,-2.9867744E-1,1.7317946E-1,-8.229934E-1,-1.0782586E0,-6.462428E-1,-1.1070501E0,-3.7904072E-1,-1.091884E0,-6.173235E-1,-1.1058618E0,-7.0713574E-1],"categories":[],"categories_nodes":[],"categories_segments":[],"categories_sizes":[],"default_left":[1,1,1,1,0,0,1,1,1,0,0,1,1,1,1],"id":24,"left_children":[1,3,5,-1,-1,-1,9,-1,-1,-1,-1,-1,-1,-1,-1],"loss_changes":[5.230713E0,2.5058289E0,4.547906E0,4.8620605E-1,0E0,0E0,1.1159124E0,7.156677E-1,0E0,0E0,0E0,3.6686707E-1,0E0,0E0,0E0],"parents":[2147483647,0,0,1,1,2,2,3,3,6,6,7,7,11,11],"right_children":[2,4,6,-1,-1,-1,10,-1,-1,-1,-1,-1,-1,-1,-1],"split_conditions":[5E-1,2.25E1,4.5E0,-5.329833E-2,-1.4933872E-2,8.6589735E-3,1.55E1,-5.3912934E-2,-3.231214E-2,-5.5352505E-2,-1.8952036E-2,-5.45942E-2,-3.0866176E-2,-5.529309E-2,-3.5356786E-2],"split_indices":[4883,6625,7455,3561,0,0,5656,2147483647,2147483647,0,0,2147483647,2147483647,2147483647,2147483647],"split_type":[0,0,0,0,0,0,0,0,0,0,0,0,0,0,0],"sum_hessian":[2.5163483E2,2.3358736E2,1.8047476E1,2.2829869E2,5.2886624E0,6.871143E0,1.1176333E1,2.2027861E2,8.020072E0,5.9046836E0,5.2716494E0,2.1262453E2,7.6540895E0,2.0336218E2,9.262346E0],"tree_param":{"num_deleted":"6","num_feature":"7834","num_nodes":"15","size_leaf_vector":"0"}},{"base_weights":[-9.8949677E-1,-1.0290544E0,-4.1569436E-1,-1.0489804E0,-4.6603703E-1,-9.807051E-3,-9.1674197E-1,-1.0671964E0,-4.636077E-1,-1.0773281E0,-6.7406714E-1],"categories":[],"categories_nodes":[],"categories_segments":[],"categories_sizes":[],"default_left":[1,1,1,1,0,0,0,1,0,1,1],"id":25,"left_children":[1,3,5,7,-1,-1,-1,-1,-1,-1,-1],"loss_changes":[5.051056E0,2.0368347E0,3.4980907E0,1.8152771E0,0E0,0E0,0E0,1.0757446E-1,0E0,0E0,0E0],"parents":[2147483647,0,0,1,1,2,2,3,3,7,7],"right_children":[2,4,6,8,-1,-1,-1,-1,-1,-1,-1],"split_conditions":[5E-1,2.5E0,4.5E0,1.5E0,-2.3301853E-2,-4.9035257E-4,-4.58371E-2,-5.3359818E-2,-2.3180386E-2,-5.3866405E-2,-3.3703357E-2],"split_indices":[4883,3561,3715,3258,0,0,0,3747,0,2147483647,2147483647],"split_type":[0,0,0,0,0,0,0,0,0,0,0],"sum_hessian":[2.4037726E2,2.2413234E2,1.6244926E1,2.1563747E2,8.494877E0,9.53799E0,6.706936E0,2.0833138E2,7.3060803E0,2.0140051E2,6.9308662E0],"tree_param":{"num_deleted":"2","num_feature":"7834","num_nodes":"11","size_leaf_vector":"0"}},{"base_weights":[-9.846234E-1,-1.0275844E0,-3.7919277E-1,-1.0473833E0,-5.4568505E-1,-8.940803E-1,4.049144E-2,-1.06182E0,-5.422201E-1,-1.0732641E0,-5.1269525E-1],"categories":[],"categories_nodes":[],"categories_segments":[],"categories_sizes":[],"default_left":[1,1,1,1,0,0,0,1,1,1,1],"id":26,"left_children":[1,3,5,-1,-1,-1,-1,-1,-1,-1,-1],"loss_changes":[5.7446136E0,1.5239868E0,3.7553957E0,9.548645E-1,0E0,0E0,0E0,7.254791E-1,0E0,0E0,0E0],"parents":[2147483647,0,0,1,1,2,2,3,3,7,7],"right_children":[2,4,6,-1,-1,-1,-1,-1,-1,-1,-1],"split_conditions":[5E-1,5E-1,1.1708334E1,-5.2369166E-2,-2.7284253E-2,-4.4704016E-2,2.024572E-3,-5.3091E-2,-2.7111007E-2,-5.3663205E-2,-2.5634764E-2],"split_indices":[1440,4077,6967,3258,0,0,0,2147483647,2147483647,2147483647,2147483647],"split_type":[0,0,0,0,0,0,0,0,0,0,0],"sum_hessian":[2.3484357E2,2.1863226E2,1.6211302E1,2.0887708E2,9.755181E0,6.772333E0,9.43897E0,2.0200224E2,6.8748317E0,1.9694331E2,5.0589333E0],"tree_param":{"num_deleted":"4","num_feature":"7834","num_nodes":"11","size_leaf_vector":"0"}},{"base_weights":[-9.476276E-1,-9.7686756E-1,-9.740177E-2,-9.932457E-1,-2.4681725E-1,-1.0132867E0,-4.543587E-1,-1.0422975E0,-6.858386E-1,-1.0629579E0,-5.333299E-1,-1.3795708E-1,-1.0274469E0],"categories":[],"categories_nodes":[],"categories_segments":[],"categories_sizes":[],"default_left":[1,1,0,1,0,1,0,1,1,0,0,0,0],"id":27,"left_children":[1,3,-1,5,-1,7,-1,9,11,-1,-1,-1,-1],"loss_changes":[5.588211E0,2.3960876E0,0E0,1.8693542E0,0E0,1.2531891E0,0E0,1.414093E0,3.5612288E0,0E0,0E0,0E0,0E0],"parents":[2147483647,0,0,1,1,3,3,5,5,7,7,8,8],"right_children":[2,4,-1,6,-1,8,-1,10,12,-1,-1,-1,-1],"split_conditions":[5.5E0,1.5E0,-4.8700883E-3,1.5E0,-1.2340862E-2,5E-1,-2.2717936E-2,5E-1,5E-1,-5.3147893E-2,-2.6666496E-2,-6.897854E-3,-5.1372346E-2],"split_indices":[4883,1540,0,3430,0,3258,0,4077,5807,0,0,0,0],"split_type":[0,0,0,0,0,0,0,0,0,0,0,0,0],"sum_hessian":[2.2760939E2,2.1989796E2,7.711424E0,2.1472037E2,5.1776047E0,2.0617255E2,8.547811E0,1.8738757E2,1.8784971E1,1.7903171E2,8.355881E0,7.753509E0,1.1031462E1],"tree_param":{"num_deleted":"0","num_feature":"7834","num_nodes":"13","size_leaf_vector":"0"}},{"base_weights":[-9.449149E-1,-9.681697E-1,-5.5836484E-2,-9.926914E-1,-2.0950432E-1,-1.0136343E0,-4.1707578E-1,-1.0337495E0,-3.4136513E-1,-1.0491971E0,-3.862352E-1],"categories":[],"categories_nodes":[],"categories_segments":[],"categories_sizes":[],"default_left":[1,1,0,1,0,1,0,1,0,0,0],"id":28,"left_children":[1,3,-1,5,-1,7,-1,9,-1,-1,-1],"loss_changes":[4.5009003E0,3.785019E0,0E0,2.0804138E0,0E0,2.3470001E0,0E0,1.5288849E0,0E0,0E0,0E0],"parents":[2147483647,0,0,1,1,3,3,5,5,7,7],"right_children":[2,4,-1,6,-1,8,-1,10,-1,-1,-1],"split_conditions":[1.5E0,5.5E0,-2.7918243E-3,5.5E0,-1.0475216E-2,1.5E0,-2.085379E-2,2.05E1,-1.7068258E-2,-5.2459855E-2,-1.9311761E-2],"split_indices":[953,4883,0,3253,0,1384,0,6625,0,0,0],"split_type":[0,0,0,0,0,0,0,0,0,0,0],"sum_hessian":[2.1930927E2,2.1363252E2,5.6767445E0,2.0664484E2,6.9876814E0,1.9865605E2,7.9887824E0,1.9236263E2,6.293428E0,1.8727452E2,5.0881124E0],"tree_param":{"num_deleted":"0","num_feature":"7834","num_nodes":"11","size_leaf_vector":"0"}},{"base_weights":[-9.245568E-1,-9.646624E-1,-2.7809152E-1,-9.7858185E-1,-3.5849053E-1,2.6975602E-1,-8.286171E-1,-9.938663E-1,-3.9397871E-1,-1.0094056E0,-4.417689E-1,-1.0258013E0,-4.3660697E-1],"categories":[],"categories_nodes":[],"categories_segments":[],"categories_sizes":[],"default_left":[1,1,1,1,0,0,0,1,0,1,0,0,0],"id":29,"left_children":[1,3,5,7,-1,-1,-1,9,-1,11,-1,-1,-1],"loss_changes":[5.232086E0,1.3312378E0,4.3849344E0,1.3445587E0,0E0,0E0,0E0,1.1728821E0,0E0,1.2683868E0,0E0,0E0,0E0],"parents":[2147483647,0,0,1,1,2,2,3,3,7,7,9,9],"right_children":[2,4,6,8,-1,-1,-1,10,-1,12,-1,-1,-1],"split_conditions":[1.5E0,1.865E2,5E-1,1.5E0,-1.7924527E-2,1.3487801E-2,-4.1430857E-2,5E-1,-1.9698936E-2,5.5E0,-2.2088446E-2,-5.1290065E-2,-2.1830348E-2],"split_indices":[1440,6621,2693,1384,0,0,0,7027,0,3253,0,0,0],"split_type":[0,0,0,0,0,0,0,0,0,0,0,0,0],"sum_hessian":[2.1114893E2,1.9835133E2,1.2797592E1,1.9329828E2,5.05306E0,6.6700206E0,6.127571E0,1.8769102E2,5.6072607E0,1.8174728E2,5.9437294E0,1.759209E2,5.8263855E0],"tree_param":{"num_deleted":"0","num_feature":"7834","num_nodes":"13","size_leaf_vector":"0"}},{"base_weights":[-9.066038E-1,-9.609373E-1,-2.2737844E-1,-9.8445934E-1,-3.0244106E-1,3.4231073E-1,-6.5750754E-1,-9.960672E-1,-4.812521E-1,-1.01117E0,-5.8444923E-1,-1.0237252E0,-5.5100447E-1],"categories":[],"categories_nodes":[],"categories_segments":[],"categories_sizes":[],"default_left":[1,1,1,1,0,0,0,1,1,1,1,1,1],"id":30,"left_children":[1,3,5,-1,-1,-1,-1,-1,-1,-1,-1,-1,-1],"loss_changes":[7.410858E0,2.662384E0,4.2981787E0,5.9584045E-1,0E0,0E0,0E0,5.217285E-1,0E0,4.255066E-1,0E0,0E0,0E0],"parents":[2147483647,0,0,1,1,2,2,3,3,7,7,9,9],"right_children":[2,4,6,-1,-1,-1,-1,-1,-1,-1,-1,-1,-1],"split_conditions":[5E-1,2.5E0,4.5E0,-4.922297E-2,-1.5122053E-2,1.7115537E-2,-3.2875378E-2,-4.980336E-2,-2.4062606E-2,-5.0558504E-2,-2.9222462E-2,-5.118626E-2,-2.7550224E-2],"split_indices":[4883,3561,7455,7027,0,0,0,2147483647,2147483647,2147483647,2147483647,2147483647,2147483647],"split_type":[0,0,0,0,0,0,0,0,0,0,0,0,0],"sum_hessian":[2.0573134E2,1.9010912E2,1.5622218E1,1.8307452E2,7.034591E0,6.8086267E0,8.813592E0,1.7798927E2,5.0852504E0,1.7028471E2,7.7045574E0,1.6456992E2,5.7147975E0],"tree_param":{"num_deleted":"6","num_feature":"7834","num_nodes":"13","size_leaf_vector":"0"}},{"base_weights":[-8.974257E-1,-9.415725E-1,-3.3623022E-1,-8.469922E-1,-1.0876639E0,-9.740275E-1,2.0972341E-1,-9.025695E-1,-2.4399346E-1,-9.261822E-1,-4.7153974E-1,-2.927257E-1,-1.5415117E-1,-9.457012E-1,-4.76201E-1],"categories":[],"categories_nodes":[],"categories_segments":[],"categories_sizes":[],"default_left":[1,1,1,1,0,0,0,1,1,1,1,1,1,1,1],"id":31,"left_children":[1,3,5,7,-1,-1,-1,-1,-1,-1,-1,-1,-1,-1,-1],"loss_changes":[4.5535126E0,1.5891266E0,5.737736E0,3.6271744E0,0E0,0E0,0E0,6.293335E-1,3.2934546E-3,4.1275024E-1,0E0,0E0,0E0,0E0,0E0],"parents":[2147483647,0,0,1,1,2,2,3,3,7,7,8,8,9,9],"right_children":[2,4,6,8,-1,-1,-1,-1,-1,-1,-1,-1,-1,-1,-1],"split_conditions":[5E-1,5E-1,1.1708334E1,5E-1,-5.4383196E-2,-4.8701376E-2,1.0486171E-2,-4.5128476E-2,-1.2199673E-2,-4.630911E-2,-2.3576988E-2,-1.4636286E-2,-7.7075586E-3,-4.728506E-2,-2.381005E-2],"split_indices":[1440,1492,6967,3561,0,0,0,6742,6742,2147483647,2147483647,2147483647,2147483647,2147483647,2147483647],"split_type":[0,0,0,0,0,0,0,0,0,0,0,0,0,0,0],"sum_hessian":[1.9557332E2,1.8068205E2,1.489126E1,1.1380305E2,6.687901E1,6.506321E0,8.384939E0,1.0374432E2,1.0058726E1,9.726706E1,6.4772625E0,5.0573187E0,5.001408E0,9.2167435E1,5.0996213E0],"tree_param":{"num_deleted":"6","num_feature":"7834","num_nodes":"15","size_leaf_vector":"0"}},{"base_weights":[-8.8712746E-1,-9.4427335E-1,-2.408652E-1,-9.649864E-1,-2.2624004E-1,1.4379656E-1,-8.1896394E-1,-9.871722E-1,-3.1852072E-1,-7.648315E-2,3.4070152E-1,-1.0003666E0,-4.9174136E-1,-1.019876E0,-5.2702E-1],"categories":[],"categories_nodes":[],"categories_segments":[],"categories_sizes":[],"default_left":[1,1,1,1,0,1,0,1,0,1,1,1,1,1,1],"id":32,"left_children":[1,3,5,7,-1,-1,-1,-1,-1,-1,-1,-1,-1,-1,-1],"loss_changes":[6.8869934E0,2.408905E0,3.8964958E0,2.1436768E0,0E0,5.0552166E-1,0E0,5.8813477E-1,0E0,0E0,0E0,9.3981934E-1,0E0,0E0,0E0],"parents":[2147483647,0,0,1,1,2,2,3,3,5,5,7,7,11,11],"right_children":[2,4,6,8,-1,-1,-1,-1,-1,-1,-1,-1,-1,-1,-1],"split_conditions":[5E-1,1.7E1,4.5E0,5.5E0,-1.1312002E-2,7.1898284E-3,-4.0948197E-2,-4.935861E-2,-1.5926037E-2,-3.8241576E-3,1.7035076E-2,-5.001833E-2,-2.4587069E-2,-5.09938E-2,-2.6351E-2],"split_indices":[4883,6625,3715,3253,0,5656,0,1384,0,2147483647,2147483647,2147483647,2147483647,2147483647,2147483647],"split_type":[0,0,0,0,0,0,0,0,0,0,0,0,0,0,0],"sum_hessian":[1.9164026E2,1.7564745E2,1.5992803E1,1.7038835E2,5.2590966E0,1.0054132E1,5.93867E0,1.6422534E2,6.163017E0,5.0340543E0,5.0200777E0,1.589724E2,5.2529426E0,1.5157065E2,7.401745E0],"tree_param":{"num_deleted":"6","num_feature":"7834","num_nodes":"15","size_leaf_vector":"0"}},{"base_weights":[-8.672387E-1,-9.1993E-1,-2.7724445E-1,-9.407856E-1,-2.0876342E-1,1.1000047E-1,-8.176978E-1,-9.620476E-1,-4.3539432E-1,-9.8610854E-1,-4.0711278E-1,-1.0067368E0,-4.0323004E-1],"categories":[],"categories_nodes":[],"categories_segments":[],"categories_sizes":[],"default_left":[1,1,1,1,0,0,0,1,0,1,0,0,0],"id":33,"left_children":[1,3,5,7,-1,-1,-1,9,-1,11,-1,-1,-1],"loss_changes":[5.539139E0,2.3349457E0,3.587603E0,1.3597717E0,0E0,0E0,0E0,1.708374E0,0E0,1.4065704E0,0E0,0E0,0E0],"parents":[2147483647,0,0,1,1,2,2,3,3,7,7,9,9],"right_children":[2,4,6,8,-1,-1,-1,10,-1,12,-1,-1,-1],"split_conditions":[5E-1,1.95E1,5E-1,1.5E0,-1.0438171E-2,5.5000237E-3,-4.0884893E-2,5E-1,-2.1769715E-2,7.5E0,-2.035564E-2,-5.0336838E-2,-2.0161502E-2],"split_indices":[4883,6625,5068,3258,0,0,0,4077,0,3747,0,0,0],"split_type":[0,0,0,0,0,0,0,0,0,0,0,0,0],"sum_hessian":[1.853826E2,1.6967041E2,1.571218E1,1.6452277E2,5.147647E0,9.6175165E0,6.0946636E0,1.5701358E2,7.509186E0,1.4974397E2,7.2696085E0,1.4392331E2,5.8206625E0],"tree_param":{"num_deleted":"0","num_feature":"7834","num_nodes":"13","size_leaf_vector":"0"}},{"base_weights":[-8.450464E-1,-8.995245E-1,-2.4212243E-1,-9.207688E-1,-1.9016059E-1,1.6353825E-1,-9.020157E-1,-8.270853E-1,-1.0697339E0,-8.8330597E-1,-2.1718863E-1,-9.213791E-1,-3.6308566E-1],"categories":[],"categories_nodes":[],"categories_segments":[],"categories_sizes":[],"default_left":[1,1,1,1,0,0,0,1,0,1,0,0,0],"id":34,"left_children":[1,3,5,7,-1,-1,-1,9,-1,11,-1,-1,-1],"loss_changes":[5.675598E0,2.2992096E0,4.494034E0,1.3363037E0,0E0,0E0,0E0,3.3095398E0,0E0,1.5108185E0,0E0,0E0,0E0],"parents":[2147483647,0,0,1,1,2,2,3,3,7,7,9,9],"right_children":[2,4,6,8,-1,-1,-1,10,-1,12,-1,-1,-1],"split_conditions":[5E-1,1.95E1,5E-1,5E-1,-9.50803E-3,8.176913E-3,-4.5100786E-2,5E-1,-5.3486694E-2,5.5E0,-1.0859432E-2,-4.6068955E-2,-1.8154284E-2],"split_indices":[4883,6625,5068,5733,0,0,0,3258,0,7043,0,0,0],"split_type":[0,0,0,0,0,0,0,0,0,0,0,0,0],"sum_hessian":[1.7842426E2,1.6318729E2,1.5236973E1,1.5815285E2,5.0344443E0,9.902015E0,5.334958E0,1.0111455E2,5.7038292E1,9.216998E1,8.944567E0,8.5165855E1,7.0041265E0],"tree_param":{"num_deleted":"0","num_feature":"7834","num_nodes":"13","size_leaf_vector":"0"}},{"base_weights":[-8.446507E-1,-8.8480294E-1,-9.457235E-2,-9.062145E-1,-1.9255635E-1,-9.299797E-1,-4.5279816E-1,-9.533019E-1,-4.757037E-1,-8.704756E-1,-1.0862937E0],"categories":[],"categories_nodes":[],"categories_segments":[],"categories_sizes":[],"default_left":[1,1,0,1,0,1,0,1,0,1,1],"id":35,"left_children":[1,3,-1,5,-1,7,-1,-1,-1,-1,-1],"loss_changes":[5.0813293E0,2.236496E0,0E0,1.2761841E0,0E0,1.1221466E0,0E0,6.016159E-1,0E0,0E0,0E0],"parents":[2147483647,0,0,1,1,3,3,5,5,7,7],"right_children":[2,4,-1,6,-1,8,-1,-1,-1,-1,-1],"split_conditions":[5.5E0,1.75E2,-4.7286176E-3,5E-1,-9.627818E-3,1.5E0,-2.2639908E-2,-4.7665097E-2,-2.3785185E-2,-4.352378E-2,-5.4314684E-2],"split_indices":[3253,6621,0,4077,0,2693,0,1492,0,2147483647,2147483647],"split_type":[0,0,0,0,0,0,0,0,0,0,0],"sum_hessian":[1.7049629E2,1.6166275E2,8.833543E0,1.5651265E2,5.150102E0,1.4771909E2,8.7935505E0,1.3946075E2,8.25833E0,9.0588326E1,4.8872437E1],"tree_param":{"num_deleted":"2","num_feature":"7834","num_nodes":"11","size_leaf_vector":"0"}},{"base_weights":[-8.407556E-1,-8.9496845E-1,-1.4444713E-1,-9.2042553E-1,-4.0041754E-1,4.12861E-1,-7.636126E-1,-9.461944E-1,-2.7142215E-1,-1.0037682E0,-7.705879E-1,-5.284163E-1,-9.7724366E-1],"categories":[],"categories_nodes":[],"categories_segments":[],"categories_sizes":[],"default_left":[1,1,1,1,0,0,0,1,0,0,1,0,0],"id":36,"left_children":[1,3,5,7,-1,-1,-1,9,-1,-1,11,-1,-1],"loss_changes":[6.2171097E0,1.5927429E0,4.9172215E0,2.208107E0,0E0,0E0,0E0,6.556778E-1,0E0,0E0,1.445755E0,0E0,0E0],"parents":[2147483647,0,0,1,1,2,2,3,3,7,7,10,10],"right_children":[2,4,6,8,-1,-1,-1,10,-1,-1,12,-1,-1],"split_conditions":[1.5E0,5E-1,5E-1,1.5E0,-2.0020878E-2,2.064305E-2,-3.818063E-2,1.5E0,-1.3571108E-2,-5.018841E-2,5E-1,-2.6420815E-2,-4.8862185E-2],"split_indices":[1440,4077,2693,3258,0,0,0,7043,0,0,1492,0,0],"split_type":[0,0,0,0,0,0,0,0,0,0,0,0,0],"sum_hessian":[1.671209E2,1.5478444E2,1.23364525E1,1.4638797E2,8.396478E0,6.6679015E0,5.668551E0,1.4035713E2,6.030842E0,1.021504E2,3.820673E1,1.9229465E1,1.8977266E1],"tree_param":{"num_deleted":"0","num_feature":"7834","num_nodes":"13","size_leaf_vector":"0"}},{"base_weights":[-8.423474E-1,-8.799186E-1,-1.4670505E-1,-9.0767044E-1,-2.449805E-1,-9.2765343E-1,-3.104963E-1,-9.662599E-1,-5.483058E-1,-9.905142E-1,-4.3009174E-1,1.7000943E-1,-9.324765E-1],"categories":[],"categories_nodes":[],"categories_segments":[],"categories_sizes":[],"default_left":[1,1,0,1,0,1,0,1,1,0,0,0,0],"id":37,"left_children":[1,3,-1,5,-1,7,-1,9,11,-1,-1,-1,-1],"loss_changes":[4.1194E0,2.4916306E0,0E0,1.4685898E0,0E0,1.5488586E0,0E0,1.232193E0,4.4143996E0,0E0,0E0,0E0,0E0],"parents":[2147483647,0,0,1,1,3,3,5,5,7,7,8,8],"right_children":[2,4,-1,6,-1,8,-1,10,12,-1,-1,-1,-1],"split_conditions":[5.5E0,3.5E0,-7.3352526E-3,5E-1,-1.22490255E-2,5E-1,-1.5524815E-2,5E-1,6.55E1,-4.952571E-2,-2.1504587E-2,8.500472E-3,-4.6623826E-2],"split_indices":[3253,4883,0,1384,0,3258,0,4077,6742,0,0,0,0],"split_type":[0,0,0,0,0,0,0,0,0,0,0,0,0],"sum_hessian":[1.6155237E2,1.5302281E2,8.529559E0,1.4620303E2,6.819777E0,1.4093361E2,5.2694187E0,1.26511314E2,1.4422295E1,1.2022536E2,6.2859592E0,5.2198257E0,9.20247E0],"tree_param":{"num_deleted":"0","num_feature":"7834","num_nodes":"13","size_leaf_vector":"0"}},{"base_weights":[-7.8849286E-1,-8.439094E-1,-2.059798E-1,-8.727788E-1,-1.7913777E-1,2.2229013E-1,-7.841954E-1,-8.9873147E-1,-2.366836E-1,-9.325346E-1,-5.682854E-1,-9.489461E-1,-5.1026E-1,3.4437557E-3,-8.9165413E-1],"categories":[],"categories_nodes":[],"categories_segments":[],"categories_sizes":[],"default_left":[1,1,1,1,0,0,0,1,0,1,1,1,1,0,0],"id":38,"left_children":[1,3,5,7,-1,-1,-1,9,-1,-1,13,-1,-1,-1,-1],"loss_changes":[4.9544067E0,2.621437E0,3.91932E0,2.0730057E0,0E0,0E0,0E0,9.5201874E-1,0E0,3.3909607E-1,2.7526798E0,0E0,0E0,0E0,0E0],"parents":[2147483647,0,0,1,1,2,2,3,3,7,7,9,9,10,10],"right_children":[2,4,6,8,-1,-1,-1,10,-1,-1,14,-1,-1,-1,-1],"split_conditions":[5E-1,2.5E0,5E-1,1.5E0,-8.956889E-3,1.1114507E-2,-3.9209772E-2,5.5E0,-1.1834181E-2,-4.6626728E-2,8.5E0,-4.7447305E-2,-2.5512999E-2,1.7218779E-4,-4.4582706E-2],"split_indices":[4883,3561,5098,3258,0,0,0,7043,0,4077,7043,2147483647,2147483647,0,0],"split_type":[0,0,0,0,0,0,0,0,0,0,0,0,0,0,0],"sum_hessian":[1.5786327E2,1.4374004E2,1.412323E1,1.3745769E2,6.2823467E0,8.467283E0,5.655947E0,1.3167255E2,5.785137E0,1.178001E2,1.3872453E1,1.1219256E2,5.60754E0,5.369069E0,8.503384E0],"tree_param":{"num_deleted":"2","num_feature":"7834","num_nodes":"15","size_leaf_vector":"0"}},{"base_weights":[-7.7703434E-1,-8.435554E-1,-1.1116942E-1,-8.6903083E-1,-1.6365325E-1,-7.490493E-1,3.5455677E-1,-7.6528466E-1,-1.0230197E0,-8.3389425E-1,-3.2161722E-1,-1.0573753E0,-5.9774417E-1,-8.7650424E-1,-4.5447212E-1,4.1620454E-1,-9.546816E-1],"categories":[],"categories_nodes":[],"categories_segments":[],"categories_sizes":[],"default_left":[1,1,1,1,0,0,0,1,1,1,1,1,1,1,1,0,0],"id":39,"left_children":[1,3,5,7,-1,-1,-1,9,-1,-1,15,-1,-1,-1,-1,-1,-1],"loss_changes":[6.6239853E0,2.2434692E0,4.700056E0,1.3343506E0,0E0,0E0,0E0,2.2629204E0,1.04011536E-1,7.557831E-1,6.359425E0,0E0,0E0,0E0,0E0,0E0,0E0],"parents":[2147483647,0,0,1,1,2,2,3,3,7,7,8,8,9,9,10,10],"right_children":[2,4,6,8,-1,-1,-1,10,-1,-1,16,-1,-1,-1,-1,-1,-1],"split_conditions":[5E-1,4.5E0,1.1708334E1,5E-1,-8.182663E-3,-3.7452467E-2,1.7727839E-2,5E-1,-5.1150985E-2,-4.1694712E-2,1.5E0,-5.2868765E-2,-2.9887209E-2,-4.3825213E-2,-2.2723606E-2,2.0810228E-2,-4.7734078E-2],"split_indices":[1440,3253,6967,5733,0,0,0,3561,1278,7043,7455,2147483647,2147483647,2147483647,2147483647,0,0],"split_type":[0,0,0,0,0,0,0,0,0,0,0,0,0,0,0,0,0],"sum_hessian":[1.5066278E2,1.3673578E2,1.3927005E1,1.315293E2,5.2064767E0,5.620527E0,8.306478E0,8.2151505E1,4.9377792E1,7.038715E1,1.1764349E1,4.4311764E1,5.0660276E0,6.210276E1,8.284396E0,5.590873E0,6.1734757E0],"tree_param":{"num_deleted":"4","num_feature":"7834","num_nodes":"17","size_leaf_vector":"0"}},{"base_weights":[-7.774776E-1,-8.1746584E-1,1.474536E-1,-8.5020566E-1,-1.8400028E-1,-8.755369E-1,-2.0319268E-1,-7.8235507E-1,-1.0214946E0,-8.406798E-1,-1.9458006E-1,-1.0765944E0,-5.2281684E-1],"categories":[],"categories_nodes":[],"categories_segments":[],"categories_sizes":[],"default_left":[1,1,0,1,0,1,0,1,1,0,0,1,1],"id":40,"left_children":[1,3,-1,5,-1,7,-1,9,-1,-1,-1,-1,-1],"loss_changes":[5.598419E0,2.7910843E0,0E0,2.032402E0,0E0,9.61792E-1,0E0,2.6919975E0,7.334938E-1,0E0,0E0,0E0,0E0],"parents":[2147483647,0,0,1,1,3,3,5,5,7,7,8,8],"right_children":[2,4,-1,6,-1,8,-1,10,-1,-1,-1,-1,-1],"split_conditions":[5.5E0,1.5E0,7.3726806E-3,1.15E1,-9.200014E-3,5E-1,-1.0159634E-2,5E-1,-5.1074732E-2,-4.2033993E-2,-9.7290035E-3,-5.382972E-2,-2.6140843E-2],"split_indices":[4883,3430,0,6625,0,1492,0,3561,3541,0,0,2147483647,2147483647],"split_type":[0,0,0,0,0,0,0,0,0,0,0,0,0],"sum_hessian":[1.4710553E2,1.4112054E2,5.9849777E0,1.3386002E2,7.260526E0,1.2847682E2,5.3831997E0,8.229711E1,4.617971E1,7.447655E1,7.820562E0,4.0541332E1,5.638379E0],"tree_param":{"num_deleted":"2","num_feature":"7834","num_nodes":"13","size_leaf_vector":"0"}},{"base_weights":[-7.5646776E-1,-7.941929E-1,9.6613325E-2,-8.3634514E-1,-1.9152679E-1,-8.8406605E-1,-4.507034E-1,-9.352767E-1,-5.6743157E-1,3.7060046E-1,-8.621658E-1,-8.364265E-1,-1.0685595E0,-3.5770494E-2,-7.8649646E-1],"categories":[],"categories_nodes":[],"categories_segments":[],"categories_sizes":[],"default_left":[1,1,0,1,0,1,1,1,1,0,0,1,1,0,0],"id":41,"left_children":[1,3,-1,5,-1,7,9,-1,13,-1,-1,-1,-1,-1,-1],"loss_changes":[4.6759567E0,3.3192673E0,0E0,1.9519348E0,0E0,1.2953033E0,5.7615676E0,3.6302185E-1,2.0939417E0,0E0,0E0,0E0,0E0,0E0,0E0],"parents":[2147483647,0,0,1,1,3,3,5,5,6,6,7,7,8,8],"right_children":[2,4,-1,6,-1,8,10,-1,14,-1,-1,-1,-1,-1,-1],"split_conditions":[5.5E0,5E-1,4.8306664E-3,5E-1,-9.576339E-3,3.5E0,6.55E1,-4.6763834E-2,1.5E0,1.8530024E-2,-4.3108292E-2,-4.1821327E-2,-5.3427976E-2,-1.7885248E-3,-3.9324824E-2],"split_indices":[979,4077,0,3258,0,7043,6742,1383,6621,0,0,2147483647,2147483647,0,0],"split_type":[0,0,0,0,0,0,0,0,0,0,0,0,0,0,0],"sum_hessian":[1.4191023E2,1.3596652E2,5.9437165E0,1.26715904E2,9.250616E0,1.116121E2,1.5103803E1,9.439191E1,1.7220196E1,5.0743675E0,1.0029435E1,5.8373997E1,3.601791E1,5.3643756E0,1.1855821E1],"tree_param":{"num_deleted":"2","num_feature":"7834","num_nodes":"15","size_leaf_vector":"0"}},{"base_weights":[-7.491788E-1,-8.2073665E-1,-6.940117E-2,-8.7055945E-1,-4.119688E-1,4.8134202E-1,-5.726826E-1,-9.225204E-1,-4.2345142E-1,3.7614673E-1,-8.275128E-1,-8.21927E-1,-1.0602839E0,2.2895949E-1,-8.468998E-1,-8.8013744E-1,-2.748776E-1],"categories":[],"categories_nodes":[],"categories_segments":[],"categories_sizes":[],"default_left":[1,1,1,1,1,0,0,1,1,0,0,1,0,0,0,0,0],"id":42,"left_children":[1,3,5,7,9,-1,-1,11,13,-1,-1,15,-1,-1,-1,-1,-1],"loss_changes":[6.6874924E0,2.1942978E0,4.23865E0,2.1843262E0,5.3930826E0,0E0,0E0,4.9282074E-1,3.8925858E0,0E0,0E0,1.7116508E0,0E0,0E0,0E0,0E0,0E0],"parents":[2147483647,0,0,1,1,2,2,3,3,4,4,7,7,8,8,11,11],"right_children":[2,4,6,8,10,-1,-1,12,14,-1,-1,16,-1,-1,-1,-1,-1],"split_conditions":[5E-1,5E-1,4.5E0,5.5E0,6.55E1,2.4067102E-2,-2.8634131E-2,5E-1,8.5E0,1.8807337E-2,-4.137564E-2,5E-1,-5.3014196E-2,1.14479745E-2,-4.234499E-2,-4.4006873E-2,-1.374388E-2],"split_indices":[4883,3258,7455,7043,6742,0,0,1383,7043,0,0,3561,0,0,0,0,0],"split_type":[0,0,0,0,0,0,0,0,0,0,0,0,0,0,0,0,0],"sum_hessian":[1.3765105E2,1.2435345E2,1.3297606E1,1.09836296E2,1.4517154E1,6.370229E0,6.9273777E0,9.7448006E1,1.2388288E1,5.044544E0,9.4726095E0,6.0348446E1,3.7099556E1,5.056692E0,7.3315954E0,5.3994156E1,6.354293E0],"tree_param":{"num_deleted":"0","num_feature":"7834","num_nodes":"17","size_leaf_vector":"0"}},{"base_weights":[-7.342993E-1,-8.104989E-1,-5.947061E-2,-8.3884716E-1,-1.5831701E-1,3.691673E-1,-6.2796175E-1,-8.8084465E-1,-4.5847356E-1,-9.2255056E-1,-4.1858608E-1,1.4090562E-1,-9.7199E-1,-9.430526E-1,-5.8684224E-1],"categories":[],"categories_nodes":[],"categories_segments":[],"categories_sizes":[],"default_left":[1,1,1,1,0,0,0,1,1,1,0,0,0,1,1],"id":43,"left_children":[1,3,5,7,-1,-1,-1,9,11,-1,-1,-1,-1,-1,-1],"loss_changes":[6.957695E0,2.129074E0,3.8632305E0,1.4653931E0,0E0,0E0,0E0,1.6244736E0,4.3599606E0,9.927368E-2,0E0,0E0,0E0,0E0,0E0],"parents":[2147483647,0,0,1,1,2,2,3,3,7,7,8,8,9,9],"right_children":[2,4,6,8,-1,-1,-1,10,12,-1,-1,-1,-1,-1,-1],"split_conditions":[5E-1,5E-1,1.5E0,5E-1,-7.915851E-3,1.8458365E-2,-3.1398088E-2,6.5E0,3.5E0,-4.6127528E-2,-2.0929305E-2,7.045281E-3,-4.85995E-2,-4.715263E-2,-2.9342113E-2],"split_indices":[4883,3338,5923,3258,0,0,0,7043,7801,2644,0,0,0,2147483647,2147483647],"split_type":[0,0,0,0,0,0,0,0,0,0,0,0,0,0,0],"sum_hessian":[1.35244E2,1.2134145E2,1.39025545E1,1.1601254E2,5.328907E0,8.126133E0,5.7764215E0,1.0329219E2,1.2720351E1,9.383083E1,9.461356E0,6.204283E0,6.5160675E0,8.6725296E1,7.105542E0],"tree_param":{"num_deleted":"2","num_feature":"7834","num_nodes":"15","size_leaf_vector":"0"}},{"base_weights":[-7.233877E-1,-7.974471E-1,-1.232495E-1,-8.257922E-1,-1.8394955E-1,2.4201433E-1,-7.2334373E-1,-7.2011507E-1,-9.903653E-1,-8.004405E-1,1.6347436E-3,-8.60612E-1,-3.93896E-1],"categories":[],"categories_nodes":[],"categories_segments":[],"categories_sizes":[],"default_left":[1,1,1,1,0,0,0,1,0,1,0,0,0],"id":44,"left_children":[1,3,5,7,-1,-1,-1,9,-1,11,-1,-1,-1],"loss_changes":[5.81942E0,1.9059143E0,3.6401575E0,1.2490005E0,0E0,0E0,0E0,4.196953E0,0E0,1.2541084E0,0E0,0E0,0E0],"parents":[2147483647,0,0,1,1,2,2,3,3,7,7,9,9],"right_children":[2,4,6,8,-1,-1,-1,10,-1,12,-1,-1,-1],"split_conditions":[5E-1,5E-1,4.5E0,5E-1,-9.197477E-3,1.2100717E-2,-3.6167186E-2,5E-1,-4.951827E-2,5E-1,8.1737184E-5,-4.30306E-2,-1.9694801E-2],"split_indices":[4883,3338,3715,1492,0,0,0,3561,0,2693,0,0,0],"split_type":[0,0,0,0,0,0,0,0,0,0,0,0,0],"sum_hessian":[1.3214421E2,1.17335754E2,1.4808453E1,1.118232E2,5.5125566E0,9.576288E0,5.2321644E0,7.137006E1,4.0453133E1,6.412446E1,7.2456083E0,5.4884293E1,9.240162E0],"tree_param":{"num_deleted":"0","num_feature":"7834","num_nodes":"13","size_leaf_vector":"0"}},{"base_weights":[-7.128436E-1,-7.7765197E-1,-6.8104036E-2,-8.1206423E-1,-1.6171862E-1,4.9125472E-1,-6.100638E-1,-8.9661556E-1,-5.920937E-1,-9.354447E-1,-3.494538E-1,-1.893837E-1,-8.464491E-1,1.2198311E-1,-5.2219194E-1,-9.5516014E-1,-4.4882128E-1],"categories":[],"categories_nodes":[],"categories_segments":[],"categories_sizes":[],"default_left":[1,1,1,1,0,0,0,1,1,0,0,1,1,0,0,1,1],"id":45,"left_children":[1,3,5,7,-1,-1,-1,9,11,-1,-1,13,-1,-1,-1,-1,-1],"loss_changes":[5.2935104E0,2.3309937E0,4.174843E0,1.5107956E0,0E0,0E0,0E0,1.3164978E0,3.2633276E0,0E0,0E0,1.5379561E0,4.4434452E-1,0E0,0E0,0E0,0E0],"parents":[2147483647,0,0,1,1,2,2,3,3,7,7,8,8,11,11,12,12],"right_children":[2,4,6,8,-1,-1,-1,10,12,-1,-1,14,-1,-1,-1,-1,-1],"split_conditions":[5E-1,5E-1,5E-1,1.5E0,-8.085932E-3,2.4562737E-2,-3.050319E-2,5E-1,5E-1,-4.6772238E-2,-1.747269E-2,2.5E0,-4.2322453E-2,6.0991556E-3,-2.6109597E-2,-4.775801E-2,-2.2441065E-2],"split_indices":[1440,4077,2693,7043,0,0,0,3258,5923,0,0,7455,6940,0,0,2147483647,2147483647],"split_type":[0,0,0,0,0,0,0,0,0,0,0,0,0,0,0,0,0],"sum_hessian":[1.26953514E2,1.1517058E2,1.1782935E1,1.0877488E2,6.395694E0,5.844433E0,5.938503E0,7.635124E1,3.242364E1,7.062942E1,5.721825E0,1.3226789E1,1.919685E1,7.160802E0,6.065988E0,1.3974176E1,5.222674E0],"tree_param":{"num_deleted":"2","num_feature":"7834","num_nodes":"17","size_leaf_vector":"0"}},{"base_weights":[-7.187587E-1,-7.921323E-1,-5.5601712E-2,-6.307264E-1,-9.2767525E-1,4.9113473E-1,-5.314371E-1,-7.3931015E-1,2.5330213E-1,-1.010699E0,-6.3180685E-1,-8.108061E-1,-1.6571334E-1,-2.4302864E-2,-9.8112005E-1,-8.817112E-1,-5.376394E-1],"categories":[],"categories_nodes":[],"categories_segments":[],"categories_sizes":[],"default_left":[1,1,1,1,1,0,0,1,0,0,1,1,0,0,0,1,1],"id":46,"left_children":[1,3,5,7,9,-1,-1,11,-1,-1,13,-1,-1,-1,-1,-1,-1],"loss_changes":[5.9660645E0,1.8462753E0,3.741983E0,5.3566303E0,7.9312897E-1,0E0,0E0,1.8429966E0,0E0,0E0,3.2524219E0,3.513813E-1,0E0,0E0,0E0,0E0,0E0],"parents":[2147483647,0,0,1,1,2,2,3,3,4,4,7,7,10,10,11,11],"right_children":[2,4,6,8,10,-1,-1,12,-1,-1,14,-1,-1,-1,-1,-1,-1],"split_conditions":[5E-1,1.5E0,4.5E0,5E-1,3.5E0,2.4556737E-2,-2.6571855E-2,5E-1,1.2665107E-2,-5.0534952E-2,5E-1,-4.0540304E-2,-8.285667E-3,-1.2151432E-3,-4.9056005E-2,-4.408556E-2,-2.6881969E-2],"split_indices":[4883,7455,7455,3420,7043,0,0,3561,0,0,2644,6148,0,0,0,2147483647,2147483647],"split_type":[0,0,0,0,0,0,0,0,0,0,0,0,0,0,0,0,0],"sum_hessian":[1.225168E2,1.1013649E2,1.2380312E1,5.2852505E1,5.7283985E1,5.7459936E0,6.6343184E0,4.7216663E1,5.635841E0,4.284514E1,1.4438849E1,4.1615906E1,5.60076E0,5.661788E0,8.7770605E0,3.1271194E1,1.034471E1],"tree_param":{"num_deleted":"2","num_feature":"7834","num_nodes":"17","size_leaf_vector":"0"}},{"base_weights":[-6.598738E-1,-7.325867E-1,-4.58056E-3,-6.1927366E-1,-9.8673403E-1,3.995273E-1,-5.2496E-1,-6.8290794E-1,-2.0304814E-3,-7.4044156E-1,2.8862653E-2,-7.867678E-1,-2.2665828E-1],"categories":[],"categories_nodes":[],"categories_segments":[],"categories_sizes":[],"default_left":[1,1,1,1,0,0,0,1,0,1,0,0,0],"id":47,"left_children":[1,3,5,7,-1,-1,-1,9,-1,11,-1,-1,-1],"loss_changes":[5.731865E0,2.5088615E0,2.9494617E0,3.0471592E0,0E0,0E0,0E0,2.902584E0,0E0,1.3719597E0,0E0,0E0,0E0],"parents":[2147483647,0,0,1,1,2,2,3,3,7,7,9,9],"right_children":[2,4,6,8,-1,-1,-1,10,-1,12,-1,-1,-1],"split_conditions":[5E-1,5E-1,5.5E0,5E-1,-4.93367E-2,1.9976366E-2,-2.6247999E-2,1.5E0,-1.0152407E-4,5.5E0,1.4431326E-3,-3.933839E-2,-1.1332914E-2],"split_indices":[1440,5916,7455,3258,0,0,0,3561,0,7043,0,0,0],"split_type":[0,0,0,0,0,0,0,0,0,0,0,0,0],"sum_hessian":[1.1936572E2,1.07337364E2,1.2028359E1,7.661487E1,3.0722502E1,6.901298E0,5.127061E0,6.9358055E1,7.2568088E0,6.4133736E1,5.2243204E0,5.8341908E1,5.791827E0],"tree_param":{"num_deleted":"0","num_feature":"7834","num_nodes":"13","size_leaf_vector":"0"}},{"base_weights":[-6.4104956E-1,-7.062026E-1,-5.5661347E-2,-5.884254E-1,-9.780531E-1,4.2874372E-1,-5.598286E-1,-7.152308E-1,-2.1013364E-1,-1.0346137E0,-5.8561444E-1,-7.7464974E-1,-3.4218407E-1,2.1710701E-1,-6.782832E-1,-8.092247E-1,-4.1350025E-1,3.5068357E-1,4.309562E-2],"categories":[],"categories_nodes":[],"categories_segments":[],"categories_sizes":[],"default_left":[1,1,1,1,1,0,0,1,1,1,1,1,1,1,0,1,1,1,1],"id":48,"left_children":[1,3,5,7,-1,-1,-1,-1,13,-1,-1,-1,-1,-1,-1,-1,-1,-1,-1],"loss_changes":[4.3974915E0,2.7733421E0,3.35048E0,3.4707775E0,6.2376022E-2,0E0,0E0,9.7888184E-1,4.220947E0,0E0,0E0,2.5998116E-1,0E0,2.5001514E-1,0E0,0E0,0E0,0E0,0E0],"parents":[2147483647,0,0,1,1,2,2,3,3,4,4,7,7,8,8,11,11,13,13],"right_children":[2,4,6,8,-1,-1,-1,-1,14,-1,-1,-1,-1,-1,-1,-1,-1,-1,-1],"split_conditions":[5E-1,5E-1,5E-1,1.5E0,-4.8902657E-2,2.1437187E-2,-2.7991429E-2,-3.5761543E-2,2.5E0,-5.173069E-2,-2.9280722E-2,-3.8732488E-2,-1.7109204E-2,1.0855351E-2,-3.391416E-2,-4.046124E-2,-2.0675013E-2,1.753418E-2,2.154781E-3],"split_indices":[1440,5916,2693,7043,6940,0,0,3561,6621,2147483647,2147483647,2147483647,2147483647,6742,0,2147483647,2147483647,2147483647,2147483647],"split_type":[0,0,0,0,0,0,0,0,0,0,0,0,0,0,0,0,0,0,0],"sum_hessian":[1.1532973E2,1.035935E2,1.1736232E1,7.4487045E1,2.9106453E1,6.0617185E0,5.6745133E0,5.5119884E1,1.9367159E1,2.4009663E1,5.0967894E0,4.6618015E1,8.501868E0,1.0406379E1,8.96078E0,4.141264E1,5.2053766E0,5.3128095E0,5.093569E0],"tree_param":{"num_deleted":"8","num_feature":"7834","num_nodes":"19","size_leaf_vector":"0"}},{"base_weights":[-6.688595E-1,-7.374861E-1,6.369267E-2,-7.760248E-1,-8.483154E-2,-8.321239E-1,-3.869557E-1,-8.627262E-1,-3.5055432E-1,2.5074205E-1,-9.463629E-1,-8.867854E-1,-4.6426934E-1],"categories":[],"categories_nodes":[],"categories_segments":[],"categories_sizes":[],"default_left":[1,1,0,1,0,1,1,1,1,0,0,1,1],"id":49,"left_children":[1,3,-1,5,-1,-1,9,-1,-1,-1,-1,-1,-1],"loss_changes":[5.6963387E0,2.5205574E0,0E0,1.7945671E0,0E0,9.337616E-1,5.2634673E0,3.378296E-1,0E0,0E0,0E0,0E0,0E0],"parents":[2147483647,0,0,1,1,3,3,5,5,6,6,7,7],"right_children":[2,4,-1,6,-1,-1,10,-1,-1,-1,-1,-1,-1],"split_conditions":[1.5E0,5E-1,3.1846333E-3,5.5E0,-4.2415773E-3,-4.1606195E-2,5E-1,-4.313631E-2,-1.7527716E-2,1.2537102E-2,-4.7318146E-2,-4.433927E-2,-2.3213467E-2],"split_indices":[4883,4077,0,7043,0,3555,3715,2147483647,2147483647,0,0,2147483647,2147483647],"split_type":[0,0,0,0,0,0,0,0,0,0,0,0,0],"sum_hessian":[1.1137468E2,1.0182849E2,9.546193E0,9.5972374E1,5.8561144E0,8.2882904E1,1.3089468E1,7.718645E1,5.6964626E0,6.374552E0,6.7149158E0,7.163548E1,5.550959E0],"tree_param":{"num_deleted":"4","num_feature":"7834","num_nodes":"13","size_leaf_vector":"0"}},{"base_weights":[-6.3497657E-1,-6.9184184E-1,1.7340285E-1,-5.751431E-1,-9.802756E-1,-6.887111E-1,-6.2421422E-2,-5.271509E-1,-9.419144E-1,3.7468714E-1,-6.404774E-1,-3.329278E-1,-8.6257493E-1],"categories":[],"categories_nodes":[],"categories_segments":[],"categories_sizes":[],"default_left":[1,1,0,1,0,1,1,1,0,0,0,0,0],"id":50,"left_children":[1,3,-1,5,-1,7,9,11,-1,-1,-1,-1,-1],"loss_changes":[5.215275E0,2.9286957E0,0E0,4.399311E0,0E0,2.054327E0,4.013342E0,2.340745E0,0E0,0E0,0E0,0E0,0E0],"parents":[2147483647,0,0,1,1,3,3,5,5,6,6,7,7],"right_children":[2,4,-1,6,-1,8,10,12,-1,-1,-1,-1,-1],"split_conditions":[5.5E0,5E-1,8.670143E-3,3.5E0,-4.901378E-2,5E-1,2.5E0,5E-1,-4.709572E-2,1.8734356E-2,-3.2023873E-2,-1.664639E-2,-4.3128747E-2],"split_indices":[3253,4783,0,7043,0,1492,5923,1383,0,0,0,0,0],"split_type":[0,0,0,0,0,0,0,0,0,0,0,0,0],"sum_hessian":[1.098429E2,1.0275854E2,7.084368E0,7.5290436E1,2.7468096E1,6.135667E1,1.3933769E1,3.933824E1,2.2018429E1,8.134511E0,5.7992578E0,2.6174673E1,1.3163566E1],"tree_param":{"num_deleted":"0","num_feature":"7834","num_nodes":"13","size_leaf_vector":"0"}},{"base_weights":[-6.0583717E-1,-6.823415E-1,2.8172534E-2,-5.321815E-1,-9.1118056E-1,-3.3601007E-1,4.7837007E-1,-6.4332235E-1,2.954468E-1,-6.0201204E-1,-9.717845E-1,-5.3649944E-1,-8.7005025E-1,-3.8701314E-1,-7.8405666E-1],"categories":[],"categories_nodes":[],"categories_segments":[],"categories_sizes":[],"default_left":[1,1,1,1,1,0,0,1,0,1,1,1,0,0,0],"id":51,"left_children":[1,3,5,7,-1,-1,-1,11,-1,-1,-1,13,-1,-1,-1],"loss_changes":[5.2817726E0,2.843216E0,2.2335489E0,5.7903996E0,1.076622E-1,0E0,0E0,8.408642E-1,0E0,0E0,0E0,1.1512156E0,0E0,0E0,0E0],"parents":[2147483647,0,0,1,1,2,2,3,3,4,4,7,7,11,11],"right_children":[2,4,6,8,-1,-1,-1,12,-1,-1,-1,14,-1,-1,-1],"split_conditions":[5E-1,5E-1,5E-1,5E-1,-4.555903E-2,-1.6800504E-2,2.3918504E-2,5E-1,1.4772341E-2,-3.0100603E-2,-4.8589226E-2,5E-1,-4.3502513E-2,-1.9350657E-2,-3.9202835E-2],"split_indices":[1440,1492,4883,3561,6967,0,0,4783,0,2147483647,2147483647,1383,0,0,0],"split_type":[0,0,0,0,0,0,0,0,0,0,0,0,0,0,0],"sum_hessian":[1.0749619E2,9.585355E1,1.1642634E1,5.9884205E1,3.5969353E1,6.5763793E0,5.066255E0,5.299084E1,6.893365E0,7.6871567E0,2.8282194E1,3.8308193E1,1.4682649E1,2.5483452E1,1.2824739E1],"tree_param":{"num_deleted":"2","num_feature":"7834","num_nodes":"15","size_leaf_vector":"0"}},{"base_weights":[-6.086813E-1,-6.8146443E-1,-8.652012E-3,-5.4123795E-1,-8.9790094E-1,4.4794583E-1,-5.319379E-1,-6.1925274E-1,2.3587008E-1,-9.588059E-1,-5.485469E-1,-4.8115087E-1,-9.8182416E-1,-3.13744E-1,-7.820374E-1],"categories":[],"categories_nodes":[],"categories_segments":[],"categories_sizes":[],"default_left":[1,1,1,1,1,0,0,1,0,1,1,1,0,0,0],"id":52,"left_children":[1,3,5,7,-1,-1,-1,11,-1,-1,-1,13,-1,-1,-1],"loss_changes":[4.5347824E0,2.3278427E0,3.16765E0,3.70957E0,2.1734238E-1,0E0,0E0,2.2160473E0,0E0,0E0,0E0,1.8119211E0,0E0,0E0,0E0],"parents":[2147483647,0,0,1,1,2,2,3,3,4,4,7,7,11,11],"right_children":[2,4,6,8,-1,-1,-1,12,-1,-1,-1,14,-1,-1,-1],"split_conditions":[5E-1,5E-1,4.5E0,2.5E0,-4.489505E-2,2.2397293E-2,-2.6596894E-2,5E-1,1.17935045E-2,-4.7940295E-2,-2.7427346E-2,5E-1,-4.909121E-2,-1.5687201E-2,-3.910187E-2],"split_indices":[1440,1492,7455,3253,7254,0,0,4783,0,2147483647,2147483647,1383,0,0,0],"split_type":[0,0,0,0,0,0,0,0,0,0,0,0,0,0,0],"sum_hessian":[1.0297228E2,9.171197E1,1.1260308E1,5.7778614E1,3.3933357E1,6.090213E0,5.1700954E0,5.269194E1,5.086674E0,2.7410252E1,6.523105E0,3.9842976E1,1.2848965E1,2.6912285E1,1.293069E1],"tree_param":{"num_deleted":"2","num_feature":"7834","num_nodes":"15","size_leaf_vector":"0"}},{"base_weights":[-5.99981E-1,-6.82322E-1,5.2463774E-2,-5.1706016E-1,-9.451801E-1,6.4429545E-1,-6.7865026E-1,-6.0320836E-1,1.7836727E-1,-9.9274534E-1,-5.742552E-1,-7.0364743E-1,3.3432964E-2,-5.5708694E-1,-8.9388883E-1],"categories":[],"categories_nodes":[],"categories_segments":[],"categories_sizes":[],"default_left":[1,1,1,1,1,0,0,1,0,1,1,1,0,1,1],"id":53,"left_children":[1,3,5,7,-1,-1,-1,11,-1,-1,-1,-1,-1,-1,-1],"loss_changes":[5.5164795E0,3.4494438E0,5.785727E0,3.5745316E0,2.6023865E-2,0E0,0E0,3.3306255E0,0E0,0E0,0E0,7.488136E-1,0E0,0E0,0E0],"parents":[2147483647,0,0,1,1,2,2,3,3,4,4,7,7,11,11],"right_children":[2,4,6,8,-1,-1,-1,12,-1,-1,-1,-1,-1,-1,-1],"split_conditions":[5E-1,5E-1,5E-1,5E-1,-4.7259007E-2,3.2214772E-2,-3.3932514E-2,3.5E0,8.918364E-3,-4.963727E-2,-2.8712763E-2,-3.518237E-2,1.6716482E-3,-2.7854348E-2,-4.4694442E-2],"split_indices":[1440,5733,2389,3258,6940,0,0,7043,0,2147483647,2147483647,7455,0,2147483647,2147483647],"split_type":[0,0,0,0,0,0,0,0,0,0,0,0,0,0,0],"sum_hessian":[1.0101742E2,8.965662E1,1.1360804E1,5.6869305E1,3.278731E1,6.344071E0,5.0167327E0,5.071895E1,6.150356E0,2.7574867E1,5.212446E0,4.3716766E1,7.0021815E0,2.6912163E1,1.6804604E1],"tree_param":{"num_deleted":"4","num_feature":"7834","num_nodes":"15","size_leaf_vector":"0"}},{"base_weights":[-5.634978E-1,-6.545604E-1,7.2541654E-2,-5.6793684E-1,-9.572874E-1,-3.0277064E-1,5.473453E-1,-6.3958246E-1,1.1296692E-1,-7.1370286E-1,1.02473035E-1,-5.84318E-1,-9.930953E-1],"categories":[],"categories_nodes":[],"categories_segments":[],"categories_sizes":[],"default_left":[1,1,1,1,0,0,0,1,0,1,0,0,0],"id":54,"left_children":[1,3,5,7,-1,-1,-1,9,-1,11,-1,-1,-1],"loss_changes":[5.8633404E0,1.7623138E0,2.567137E0,3.5276642E0,0E0,0E0,0E0,3.6063137E0,0E0,1.5355148E0,0E0,0E0,0E0],"parents":[2147483647,0,0,1,1,2,2,3,3,7,7,9,9],"right_children":[2,4,6,8,-1,-1,-1,10,-1,12,-1,-1,-1],"split_conditions":[5E-1,5.5E0,5E-1,5.5E0,-4.786437E-2,-1.5138532E-2,2.7367264E-2,5E-1,5.648346E-3,5E-1,5.123652E-3,-2.92159E-2,-4.9654763E-2],"split_indices":[4883,3715,1440,7043,0,0,0,3258,0,1492,0,0,0],"split_type":[0,0,0,0,0,0,0,0,0,0,0,0,0],"sum_hessian":[9.9412895E1,8.6936905E1,1.2475991E1,6.9831184E1,1.710572E1,7.170409E0,5.305582E0,6.3237896E1,6.5932913E0,5.7529728E1,5.7081647E0,4.1433517E1,1.609621E1],"tree_param":{"num_deleted":"0","num_feature":"7834","num_nodes":"13","size_leaf_vector":"0"}},{"base_weights":[-5.512886E-1,-3.7418482E-1,-8.34427E-1,-4.990136E-1,1.652956E-1,-9.1656184E-1,-2.6523447E-1,-6.1540395E-1,3.6506113E-1,1.0045235E0,-5.486218E-1,-9.824409E-1,-5.507086E-1,-8.009923E-1,-3.8996696E-1,-6.363203E-1,-9.587999E-1,-4.0287126E-2,-7.1039766E-1],"categories":[],"categories_nodes":[],"categories_segments":[],"categories_sizes":[],"default_left":[1,1,1,1,1,1,0,1,0,0,0,1,1,1,1,1,1,0,0],"id":55,"left_children":[1,3,5,7,9,-1,-1,13,-1,-1,-1,-1,-1,-1,17,-1,-1,-1,-1],"loss_changes":[4.547882E0,4.219919E0,1.4624901E0,5.267495E0,7.918089E0,2.1757507E-1,0E0,1.5520668E0,0E0,0E0,0E0,0E0,0E0,3.8719177E-4,2.4442687E0,0E0,0E0,0E0,0E0],"parents":[2147483647,0,0,1,1,2,2,3,3,4,4,5,5,7,7,13,13,14,14],"right_children":[2,4,6,8,10,-1,-1,14,-1,-1,-1,-1,-1,-1,18,-1,-1,-1,-1],"split_conditions":[5E-1,3.5E0,3.25E1,5E-1,5E-1,-4.5828093E-2,-1.3261723E-2,5E-1,1.8253056E-2,5.0226178E-2,-2.743109E-2,-4.9122047E-2,-2.753543E-2,-4.0049616E-2,5.5E0,-3.1816017E-2,-4.7939997E-2,-2.0143564E-3,-3.5519883E-2],"split_indices":[5733,7043,6940,3258,6621,3555,0,6621,0,0,0,2147483647,2147483647,6742,6621,2147483647,2147483647,0,0],"split_type":[0,0,0,0,0,0,0,0,0,0,0,0,0,0,0,0,0,0,0],"sum_hessian":[9.5921394E1,6.043851E1,3.5482887E1,4.9142567E1,1.1295944E1,3.0475035E1,5.007852E0,4.356251E1,5.5800548E0,5.0051756E0,6.290769E0,2.4396606E1,6.0784287E0,2.249264E1,2.106987E1,1.3469494E1,9.023147E0,1.06134E1,1.045647E1],"tree_param":{"num_deleted":"4","num_feature":"7834","num_nodes":"19","size_leaf_vector":"0"}},{"base_weights":[-5.5281365E-1,-6.3910633E-1,8.695819E-2,-7.056497E-1,-2.0022592E-1,6.13179E-1,-4.179143E-1,-7.587775E-1,-1.6221152E-1,4.814055E-1,-7.950617E-1,-6.6048425E-1,-9.4785726E-1,-7.5190455E-1,-3.8352445E-1],"categories":[],"categories_nodes":[],"categories_segments":[],"categories_sizes":[],"default_left":[1,1,1,1,1,0,0,1,0,0,0,1,1,1,1],"id":56,"left_children":[1,3,5,7,9,-1,-1,-1,-1,-1,-1,-1,-1,-1,-1],"loss_changes":[5.230007E0,2.2741394E0,3.4495695E0,1.9389877E0,5.363914E0,0E0,0E0,5.7808304E-1,0E0,0E0,0E0,8.7448883E-1,0E0,0E0,0E0],"parents":[2147483647,0,0,1,1,2,2,3,3,4,4,7,7,11,11],"right_children":[2,4,6,8,10,-1,-1,-1,-1,-1,-1,-1,-1,-1,-1],"split_conditions":[5E-1,5E-1,4.5E0,1.5E0,5E-1,3.0658951E-2,-2.0895716E-2,-3.7938874E-2,-8.110576E-3,2.4070276E-2,-3.9753087E-2,-3.3024214E-2,-4.7392864E-2,-3.7595227E-2,-1.9176222E-2],"split_indices":[4883,3258,7455,3561,2199,0,0,1492,0,0,0,2147483647,2147483647,2147483647,2147483647],"split_type":[0,0,0,0,0,0,0,0,0,0,0,0,0,0,0],"sum_hessian":[9.272681E1,8.170715E1,1.1019648E1,7.042189E1,1.1285262E1,5.2907047E0,5.728943E0,6.3789433E1,6.632462E0,5.347813E0,5.937449E0,4.4927162E1,1.886227E1,3.2488384E1,1.2438779E1],"tree_param":{"num_deleted":"4","num_feature":"7834","num_nodes":"15","size_leaf_vector":"0"}},{"base_weights":[-5.089117E-1,-5.705715E-1,2.836069E-1,-3.9432508E-1,-8.718452E-1,-5.288506E-1,1.5597716E-1,-9.4694835E-1,-4.0963373E-1,-3.4847564E-1,-7.8215796E-1,9.5961094E-1,-6.169451E-1,-5.513551E-1,1.3997063E-1,-9.012869E-1,-4.014761E-1],"categories":[],"categories_nodes":[],"categories_segments":[],"categories_sizes":[],"default_left":[1,1,0,1,1,1,1,1,1,1,1,0,0,0,0,1,1],"id":57,"left_children":[1,3,-1,5,-1,9,11,-1,-1,13,-1,-1,-1,-1,-1,-1,-1],"loss_changes":[4.6230354E0,4.17148E0,0E0,4.1893644E0,6.729393E-1,1.7746487E0,7.8406754E0,0E0,0E0,2.849296E0,4.468441E-1,0E0,0E0,0E0,0E0,0E0,0E0],"parents":[2147483647,0,0,1,1,3,3,4,4,5,5,6,6,9,9,10,10],"right_children":[2,4,-1,6,-1,10,12,-1,-1,14,-1,-1,-1,-1,-1,-1,-1],"split_conditions":[2.5E0,5E-1,1.41803445E-2,3.5E0,-4.359226E-2,1.5E0,5E-1,-4.734742E-2,-2.0481687E-2,3.5E0,-3.91079E-2,4.7980547E-2,-3.0847255E-2,-2.7567757E-2,6.9985315E-3,-4.5064345E-2,-2.0073805E-2],"split_indices":[3555,5733,0,7043,6940,7455,6621,2147483647,2147483647,6148,6742,0,0,0,0,2147483647,2147483647],"split_type":[0,0,0,0,0,0,0,0,0,0,0,0,0,0,0,0,0],"sum_hessian":[9.0294044E1,8.403591E1,6.2581306E0,5.4476055E1,2.9559856E1,4.3806267E1,1.0669789E1,2.452598E1,5.033876E0,2.6974195E1,1.683207E1,5.1125546E0,5.557235E0,1.8967234E1,8.006962E0,1.1778573E1,5.0534964E0],"tree_param":{"num_deleted":"4","num_feature":"7834","num_nodes":"17","size_leaf_vector":"0"}},{"base_weights":[-4.8265767E-1,-5.4431427E-1,2.7746335E-1,-4.184145E-1,-8.6428165E-1,-5.3966916E-1,6.50903E-2,-9.526217E-1,-4.98072E-1,-3.4237137E-1,-7.586448E-1,6.3429993E-1,-3.7148538E-1,-5.60378E-1,2.091679E-1,-9.23183E-1,-3.67719E-1],"categories":[],"categories_nodes":[],"categories_segments":[],"categories_sizes":[],"default_left":[1,1,0,1,1,1,1,1,1,1,1,0,0,0,0,0,0],"id":58,"left_children":[1,3,-1,5,-1,9,11,-1,-1,13,15,-1,-1,-1,-1,-1,-1],"loss_changes":[4.4014397E0,3.0312843E0,0E0,3.6923437E0,2.645607E-1,1.8996172E0,3.5655189E0,0E0,0E0,3.497671E0,1.1313629E0,0E0,0E0,0E0,0E0,0E0,0E0],"parents":[2147483647,0,0,1,1,3,3,4,4,5,5,6,6,9,9,10,10],"right_children":[2,4,-1,6,-1,10,12,-1,-1,14,16,-1,-1,-1,-1,-1,-1],"split_conditions":[5.5E0,5E-1,1.3873167E-2,3.5E0,-4.3214083E-2,1.5E0,1.5E0,-4.7631085E-2,-2.4903601E-2,3.5E0,8.25E1,3.1715E-2,-1.857427E-2,-2.8018901E-2,1.0458395E-2,-4.6159152E-2,-1.838595E-2],"split_indices":[3253,4783,0,7043,979,7455,6621,2147483647,2147483647,6148,6742,0,0,0,0,0,0],"split_type":[0,0,0,0,0,0,0,0,0,0,0,0,0,0,0,0,0],"sum_hessian":[8.969199E1,8.322517E1,6.466828E0,6.1380886E1,2.1844278E1,4.898111E1,1.2399776E1,1.630883E1,5.535449E0,2.7114431E1,2.1866678E1,5.185716E0,7.214061E0,1.9421627E1,7.692804E0,1.4431164E1,7.4355135E0],"tree_param":{"num_deleted":"2","num_feature":"7834","num_nodes":"17","size_leaf_vector":"0"}},{"base_weights":[-4.9677122E-1,-5.8548445E-1,8.7403916E-2,-4.0123132E-1,-8.8533926E-1,4.3744838E-1,-3.585808E-1,-2.7405784E-1,-9.4252366E-1,-1.000471E0,-5.4254144E-1,-4.6569428E-1,3.4156555E-1,-3.0562857E-1,-9.163419E-1],"categories":[],"categories_nodes":[],"categories_segments":[],"categories_sizes":[],"default_left":[1,1,1,1,1,0,0,1,0,1,1,1,0,0,0],"id":59,"left_children":[1,3,5,7,-1,-1,-1,11,-1,-1,-1,13,-1,-1,-1],"loss_changes":[4.6887646E0,3.9442196E0,2.1345267E0,3.1856413E0,5.934334E-1,0E0,0E0,5.1048155E0,0E0,0E0,0E0,2.0565505E0,0E0,0E0,0E0],"parents":[2147483647,0,0,1,1,2,2,3,3,4,4,7,7,11,11],"right_children":[2,4,6,8,-1,-1,-1,12,-1,-1,-1,14,-1,-1,-1],"split_conditions":[5E-1,5E-1,4.5E0,5E-1,-4.4266965E-2,2.187242E-2,-1.792904E-2,1.5E0,-4.7126185E-2,-5.0023552E-2,-2.7127072E-2,5E-1,1.7078279E-2,-1.5281429E-2,-4.5817096E-2],"split_indices":[1440,1492,7455,7254,7043,0,0,7043,0,2147483647,2147483647,4783,0,0,0],"split_type":[0,0,0,0,0,0,0,0,0,0,0,0,0,0,0],"sum_hessian":[8.8487206E1,7.681915E1,1.166805E1,4.9029724E1,2.778943E1,6.547886E0,5.1201644E0,4.092171E1,8.108014E0,1.9366474E1,8.422956E0,3.139298E1,9.52873E0,2.4403345E1,6.9896345E0],"tree_param":{"num_deleted":"2","num_feature":"7834","num_nodes":"15","size_leaf_vector":"0"}},{"base_weights":[-5.0385475E-1,-5.991085E-1,1.3363104E-1,-6.7123026E-1,-1.3460031E-1,7.286335E-1,-4.2667982E-1,-7.3365957E-1,-9.836849E-3,3.973736E-1,-6.1163163E-1,-6.2331843E-1,-9.407181E-1,-7.79035E-1,-3.4525728E-1],"categories":[],"categories_nodes":[],"categories_segments":[],"categories_sizes":[],"default_left":[1,1,1,1,1,0,0,1,0,0,0,1,0,0,0],"id":60,"left_children":[1,3,5,7,9,-1,-1,11,-1,-1,-1,13,-1,-1,-1],"loss_changes":[5.384924E0,2.462019E0,4.369664E0,2.7054424E0,3.1589017E0,0E0,0E0,7.848511E-1,0E0,0E0,0E0,1.5546284E0,0E0,0E0,0E0],"parents":[2147483647,0,0,1,1,2,2,3,3,4,4,7,7,11,11],"right_children":[2,4,6,8,10,-1,-1,12,-1,-1,-1,14,-1,-1,-1],"split_conditions":[5E-1,5E-1,4.5E0,2.25E1,9E1,3.6431678E-2,-2.133399E-2,5E-1,-4.9184245E-4,1.986868E-2,-3.0581582E-2,3.5E0,-4.7035906E-2,-3.895175E-2,-1.7262865E-2],"split_indices":[4883,3258,7455,6940,6742,0,0,1492,0,0,0,6148,0,0,0],"split_type":[0,0,0,0,0,0,0,0,0,0,0,0,0,0,0],"sum_hessian":[8.636182E1,7.518744E1,1.11743765E1,6.469721E1,1.0490232E1,5.2737226E0,5.9006543E0,5.901727E1,5.6799393E0,5.0384545E0,5.451778E0,4.1116634E1,1.7900637E1,2.5201769E1,1.5914865E1],"tree_param":{"num_deleted":"0","num_feature":"7834","num_nodes":"15","size_leaf_vector":"0"}},{"base_weights":[-4.8092645E-1,-5.8398783E-1,2.2208343E-1,-4.1149455E-1,-8.687069E-1,6.120406E-1,-2.0100197E-1,-5.109319E-1,1.2507744E-1,-6.1094123E-1,-9.937719E-1,-3.4367153E-1,-8.817796E-1,-2.0105334E-1,-7.602188E-1],"categories":[],"categories_nodes":[],"categories_segments":[],"categories_sizes":[],"default_left":[1,1,1,1,1,0,0,1,0,1,1,1,0,0,0],"id":61,"left_children":[1,3,5,7,-1,-1,-1,11,-1,-1,-1,13,-1,-1,-1],"loss_changes":[6.2068844E0,3.2487698E0,2.011897E0,2.605013E0,2.5691032E-1,0E0,0E0,2.2014446E0,0E0,0E0,0E0,1.5975909E0,0E0,0E0,0E0],"parents":[2147483647,0,0,1,1,2,2,3,3,4,4,7,7,11,11],"right_children":[2,4,6,8,-1,-1,-1,12,-1,-1,-1,14,-1,-1,-1],"split_conditions":[5E-1,5E-1,5E-1,7.9E1,-4.3435346E-2,3.0602029E-2,-1.0050098E-2,5.5E0,6.253872E-3,-3.0547062E-2,-4.9688596E-2,5E-1,-4.4088982E-2,-1.0052667E-2,-3.801094E-2],"split_indices":[1440,1492,7789,6742,6742,0,0,6621,0,2147483647,2147483647,5733,0,0,0],"split_type":[0,0,0,0,0,0,0,0,0,0,0,0,0,0,0],"sum_hessian":[8.287747E1,7.242871E1,1.0448761E1,4.6626137E1,2.5802574E1,5.2048483E0,5.243913E0,3.9376656E1,7.2494826E0,1.03518505E1,1.5450724E1,2.8465029E1,1.0911626E1,2.2309372E1,6.155657E0],"tree_param":{"num_deleted":"2","num_feature":"7834","num_nodes":"15","size_leaf_vector":"0"}},{"base_weights":[-4.730521E-1,-5.3998935E-1,3.1069338E-1,-4.0934524E-1,-8.8231826E-1,-5.4742354E-1,4.4528604E-2,-9.915918E-1,-4.6802166E-1,-3.3542854E-1,-8.3892816E-1,7.445688E-1,-5.165722E-1,-4.7336537E-1,7.437338E-2,-9.775983E-1,-4.0049568E-1],"categories":[],"categories_nodes":[],"categories_segments":[],"categories_sizes":[],"default_left":[1,1,0,1,1,1,1,1,1,1,1,0,0,0,0,1,1],"id":62,"left_children":[1,3,-1,5,-1,9,11,-1,-1,13,-1,-1,-1,-1,-1,-1,-1],"loss_changes":[4.593542E0,3.1312199E0,0E0,3.6833591E0,4.7322655E-1,2.4896765E0,6.097237E0,0E0,0E0,1.59689E0,7.1583366E-1,0E0,0E0,0E0,0E0,0E0,0E0],"parents":[2147483647,0,0,1,1,3,3,4,4,5,5,6,6,9,9,10,10],"right_children":[2,4,-1,6,-1,10,12,-1,-1,14,-1,-1,-1,-1,-1,-1,-1],"split_conditions":[5.5E0,5E-1,1.5534669E-2,5E-1,-4.4115912E-2,5E-1,5E-1,-4.957959E-2,-2.3401083E-2,4.5E0,-4.1946407E-2,3.7228443E-2,-2.582861E-2,-2.3668269E-2,3.718669E-3,-4.8879918E-2,-2.0024784E-2],"split_indices":[3253,4783,0,3561,979,1383,1492,2147483647,2147483647,6148,6742,0,0,0,0,2147483647,2147483647],"split_type":[0,0,0,0,0,0,0,0,0,0,0,0,0,0,0,0,0],"sum_hessian":[8.336188E1,7.708897E1,6.2729106E0,5.738479E1,1.9704178E1,4.384122E1,1.3543568E1,1.4489135E1,5.2150416E0,2.662733E1,1.721389E1,5.8802614E0,7.6633067E0,1.9805733E1,6.821598E0,1.2143357E1,5.070533E0],"tree_param":{"num_deleted":"4","num_feature":"7834","num_nodes":"17","size_leaf_vector":"0"}},{"base_weights":[-4.5048794E-1,-5.175141E-1,2.8422767E-1,-3.3884647E-1,-8.3521265E-1,-4.5765942E-1,3.5259065E-1,-9.1857076E-1,-3.972679E-1,-7.6807433E-1,-2.3511124E-1,-5.1913244E-1,-9.4530433E-1,-5.3196862E-2,-7.5916404E-1],"categories":[],"categories_nodes":[],"categories_segments":[],"categories_sizes":[],"default_left":[1,1,0,1,1,1,0,1,1,1,1,1,1,0,0],"id":63,"left_children":[1,3,-1,5,-1,9,-1,-1,-1,-1,13,-1,-1,-1,-1],"loss_changes":[4.2411366E0,4.0616016E0,0E0,4.324167E0,6.159344E-1,2.8367138E0,0E0,0E0,0E0,2.944603E-1,2.5221543E0,0E0,0E0,0E0,0E0],"parents":[2147483647,0,0,1,1,3,3,4,4,5,5,9,9,10,10],"right_children":[2,4,-1,6,-1,10,-1,-1,-1,-1,14,-1,-1,-1,-1],"split_conditions":[2.5E0,5E-1,1.4211384E-2,5E-1,-4.1760635E-2,1.5E0,1.7629532E-2,-4.5928538E-2,-1.9863395E-2,-3.8403716E-2,5E-1,-2.5956621E-2,-4.7265217E-2,-2.659843E-3,-3.79582E-2],"split_indices":[3561,5733,0,3258,6940,6148,0,2147483647,2147483647,6742,4783,2147483647,2147483647,0,0],"split_type":[0,0,0,0,0,0,0,0,0,0,0,0,0,0,0],"sum_hessian":[8.213593E1,7.554022E1,6.595711E0,4.9672127E1,2.5868095E1,4.267686E1,6.9952645E0,2.080973E1,5.058366E0,1.6796907E1,2.5879955E1,8.619241E0,8.177666E0,2.0028852E1,5.8511024E0],"tree_param":{"num_deleted":"4","num_feature":"7834","num_nodes":"15","size_leaf_vector":"0"}},{"base_weights":[-4.2456254E-1,-3.0298528E-1,-8.400509E-1,-3.9254487E-1,5.993785E-1,-9.534225E-1,-5.418943E-1,-4.945538E-1,1.569995E-1,-7.026683E-1,-3.1151662E-2,-8.1680346E-1,-3.0419627E-1,2.692953E-1,-6.0313195E-1],"categories":[],"categories_nodes":[],"categories_segments":[],"categories_sizes":[],"default_left":[1,1,1,1,0,1,1,1,0,1,1,0,0,0,0],"id":64,"left_children":[1,3,-1,7,-1,-1,-1,9,-1,11,13,-1,-1,-1,-1],"loss_changes":[3.8453407E0,5.4360766E0,8.5333824E-2,3.393381E0,0E0,0E0,0E0,4.8125353E0,0E0,1.322691E0,3.0120432E0,0E0,0E0,0E0,0E0],"parents":[2147483647,0,0,1,1,2,2,3,3,7,7,9,9,10,10],"right_children":[2,4,-1,8,-1,-1,-1,10,-1,12,14,-1,-1,-1,-1],"split_conditions":[2.5E0,5E-1,-4.2002544E-2,5E-1,2.9968927E-2,-4.7671124E-2,-2.7094716E-2,1.5E0,7.8499755E-3,5E-1,5E-1,-4.0840175E-2,-1.5209814E-2,1.3464766E-2,-3.0156597E-2],"split_indices":[5733,4077,3561,3258,0,2147483647,2147483647,7043,0,3747,3715,0,0,0,0],"split_type":[0,0,0,0,0,0,0,0,0,0,0,0,0,0,0],"sum_hessian":[8.0163025E1,6.3354042E1,1.6808987E1,5.814785E1,5.2061915E0,1.0586015E1,6.222971E0,4.9128464E1,9.019384E0,3.3546406E1,1.5582058E1,2.5261007E1,8.2853985E0,1.0562846E1,5.019212E0],"tree_param":{"num_deleted":"2","num_feature":"7834","num_nodes":"15","size_leaf_vector":"0"}},{"base_weights":[-4.177069E-1,-5.1975024E-1,1.7019017E-1,-3.6292478E-1,-7.9346395E-1,5.0807744E-1,-2.7362227E-1,-4.6957088E-1,2.2273885E-1,-9.35642E-1,-2.2565232E-1,-5.8721036E-1,-1.00871176E-1,-7.82753E-1,-3.2644814E-1],"categories":[],"categories_nodes":[],"categories_segments":[],"categories_sizes":[],"default_left":[1,1,1,1,1,0,0,1,0,0,0,1,0,0,0],"id":65,"left_children":[1,3,5,7,9,-1,-1,11,-1,-1,-1,13,-1,-1,-1],"loss_changes":[4.8106546E0,2.6017513E0,1.9978218E0,2.8928251E0,1.7004414E0,0E0,0E0,1.5927067E0,0E0,0E0,0E0,1.2061663E0,0E0,0E0,0E0],"parents":[2147483647,0,0,1,1,2,2,3,3,4,4,7,7,11,11],"right_children":[2,4,6,8,10,-1,-1,12,-1,-1,-1,14,-1,-1,-1],"split_conditions":[5E-1,5E-1,5E-1,5E-1,1.85E1,2.5403872E-2,-1.3681114E-2,1.5E0,1.1136943E-2,-4.6782102E-2,-1.1282616E-2,5E-1,-5.043559E-3,-3.913765E-2,-1.6322408E-2],"split_indices":[4883,5733,1415,3258,6940,0,0,7043,0,0,0,6621,0,0,0],"split_type":[0,0,0,0,0,0,0,0,0,0,0,0,0,0,0],"sum_hessian":[7.771513E1,6.63197E1,1.1395427E1,4.364121E1,2.2678495E1,6.387577E0,5.0078497E0,3.7086235E1,6.5549736E0,1.7618965E1,5.0595303E0,2.7666233E1,9.420002E0,1.4666328E1,1.2999905E1],"tree_param":{"num_deleted":"0","num_feature":"7834","num_nodes":"15","size_leaf_vector":"0"}},{"base_weights":[-3.8443267E-1,-2.515076E-1,-8.1142783E-1,-3.6019906E-1,5.8805853E-1,-9.723584E-1,-3.3961493E-1,-4.543666E-1,3.602123E-1,-5.346443E-1,1.4600933E-1,-3.416631E-1,-9.039849E-1],"categories":[],"categories_nodes":[],"categories_segments":[],"categories_sizes":[],"default_left":[1,1,1,1,0,0,0,1,0,1,0,0,0],"id":66,"left_children":[1,3,5,7,-1,-1,-1,9,-1,11,-1,-1,-1],"loss_changes":[4.144288E0,5.6754913E0,1.0166416E0,3.8019462E0,0E0,0E0,0E0,2.385394E0,0E0,2.7161846E0,0E0,0E0,0E0],"parents":[2147483647,0,0,1,1,2,2,3,3,7,7,9,9],"right_children":[2,4,6,8,-1,-1,-1,10,-1,12,-1,-1,-1],"split_conditions":[5.5E0,3.5E0,5E-1,5E-1,2.9402927E-2,-4.861792E-2,-1.6980747E-2,6.5E0,1.8010614E-2,5E-1,7.3004663E-3,-1.7083155E-2,-4.5199245E-2],"split_indices":[3715,3253,1440,3258,0,0,0,7043,0,1383,0,0,0],"split_type":[0,0,0,0,0,0,0,0,0,0,0,0,0],"sum_hessian":[7.561196E1,5.8873466E1,1.6738495E1,5.263078E1,6.242687E0,1.1690191E1,5.048304E0,4.687312E1,5.757657E0,4.144138E1,5.431743E0,2.8483665E1,1.2957712E1],"tree_param":{"num_deleted":"0","num_feature":"7834","num_nodes":"13","size_leaf_vector":"0"}},{"base_weights":[-4.1561747E-1,-4.8458248E-1,3.8359082E-1,-5.5054784E-1,2.5689283E-1,-3.7140536E-1,-8.213408E-1,-5.251103E-1,4.1622564E-1,-9.486493E-1,-3.5885894E-1,-6.654606E-1,-1.928727E-1],"categories":[],"categories_nodes":[],"categories_segments":[],"categories_sizes":[],"default_left":[1,1,0,1,0,1,1,1,0,0,0,0,0],"id":67,"left_children":[1,3,-1,5,-1,7,9,11,-1,-1,-1,-1,-1],"loss_changes":[4.36499E0,3.5770226E0,0E0,2.8394222E0,0E0,5.162471E0,1.1305065E0,1.4855766E0,0E0,0E0,0E0,0E0,0E0],"parents":[2147483647,0,0,1,1,3,3,5,5,6,6,7,7],"right_children":[2,4,-1,6,-1,8,10,12,-1,-1,-1,-1,-1],"split_conditions":[5.5E0,5E-1,1.9179542E-2,5E-1,1.2844642E-2,5E-1,1.65E1,4.5E0,2.0811282E-2,-4.7432464E-2,-1.7942948E-2,-3.327303E-2,-9.643636E-3],"split_indices":[4883,4077,0,1492,0,3561,6621,6148,0,0,0,0,0],"split_type":[0,0,0,0,0,0,0,0,0,0,0,0,0],"sum_hessian":[7.482193E1,6.924071E1,5.581224E0,6.3820423E1,5.420285E0,3.983754E1,2.3982883E1,3.361159E1,6.2259455E0,1.7981781E1,6.0011024E0,2.2924438E1,1.0687154E1],"tree_param":{"num_deleted":"0","num_feature":"7834","num_nodes":"13","size_leaf_vector":"0"}},{"base_weights":[-4.176397E-1,-4.9383113E-1,4.3000856E-1,-2.810872E-1,-7.199398E-1,-4.2193082E-1,4.945626E-1,-8.801845E-1,-1.0374507E-1,-1.6091825E-1,-8.0837446E-1,-9.5922506E-1,-4.6993676E-1,-3.6854342E-1,3.3251676E-1],"categories":[],"categories_nodes":[],"categories_segments":[],"categories_sizes":[],"default_left":[1,1,0,1,1,1,0,1,0,1,0,1,1,0,0],"id":68,"left_children":[1,3,-1,5,7,9,-1,-1,-1,13,-1,-1,-1,-1,-1],"loss_changes":[5.0152454E0,3.1022968E0,0E0,4.2547097E0,3.1339016E0,3.085978E0,0E0,3.8544273E-1,0E0,2.2001348E0,0E0,0E0,0E0,0E0,0E0],"parents":[2147483647,0,0,1,1,3,3,4,4,5,5,7,7,9,9],"right_children":[2,4,-1,6,8,10,-1,-1,-1,14,-1,-1,-1,-1,-1],"split_conditions":[5.5E0,5E-1,2.150043E-2,6.85E1,5E-1,1.5E0,2.472813E-2,-4.4009224E-2,-5.187254E-3,3.5E0,-4.0418725E-2,-4.7961254E-2,-2.3496838E-2,-1.842717E-2,1.6625838E-2],"split_indices":[3253,1383,0,6742,7746,7455,0,2644,0,6148,0,2147483647,2147483647,0,0],"split_type":[0,0,0,0,0,0,0,0,0,0,0,0,0,0,0],"sum_hessian":[7.336716E1,6.769936E1,5.6677923E0,3.6036266E1,3.1663097E1,3.0884281E1,5.1519837E0,2.4788342E1,6.8747563E0,1.9279137E1,1.16051445E1,1.9661993E1,5.126349E0,1.3747597E1,5.53154E0],"tree_param":{"num_deleted":"2","num_feature":"7834","num_nodes":"15","size_leaf_vector":"0"}},{"base_weights":[-3.491676E-1,-4.4369105E-1,1.4816909E-1,-3.1962955E-1,-7.942543E-1,5.756074E-1,-2.48466E-1,-3.9907333E-1,1.804128E-1,-9.3494123E-1,-4.660793E-1,-1.2912914E-1,-7.6157486E-1,-4.2757827E-1,3.7523437E-1,-3.9068845E-1,-9.5495236E-1],"categories":[],"categories_nodes":[],"categories_segments":[],"categories_sizes":[],"default_left":[1,1,1,1,1,0,0,1,0,1,1,1,1,0,0,1,1],"id":69,"left_children":[1,3,5,7,-1,-1,-1,11,-1,-1,-1,13,-1,-1,-1,-1,-1],"loss_changes":[3.5436983E0,2.4607868E0,2.2732902E0,1.9699202E0,2.864313E-1,0E0,0E0,3.9663405E0,0E0,0E0,0E0,3.9254992E0,8.8383865E-1,0E0,0E0,0E0,0E0],"parents":[2147483647,0,0,1,1,2,2,3,3,4,4,7,7,11,11,12,12],"right_children":[2,4,6,8,-1,-1,-1,12,-1,-1,-1,14,-1,-1,-1,-1,-1],"split_conditions":[5E-1,5E-1,5E-1,5E-1,-3.9712716E-2,2.8780371E-2,-1.24233E-2,5E-1,9.0206405E-3,-4.6747062E-2,-2.3303965E-2,1.5E0,-3.8078744E-2,-2.1378914E-2,1.8761719E-2,-1.9534422E-2,-4.774762E-2],"split_indices":[4883,4783,5923,7746,979,0,0,1383,0,2147483647,2147483647,6621,7801,0,0,2147483647,2147483647],"split_type":[0,0,0,0,0,0,0,0,0,0,0,0,0,0,0,0,0],"sum_hessian":[7.29834E1,6.1418167E1,1.1565227E1,4.6776207E1,1.4641959E1,5.349283E0,6.2159433E0,4.0537735E1,6.2384753E0,8.954361E0,5.687598E0,2.4012527E1,1.6525206E1,1.5181411E1,8.831118E0,6.698406E0,9.826798E0],"tree_param":{"num_deleted":"4","num_feature":"7834","num_nodes":"17","size_leaf_vector":"0"}},{"base_weights":[-3.2547167E-1,-2.1029358E-1,-8.406516E-1,-3.2958865E-1,4.1912836E-1,-4.325683E-1,5.0641394E-1,-5.264505E-1,1.6593061E-1,-3.3066812E-1,-8.932705E-1],"categories":[],"categories_nodes":[],"categories_segments":[],"categories_sizes":[],"default_left":[1,1,0,1,0,1,0,1,0,0,0],"id":70,"left_children":[1,3,-1,5,-1,7,-1,9,-1,-1,-1],"loss_changes":[4.0924015E0,4.6534953E0,0E0,4.619472E0,0E0,2.6746626E0,0E0,2.5803862E0,0E0,0E0,0E0],"parents":[2147483647,0,0,1,1,3,3,5,5,7,7],"right_children":[2,4,-1,6,-1,8,-1,10,-1,-1,-1],"split_conditions":[8.5E0,5E-1,-4.203258E-2,1.5E0,2.0956418E-2,5.5E0,2.5320698E-2,5E-1,8.296531E-3,-1.6533406E-2,-4.4663526E-2],"split_indices":[3715,3258,0,3561,0,7043,0,1383,0,0,0],"split_type":[0,0,0,0,0,0,0,0,0,0,0],"sum_hessian":[7.0947586E1,5.9135036E1,1.1812548E1,5.0113358E1,9.021679E0,4.5046997E1,5.066361E0,3.9042984E1,6.0040107E0,2.6696003E1,1.2346983E1],"tree_param":{"num_deleted":"0","num_feature":"7834","num_nodes":"11","size_leaf_vector":"0"}},{"base_weights":[-3.557357E-1,-2.0825428E-1,-7.5498456E-1,-3.0071697E-1,5.1890457E-1,-8.9648974E-1,-3.318211E-1,-1.2249343E-1,-8.7913144E-1,5.5592954E-2,-5.012127E-1,-2.6192218E-1,2.7898267E-1,-1.143072E-1,-8.0119574E-1],"categories":[],"categories_nodes":[],"categories_segments":[],"categories_sizes":[],"default_left":[1,1,1,1,0,1,1,1,0,1,1,0,0,0,0],"id":71,"left_children":[1,3,-1,7,-1,-1,-1,9,-1,11,13,-1,-1,-1,-1],"loss_changes":[4.019517E0,3.731647E0,8.254976E-1,4.8213544E0,0E0,0E0,0E0,2.5714574E0,0E0,1.9563731E0,1.3200068E0,0E0,0E0,0E0,0E0],"parents":[2147483647,0,0,1,1,2,2,3,3,7,7,9,9,10,10],"right_children":[2,4,-1,8,-1,-1,-1,10,-1,12,14,-1,-1,-1,-1],"split_conditions":[1.5E0,5E-1,-3.7749227E-2,5E-1,2.594523E-2,-4.482449E-2,-1.6591055E-2,5E-1,-4.3956574E-2,1.5E0,5E-1,-1.3096109E-2,1.3949133E-2,-5.7153604E-3,-4.0059786E-2],"split_indices":[5733,5766,3253,4783,0,2147483647,2147483647,1492,0,6148,2644,0,0,0,0],"split_type":[0,0,0,0,0,0,0,0,0,0,0,0,0,0,0],"sum_hessian":[6.99344E1,5.2180637E1,1.7753767E1,4.6814354E1,5.366283E0,1.2466461E1,5.2873063E0,3.6713737E1,1.0100619E1,2.5551691E1,1.11620455E1,1.0481422E1,1.5070268E1,5.4779115E0,5.684134E0],"tree_param":{"num_deleted":"2","num_feature":"7834","num_nodes":"15","size_leaf_vector":"0"}},{"base_weights":[-3.7654486E-1,-4.737745E-1,1.6986695E-1,-2.8064427E-1,-8.078959E-1,2.6530132E-1,4.668699E-2,-7.5532444E-2,-6.6818476E-1,-4.189771E-1,-9.7271556E-1,9.443196E-2,-5.946672E-1,-7.983735E-1,-3.7931216E-1,-2.554975E-1,4.7163895E-1],"categories":[],"categories_nodes":[],"categories_segments":[],"categories_sizes":[],"default_left":[1,1,1,1,1,1,1,1,1,1,1,1,0,1,1,0,0],"id":72,"left_children":[1,3,-1,7,-1,-1,-1,11,-1,-1,-1,15,-1,-1,-1,-1,-1],"loss_changes":[3.7261114E0,3.549406E0,1.1812487E-1,3.0190587E0,9.3235683E-1,0E0,0E0,2.3836553E0,1.9498825E-1,0E0,0E0,2.8574817E0,0E0,0E0,0E0,0E0,0E0],"parents":[2147483647,0,0,1,1,2,2,3,3,4,4,7,7,8,8,11,11],"right_children":[2,4,-1,8,-1,-1,-1,12,-1,-1,-1,16,-1,-1,-1,-1,-1],"split_conditions":[5E-1,5E-1,8.493348E-3,5E-1,-4.0394794E-2,1.3265066E-2,2.3343496E-3,5.5E0,-3.3409238E-2,-2.0948855E-2,-4.8635777E-2,5E-1,-2.973336E-2,-3.9918676E-2,-1.8965608E-2,-1.2774874E-2,2.3581948E-2],"split_indices":[1440,1492,1440,5923,7801,2147483647,2147483647,6621,6148,2147483647,2147483647,5778,0,2147483647,2147483647,0,0],"split_type":[0,0,0,0,0,0,0,0,0,0,0,0,0,0,0,0,0],"sum_hessian":[6.762056E1,5.751853E1,1.0102028E1,3.7615696E1,1.9902834E1,5.0419664E0,5.0600615E0,2.5378588E1,1.223711E1,6.9783406E0,1.2924493E1,1.9735346E1,5.6432424E0,7.219623E0,5.017487E0,1.0405227E1,9.330118E0],"tree_param":{"num_deleted":"6","num_feature":"7834","num_nodes":"17","size_leaf_vector":"0"}},{"base_weights":[-3.3076945E-1,-4.4150674E-1,2.4405955E-1,-3.0779207E-1,-8.281429E-1,5.972779E-1,-1.5056588E-1,-9.205779E-2,-5.8808166E-1,-4.559016E-1,3.9532092E-1,-7.582447E-1,-1.0803629E-1,-6.015502E-1,-2.0348981E-1,6.8970203E-1,4.5675114E-2,-5.0169975E-1,-9.071196E-1],"categories":[],"categories_nodes":[],"categories_segments":[],"categories_sizes":[],"default_left":[1,1,1,1,0,0,0,1,1,1,1,1,0,1,1,0,0,1,1],"id":73,"left_children":[1,3,5,7,-1,-1,-1,9,11,-1,15,-1,-1,-1,-1,-1,-1,-1,-1],"loss_changes":[4.447575E0,2.7188663E0,1.7147095E0,2.626482E0,0E0,0E0,0E0,4.832636E0,1.4778957E0,4.4691443E-1,1.1778924E0,7.6994896E-2,0E0,0E0,0E0,0E0,0E0,0E0,0E0],"parents":[2147483647,0,0,1,1,2,2,3,3,7,7,8,8,9,9,10,10,11,11],"right_children":[2,4,6,8,-1,-1,-1,10,12,-1,16,-1,-1,-1,-1,-1,-1,-1,-1],"split_conditions":[5E-1,1.5E0,2.5E0,5E-1,-4.1407146E-2,2.9863894E-2,-7.528294E-3,3.5E0,1.5E0,-2.279508E-2,8.5E0,-3.7912235E-2,-5.4018144E-3,-3.0077511E-2,-1.01744905E-2,3.44851E-2,2.2837557E-3,-2.5084987E-2,-4.535598E-2],"split_indices":[4883,5733,1383,3253,0,0,0,6148,979,7801,6148,6621,0,2147483647,2147483647,0,0,2147483647,2147483647],"split_type":[0,0,0,0,0,0,0,0,0,0,0,0,0,0,0,0,0,0,0],"sum_hessian":[6.717722E1,5.6520775E1,1.0656447E1,4.3331158E1,1.3189617E1,5.352258E0,5.3041897E0,2.5235922E1,1.8095238E1,1.4486139E1,1.0749782E1,1.2931754E1,5.1634827E0,8.308622E0,6.177517E0,5.3081007E0,5.441681E0,6.353385E0,6.578369E0],"tree_param":{"num_deleted":"4","num_feature":"7834","num_nodes":"19","size_leaf_vector":"0"}},{"base_weights":[-3.1259632E-1,-1.7458145E-1,-7.1783376E-1,-2.818918E-1,5.987776E-1,-9.702183E-1,-2.3833291E-1,-3.9826766E-1,1.201874E-1,-5.145511E-1,-2.0189108E-3,4.0112534E-1,-1.8747428E-1,-6.225318E-1,-1.4618927E-1],"categories":[],"categories_nodes":[],"categories_segments":[],"categories_sizes":[],"default_left":[1,1,1,1,0,0,0,1,1,1,0,0,0,0,0],"id":74,"left_children":[1,3,5,7,-1,-1,-1,9,11,13,-1,-1,-1,-1,-1],"loss_changes":[3.6716847E0,4.481228E0,1.8171597E0,2.214902E0,0E0,0E0,0E0,1.664566E0,1.0401162E0,1.0204492E0,0E0,0E0,0E0,0E0,0E0],"parents":[2147483647,0,0,1,1,2,2,3,3,7,7,8,8,9,9],"right_children":[2,4,6,8,-1,-1,-1,10,12,14,-1,-1,-1,-1,-1],"split_conditions":[5.5E0,3.5E0,1.65E1,5E-1,2.993888E-2,-4.8510917E-2,-1.1916646E-2,1.5E0,6.7E1,4.5E0,-1.00945545E-4,2.0056268E-2,-9.373714E-3,-3.1126589E-2,-7.309464E-3],"split_indices":[7455,3253,6621,3561,0,0,0,7043,6742,6148,0,0,0,0,0],"split_type":[0,0,0,0,0,0,0,0,0,0,0,0,0,0,0],"sum_hessian":[6.6889984E1,5.0963696E1,1.5926289E1,4.5311787E1,5.6519103E0,9.763758E0,6.162531E0,3.5148155E1,1.0163631E1,2.6942911E1,8.205242E0,5.153752E0,5.00988E0,2.0301714E1,6.641197E0],"tree_param":{"num_deleted":"0","num_feature":"7834","num_nodes":"15","size_leaf_vector":"0"}},{"base_weights":[-2.7766615E-1,-3.5273105E-1,4.2593533E-1,-4.335835E-1,2.1948692E-1,-2.35442E-1,-7.5744927E-1,-3.8011077E-1,3.3053532E-1,-9.6039027E-1,-3.6711338E-1,-5.0748086E-1,1.0138987E-1],"categories":[],"categories_nodes":[],"categories_segments":[],"categories_sizes":[],"default_left":[1,1,0,1,0,1,1,1,0,0,0,0,0],"id":75,"left_children":[1,3,-1,5,-1,7,9,11,-1,-1,-1,-1,-1],"loss_changes":[3.6635933E0,2.9013886E0,0E0,3.253665E0,0E0,2.9613218E0,1.2198029E0,1.7715626E0,0E0,0E0,0E0,0E0,0E0],"parents":[2147483647,0,0,1,1,3,3,5,5,6,6,7,7],"right_children":[2,4,-1,6,-1,8,10,12,-1,-1,-1,-1,-1],"split_conditions":[5E-1,1.5E0,2.1296768E-2,2.5E0,1.0974347E-2,5E-1,3.5E0,1.5E0,1.6526766E-2,-4.8019513E-2,-1.835567E-2,-2.5374044E-2,5.069494E-3],"split_indices":[4077,946,0,7455,0,3561,7043,7043,0,0,0,0,0],"split_type":[0,0,0,0,0,0,0,0,0,0,0,0,0],"sum_hessian":[6.5520874E1,5.965514E1,5.8657327E0,5.2481903E1,7.1732364E0,3.363248E1,1.8849422E1,2.704734E1,6.5851393E0,1.1440781E1,7.408641E0,2.134662E1,5.7007213E0],"tree_param":{"num_deleted":"0","num_feature":"7834","num_nodes":"13","size_leaf_vector":"0"}},{"base_weights":[-3.616799E-1,-1.8026394E-1,-6.806691E-1,8.539984E-2,-4.8852077E-1,-8.402509E-1,-8.523376E-2,-1.0245507E-1,6.4749247E-1,-6.400722E-1,-1.2529428E-1,-3.1498876E-1,3.9572054E-1,-8.915716E-1,-3.5324582E-1,-5.4263705E-1,6.1762184E-3],"categories":[],"categories_nodes":[],"categories_segments":[],"categories_sizes":[],"default_left":[1,1,1,1,1,0,0,1,0,1,0,1,0,1,1,0,0],"id":76,"left_children":[1,3,5,7,9,-1,-1,11,-1,-1,-1,15,-1,-1,-1,-1,-1],"loss_changes":[3.6371431E0,3.5448132E0,2.132306E0,2.582259E0,1.0179901E0,0E0,0E0,2.1068969E0,0E0,6.8293333E-1,0E0,1.0035297E0,0E0,0E0,0E0,0E0,0E0],"parents":[2147483647,0,0,1,1,2,2,3,3,4,4,7,7,9,9,11,11],"right_children":[2,4,6,8,10,-1,-1,12,-1,-1,-1,16,-1,-1,-1,-1,-1],"split_conditions":[5E-1,1.5E0,2.25E1,5E-1,3.5E0,-4.2012546E-2,-4.2616883E-3,4.5E0,3.2374624E-2,-3.200361E-2,-6.264714E-3,5E-1,1.9786028E-2,-4.457858E-2,-1.7662292E-2,-2.7131854E-2,3.0881094E-4],"split_indices":[5733,7455,6940,4930,7043,0,0,6148,0,6621,0,6621,0,2147483647,2147483647,0,0],"split_type":[0,0,0,0,0,0,0,0,0,0,0,0,0,0,0,0,0],"sum_hessian":[6.3970802E1,4.1776646E1,2.2194159E1,2.2826838E1,1.8949806E1,1.717891E1,5.0152497E0,1.7721819E1,5.1050186E0,1.2833156E1,6.116651E0,1.267996E1,5.0418596E0,5.7142777E0,7.1188774E0,7.0167522E0,5.6632075E0],"tree_param":{"num_deleted":"2","num_feature":"7834","num_nodes":"17","size_leaf_vector":"0"}},{"base_weights":[-2.563713E-1,-1.5700178E-1,-8.4247214E-1,-2.4485661E-1,6.159495E-1,-3.8177535E-1,4.013294E-1,-5.763613E-1,4.3408647E-2,-7.1925485E-1,-1.7881101E-1,4.4994482E-1,-3.6999848E-1],"categories":[],"categories_nodes":[],"categories_segments":[],"categories_sizes":[],"default_left":[1,1,0,1,0,1,0,1,1,0,0,0,0],"id":77,"left_children":[1,3,-1,5,-1,7,-1,9,11,-1,-1,-1,-1],"loss_changes":[3.6909938E0,4.0459056E0,0E0,4.7733946E0,0E0,3.6324573E0,0E0,1.5746365E0,2.623519E0,0E0,0E0,0E0,0E0],"parents":[2147483647,0,0,1,1,3,3,5,5,7,7,8,8],"right_children":[2,4,-1,6,-1,8,-1,10,12,-1,-1,-1,-1],"split_conditions":[5E-1,5E-1,-4.212361E-2,5E-1,3.0797476E-2,1.5E0,2.006647E-2,4.5E0,5E-1,-3.596274E-2,-8.9405505E-3,2.2497242E-2,-1.8499924E-2],"split_indices":[5852,4077,0,3258,0,7043,0,6148,1383,0,0,0,0],"split_type":[0,0,0,0,0,0,0,0,0,0,0,0,0],"sum_hessian":[6.4646065E1,5.6358696E1,8.287369E0,5.1220154E1,5.1385427E0,4.260242E1,8.617734E0,2.8982836E1,1.3619585E1,2.0724503E1,8.258333E0,6.822296E0,6.7972894E0],"tree_param":{"num_deleted":"0","num_feature":"7834","num_nodes":"13","size_leaf_vector":"0"}},{"base_weights":[-3.1018904E-1,-1.6905564E-1,-7.1723115E-1,-2.885079E-1,5.7808566E-1,-3.6749426E-1,-9.62133E-1,-1.2892354E-1,-6.1056775E-1,6.547055E-2,-6.58752E-1,-9.2217433E-1,-5.5037037E-2,-1.7349264E-1,4.8275012E-1],"categories":[],"categories_nodes":[],"categories_segments":[],"categories_sizes":[],"default_left":[1,1,1,1,0,0,0,1,1,1,0,0,0,0,0],"id":78,"left_children":[1,3,5,7,-1,-1,-1,9,11,13,-1,-1,-1,-1,-1],"loss_changes":[3.5181613E0,4.481908E0,1.0170374E0,2.0980177E0,0E0,0E0,0E0,3.090496E0,2.332076E0,2.3328335E0,0E0,0E0,0E0,0E0,0E0],"parents":[2147483647,0,0,1,1,2,2,3,3,7,7,8,8,9,9],"right_children":[2,4,6,8,-1,-1,-1,10,12,14,-1,-1,-1,-1,-1],"split_conditions":[5E-1,5E-1,3.5E0,5.5E0,2.8904283E-2,-1.8374713E-2,-4.810665E-2,5E-1,2.75E1,3.5E0,-3.29376E-2,-4.610872E-2,-2.751852E-3,-8.674632E-3,2.4137506E-2],"split_indices":[1415,4883,7455,6621,0,0,0,1492,6621,6148,0,0,0,0,0],"split_type":[0,0,0,0,0,0,0,0,0,0,0,0,0,0,0],"sum_hessian":[6.2352276E1,4.7349983E1,1.5002294E1,4.1352444E1,5.997539E0,7.208553E0,7.7937407E0,2.8587378E1,1.2765065E1,2.1555202E1,7.032174E0,7.755106E0,5.0099587E0,1.4077615E1,7.477588E0],"tree_param":{"num_deleted":"0","num_feature":"7834","num_nodes":"15","size_leaf_vector":"0"}},{"base_weights":[-3.8128805E-1,-2.4693038E-1,-8.0551904E-1,-3.7971812E-1,7.048918E-1,-5.0825673E-1,-9.506214E-1,-7.151407E-1,-1.8708023E-1,-4.0414506E-1,-9.235601E-1,-3.1184283E-1,3.140052E-1,-4.7991824E-1,2.3333547E-1],"categories":[],"categories_nodes":[],"categories_segments":[],"categories_sizes":[],"default_left":[1,1,1,1,0,1,1,1,1,1,1,1,0,0,0],"id":79,"left_children":[1,3,-1,7,-1,-1,-1,-1,11,-1,-1,13,-1,-1,-1],"loss_changes":[3.3484983E0,6.4239893E0,1.4347267E-1,2.6702085E0,0E0,0E0,0E0,6.2989426E-1,1.9058356E0,0E0,0E0,2.2795753E0,0E0,0E0,0E0],"parents":[2147483647,0,0,1,1,2,2,3,3,7,7,8,8,11,11],"right_children":[2,4,-1,8,-1,-1,-1,-1,12,-1,-1,14,-1,-1,-1],"split_conditions":[4.5E0,3.5E0,-4.0275954E-2,1.5E0,3.524459E-2,-2.5412837E-2,-4.7531072E-2,-3.5757035E-2,5.5E0,-2.0207254E-2,-4.6178006E-2,1.2416666E1,1.570026E-2,-2.3995912E-2,1.1666774E-2],"split_indices":[3715,3253,5807,6148,0,2147483647,2147483647,6742,7043,2147483647,2147483647,6967,0,0,0],"split_type":[0,0,0,0,0,0,0,0,0,0,0,0,0,0,0],"sum_hessian":[6.123661E1,4.7708862E1,1.3527748E1,4.2395386E1,5.313476E0,5.914276E0,7.6134725E0,1.4476478E1,2.791891E1,6.9881363E0,7.4883413E0,2.2655663E1,5.263247E0,1.7408442E1,5.2472205E0],"tree_param":{"num_deleted":"4","num_feature":"7834","num_nodes":"15","size_leaf_vector":"0"}},{"base_weights":[-2.8042078E-1,-1.21509224E-1,-7.167705E-1,-3.4606034E-1,2.5847265E-1,-8.838349E-1,-3.0648717E-1,-4.9524286E-1,1.379251E-1,6.0759443E-1,-3.8943458E-1,-2.4214649E-1,-7.867419E-1,9.7650343E-1,1.971964E-1,-4.190576E-1,8.631751E-3],"categories":[],"categories_nodes":[],"categories_segments":[],"categories_sizes":[],"default_left":[1,1,1,1,1,1,1,1,0,1,0,1,0,0,0,1,1],"id":80,"left_children":[1,3,-1,7,9,-1,-1,11,-1,13,-1,-1,-1,-1,-1,-1,-1],"loss_changes":[4.2560277E0,4.1097627E0,8.612375E-1,2.2375093E0,4.3249354E0,0E0,0E0,1.5198488E0,0E0,1.6447883E0,0E0,6.18227E-1,0E0,0E0,0E0,0E0,0E0],"parents":[2147483647,0,0,1,1,2,2,3,3,4,4,7,7,9,9,11,11],"right_children":[2,4,-1,8,10,-1,-1,12,-1,14,-1,-1,-1,-1,-1,-1,-1],"split_conditions":[2.5E0,4.5E0,-3.5838526E-2,1.5E0,1.5E0,-4.4191744E-2,-1.5324359E-2,2.05E1,6.896255E-3,1.5E0,-1.947173E-2,-1.2107325E-2,-3.9337095E-2,4.882517E-2,9.85982E-3,-2.095288E-2,4.3158754E-4],"split_indices":[5923,6148,6621,7043,3715,2147483647,2147483647,6742,0,6621,0,6621,0,0,0,2147483647,2147483647],"split_type":[0,0,0,0,0,0,0,0,0,0,0,0,0,0,0,0,0],"sum_hessian":[6.1634254E1,4.6117477E1,1.5516775E1,2.9043457E1,1.7074022E1,1.0206541E1,5.310234E0,2.2182665E1,6.860792E0,1.1135779E1,5.938243E0,1.2853341E1,9.329324E0,5.137894E0,5.9978857E0,7.1431727E0,5.7101684E0],"tree_param":{"num_deleted":"4","num_feature":"7834","num_nodes":"17","size_leaf_vector":"0"}},{"base_weights":[-2.9436585E-1,-4.0446544E-1,3.0566025E-1,-1.7334928E-1,-8.2490706E-1,5.3986587E-4,-8.9856845E-1,-9.6242785E-1,-4.1183674E-1,2.716683E-1,-3.9549118E-1,-9.8491095E-2,5.5068666E-1,