{"learner":{"attributes":{"best_iteration":"99","best_ntree_limit":"100","scikit_learn":"{\"use_label_encoder\": false, \"n_estimators\": 100, \"objective\": \"binary:logistic\", \"max_depth\": 5, \"max_leaves\": null, \"max_bin\": null, \"grow_policy\": null, \"learning_rate\": 0.05, \"verbosity\": null, \"booster\": null, \"tree_method\": null, \"gamma\": 1, \"min_child_weight\": 5.0, \"max_delta_step\": null, \"subsample\": 0.9, \"sampling_method\": null, \"colsample_bytree\": 0.9, \"colsample_bylevel\": null, \"colsample_bynode\": null, \"reg_alpha\": null, \"reg_lambda\": null, \"scale_pos_weight\": null, \"base_score\": null, \"missing\": NaN, \"num_parallel_tree\": null, \"random_state\": 42, \"n_jobs\": null, \"monotone_constraints\": null, \"interaction_constraints\": null, \"importance_type\": null, \"gpu_id\": null, \"validate_parameters\": null, \"predictor\": null, \"enable_categorical\": false, \"max_cat_to_onehot\": null, \"eval_metric\": null, \"early_stopping_rounds\": null, \"callbacks\": null, \"classes_\": [0, 1], \"n_classes_\": 2, \"evals_result_\": {\"validation_0\": {\"logloss\": [0.6494825941135124, 0.610482419629775, 0.5748381646203379, 0.5425711351191815, 0.5128309044518566, 0.4855673581746995, 0.46047594964714367, 0.43713262813772075, 0.4159478778774674, 0.39609722763334965, 0.3774592548994004, 0.3605559159740018, 0.3448186813734393, 0.3303072822009915, 0.31690520272271755, 0.30432060630565244, 0.2925172315080914, 0.28137925247958345, 0.27106567364531875, 0.2613786930167997, 0.2522039522890759, 0.2438086693806598, 0.23614724561764686, 0.22885069349117482, 0.22204258381339834, 0.2157364006468328, 0.20977135759052742, 0.20434763061033712, 0.19928139877165246, 0.19441651228101778, 0.18997178665339318, 0.18571630489742152, 0.1818395939630431, 0.17811829692188358, 0.17471747970609072, 0.17152599859041556, 0.16853734577724713, 0.16580904789102624, 0.1632415928585689, 0.160925462684396, 0.15873123141559395, 0.1567611507414791, 0.15489398501594534, 0.15317962285389491, 0.15150210853188914, 0.1501027301137722, 0.14882828779825033, 0.14763887113203172, 0.1464213400982872, 0.14541261926836188, 0.14439311305763577, 0.14328130239622994, 0.14253560953568908, 0.1416892040428978, 0.14099063129371117, 0.14014700421085088, 0.13946164588495372, 0.1388431088353226, 0.1384274394248123, 0.1377902167130231, 0.1373926194211781, 0.13735696833173622, 0.13726999838732523, 0.13705068125830555, 0.13671581778066838, 0.13640860409708966, 0.1362551312989935, 0.1362013618136755, 0.1362533586780452, 0.1363006745947724, 0.13619766060643765, 0.1360881212249521, 0.13589087767104074, 0.13580367843523078, 0.13587512836499374, 0.13599277223152853, 0.1357025817697638, 0.13533593058481058, 0.13548964194594482, 0.13541363074403742, 0.1351163801151633, 0.13511337183490307, 0.13517992673430823, 0.13525733261420606, 0.13540209509699347, 0.1354153205396566, 0.1354599845290324, 0.13557604195705486, 0.13580154119766416, 0.13588714984614406, 0.1359520017778989, 0.13575444540028603, 0.13548472076085352, 0.13548626924058385, 0.13532160935413473, 0.1355687778751715, 0.13558485030637646, 0.13573552361775965, 0.1352764804673531, 0.13526087336145892]}}, \"_estimator_type\": \"classifier\"}"},"feature_names":[],"feature_types":[],"gradient_booster":{"model":{"gbtree_model_param":{"num_parallel_tree":"1","num_trees":"100","size_leaf_vector":"0"},"tree_info":[0,0,0,0,0,0,0,0,0,0,0,0,0,0,0,0,0,0,0,0,0,0,0,0,0,0,0,0,0,0,0,0,0,0,0,0,0,0,0,0,0,0,0,0,0,0,0,0,0,0,0,0,0,0,0,0,0,0,0,0,0,0,0,0,0,0,0,0,0,0,0,0,0,0,0,0,0,0,0,0,0,0,0,0,0,0,0,0,0,0,0,0,0,0,0,0,0,0,0,0],"trees":[{"base_weights":[-1.9063023E0,-1.9164785E0,-8.8E-1,-1.9324796E0,-1.3103448E0,-7.586207E-1,-1.6363636E0],"categories":[],"categories_nodes":[],"categories_segments":[],"categories_sizes":[],"default_left":[1,1,0,0,1,0,0],"id":0,"left_children":[1,3,-1,-1,5,-1,-1],"loss_changes":[2.994995E0,1.7644043E0,0E0,0E0,1.3667736E0,0E0,0E0],"parents":[2147483647,0,0,1,1,4,4],"right_children":[2,4,-1,-1,6,-1,-1],"split_conditions":[1.5E0,1.5E0,-4.4E-2,-9.662398E-2,1.5E0,-3.7931036E-2,-8.1818186E-2],"split_indices":[3383,7823,0,0,3253,0,0],"split_type":[0,0,0,0,0,0,0],"sum_hessian":[4.4725E2,4.42E2,5.25E0,4.285E2,1.35E1,6.25E0,7.25E0],"tree_param":{"num_deleted":"0","num_feature":"7834","num_nodes":"7","size_leaf_vector":"0"}},{"base_weights":[-1.8069962E0,-1.8209729E0,-8.4023494E-1,-1.8313117E0,-8.0789375E-1,-1.8393486E0,-1.1264626E0],"categories":[],"categories_nodes":[],"categories_segments":[],"categories_sizes":[],"default_left":[1,1,0,1,0,1,1],"id":1,"left_children":[1,3,-1,-1,-1,-1,-1],"loss_changes":[4.5197754E0,3.1342773E0,0E0,3.9367676E-1,0E0,0E0,0E0],"parents":[2147483647,0,0,1,1,3,3],"right_children":[2,4,-1,-1,-1,-1,-1],"split_conditions":[2.5E0,1.5E0,-4.201175E-2,-9.156559E-2,-4.039469E-2,-9.1967426E-2,-5.632313E-2],"split_indices":[1209,6078,0,1748,0,2147483647,2147483647],"split_type":[0,0,0,0,0,0,0],"sum_hessian":[4.4673465E2,4.3949716E2,7.237488E0,4.3425775E2,5.2394085E0,4.277707E2,6.4870596E0],"tree_param":{"num_deleted":"2","num_feature":"7834","num_nodes":"7","size_leaf_vector":"0"}},{"base_weights":[-1.7369109E0,-1.7447519E0,-9.030469E-1,-1.7540451E0,-1.022435E0,-1.7661223E0,-1.2032025E0,-7.3219424E-1,-1.4420985E0],"categories":[],"categories_nodes":[],"categories_segments":[],"categories_sizes":[],"default_left":[1,1,0,1,0,1,1,1,1],"id":2,"left_children":[1,3,-1,-1,-1,-1,-1,-1,-1],"loss_changes":[1.3284912E0,1.1531982E0,0E0,7.4890137E-1,0E0,0E0,3.4000206E-1,0E0,0E0],"parents":[2147483647,0,0,1,1,3,3,6,6],"right_children":[2,4,-1,-1,-1,-1,-1,-1,-1],"split_conditions":[1.05E1,2.5E0,-4.5152348E-2,-8.770226E-2,-5.112175E-2,-8.830612E-2,-6.0160127E-2,-3.6609713E-2,-7.210492E-2],"split_indices":[5037,1209,0,1258,0,2147483647,2147483647,2147483647,2147483647],"split_type":[0,0,0,0,0,0,0,0,0],"sum_hessian":[4.4317252E2,4.3796194E2,5.2105665E0,4.3098856E2,6.9733863E0,4.19583E2,1.1405561E1,5.206101E0,6.199461E0],"tree_param":{"num_deleted":"4","num_feature":"7834","num_nodes":"9","size_leaf_vector":"0"}},{"base_weights":[-1.6614361E0,-1.6745809E0,-7.295268E-1,-1.6845137E0,-7.113133E-1,-1.6929059E0,-8.620749E-1,-1.7012178E0,-1.014066E0],"categories":[],"categories_nodes":[],"categories_segments":[],"categories_sizes":[],"default_left":[1,1,0,1,0,1,0,1,1],"id":3,"left_children":[1,3,-1,5,-1,-1,-1,-1,-1],"loss_changes":[4.217163E0,2.9833984E0,0E0,1.5212402E0,0E0,6.810303E-1,0E0,0E0,0E0],"parents":[2147483647,0,0,1,1,3,3,5,5],"right_children":[2,4,-1,6,-1,-1,-1,-1,-1],"split_conditions":[2.5E0,1.5E0,-3.647634E-2,5E-1,-3.5565667E-2,-8.464529E-2,-4.3103747E-2,-8.506089E-2,-5.07033E-2],"split_indices":[1209,6078,0,7346,0,1748,0,2147483647,2147483647],"split_type":[0,0,0,0,0,0,0,0,0],"sum_hessian":[4.4299164E2,4.3604416E2,6.947459E0,4.3085266E2,5.1915097E0,4.254529E2,5.3997507E0,4.1881873E2,6.634176E0],"tree_param":{"num_deleted":"2","num_feature":"7834","num_nodes":"9","size_leaf_vector":"0"}},{"base_weights":[-1.6023633E0,-1.6211632E0,-1.0177898E0,-1.6292496E0,-8.049309E-1,-6.1711633E-1,-1.3097265E0,-1.635267E0,-9.5689523E-1,-1.6436805E0,-1.0596185E0],"categories":[],"categories_nodes":[],"categories_segments":[],"categories_sizes":[],"default_left":[1,1,1,1,0,0,0,1,1,1,1],"id":4,"left_children":[1,3,5,-1,-1,-1,-1,-1,-1,-1,-1],"loss_changes":[3.1723633E0,1.4833984E0,1.105257E0,1.2768555E-1,0E0,0E0,0E0,2.5952148E-1,0E0,0E0,0E0],"parents":[2147483647,0,0,1,1,2,2,3,3,7,7],"right_children":[2,4,6,-1,-1,-1,-1,-1,-1,-1,-1],"split_conditions":[5E-1,9.5E0,5E-1,-8.146248E-2,-4.0246546E-2,-3.0855818E-2,-6.548633E-2,-8.176335E-2,-4.7844764E-2,-8.2184024E-2,-5.2980926E-2],"split_indices":[1224,5037,3774,7346,0,0,0,2147483647,2147483647,2147483647,2147483647],"split_type":[0,0,0,0,0,0,0,0,0,0,0],"sum_hessian":[4.377965E2,4.2243768E2,1.5358813E1,4.1730743E2,5.1302648E0,7.7862744E0,7.5725384E0,4.1218622E2,5.1212E0,4.0442004E2,7.7661834E0],"tree_param":{"num_deleted":"4","num_feature":"7834","num_nodes":"11","size_leaf_vector":"0"}},{"base_weights":[-1.5484962E0,-1.5615714E0,-6.77948E-1,-1.572988E0,-1.0638903E0,-1.5792961E0,-9.380996E-1,-5.6207293E-1,-1.4121321E0],"categories":[],"categories_nodes":[],"categories_segments":[],"categories_sizes":[],"default_left":[1,1,0,1,1,1,1,0,0],"id":5,"left_children":[1,3,-1,-1,7,-1,-1,-1,-1],"loss_changes":[3.8206787E0,7.2180176E-1,0E0,1.605835E-1,1.3982792E0,0E0,0E0,0E0,0E0],"parents":[2147483647,0,0,1,1,3,3,4,4],"right_children":[2,4,-1,-1,8,-1,-1,-1,-1],"split_conditions":[2.5E0,1.5E0,-3.38974E-2,-7.86494E-2,5E-1,-7.896481E-2,-4.690498E-2,-2.8103648E-2,-7.060661E-2],"split_indices":[1209,7823,0,1748,3253,2147483647,2147483647,0,0],"split_type":[0,0,0,0,0,0,0,0,0],"sum_hessian":[4.276706E2,4.205602E2,7.1103716E0,4.0901688E2,1.1543362E1,4.035201E2,5.496749E0,5.7998266E0,5.743535E0],"tree_param":{"num_deleted":"2","num_feature":"7834","num_nodes":"9","size_leaf_vector":"0"}},{"base_weights":[-1.5005723E0,-1.5195866E0,-9.293727E-1,-1.5281996E0,-7.240822E-1,-5.58218E-1,-1.3038224E0,-1.5367111E0,-9.899841E-1,-1.5455476E0,-1.0545946E0],"categories":[],"categories_nodes":[],"categories_segments":[],"categories_sizes":[],"default_left":[1,1,1,1,0,0,0,1,1,1,1],"id":6,"left_children":[1,3,5,-1,-1,-1,-1,-1,-1,-1,-1],"loss_changes":[3.125183E0,1.6528931E0,1.500534E0,2.9974365E-1,0E0,0E0,0E0,2.960205E-2,0E0,0E0,0E0],"parents":[2147483647,0,0,1,1,2,2,3,3,7,7],"right_children":[2,4,6,-1,-1,-1,-1,-1,-1,-1,-1],"split_conditions":[5E-1,5E-1,2.5E0,-7.640998E-2,-3.620411E-2,-2.7910901E-2,-6.519112E-2,-7.683556E-2,-4.9499206E-2,-7.7277385E-2,-5.2729733E-2],"split_indices":[1224,7346,1492,2735,0,0,0,2147483647,2147483647,2147483647,2147483647],"split_type":[0,0,0,0,0,0,0,0,0,0,0],"sum_hessian":[4.1677942E2,4.0174567E2,1.5033759E1,3.9653134E2,5.214309E0,8.800985E0,6.232774E0,3.8853177E2,7.999582E0,3.7937262E2,9.159131E0],"tree_param":{"num_deleted":"4","num_feature":"7834","num_nodes":"11","size_leaf_vector":"0"}},{"base_weights":[-1.4677519E0,-1.4780374E0,-5.597987E-1,-1.4890456E0,-7.380687E-1],"categories":[],"categories_nodes":[],"categories_segments":[],"categories_sizes":[],"default_left":[1,1,0,0,0],"id":7,"left_children":[1,3,-1,-1,-1],"loss_changes":[3.0029297E0,2.199646E0,0E0,0E0,0E0],"parents":[2147483647,0,0,1,1],"right_children":[2,4,-1,-1,-1],"split_conditions":[1.05E1,5E-1,-2.7989937E-2,-7.445228E-2,-3.6903437E-2],"split_indices":[5037,6582,0,0,0],"split_type":[0,0,0,0,0],"sum_hessian":[4.0915735E2,4.0395343E2,5.2039347E0,3.9703452E2,6.9188933E0],"tree_param":{"num_deleted":"0","num_feature":"7834","num_nodes":"5","size_leaf_vector":"0"}},{"base_weights":[-1.4136584E0,-1.4275182E0,-5.456488E-1,-1.442096E0,-8.345899E-1,-1.4486712E0,-8.556235E-1,-4.0359643E-1,-1.1496334E0,-1.4577595E0,-9.9086416E-1],"categories":[],"categories_nodes":[],"categories_segments":[],"categories_sizes":[],"default_left":[1,1,0,1,1,1,1,0,0,1,1],"id":8,"left_children":[1,3,-1,-1,7,-1,-1,-1,-1,-1,-1],"loss_changes":[4.026001E0,2.1889648E0,0E0,2.3242188E-1,1.1371698E0,1.2005615E-1,0E0,0E0,0E0,0E0,0E0],"parents":[2147483647,0,0,1,1,3,3,4,4,5,5],"right_children":[2,4,-1,-1,8,-1,-1,-1,-1,-1,-1],"split_conditions":[2.5E0,1.5E0,-2.7282441E-2,-7.2104804E-2,5E-1,-7.243356E-2,-4.2781174E-2,-2.0179821E-2,-5.7481673E-2,-7.288798E-2,-4.954321E-2],"split_indices":[1209,7823,0,6582,5098,2147483647,2147483647,0,0,2147483647,2147483647],"split_type":[0,0,0,0,0,0,0,0,0,0,0],"sum_hessian":[3.9839188E2,3.914961E2,6.895796E0,3.8070395E2,1.0792146E1,3.7502914E2,5.6748123E0,5.520685E0,5.2714605E0,3.6558743E2,9.441693E0],"tree_param":{"num_deleted":"4","num_feature":"7834","num_nodes":"11","size_leaf_vector":"0"}},{"base_weights":[-1.3739951E0,-1.3944197E0,-7.1278095E-1,-1.4071441E0,-8.6672896E-1,-7.2650276E-2,-1.2005172E0,-1.416413E0,-8.627949E-1,-4.530117E-1,-1.1283888E0,-1.4237685E0,-8.6901075E-1,-1.4308602E0,-8.700047E-1],"categories":[],"categories_nodes":[],"categories_segments":[],"categories_sizes":[],"default_left":[1,1,1,1,1,0,0,1,1,1,1,1,1,1,1],"id":9,"left_children":[1,3,5,-1,-1,-1,-1,-1,-1,-1,-1,-1,-1,-1,-1],"loss_changes":[4.2944946E0,1.3239746E0,4.2148767E0,6.3604736E-1,7.3624706E-1,0E0,0E0,2.1453857E-1,0E0,0E0,0E0,1.4624023E-1,0E0,0E0,0E0],"parents":[2147483647,0,0,1,1,2,2,3,3,4,4,7,7,11,11],"right_children":[2,4,6,-1,-1,-1,-1,-1,-1,-1,-1,-1,-1,-1,-1],"split_conditions":[1.5E0,5E-1,1.5E0,-7.03572E-2,-4.3336447E-2,-3.6325138E-3,-6.002586E-2,-7.082065E-2,-4.3139745E-2,-2.2650585E-2,-5.641944E-2,-7.118843E-2,-4.3450538E-2,-7.154301E-2,-4.3500237E-2],"split_indices":[7823,6544,3253,1258,6742,0,0,2147483647,2147483647,2147483647,2147483647,2147483647,2147483647,2147483647,2147483647],"split_type":[0,0,0,0,0,0,0,0,0,0,0,0,0,0,0],"sum_hessian":[3.9058997E2,3.778107E2,1.2779271E1,3.6728754E2,1.0523178E1,6.0231404E0,6.756131E0,3.595631E2,7.7244115E0,5.1351523E0,5.3880258E0,3.532159E2,6.347209E0,3.4718588E2,6.030018E0],"tree_param":{"num_deleted":"8","num_feature":"7834","num_nodes":"15","size_leaf_vector":"0"}},{"base_weights":[-1.3623599E0,-1.3838092E0,-7.355541E-1,-1.39306E0,-7.954334E-1,-3.4973454E-1,-1.0563492E0,-1.4005468E0,-8.1775475E-1],"categories":[],"categories_nodes":[],"categories_segments":[],"categories_sizes":[],"default_left":[1,1,1,1,1,0,0,1,1],"id":10,"left_children":[1,-1,5,-1,-1,-1,-1,-1,-1],"loss_changes":[4.0735474E0,8.7872314E-1,1.44561E0,3.968506E-1,0E0,0E0,0E0,0E0,0E0],"parents":[2147483647,0,0,1,1,2,2,3,3],"right_children":[2,-1,6,-1,-1,-1,-1,-1,-1],"split_conditions":[5E-1,-6.9190465E-2,1.5E0,-6.9653E-2,-3.9771672E-2,-1.7486727E-2,-5.281746E-2,-7.0027344E-2,-4.088774E-2],"split_indices":[1224,1767,7043,2147483647,2147483647,0,0,2147483647,2147483647],"split_type":[0,0,0,0,0,0,0,0,0],"sum_hessian":[3.7769238E2,3.6402756E2,1.3664827E1,3.5704626E2,6.9812765E0,7.152611E0,6.512217E0,3.5104346E2,6.0028267E0],"tree_param":{"num_deleted":"4","num_feature":"7834","num_nodes":"9","size_leaf_vector":"0"}},{"base_weights":[-1.3011696E0,-1.3219641E0,-6.8198997E-1,-1.335005E0,-7.994928E-1,-6.138289E-2,-1.1549221E0,-1.3453387E0,-5.3104955E-1,-4.0940002E-1,-1.0659288E0,-1.3526216E0,-8.5610664E-1],"categories":[],"categories_nodes":[],"categories_segments":[],"categories_sizes":[],"default_left":[1,1,1,1,1,0,0,1,0,1,1,1,1],"id":11,"left_children":[1,3,5,7,-1,-1,-1,-1,-1,-1,-1,-1,-1],"loss_changes":[3.8445435E0,1.3554077E0,4.0508E0,2.1552734E0,7.2268534E-1,0E0,0E0,5.480957E-2,0E0,0E0,0E0,0E0,0E0],"parents":[2147483647,0,0,1,1,2,2,3,3,4,4,7,7],"right_children":[2,4,6,8,-1,-1,-1,-1,-1,-1,-1,-1,-1],"split_conditions":[1.5E0,5E-1,1.5E0,5E-1,-3.997464E-2,-3.0691444E-3,-5.774611E-2,-6.726693E-2,-2.6552478E-2,-2.047E-2,-5.3296443E-2,-6.763108E-2,-4.2805333E-2],"split_indices":[7823,6544,3253,3089,6742,0,0,1258,0,2147483647,2147483647,2147483647,2147483647],"split_type":[0,0,0,0,0,0,0,0,0,0,0,0,0],"sum_hessian":[3.6761578E2,3.5457278E2,1.3043E1,3.4442084E2,1.0151962E1,6.129428E0,6.9135723E0,3.3938513E2,5.035704E0,5.149331E0,5.002631E0,3.3266815E2,6.7169795E0],"tree_param":{"num_deleted":"4","num_feature":"7834","num_nodes":"13","size_leaf_vector":"0"}},{"base_weights":[-1.2845434E0,-1.2971815E0,-4.623817E-1,-1.309065E0,-5.182683E-1,-1.3176868E0,-7.010091E-1,-1.3246162E0,-8.2252663E-1,-1.3319881E0,-8.4848136E-1],"categories":[],"categories_nodes":[],"categories_segments":[],"categories_sizes":[],"default_left":[1,1,0,1,0,1,1,1,1,1,1],"id":12,"left_children":[1,3,-1,-1,-1,-1,-1,-1,-1,-1,-1],"loss_changes":[3.1936035E0,2.6445312E0,0E0,9.265747E-1,0E0,1.0070801E-1,0E0,6.4819336E-2,0E0,0E0,0E0],"parents":[2147483647,0,0,1,1,3,3,5,5,7,7],"right_children":[2,4,-1,-1,-1,-1,-1,-1,-1,-1,-1],"split_conditions":[2.5E0,1.5E0,-2.3119085E-2,-6.545325E-2,-2.5913415E-2,-6.5884344E-2,-3.5050455E-2,-6.623081E-2,-4.1126333E-2,-6.659941E-2,-4.2424068E-2],"split_indices":[1209,1748,0,7823,0,2147483647,2147483647,2147483647,2147483647,2147483647,2147483647],"split_type":[0,0,0,0,0,0,0,0,0,0,0],"sum_hessian":[3.6408047E2,3.5799963E2,6.0808578E0,3.5194946E2,6.0501676E0,3.4587814E2,6.0713134E0,3.3945264E2,6.425517E0,3.32507E2,6.945637E0],"tree_param":{"num_deleted":"6","num_feature":"7834","num_nodes":"11","size_leaf_vector":"0"}},{"base_weights":[-1.2483503E0,-1.2636378E0,-3.4792575E-1,-1.2813324E0,-6.741106E-1,-1.2886707E0,-7.2007614E-1,-1.5581432E-1,-1.0510998E0,-1.298776E0,-8.2152224E-1,-1.3069333E0,-7.228562E-1],"categories":[],"categories_nodes":[],"categories_segments":[],"categories_sizes":[],"default_left":[1,1,0,1,1,1,1,0,0,1,1,1,1],"id":13,"left_children":[1,3,-1,-1,7,-1,-1,-1,-1,-1,-1,-1,-1],"loss_changes":[4.4228516E0,2.7555542E0,0E0,4.5489502E-1,2.2240648E0,4.915161E-1,0E0,0E0,0E0,5.6536865E-1,0E0,0E0,0E0],"parents":[2147483647,0,0,1,1,3,3,4,4,5,5,9,9],"right_children":[2,4,-1,-1,8,-1,-1,-1,-1,-1,-1,-1,-1],"split_conditions":[2.5E0,1.5E0,-1.7396288E-2,-6.406662E-2,1.5E0,-6.443354E-2,-3.600381E-2,-7.790716E-3,-5.255499E-2,-6.4938806E-2,-4.1076113E-2,-6.5346666E-2,-3.614281E-2],"split_indices":[1209,7823,0,1433,3253,2147483647,2147483647,0,0,2147483647,2147483647,2147483647,2147483647],"split_type":[0,0,0,0,0,0,0,0,0,0,0,0,0],"sum_hessian":[3.5224176E2,3.4596457E2,6.2772083E0,3.347438E2,1.1220765E1,3.291443E2,5.599529E0,5.3199916E0,5.9007735E0,3.2043243E2,8.711825E0,3.1470566E2,5.726796E0],"tree_param":{"num_deleted":"6","num_feature":"7834","num_nodes":"13","size_leaf_vector":"0"}},{"base_weights":[-1.224673E0,-1.2402779E0,-2.5873E-1,-1.2575927E0,-6.7522305E-1,-1.2699909E0,-8.1336355E-1,-2.3901436E-1,-1.0450182E0,-1.280199E0,-8.918984E-1,-3.8735637E-1,-1.1344972E0,-1.2885504E0,-8.1874037E-1,-5.080107E-1,-1.1357328E0],"categories":[],"categories_nodes":[],"categories_segments":[],"categories_sizes":[],"default_left":[1,1,0,1,1,1,1,0,0,1,1,0,0,1,1,1,1],"id":14,"left_children":[1,3,-1,5,7,-1,11,-1,-1,-1,-1,-1,-1,-1,-1,-1,-1],"loss_changes":[4.927063E0,2.5004272E0,0E0,7.9022217E-1,1.7405243E0,9.429932E-2,1.1706281E0,0E0,0E0,1.3790894E-1,5.197363E-1,0E0,0E0,0E0,0E0,0E0,0E0],"parents":[2147483647,0,0,1,1,3,3,4,4,5,5,6,6,9,9,10,10],"right_children":[2,4,-1,6,8,-1,12,-1,-1,-1,-1,-1,-1,-1,-1,-1,-1],"split_conditions":[2.5E0,1.5E0,-1.29365E-2,5E-1,5E-1,-6.349955E-2,5E-1,-1.1950718E-2,-5.225091E-2,-6.400996E-2,-4.459492E-2,-1.936782E-2,-5.6724858E-2,-6.442752E-2,-4.0937018E-2,-2.5400534E-2,-5.6786638E-2],"split_indices":[1209,7823,0,1407,5098,5380,1415,0,0,2147483647,2147483647,0,0,2147483647,2147483647,2147483647,2147483647],"split_type":[0,0,0,0,0,0,0,0,0,0,0,0,0,0,0,0,0],"sum_hessian":[3.4716287E2,3.4136414E2,5.7987223E0,3.3002563E2,1.133851E1,3.1925647E2,1.0769162E1,5.9574604E0,5.381049E0,3.0854022E2,1.0716257E1,5.5770345E0,5.192128E0,3.0129517E2,7.2450395E0,5.3603935E0,5.3558636E0],"tree_param":{"num_deleted":"6","num_feature":"7834","num_nodes":"17","size_leaf_vector":"0"}},{"base_weights":[-1.2058647E0,-1.2212293E0,-3.8714492E-1,-1.2312951E0,-5.213752E-1,-1.2411195E0,-6.697388E-1],"categories":[],"categories_nodes":[],"categories_segments":[],"categories_sizes":[],"default_left":[1,1,0,1,0,1,1],"id":15,"left_children":[1,3,-1,-1,-1,-1,-1],"loss_changes":[3.746521E0,1.6740417E0,0E0,9.528198E-1,0E0,0E0,0E0],"parents":[2147483647,0,0,1,1,3,3],"right_children":[2,4,-1,-1,-1,-1,-1],"split_conditions":[2.5E0,5E-1,-1.9357247E-2,-6.1564755E-2,-2.606876E-2,-6.2055975E-2,-3.3486944E-2],"split_indices":[1209,6582,0,3095,0,2147483647,2147483647],"split_type":[0,0,0,0,0,0,0],"sum_hessian":[3.3441425E2,3.2777142E2,6.642813E0,3.223755E2,5.395953E0,3.1564316E2,6.732329E0],"tree_param":{"num_deleted":"2","num_feature":"7834","num_nodes":"7","size_leaf_vector":"0"}},{"base_weights":[-1.1756152E0,-1.1903429E0,-4.6063453E-1,-1.2027463E0,-6.553202E-1,-1.2149945E0,-6.583658E-1,-1.2278019E0,-6.770095E-1,-1.2396547E0,-6.0873955E-1],"categories":[],"categories_nodes":[],"categories_segments":[],"categories_sizes":[],"default_left":[1,1,0,1,0,1,0,1,0,0,0],"id":16,"left_children":[1,3,-1,5,-1,7,-1,9,-1,-1,-1],"loss_changes":[2.8462524E0,1.3037415E0,0E0,1.2463379E0,0E0,1.2286377E0,0E0,1.3789368E0,0E0,0E0,0E0],"parents":[2147483647,0,0,1,1,3,3,5,5,7,7],"right_children":[2,4,-1,6,-1,8,-1,10,-1,-1,-1],"split_conditions":[6.5E0,5E-1,-2.3031726E-2,5E-1,-3.276601E-2,5E-1,-3.291829E-2,7.8E1,-3.3850476E-2,-6.1982732E-2,-3.0436978E-2],"split_indices":[5037,1258,0,6544,0,1224,0,5923,0,0,0],"split_type":[0,0,0,0,0,0,0,0,0,0,0],"sum_hessian":[3.2136865E2,3.1423102E2,7.1376395E0,3.0589154E2,8.339483E0,2.9795584E2,7.9357038E0,2.8977515E2,8.180692E0,2.8334766E2,6.4274764E0],"tree_param":{"num_deleted":"0","num_feature":"7834","num_nodes":"11","size_leaf_vector":"0"}},{"base_weights":[-1.1666682E0,-1.1819733E0,-4.4251233E-1,-1.199628E0,-5.8907205E-1,-1.2104789E0,-6.770018E-1,-1.2195494E0,-5.9064287E-1,-1.2288371E0,-6.4519775E-1],"categories":[],"categories_nodes":[],"categories_segments":[],"categories_sizes":[],"default_left":[1,1,0,1,0,1,1,1,1,1,1],"id":17,"left_children":[1,3,-1,-1,-1,-1,-1,-1,-1,-1,-1],"loss_changes":[2.93161E0,2.4822083E0,0E0,8.5269165E-1,0E0,8.96698E-1,0E0,7.142334E-1,0E0,0E0,0E0],"parents":[2147483647,0,0,1,1,3,3,5,5,7,7],"right_children":[2,4,-1,-1,-1,-1,-1,-1,-1,-1,-1],"split_conditions":[6.5E0,5E-1,-2.2125617E-2,-5.9981402E-2,-2.9453604E-2,-6.0523946E-2,-3.385009E-2,-6.097747E-2,-2.9532144E-2,-6.1441857E-2,-3.225989E-2],"split_indices":[5037,6544,0,1258,0,2147483647,2147483647,2147483647,2147483647,2147483647,2147483647],"split_type":[0,0,0,0,0,0,0,0,0,0,0],"sum_hessian":[3.106964E2,3.0364658E2,7.049853E0,2.9387274E2,9.773837E0,2.8660596E2,7.26677E0,2.8151874E2,5.0872235E0,2.7591742E2,5.6013064E0],"tree_param":{"num_deleted":"6","num_feature":"7834","num_nodes":"11","size_leaf_vector":"0"}},{"base_weights":[-1.1329167E0,-1.1540347E0,-5.5745375E-1,-1.1650892E0,-4.7318086E-1,-3.787599E-2,-9.962894E-1,-1.1764134E0,-4.604693E-1,-1.184944E0,-6.796364E-1,-1.1940038E0,-6.3073415E-1],"categories":[],"categories_nodes":[],"categories_segments":[],"categories_sizes":[],"default_left":[1,1,1,1,0,0,0,1,0,1,1,1,1],"id":18,"left_children":[1,3,5,7,-1,-1,-1,-1,-1,-1,-1,-1,-1],"loss_changes":[3.0142822E0,1.6267395E0,2.8325236E0,1.7250061E0,0E0,0E0,0E0,3.7677002E-1,0E0,6.170654E-1,0E0,0E0,0E0],"parents":[2147483647,0,0,1,1,2,2,3,3,7,7,9,9],"right_children":[2,4,6,8,-1,-1,-1,-1,-1,-1,-1,-1,-1],"split_conditions":[1.5E0,1.5E0,1.5E0,5E-1,-2.3659043E-2,-1.8937996E-3,-4.981447E-2,-5.8820672E-2,-2.3023466E-2,-5.9247203E-2,-3.3981822E-2,-5.970019E-2,-3.153671E-2],"split_indices":[7823,2003,3253,3383,0,0,0,1258,0,2147483647,2147483647,2147483647,2147483647],"split_type":[0,0,0,0,0,0,0,0,0,0,0,0,0],"sum_hessian":[2.9997202E2,2.8838367E2,1.1588346E1,2.830764E2,5.3073087E0,5.8034353E0,5.7849097E0,2.7793994E2,5.13643E0,2.7188586E2,6.0540714E0,2.663769E2,5.508979E0],"tree_param":{"num_deleted":"4","num_feature":"7834","num_nodes":"13","size_leaf_vector":"0"}},{"base_weights":[-1.1159734E0,-1.1385093E0,-4.9446854E-1,-1.1498685E0,-4.5681182E-1,1.12275325E-1,-9.7406423E-1,-1.1612539E0,-4.6501946E-1,-1.1737584E0,-5.5956817E-1,-1.1834002E0,-5.933258E-1],"categories":[],"categories_nodes":[],"categories_segments":[],"categories_sizes":[],"default_left":[1,1,1,1,0,0,0,1,0,1,0,1,1],"id":19,"left_children":[1,3,5,7,-1,-1,-1,9,-1,-1,-1,-1,-1],"loss_changes":[3.499817E0,1.636383E0,3.5773437E0,1.5958557E0,0E0,0E0,0E0,1.365387E0,0E0,7.662964E-1,0E0,0E0,0E0],"parents":[2147483647,0,0,1,1,2,2,3,3,7,7,9,9],"right_children":[2,4,6,8,-1,-1,-1,10,-1,-1,-1,-1,-1],"split_conditions":[1.5E0,1.5E0,1.5E0,5E-1,-2.2840591E-2,5.613766E-3,-4.8703212E-2,5E-1,-2.3250973E-2,-5.868792E-2,-2.797841E-2,-5.9170008E-2,-2.966629E-2],"split_indices":[7823,2003,3253,3383,0,0,0,1258,0,1384,0,2147483647,2147483647],"split_type":[0,0,0,0,0,0,0,0,0,0,0,0,0],"sum_hessian":[2.890728E2,2.78155E2,1.0917795E1,2.7292053E2,5.234486E0,5.1581E0,5.7596955E0,2.677732E2,5.1473203E0,2.6139014E2,6.3830705E0,2.5609717E2,5.29297E0],"tree_param":{"num_deleted":"2","num_feature":"7834","num_nodes":"13","size_leaf_vector":"0"}},{"base_weights":[-1.1012673E0,-1.1252234E0,-4.4915277E-1,-1.1406127E0,-4.0822303E-1,5.679962E-3,-8.242213E-1,-1.1563603E0,-3.5158074E-1,-1.1691822E0,-5.599205E-1,-1.1790937E0,-5.9470403E-1],"categories":[],"categories_nodes":[],"categories_segments":[],"categories_sizes":[],"default_left":[1,1,1,1,0,0,0,1,0,1,0,1,1],"id":20,"left_children":[1,3,5,7,-1,-1,-1,9,-1,-1,-1,-1,-1],"loss_changes":[3.890625E0,2.5220032E0,1.9896264E0,2.8801575E0,0E0,0E0,0E0,1.3253174E0,0E0,7.3672485E-1,0E0,0E0,0E0],"parents":[2147483647,0,0,1,1,2,2,3,3,7,7,9,9],"right_children":[2,4,6,8,-1,-1,-1,10,-1,-1,-1,-1,-1],"split_conditions":[5E-1,5E-1,1.5E0,5E-1,-2.0411152E-2,2.8399812E-4,-4.1211065E-2,5E-1,-1.7579038E-2,-5.845911E-2,-2.7996024E-2,-5.8954686E-2,-2.9735202E-2],"split_indices":[1224,1767,5733,6544,0,0,0,1258,0,5923,0,2147483647,2147483647],"split_type":[0,0,0,0,0,0,0,0,0,0,0,0,0],"sum_hessian":[2.803989E2,2.6976337E2,1.0635528E1,2.6351657E2,6.2467847E0,5.251758E0,5.38377E0,2.5790378E2,5.612795E0,2.5153615E2,6.3676357E0,2.4623534E2,5.3008156E0],"tree_param":{"num_deleted":"2","num_feature":"7834","num_nodes":"13","size_leaf_vector":"0"}},{"base_weights":[-1.086907E0,-1.1029655E0,-2.5728413E-1,-1.1180482E0,-4.3354207E-1,-1.1305171E0,-4.9142388E-1,-1.1427162E0,-7.1991116E-1,-1.1531959E0,-5.7907206E-1],"categories":[],"categories_nodes":[],"categories_segments":[],"categories_sizes":[],"default_left":[1,1,0,1,0,1,0,1,1,1,1],"id":21,"left_children":[1,3,-1,5,-1,-1,-1,-1,-1,-1,-1],"loss_changes":[3.3339539E0,2.2018738E0,0E0,1.4727173E0,0E0,4.484253E-1,0E0,7.778015E-1,0E0,0E0,0E0],"parents":[2147483647,0,0,1,1,3,3,5,5,7,7],"right_children":[2,4,-1,6,-1,-1,-1,-1,-1,-1,-1],"split_conditions":[2.5E0,5E-1,-1.2864207E-2,5E-1,-2.1677105E-2,-5.6525856E-2,-2.4571193E-2,-5.713581E-2,-3.5995558E-2,-5.7659794E-2,-2.8953603E-2],"split_indices":[1209,1748,0,1767,0,5380,0,2147483647,2147483647,2147483647,2147483647],"split_type":[0,0,0,0,0,0,0,0,0,0,0],"sum_hessian":[2.7054828E2,2.6508768E2,5.460622E0,2.5859122E2,6.4964323E0,2.5275757E2,5.8336673E0,2.4373328E2,9.024285E0,2.3825745E2,5.475834E0],"tree_param":{"num_deleted":"4","num_feature":"7834","num_nodes":"11","size_leaf_vector":"0"}},{"base_weights":[-1.0588678E0,-1.0787793E0,-1.0417318E-1,-1.1022147E0,-3.9568046E-1,-1.1185302E0,-5.435246E-1,-1.1319487E0,-6.729031E-1,-1.1422685E0,-6.761777E-1],"categories":[],"categories_nodes":[],"categories_segments":[],"categories_sizes":[],"default_left":[1,1,0,1,0,1,0,1,1,1,1],"id":22,"left_children":[1,3,-1,5,-1,-1,-1,-1,-1,-1,-1],"loss_changes":[4.876404E0,3.6775818E0,0E0,1.6516113E0,0E0,6.728821E-1,0E0,3.161316E-1,0E0,0E0,0E0],"parents":[2147483647,0,0,1,1,3,3,5,5,7,7],"right_children":[2,4,-1,6,-1,-1,-1,-1,-1,-1,-1],"split_conditions":[2.5E0,1.5E0,-5.2086595E-3,5E-1,-1.9784024E-2,-5.592651E-2,-2.7176231E-2,-5.6597438E-2,-3.3645157E-2,-5.7113428E-2,-3.3808883E-2],"split_indices":[1209,7823,0,1407,0,5380,0,2147483647,2147483647,2147483647,2147483647],"split_type":[0,0,0,0,0,0,0,0,0,0,0],"sum_hessian":[2.614373E2,2.559687E2,5.468571E0,2.4688518E2,9.083531E0,2.3890633E2,7.9788556E0,2.304276E2,8.478729E0,2.2385277E2,6.574828E0],"tree_param":{"num_deleted":"4","num_feature":"7834","num_nodes":"11","size_leaf_vector":"0"}},{"base_weights":[-1.0515E0,-1.0807496E0,-3.0222812E-1,-1.0987865E0,-5.08902E-1,-1.1123406E0,-5.61069E-1,-1.1234239E0,-5.349862E-1,-1.1333811E0,-6.302575E-1],"categories":[],"categories_nodes":[],"categories_segments":[],"categories_sizes":[],"default_left":[1,1,0,1,0,1,0,1,1,1,1],"id":23,"left_children":[1,3,-1,5,-1,-1,-1,-1,-1,-1,-1],"loss_changes":[5.272003E0,1.9727173E0,0E0,1.1039734E0,0E0,8.724365E-1,0E0,3.9056396E-1,0E0,0E0,0E0],"parents":[2147483647,0,0,1,1,3,3,5,5,7,7],"right_children":[2,4,-1,6,-1,-1,-1,-1,-1,-1,-1],"split_conditions":[1.5E0,5E-1,-1.5111406E-2,5.85E1,-2.5445102E-2,-5.561703E-2,-2.8053451E-2,-5.6171197E-2,-2.6749311E-2,-5.6669056E-2,-3.1512875E-2],"split_indices":[7823,6544,0,5923,0,3766,0,2147483647,2147483647,2147483647,2147483647],"split_type":[0,0,0,0,0,0,0,0,0,0,0],"sum_hessian":[2.5445998E2,2.4447397E2,9.986016E0,2.3610542E2,8.368545E0,2.2925792E2,6.8475E0,2.240118E2,5.2461295E0,2.1830598E2,5.705808E0],"tree_param":{"num_deleted":"4","num_feature":"7834","num_nodes":"11","size_leaf_vector":"0"}},{"base_weights":[-1.0410131E0,-1.0614847E0,-1.7387621E-1,-1.0836637E0,-5.0704646E-1,-1.0973E0,-4.916001E-1,-5.0313894E-2,-8.7938666E-1,-1.1079904E0,-5.4476464E-1],"categories":[],"categories_nodes":[],"categories_segments":[],"categories_sizes":[],"default_left":[1,1,0,1,1,1,0,0,0,1,1],"id":24,"left_children":[1,3,-1,5,7,-1,-1,-1,-1,-1,-1],"loss_changes":[4.229889E0,2.435608E0,0E0,1.3378906E0,1.8632162E0,7.342224E-1,0E0,0E0,0E0,0E0,0E0],"parents":[2147483647,0,0,1,1,3,3,4,4,5,5],"right_children":[2,4,-1,6,8,-1,-1,-1,-1,-1,-1],"split_conditions":[2.5E0,5.95E1,-8.693811E-3,5E-1,2.85E1,-5.4865003E-2,-2.4580006E-2,-2.5156948E-3,-4.3969333E-2,-5.539952E-2,-2.7238233E-2],"split_indices":[1209,5923,0,1258,6148,2627,0,0,0,2147483647,2147483647],"split_type":[0,0,0,0,0,0,0,0,0,0,0],"sum_hessian":[2.4767938E2,2.41748E2,5.9313707E0,2.315316E2,1.021641E1,2.2548494E2,6.0466585E0,5.098026E0,5.118384E0,2.202189E2,5.2660403E0],"tree_param":{"num_deleted":"2","num_feature":"7834","num_nodes":"11","size_leaf_vector":"0"}},{"base_weights":[-1.0107328E0,-1.0313343E0,-1.9594239E-1,-1.0517398E0,-3.2653627E-1,-1.0655272E0,-4.0638375E-1,-1.0764158E0,-5.4481715E-1,-1.0869645E0,-5.3502536E-1],"categories":[],"categories_nodes":[],"categories_segments":[],"categories_sizes":[],"default_left":[1,1,0,1,0,1,0,1,1,1,1],"id":25,"left_children":[1,3,-1,5,-1,-1,-1,-1,-1,-1,-1],"loss_changes":[3.7822113E0,2.9826508E0,0E0,1.5628815E0,0E0,6.552429E-1,0E0,6.377106E-1,0E0,0E0,0E0],"parents":[2147483647,0,0,1,1,3,3,5,5,7,7],"right_children":[2,4,-1,6,-1,-1,-1,-1,-1,-1,-1],"split_conditions":[2.5E0,5E-1,-9.79712E-3,5E-1,-1.6326813E-2,-5.327636E-2,-2.0319188E-2,-5.382079E-2,-2.7240857E-2,-5.4348227E-2,-2.6751269E-2],"split_indices":[1209,1258,0,1748,0,3294,0,2147483647,2147483647,2147483647,2147483647],"split_type":[0,0,0,0,0,0,0,0,0,0,0],"sum_hessian":[2.3635869E2,2.3027066E2,6.0880265E0,2.2331297E2,6.9576883E0,2.1800443E2,5.308537E0,2.1249379E2,5.5106363E0,2.074441E2,5.0496864E0],"tree_param":{"num_deleted":"4","num_feature":"7834","num_nodes":"11","size_leaf_vector":"0"}},{"base_weights":[-9.882283E-1,-1.0170269E0,-2.4084501E-1,-1.0407746E0,-4.0007266E-1,-1.0555885E0,-3.7531397E-1,-1.0669858E0,-5.1132876E-1,-1.0784023E0,-6.102442E-1],"categories":[],"categories_nodes":[],"categories_segments":[],"categories_sizes":[],"default_left":[1,1,0,1,0,1,0,1,1,1,1],"id":26,"left_children":[1,3,-1,5,-1,-1,-1,-1,-1,-1,-1],"loss_changes":[4.7377625E0,2.844986E0,0E0,1.7107239E0,0E0,7.478943E-1,0E0,4.020996E-1,0E0,0E0,0E0],"parents":[2147483647,0,0,1,1,3,3,5,5,7,7],"right_children":[2,4,-1,6,-1,-1,-1,-1,-1,-1,-1],"split_conditions":[5E-1,5.95E1,-1.20422505E-2,5E-1,-2.0003634E-2,-5.2779425E-2,-1.87657E-2,-5.3349294E-2,-2.5566438E-2,-5.3920116E-2,-3.0512212E-2],"split_indices":[1224,5923,0,1767,0,1318,0,2147483647,2147483647,2147483647,2147483647],"split_type":[0,0,0,0,0,0,0,0,0,0,0],"sum_hessian":[2.3050012E2,2.216005E2,8.89963E0,2.1272536E2,8.875136E0,2.0751952E2,5.205839E0,2.0232224E2,5.19728E0,1.9606053E2,6.2617073E0],"tree_param":{"num_deleted":"4","num_feature":"7834","num_nodes":"11","size_leaf_vector":"0"}},{"base_weights":[-9.831479E-1,-1.0041953E0,-7.575893E-2,-1.0277239E0,-3.048019E-1,-1.0426857E0,-4.55277E-1,-1.066486E0,-6.137299E-1,-1.0788212E0,-5.9450215E-1,-1.4886601E-1,-1.0461603E0],"categories":[],"categories_nodes":[],"categories_segments":[],"categories_sizes":[],"default_left":[1,1,0,1,0,1,0,1,1,1,1,0,0],"id":27,"left_children":[1,3,-1,5,-1,7,-1,-1,11,-1,-1,-1,-1],"loss_changes":[4.208557E0,3.2935333E0,0E0,1.3377991E0,0E0,1.4430542E0,0E0,4.8405457E-1,2.4889035E0,0E0,0E0,0E0,0E0],"parents":[2147483647,0,0,1,1,3,3,5,5,7,7,8,8],"right_children":[2,4,-1,6,-1,8,-1,-1,12,-1,-1,-1,-1],"split_conditions":[6.5E0,5E-1,-3.7879464E-3,5E-1,-1.5240096E-2,5E-1,-2.276385E-2,-5.33243E-2,5E-1,-5.394106E-2,-2.9725108E-2,-7.443301E-3,-5.230802E-2],"split_indices":[5037,6544,0,2229,0,7823,0,5380,4783,2147483647,2147483647,0,0],"split_type":[0,0,0,0,0,0,0,0,0,0,0,0,0],"sum_hessian":[2.2334743E2,2.1817995E2,5.1674933E0,2.1062476E2,7.5551867E0,2.0445944E2,6.165306E0,1.9230342E2,1.2156025E1,1.8615262E2,6.1507993E0,6.50615E0,5.6498747E0],"tree_param":{"num_deleted":"2","num_feature":"7834","num_nodes":"13","size_leaf_vector":"0"}},{"base_weights":[-9.631893E-1,-9.971987E-1,-2.0709382E-1,-1.0294809E0,-5.1122564E-1,-1.0418323E0,-4.8147675E-1,-8.9561564E-1,-1.1926108E-1,-1.0539435E0,-5.68988E-1,-1.0670719E0,-5.8615077E-1],"categories":[],"categories_nodes":[],"categories_segments":[],"categories_sizes":[],"default_left":[1,1,0,1,1,1,1,0,0,1,1,1,1],"id":28,"left_children":[1,3,-1,-1,7,-1,-1,-1,-1,-1,-1,-1,-1],"loss_changes":[5.340378E0,2.708084E0,0E0,8.002167E-1,2.1273553E0,4.725647E-1,0E0,0E0,0E0,4.8851013E-1,0E0,0E0,0E0],"parents":[2147483647,0,0,1,1,3,3,4,4,5,5,9,9],"right_children":[2,4,-1,-1,8,-1,-1,-1,-1,-1,-1,-1,-1],"split_conditions":[5E-1,1.5E0,-1.0354691E-2,-5.1474046E-2,5E-1,-5.2091617E-2,-2.4073837E-2,-4.4780783E-2,-5.963054E-3,-5.2697178E-2,-2.8449401E-2,-5.3353596E-2,-2.9307539E-2],"split_indices":[1224,2354,0,3294,5733,2147483647,2147483647,0,0,2147483647,2147483647,2147483647,2147483647],"split_type":[0,0,0,0,0,0,0,0,0,0,0,0,0],"sum_hessian":[2.1471178E2,2.0516452E2,9.547242E0,1.9133604E2,1.3828488E1,1.8623737E2,5.0986795E0,6.3329654E0,7.495523E0,1.8038803E2,5.8493295E0,1.7421762E2,6.17041E0],"tree_param":{"num_deleted":"6","num_feature":"7834","num_nodes":"13","size_leaf_vector":"0"}},{"base_weights":[-9.66366E-1,-9.9760073E-1,-2.7850395E-1,-1.0249995E0,-3.4097746E-1,-1.0370843E0,-4.9174964E-1,-1.0476724E0,-5.800704E-1,-1.0605339E0,-6.782924E-1],"categories":[],"categories_nodes":[],"categories_segments":[],"categories_sizes":[],"default_left":[1,1,0,1,0,1,1,1,1,1,1],"id":29,"left_children":[1,3,-1,-1,-1,-1,-1,-1,-1,-1,-1],"loss_changes":[4.176834E0,3.2116241E0,0E0,7.113037E-1,0E0,2.8463745E-1,0E0,1.3102722E-1,0E0,0E0,0E0],"parents":[2147483647,0,0,1,1,3,3,5,5,7,7],"right_children":[2,4,-1,-1,-1,-1,-1,-1,-1,-1,-1],"split_conditions":[5E-1,5.95E1,-1.39251975E-2,-5.1249977E-2,-1.7048873E-2,-5.185422E-2,-2.4587482E-2,-5.238362E-2,-2.900352E-2,-5.3026695E-2,-3.3914622E-2],"split_indices":[1224,5923,0,2199,0,2147483647,2147483647,2147483647,2147483647,2147483647,2147483647],"split_type":[0,0,0,0,0,0,0,0,0,0,0],"sum_hessian":[2.0633627E2,1.9694308E2,9.393181E0,1.885159E2,8.427182E0,1.8341443E2,5.1014695E0,1.7799814E2,5.4162955E0,1.7020079E2,7.7973495E0],"tree_param":{"num_deleted":"6","num_feature":"7834","num_nodes":"11","size_leaf_vector":"0"}},{"base_weights":[-9.4313574E-1,-9.758015E-1,-1.7860328E-1,-1.0042924E0,-2.2655414E-1,-1.0193805E0,-4.215712E-1,-1.032113E0,-5.0283587E-1,-1.045675E0,-5.332188E-1],"categories":[],"categories_nodes":[],"categories_segments":[],"categories_sizes":[],"default_left":[1,1,0,1,0,1,0,1,1,1,1],"id":30,"left_children":[1,3,-1,5,-1,-1,-1,-1,-1,-1,-1],"loss_changes":[4.856827E0,3.8918457E0,0E0,1.2021942E0,0E0,6.6633606E-1,0E0,6.260681E-1,0E0,0E0,0E0],"parents":[2147483647,0,0,1,1,3,3,5,5,7,7],"right_children":[2,4,-1,6,-1,-1,-1,-1,-1,-1,-1],"split_conditions":[5E-1,5.95E1,-8.930164E-3,1.5E0,-1.1327707E-2,-5.0969023E-2,-2.107856E-2,-5.160565E-2,-2.5141794E-2,-5.2283753E-2,-2.666094E-2],"split_indices":[1224,5923,0,7823,0,2354,0,2147483647,2147483647,2147483647,2147483647],"split_type":[0,0,0,0,0,0,0,0,0,0,0],"sum_hessian":[2.0045328E2,1.9197455E2,8.478731E0,1.8461403E2,7.3605247E0,1.7922414E2,5.389887E0,1.7393855E2,5.285596E0,1.6826828E2,5.67026E0],"tree_param":{"num_deleted":"4","num_feature":"7834","num_nodes":"11","size_leaf_vector":"0"}},{"base_weights":[-9.2678154E-1,-9.54103E-1,-1.6957755E-1,-9.79305E-1,-3.8882434E-1,-1.0066953E0,-1.958008E-1,-1.0197154E0,-5.390435E-1],"categories":[],"categories_nodes":[],"categories_segments":[],"categories_sizes":[],"default_left":[1,1,0,1,0,1,0,1,1],"id":31,"left_children":[1,3,-1,5,-1,-1,-1,-1,-1],"loss_changes":[3.7998352E0,2.2492065E0,0E0,3.5814667E0,0E0,4.8472595E-1,0E0,0E0,0E0],"parents":[2147483647,0,0,1,1,3,3,5,5],"right_children":[2,4,-1,6,-1,-1,-1,-1,-1],"split_conditions":[5E-1,5E-1,-8.478878E-3,5.95E1,-1.9441217E-2,-5.0334763E-2,-9.79004E-3,-5.0985772E-2,-2.6952175E-2],"split_indices":[1258,1224,0,5923,0,2113,0,2147483647,2147483647],"split_type":[0,0,0,0,0,0,0,0,0],"sum_hessian":[1.9049503E2,1.8360995E2,6.8850646E0,1.7507222E2,8.537728E0,1.6888342E2,6.188806E0,1.6316028E2,5.723137E0],"tree_param":{"num_deleted":"2","num_feature":"7834","num_nodes":"9","size_leaf_vector":"0"}},{"base_weights":[-9.158963E-1,-9.489415E-1,-2.388342E-1,-9.7282815E-1,-3.6897287E-1,-9.981044E-1,-5.433083E-1,-1.0106443E0,-6.588455E-1,-9.633753E-1,-4.9418963E-2],"categories":[],"categories_nodes":[],"categories_segments":[],"categories_sizes":[],"default_left":[1,1,0,1,0,1,1,1,1,0,0],"id":32,"left_children":[1,3,-1,5,-1,-1,9,-1,-1,-1,-1],"loss_changes":[3.9605255E0,2.1083984E0,0E0,1.308197E0,0E0,1.3885498E-2,2.373006E0,0E0,0E0,0E0,0E0],"parents":[2147483647,0,0,1,1,3,3,5,5,6,6],"right_children":[2,4,-1,6,-1,-1,10,-1,-1,-1,-1],"split_conditions":[5E-1,5.95E1,-1.19417105E-2,1.5E0,-1.8448643E-2,-4.9905222E-2,5E-1,-5.0532218E-2,-3.2942276E-2,-4.8168764E-2,-2.4709483E-3],"split_indices":[1224,5923,0,2354,0,3555,5733,2147483647,2147483647,0,0],"split_type":[0,0,0,0,0,0,0,0,0,0,0],"sum_hessian":[1.8614737E2,1.7710204E2,9.045341E0,1.6944583E2,7.656196E0,1.5877834E2,1.0667493E1,1.5121022E2,7.5681224E0,5.2508802E0,5.416613E0],"tree_param":{"num_deleted":"2","num_feature":"7834","num_nodes":"11","size_leaf_vector":"0"}},{"base_weights":[-9.077616E-1,-9.325887E-1,-9.085635E-2,-9.565114E-1,-2.7641222E-1,-9.752378E-1,-2.9042065E-1,-1.0063045E0,-4.501891E-1,-1.0206214E0,-6.346742E-1],"categories":[],"categories_nodes":[],"categories_segments":[],"categories_sizes":[],"default_left":[1,1,0,1,0,1,0,1,0,1,1],"id":33,"left_children":[1,3,-1,5,-1,7,-1,-1,-1,-1,-1],"loss_changes":[3.5826263E0,2.488678E0,0E0,1.8223724E0,0E0,2.218277E0,0E0,1.7059326E-1,0E0,0E0,0E0],"parents":[2147483647,0,0,1,1,3,3,5,5,7,7],"right_children":[2,4,-1,6,-1,8,-1,-1,-1,-1,-1],"split_conditions":[5.5E0,5E-1,-4.542818E-3,5E-1,-1.3820611E-2,5E-1,-1.4521033E-2,-5.0315227E-2,-2.2509456E-2,-5.103107E-2,-3.173371E-2],"split_indices":[5037,6544,0,2229,0,7823,0,1561,0,2147483647,2147483647],"split_type":[0,0,0,0,0,0,0,0,0,0,0],"sum_hessian":[1.7982393E2,1.7438254E2,5.4413853E0,1.6780698E2,6.575561E0,1.6276685E2,5.0401306E0,1.5280867E2,9.958173E0,1.454586E2,7.3500724E0],"tree_param":{"num_deleted":"2","num_feature":"7834","num_nodes":"11","size_leaf_vector":"0"}},{"base_weights":[-8.893344E-1,-9.2969215E-1,-1.5258554E-1,-9.6076006E-1,-2.8572345E-1,-9.817276E-1,-5.312718E-1,-9.964151E-1,-5.256899E-1,-1.0129989E0,-4.9740082E-1],"categories":[],"categories_nodes":[],"categories_segments":[],"categories_sizes":[],"default_left":[1,1,0,1,0,1,1,1,1,1,1],"id":34,"left_children":[1,3,-1,-1,-1,-1,-1,-1,-1,-1,-1],"loss_changes":[5.0442963E0,3.0299377E0,0E0,8.935547E-1,0E0,4.7184753E-1,0E0,6.786499E-1,0E0,0E0,0E0],"parents":[2147483647,0,0,1,1,3,3,5,5,7,7],"right_children":[2,4,-1,-1,-1,-1,-1,-1,-1,-1,-1],"split_conditions":[5E-1,5.95E1,-7.6292767E-3,-4.8038002E-2,-1.4286173E-2,-4.908638E-2,-2.656359E-2,-4.9820755E-2,-2.6284495E-2,-5.064995E-2,-2.4870042E-2],"split_indices":[1224,5923,0,7823,0,2147483647,2147483647,2147483647,2147483647,2147483647,2147483647],"split_type":[0,0,0,0,0,0,0,0,0,0,0],"sum_hessian":[1.7342119E2,1.6416656E2,9.254621E0,1.5614166E2,8.024904E0,1.476477E2,8.493956E0,1.4189287E2,5.7548475E0,1.3633212E2,5.5607433E0],"tree_param":{"num_deleted":"6","num_feature":"7834","num_nodes":"11","size_leaf_vector":"0"}},{"base_weights":[-8.9528793E-1,-9.273765E-1,-2.771287E-1,-9.6979415E-1,-3.9834395E-1,-9.92978E-1,-5.5498904E-1,-8.3229357E-1,4.868381E-2,-1.0184879E0,-7.389895E-1,-4.3873987E-1,-9.839317E-1],"categories":[],"categories_nodes":[],"categories_segments":[],"categories_sizes":[],"default_left":[1,1,0,1,1,1,1,0,0,1,1,1,1],"id":35,"left_children":[1,3,-1,-1,7,-1,-1,-1,-1,-1,-1,-1,-1],"loss_changes":[3.0353394E0,3.144989E0,0E0,8.432007E-1,2.6356556E0,1.2879944E-1,0E0,0E0,0E0,0E0,7.4948025E-1,0E0,0E0],"parents":[2147483647,0,0,1,1,3,3,4,4,5,5,10,10],"right_children":[2,4,-1,-1,8,-1,-1,-1,-1,-1,-1,-1,-1],"split_conditions":[5E-1,1.5E0,-1.3856435E-2,-4.848971E-2,5E-1,-4.96489E-2,-2.7749453E-2,-4.1614678E-2,2.4341906E-3,-5.0924398E-2,-3.6949474E-2,-2.1936994E-2,-4.9196586E-2],"split_indices":[1224,2354,0,7823,5733,2147483647,2147483647,0,0,2147483647,2147483647,2147483647,2147483647],"split_type":[0,0,0,0,0,0,0,0,0,0,0,0,0],"sum_hessian":[1.6498036E2,1.5636334E2,8.617023E0,1.4398549E2,1.2377855E1,1.3504391E2,8.941566E0,5.8434863E0,6.5343685E0,1.19983154E2,1.506077E1,8.02048E0,7.04029E0],"tree_param":{"num_deleted":"6","num_feature":"7834","num_nodes":"13","size_leaf_vector":"0"}},{"base_weights":[-8.787955E-1,-9.2249876E-1,-1.3071837E-1,-9.499594E-1,-3.5479218E-1,-9.7418594E-1,-5.2346605E-1,-9.9097085E-1,-5.01222E-1,-1.0074573E0,-5.249448E-1],"categories":[],"categories_nodes":[],"categories_segments":[],"categories_sizes":[],"default_left":[1,1,0,1,0,1,1,1,1,1,1],"id":36,"left_children":[1,3,-1,-1,-1,-1,-1,-1,-1,-1,-1],"loss_changes":[5.1720886E0,2.0448456E0,0E0,9.897156E-1,0E0,5.8439636E-1,0E0,4.7369385E-1,0E0,0E0,0E0],"parents":[2147483647,0,0,1,1,3,3,5,5,7,7],"right_children":[2,4,-1,-1,-1,-1,-1,-1,-1,-1,-1],"split_conditions":[5E-1,5.95E1,-6.5359185E-3,-4.749797E-2,-1.7739609E-2,-4.87093E-2,-2.6173303E-2,-4.9548544E-2,-2.50611E-2,-5.0372865E-2,-2.6247239E-2],"split_indices":[1224,5923,0,1209,0,2147483647,2147483647,2147483647,2147483647,2147483647,2147483647],"split_type":[0,0,0,0,0,0,0,0,0,0,0],"sum_hessian":[1.6088797E2,1.5178726E2,9.100698E0,1.4414165E2,7.6456223E0,1.3517877E2,8.962873E0,1.2948816E2,5.690616E0,1.23941734E2,5.5464244E0],"tree_param":{"num_deleted":"6","num_feature":"7834","num_nodes":"11","size_leaf_vector":"0"}},{"base_weights":[-8.4032613E-1,-8.868751E-1,3.4884013E-2,-9.1280276E-1,-1.7582922E-1,-9.372623E-1,-2.7748084E-1,-9.6029806E-1,-2.7875412E-1,-9.8228574E-1,-5.2426326E-1],"categories":[],"categories_nodes":[],"categories_segments":[],"categories_sizes":[],"default_left":[1,1,0,1,0,1,0,1,0,1,1],"id":37,"left_children":[1,3,-1,5,-1,7,-1,-1,-1,-1,-1],"loss_changes":[6.4086914E0,2.5805206E0,0E0,1.9653702E0,0E0,1.8177948E0,0E0,7.5463104E-1,0E0,0E0,0E0],"parents":[2147483647,0,0,1,1,3,3,5,5,7,7],"right_children":[2,4,-1,6,-1,8,-1,-1,-1,-1,-1],"split_conditions":[1.5E0,5E-1,1.7442007E-3,5E-1,-8.791461E-3,3.25E1,-1.3874042E-2,-4.8014905E-2,-1.3937706E-2,-4.9114287E-2,-2.6213164E-2],"split_indices":[7823,5380,0,6544,0,5916,0,3092,0,2147483647,2147483647],"split_type":[0,0,0,0,0,0,0,0,0,0,0],"sum_hessian":[1.5554732E2,1.476795E2,7.8678126E0,1.4221019E2,5.469319E0,1.364805E2,5.7296805E0,1.3142474E2,5.0557647E0,1.2392298E2,7.5017548E0],"tree_param":{"num_deleted":"2","num_feature":"7834","num_nodes":"11","size_leaf_vector":"0"}},{"base_weights":[-8.377738E-1,-8.838262E-1,-5.6940865E-2,-9.170003E-1,-3.3337433E-2,-9.614243E-1,-5.0307643E-1,-9.7834593E-1,-5.9036803E-1,4.2495478E-2,-9.1552174E-1,-9.979211E-1,-5.57338E-1],"categories":[],"categories_nodes":[],"categories_segments":[],"categories_sizes":[],"default_left":[1,1,0,1,0,1,1,1,1,0,0,1,1],"id":38,"left_children":[1,3,-1,5,-1,-1,9,-1,-1,-1,-1,-1,-1],"loss_changes":[5.456436E0,4.0475388E0,0E0,2.0737E0,0E0,2.0413208E-1,3.5440686E0,4.1257477E-1,0E0,0E0,0E0,0E0,0E0],"parents":[2147483647,0,0,1,1,3,3,5,5,6,6,7,7],"right_children":[2,4,-1,6,-1,-1,10,-1,-1,-1,-1,-1,-1],"split_conditions":[1.5E0,5E-1,-2.8470433E-3,5E-1,-1.6668717E-3,-4.8071217E-2,5E-1,-4.8917297E-2,-2.9518401E-2,2.124774E-3,-4.5776088E-2,-4.9896058E-2,-2.78669E-2],"split_indices":[7823,5380,0,2090,0,6536,979,2147483647,2147483647,0,0,2147483647,2147483647],"split_type":[0,0,0,0,0,0,0,0,0,0,0,0,0],"sum_hessian":[1.5213884E2,1.4354109E2,8.5977545E0,1.3807707E2,5.4640207E0,1.2349985E2,1.4577217E1,1.16548134E2,6.9517155E0,6.661941E0,7.915276E0,1.10060455E2,6.4876747E0],"tree_param":{"num_deleted":"4","num_feature":"7834","num_nodes":"13","size_leaf_vector":"0"}},{"base_weights":[-8.181481E-1,-8.6115485E-1,-4.604508E-2,-8.883614E-1,-1.269318E-1,-9.3319505E-1,-4.770345E-1,-9.5158356E-1,-4.5014766E-1,-7.000187E-1,-9.498505E-2,-9.704159E-1,-5.69424E-1],"categories":[],"categories_nodes":[],"categories_segments":[],"categories_sizes":[],"default_left":[1,1,0,1,0,1,1,1,1,0,0,1,1],"id":39,"left_children":[1,3,-1,5,-1,-1,9,-1,-1,-1,-1,-1,-1],"loss_changes":[4.7897263E0,2.638054E0,0E0,2.0005264E0,0E0,6.24588E-1,1.2182202E0,2.6280212E-1,0E0,0E0,0E0,0E0,0E0],"parents":[2147483647,0,0,1,1,3,3,5,5,6,6,7,7],"right_children":[2,4,-1,6,-1,-1,10,-1,-1,-1,-1,-1,-1],"split_conditions":[1.5E0,5E-1,-2.302254E-3,5E-1,-6.3465904E-3,-4.6659753E-2,5E-1,-4.757918E-2,-2.2507383E-2,-3.5000935E-2,-4.749253E-3,-4.8520796E-2,-2.84712E-2],"split_indices":[7823,5380,0,2090,0,5098,1779,2147483647,2147483647,0,0,2147483647,2147483647],"split_type":[0,0,0,0,0,0,0,0,0,0,0,0,0],"sum_hessian":[1.4443816E2,1.3670805E2,7.7300963E0,1.3162093E2,5.0871305E0,1.1754055E2,1.4080372E1,1.12295746E2,5.244809E0,8.365534E0,5.7148385E0,1.05554855E2,6.740891E0],"tree_param":{"num_deleted":"4","num_feature":"7834","num_nodes":"13","size_leaf_vector":"0"}},{"base_weights":[-8.2146657E-1,-8.645288E-1,-9.1500506E-2,-8.995254E-1,-5.1497333E-2,-9.3612087E-1,-4.747253E-1,-9.728039E-1,-6.0334486E-1,-9.9680446E-2,-8.027112E-1,-9.969262E-1,-4.2433077E-1,-2.1567336E-1,-9.5252454E-1],"categories":[],"categories_nodes":[],"categories_segments":[],"categories_sizes":[],"default_left":[1,1,0,1,0,1,1,1,1,0,0,1,1,0,0],"id":40,"left_children":[1,3,-1,5,-1,7,9,-1,13,-1,-1,-1,-1,-1,-1],"loss_changes":[4.382553E0,3.763939E0,0E0,1.5505066E0,0E0,8.427582E-1,1.42156E0,9.510422E-1,1.7251091E0,0E0,0E0,0E0,0E0,0E0,0E0],"parents":[2147483647,0,0,1,1,3,3,5,5,6,6,7,7,8,8],"right_children":[2,4,-1,6,-1,8,10,-1,14,-1,-1,-1,-1,-1,-1],"split_conditions":[1.5E0,5E-1,-4.5750253E-3,1.5E0,-2.5748666E-3,2.5E0,6.5E0,-4.8640195E-2,1.35E1,-4.9840226E-3,-4.013556E-2,-4.984631E-2,-2.121654E-2,-1.0783668E-2,-4.7626227E-2],"split_indices":[7823,5380,0,2354,0,5098,6148,6536,5733,0,0,2147483647,2147483647,0,0],"split_type":[0,0,0,0,0,0,0,0,0,0,0,0,0,0,0],"sum_hessian":[1.4093756E2,1.3291243E2,8.025123E0,1.2732538E2,5.587055E0,1.16118385E2,1.120699E1,1.02856834E2,1.3261551E1,5.83673E0,5.3702602E0,9.7740486E1,5.1163487E0,7.0509725E0,6.2105784E0],"tree_param":{"num_deleted":"2","num_feature":"7834","num_nodes":"15","size_leaf_vector":"0"}},{"base_weights":[-8.002377E-1,-8.440153E-1,-7.856588E-2,-8.798128E-1,-3.4651406E-2,-9.081113E-1,-2.6115054E-1,-9.3450546E-1,-2.6954103E-1,-9.527772E-1,-5.647182E-1],"categories":[],"categories_nodes":[],"categories_segments":[],"categories_sizes":[],"default_left":[1,1,0,1,0,1,0,1,0,1,1],"id":41,"left_children":[1,3,-1,5,-1,7,-1,-1,-1,-1,-1],"loss_changes":[4.2448425E0,3.6940765E0,0E0,1.9173889E0,0E0,1.7248077E0,0E0,2.2016907E-1,0E0,0E0,0E0],"parents":[2147483647,0,0,1,1,3,3,5,5,7,7],"right_children":[2,4,-1,6,-1,8,-1,-1,-1,-1,-1],"split_conditions":[1.5E0,5E-1,-3.928294E-3,1.5E0,-1.7325704E-3,2.55E1,-1.3057527E-2,-4.6725273E-2,-1.3477052E-2,-4.763886E-2,-2.823591E-2],"split_indices":[7823,5380,0,2090,0,5916,0,1540,0,2147483647,2147483647],"split_type":[0,0,0,0,0,0,0,0,0,0,0],"sum_hessian":[1.3545901E2,1.2755201E2,7.907E0,1.22066086E2,5.4859223E0,1.16279434E2,5.786654E0,1.1121896E2,5.0604725E0,1.0447989E2,6.7390723E0],"tree_param":{"num_deleted":"2","num_feature":"7834","num_nodes":"11","size_leaf_vector":"0"}},{"base_weights":[-8.1039846E-1,-8.643624E-1,3.5548303E-2,-9.0889615E-1,-2.98324E-1,-9.722723E-1,-6.2492585E-1,-7.576552E-1,-1.3904639E-1,-4.6124652E-1,-9.7925204E-1],"categories":[],"categories_nodes":[],"categories_segments":[],"categories_sizes":[],"default_left":[1,1,0,1,0,0,1,1,0,1,1],"id":42,"left_children":[1,3,-1,5,-1,-1,7,-1,-1,-1,-1],"loss_changes":[6.072365E0,2.8659286E0,0E0,1.459938E0,0E0,0E0,1.4269714E0,7.593641E-1,0E0,0E0,0E0],"parents":[2147483647,0,0,1,1,3,3,6,6,7,7],"right_children":[2,4,-1,6,-1,-1,8,-1,-1,-1,-1],"split_conditions":[5E-1,5E-1,1.7774152E-3,3.5E0,-1.4916199E-2,-4.8613615E-2,6.5E0,-3.788276E-2,-6.9523193E-3,-2.3062326E-2,-4.8962604E-2],"split_indices":[1224,7823,0,5733,0,0,7801,7455,0,2147483647,2147483647],"split_type":[0,0,0,0,0,0,0,0,0,0,0],"sum_hessian":[1.3134508E2,1.2344838E2,7.896694E0,1.1388281E2,9.565572E0,9.112238E1,2.2760426E1,1.7437592E1,5.322833E0,8.777821E0,8.659772E0],"tree_param":{"num_deleted":"2","num_feature":"7834","num_nodes":"11","size_leaf_vector":"0"}},{"base_weights":[-7.487125E-1,-7.9907024E-1,-3.2641902E-3,-8.6116856E-1,-4.0481424E-1,-8.8688624E-1,-3.4807494E-1,1.02650486E-1,-7.494367E-1,-9.165309E-1,-4.0452313E-1,-9.233418E-1,-4.5005658E-1,-9.478711E-1,-4.0297636E-1],"categories":[],"categories_nodes":[],"categories_segments":[],"categories_sizes":[],"default_left":[1,1,0,1,1,1,0,0,1,1,0,1,1,0,0],"id":43,"left_children":[1,3,-1,5,7,9,-1,-1,-1,13,-1,-1,-1,-1,-1],"loss_changes":[4.866852E0,2.6261368E0,0E0,1.064743E0,3.298422E0,1.0373077E0,0E0,0E0,1.6188526E-1,1.0984116E0,0E0,0E0,0E0,0E0,0E0],"parents":[2147483647,0,0,1,1,3,3,4,4,5,5,8,8,9,9],"right_children":[2,4,-1,6,8,10,-1,-1,-1,14,-1,-1,-1,-1,-1],"split_conditions":[1.5E0,5E-1,-1.6320951E-4,3E1,1.5E0,3.5E0,-1.7403748E-2,5.1325243E-3,-3.7471835E-2,5E-1,-2.0226156E-2,-4.616709E-2,-2.250283E-2,-4.7393557E-2,-2.014882E-2],"split_indices":[7823,5037,0,5923,7043,5098,0,0,7455,1209,0,2147483647,2147483647,0,0],"split_type":[0,0,0,0,0,0,0,0,0,0,0,0,0,0,0],"sum_hessian":[1.2871698E2,1.2050453E2,8.212451E0,1.0308376E2,1.7420765E1,9.7469795E1,5.61397E0,7.329717E0,1.0091047E1,9.097843E1,6.49136E0,5.064804E0,5.0262437E0,8.494865E1,6.0297837E0],"tree_param":{"num_deleted":"2","num_feature":"7834","num_nodes":"15","size_leaf_vector":"0"}},{"base_weights":[-7.8324133E-1,-8.376818E-1,1.9472956E-3,-8.745389E-1,-5.2793216E-2,-9.0716946E-1,-2.8997183E-1,-9.3422717E-1,-4.6910983E-1,-9.814629E-1,-5.798153E-1],"categories":[],"categories_nodes":[],"categories_segments":[],"categories_sizes":[],"default_left":[1,1,0,1,0,1,0,1,0,0,0],"id":44,"left_children":[1,3,-1,5,-1,7,-1,9,-1,-1,-1],"loss_changes":[5.3877487E0,3.362648E0,0E0,1.8825912E0,0E0,8.189621E-1,0E0,1.0864487E0,0E0,0E0,0E0],"parents":[2147483647,0,0,1,1,3,3,5,5,7,7],"right_children":[2,4,-1,6,-1,8,-1,10,-1,-1,-1],"split_conditions":[1.5E0,5E-1,9.7364784E-5,3.05E1,-2.6396608E-3,5E-1,-1.4498591E-2,6.5E0,-2.3455491E-2,-4.9073145E-2,-2.8990766E-2],"split_indices":[7823,6544,0,5923,0,1540,0,7801,0,0,0],"split_type":[0,0,0,0,0,0,0,0,0,0,0],"sum_hessian":[1.2500266E2,1.1683513E2,8.167529E0,1.1148572E2,5.349411E0,1.050689E2,6.4168186E0,9.7889885E1,7.179021E0,8.481635E1,1.3073528E1],"tree_param":{"num_deleted":"0","num_feature":"7834","num_nodes":"11","size_leaf_vector":"0"}},{"base_weights":[-7.2682196E-1,-7.814122E-1,6.46295E-2,-8.369899E-1,-1.5272427E-1,-8.75695E-1,-3.1647342E-1,-9.0411586E-1,-3.3681005E-1,-9.329894E-1,-5.926255E-1],"categories":[],"categories_nodes":[],"categories_segments":[],"categories_sizes":[],"default_left":[1,1,0,1,0,1,0,1,0,1,1],"id":45,"left_children":[1,3,-1,5,-1,7,-1,-1,-1,-1,-1],"loss_changes":[5.283455E0,3.8337479E0,0E0,1.8170471E0,0E0,1.1686325E0,0E0,2.6348877E-1,0E0,0E0,0E0],"parents":[2147483647,0,0,1,1,3,3,5,5,7,7],"right_children":[2,4,-1,6,-1,8,-1,-1,-1,-1,-1],"split_conditions":[5E-1,1.5E0,3.2314751E-3,2.45E1,-7.636213E-3,5E-1,-1.5823672E-2,-4.5205794E-2,-1.6840503E-2,-4.664947E-2,-2.9631276E-2],"split_indices":[1224,2354,0,5923,0,7823,0,5037,0,2147483647,2147483647],"split_type":[0,0,0,0,0,0,0,0,0,0,0],"sum_hessian":[1.2011767E2,1.1237902E2,7.7386436E0,1.02946915E2,9.432105E0,9.518658E1,7.760339E0,8.9774124E1,5.412454E0,8.033247E1,9.441653E0],"tree_param":{"num_deleted":"2","num_feature":"7834","num_nodes":"11","size_leaf_vector":"0"}},{"base_weights":[-7.207094E-1,-7.765881E-1,5.8082018E-2,-8.232554E-1,7.075006E-2,-8.623145E-1,-2.3822342E-1,-8.8214713E-1,-4.474404E-1,-9.1942054E-1,-5.252834E-1],"categories":[],"categories_nodes":[],"categories_segments":[],"categories_sizes":[],"default_left":[1,1,0,1,0,1,0,1,1,1,1],"id":46,"left_children":[1,3,-1,5,-1,-1,-1,-1,-1,-1,-1],"loss_changes":[5.141918E0,4.382225E0,0E0,2.1646652E0,0E0,4.0215302E-1,0E0,7.327881E-1,0E0,0E0,0E0],"parents":[2147483647,0,0,1,1,3,3,5,5,7,7],"right_children":[2,4,-1,6,-1,-1,-1,-1,-1,-1,-1],"split_conditions":[5E-1,5.95E1,2.904101E-3,5E-1,3.5375028E-3,-4.3115728E-2,-1.19111715E-2,-4.410736E-2,-2.237202E-2,-4.597103E-2,-2.626417E-2],"split_indices":[1224,5923,0,7823,0,5098,0,2147483647,2147483647,2147483647,2147483647],"split_type":[0,0,0,0,0,0,0,0,0,0,0],"sum_hessian":[1.16120094E2,1.0834883E2,7.7712603E0,1.0271993E2,5.6288996E0,9.584685E1,6.873082E0,9.039912E1,5.447735E0,8.042279E1,9.976326E0],"tree_param":{"num_deleted":"4","num_feature":"7834","num_nodes":"11","size_leaf_vector":"0"}},{"base_weights":[-7.090986E-1,-7.647169E-1,2.1251356E-2,-8.3711106E-1,-3.3660823E-1,-8.671821E-1,-3.2991645E-1,1.7189567E-1,-7.036486E-1,-9.04012E-1,-2.618888E-1],"categories":[],"categories_nodes":[],"categories_segments":[],"categories_sizes":[],"default_left":[1,1,0,1,1,1,0,0,0,0,0],"id":47,"left_children":[1,3,-1,5,7,9,-1,-1,-1,-1,-1],"loss_changes":[4.6364136E0,2.9946594E0,0E0,1.0828094E0,3.2870932E0,1.6384354E0,0E0,0E0,0E0,0E0,0E0],"parents":[2147483647,0,0,1,1,3,3,4,4,5,5],"right_children":[2,4,-1,6,8,10,-1,-1,-1,-1,-1],"split_conditions":[1.5E0,5E-1,1.0625678E-3,5E-1,1.5E0,4.75E1,-1.6495822E-2,8.594784E-3,-3.518243E-2,-4.52006E-2,-1.309444E-2],"split_indices":[7823,5037,0,3092,7043,6621,0,0,0,0,0],"split_type":[0,0,0,0,0,0,0,0,0,0,0],"sum_hessian":[1.12738655E2,1.0471708E2,8.021579E0,8.875333E1,1.5963747E1,8.311572E1,5.6376038E0,6.9151096E0,9.048637E0,7.788329E1,5.232433E0],"tree_param":{"num_deleted":"0","num_feature":"7834","num_nodes":"11","size_leaf_vector":"0"}},{"base_weights":[-7.1960455E-1,-8.001937E-1,-3.1124747E-1,-8.646788E-1,-5.664359E-1,-7.1732605E-1,1.8364175E-1,-6.842144E-1,-9.3833053E-1,-3.512521E-1,-9.7725576E-1,-7.81029E-1,-3.3369368E-1,-8.028914E-1,2.9536704E-2,-8.852972E-1,-5.016005E-1],"categories":[],"categories_nodes":[],"categories_segments":[],"categories_sizes":[],"default_left":[1,1,1,1,1,0,0,1,1,1,0,1,1,0,0,1,1],"id":48,"left_children":[1,3,5,-1,9,-1,-1,-1,-1,13,-1,-1,-1,-1,-1,-1,-1],"loss_changes":[3.3670807E0,8.8397217E-1,4.1002893E0,2.8214645E-1,1.6549778E0,0E0,0E0,5.485649E-1,0E0,2.8433506E0,0E0,7.857704E-2,0E0,0E0,0E0,0E0,0E0],"parents":[2147483647,0,0,1,1,2,2,3,3,4,4,7,7,9,9,11,11],"right_children":[2,4,6,-1,10,-1,-1,-1,-1,14,-1,-1,-1,-1,-1,-1,-1],"split_conditions":[5E-1,2.5E0,5E-1,-4.3233942E-2,2.585E2,-3.58663E-2,9.182087E-3,-3.4210723E-2,-4.6916526E-2,6.5E0,-4.886279E-2,-3.905145E-2,-1.6684685E-2,-4.014457E-2,1.4768352E-3,-4.426486E-2,-2.5080025E-2],"split_indices":[5037,5923,3561,7801,6742,0,0,2147483647,2147483647,6148,0,2147483647,2147483647,0,0,2147483647,2147483647],"split_type":[0,0,0,0,0,0,0,0,0,0,0,0,0,0,0,0,0],"sum_hessian":[1.0888236E2,9.013474E1,1.8747616E1,6.8530655E1,2.160409E1,1.0050921E1,8.696695E0,2.2844944E1,4.5685707E1,1.5395217E1,6.208873E0,1.6938341E1,5.9066024E0,6.535368E0,8.859849E0,1.0756378E1,6.1819634E0],"tree_param":{"num_deleted":"6","num_feature":"7834","num_nodes":"17","size_leaf_vector":"0"}},{"base_weights":[-6.593545E-1,-7.1680367E-1,5.4846868E-2,-7.768268E-1,-1.1153676E-1,-8.20193E-1,-2.3572803E-1,-8.5600454E-1,-4.923627E-1,-7.36467E-1,-9.952117E-1],"categories":[],"categories_nodes":[],"categories_segments":[],"categories_sizes":[],"default_left":[1,1,0,1,0,1,0,1,1,1,1],"id":49,"left_children":[1,3,-1,5,-1,-1,-1,-1,-1,-1,-1],"loss_changes":[4.3960876E0,3.4864082E0,0E0,1.9023323E0,0E0,5.4450226E-1,0E0,4.7885895E-1,0E0,0E0,0E0],"parents":[2147483647,0,0,1,1,3,3,5,5,7,7],"right_children":[2,4,-1,6,-1,-1,-1,-1,-1,-1,-1],"split_conditions":[5E-1,1.5E0,2.7423433E-3,2.45E1,-5.5768383E-3,-4.100965E-2,-1.1786401E-2,-4.280023E-2,-2.4618136E-2,-3.682335E-2,-4.9760588E-2],"split_indices":[1224,2354,0,5923,0,5098,0,2147483647,2147483647,2147483647,2147483647],"split_type":[0,0,0,0,0,0,0,0,0,0,0],"sum_hessian":[1.05184326E2,9.7350006E1,7.8343186E0,8.830912E1,9.040882E0,8.127922E1,7.0298986E0,7.182237E1,9.456848E0,4.202546E1,2.9796913E1],"tree_param":{"num_deleted":"4","num_feature":"7834","num_nodes":"11","size_leaf_vector":"0"}},{"base_weights":[-6.7681366E-1,-7.272978E-1,1.4833802E-1,-7.745541E-1,-1.9821567E-2,-8.165019E-1,-1.8486334E-1,-8.472875E-1,-3.31276E-1,-8.822831E-1,-3.8353956E-1],"categories":[],"categories_nodes":[],"categories_segments":[],"categories_sizes":[],"default_left":[1,1,0,1,0,1,0,1,1,1,1],"id":50,"left_children":[1,3,-1,5,-1,-1,-1,-1,-1,-1,-1],"loss_changes":[4.4402504E0,3.2668724E0,0E0,2.124817E0,0E0,9.979782E-1,0E0,9.5749664E-1,0E0,0E0,0E0],"parents":[2147483647,0,0,1,1,3,3,5,5,7,7],"right_children":[2,4,-1,6,-1,-1,-1,-1,-1,-1,-1],"split_conditions":[5E-1,5.95E1,7.416901E-3,5E-1,-9.910784E-4,-4.0825095E-2,-9.243167E-3,-4.2364374E-2,-1.6563801E-2,-4.4114154E-2,-1.9176979E-2],"split_indices":[6544,5923,0,7823,0,3092,0,2147483647,2147483647,2147483647,2147483647],"split_type":[0,0,0,0,0,0,0,0,0,0,0],"sum_hessian":[1.0300078E2,9.71741E1,5.826675E0,9.100084E1,6.173269E0,8.4598274E1,6.402558E0,7.884945E1,5.748832E0,7.2477585E1,6.3718576E0],"tree_param":{"num_deleted":"4","num_feature":"7834","num_nodes":"11","size_leaf_vector":"0"}},{"base_weights":[-6.4674383E-1,-6.964737E-1,1.370623E-1,-7.4457914E-1,8.4795445E-2,-8.651694E-1,-5.204915E-1,-9.343124E-1,-3.697416E-1,8.3727054E-2,-6.748166E-1,-4.3699798E-1,-9.842377E-1],"categories":[],"categories_nodes":[],"categories_segments":[],"categories_sizes":[],"default_left":[1,1,0,1,0,1,1,0,0,0,1,0,0],"id":51,"left_children":[1,3,-1,5,-1,7,9,-1,-1,-1,11,-1,-1],"loss_changes":[4.0558777E0,3.6601448E0,0E0,1.9887276E0,0E0,1.6129341E0,3.2350998E0,0E0,0E0,0E0,1.5760975E0,0E0,0E0],"parents":[2147483647,0,0,1,1,3,3,5,5,6,6,10,10],"right_children":[2,4,-1,6,-1,8,10,-1,-1,-1,12,-1,-1],"split_conditions":[5E-1,5E-1,6.853115E-3,5.5E0,4.2397724E-3,5E-1,7.5E0,-4.671562E-2,-1.848708E-2,4.1863527E-3,5E-1,-2.1849899E-2,-4.9211886E-2],"split_indices":[6544,1224,0,6148,0,3738,6148,0,0,0,5807,0,0],"split_type":[0,0,0,0,0,0,0,0,0,0,0,0,0],"sum_hessian":[1.0060501E2,9.470756E1,5.8974524E0,8.925856E1,5.4489985E0,5.617029E1,3.308827E1,4.851374E1,7.656549E0,6.824854E0,2.6263414E1,1.621387E1,1.0049546E1],"tree_param":{"num_deleted":"0","num_feature":"7834","num_nodes":"13","size_leaf_vector":"0"}},{"base_weights":[-6.4501905E-1,-7.007698E-1,6.554084E-2,-7.6880044E-1,-3.304055E-1,-8.012386E-1,-2.6469913E-1,4.0157687E-2,-8.067725E-1,-8.365327E-1,-4.0151635E-1,-6.5473396E-1,-9.004815E-1],"categories":[],"categories_nodes":[],"categories_segments":[],"categories_sizes":[],"default_left":[1,1,0,1,1,1,0,0,0,1,1,1,1],"id":52,"left_children":[1,3,-1,5,7,-1,-1,-1,-1,-1,-1,-1,-1],"loss_changes":[3.900196E0,2.0212479E0,0E0,1.0230751E0,2.8156304E0,6.583748E-1,0E0,0E0,0E0,1.5254974E-1,0E0,0E0,0E0],"parents":[2147483647,0,0,1,1,3,3,4,4,5,5,9,9],"right_children":[2,4,-1,6,8,-1,-1,-1,-1,-1,-1,-1,-1],"split_conditions":[1.5E0,5E-1,3.2770422E-3,2.65E1,8.5E0,-4.0061932E-2,-1.3234957E-2,2.0078844E-3,-4.0338624E-2,-4.1826636E-2,-2.0075819E-2,-3.27367E-2,-4.502408E-2],"split_indices":[7823,5037,0,5923,6148,5098,0,0,0,2147483647,2147483647,2147483647,2147483647],"split_type":[0,0,0,0,0,0,0,0,0,0,0,0,0],"sum_hessian":[9.629503E1,8.930214E1,6.992887E0,7.453527E1,1.476687E1,6.9475204E1,5.0600686E0,8.820867E0,5.946003E0,6.283436E1,6.6408443E0,1.9275326E1,4.3559032E1],"tree_param":{"num_deleted":"4","num_feature":"7834","num_nodes":"13","size_leaf_vector":"0"}},{"base_weights":[-6.551261E-1,-7.1022904E-1,1.7600107E-1,-7.5715035E-1,-9.031198E-2,-7.96734E-1,-2.1166237E-1,-8.272401E-1,-4.1285425E-1,-8.545616E-1,-4.0376353E-1],"categories":[],"categories_nodes":[],"categories_segments":[],"categories_sizes":[],"default_left":[1,1,0,1,0,1,0,1,1,1,1],"id":53,"left_children":[1,3,-1,5,-1,-1,-1,-1,-1,-1,-1],"loss_changes":[4.4778824E0,2.530136E0,0E0,1.621666E0,0E0,5.595207E-1,0E0,4.6812057E-1,0E0,0E0,0E0],"parents":[2147483647,0,0,1,1,3,3,5,5,7,7],"right_children":[2,4,-1,6,-1,-1,-1,-1,-1,-1,-1],"split_conditions":[5E-1,1.5E0,8.800054E-3,5E-1,-4.515599E-3,-3.98367E-2,-1.0583119E-2,-4.1362006E-2,-2.0642713E-2,-4.272808E-2,-2.0188177E-2],"split_indices":[6544,7823,0,3092,0,7801,0,2147483647,2147483647,2147483647,2147483647],"split_type":[0,0,0,0,0,0,0,0,0,0,0],"sum_hessian":[9.4046104E1,8.833503E1,5.711071E0,8.191364E1,6.4213867E0,7.594227E1,5.9713774E0,6.928165E1,6.660625E0,6.412643E1,5.155218E0],"tree_param":{"num_deleted":"4","num_feature":"7834","num_nodes":"11","size_leaf_vector":"0"}},{"base_weights":[-6.353326E-1,-7.240853E-1,-2.2089273E-1,-7.803477E-1,-1.7294845E-1,1.862473E-1,-7.555004E-1,-8.176944E-1,-2.560384E-1,-8.5617536E-1,-4.345086E-1,-8.9395744E-1,-4.102525E-1],"categories":[],"categories_nodes":[],"categories_segments":[],"categories_sizes":[],"default_left":[1,1,1,1,0,0,0,1,0,1,1,1,1],"id":54,"left_children":[1,3,5,7,-1,-1,-1,-1,-1,-1,-1,-1,-1],"loss_changes":[3.2710114E0,2.2336235E0,4.03487E0,1.1422386E0,0E0,0E0,0E0,5.7138824E-1,0E0,5.954437E-1,0E0,0E0,0E0],"parents":[2147483647,0,0,1,1,2,2,3,3,7,7,9,9],"right_children":[2,4,6,8,-1,-1,-1,-1,-1,-1,-1,-1,-1],"split_conditions":[5E-1,5E-1,5E-1,2.25E1,-8.647422E-3,9.312365E-3,-3.777502E-2,-4.0884722E-2,-1.280192E-2,-4.2808767E-2,-2.172543E-2,-4.4697873E-2,-2.0512626E-2],"split_indices":[5037,7823,1415,5923,0,0,0,3555,0,2147483647,2147483647,2147483647,2147483647],"split_type":[0,0,0,0,0,0,0,0,0,0,0,0,0],"sum_hessian":[9.22765E1,7.538548E1,1.689101E1,6.8025276E1,7.3602076E0,9.958531E0,6.9324784E0,6.2979652E1,5.045624E0,5.611047E1,6.869182E0,5.080144E1,5.309031E0],"tree_param":{"num_deleted":"4","num_feature":"7834","num_nodes":"13","size_leaf_vector":"0"}},{"base_weights":[-6.1857015E-1,-6.876339E-1,1.4905933E-1,-8.173064E-1,-3.3118588E-1,-8.6052173E-1,-4.3119016E-1,-7.599579E-2,-9.386385E-1,3.359763E-1,-7.8461426E-1,-9.562017E-2,6.841352E-1],"categories":[],"categories_nodes":[],"categories_segments":[],"categories_sizes":[],"default_left":[1,1,0,1,1,1,1,1,0,1,0,0,0],"id":55,"left_children":[1,3,-1,-1,7,-1,-1,9,-1,11,-1,-1,-1],"loss_changes":[4.8803024E0,3.5592499E0,0E0,6.313858E-1,3.6156044E0,0E0,0E0,5.470612E0,0E0,1.8654671E0,0E0,0E0,0E0],"parents":[2147483647,0,0,1,1,3,3,4,4,7,7,9,9],"right_children":[2,4,-1,-1,8,-1,-1,10,-1,12,-1,-1,-1],"split_conditions":[5E-1,2.5E0,7.452966E-3,-4.086532E-2,1.5E0,-4.3026086E-2,-2.1559509E-2,5E-1,-4.6931926E-2,1.5E0,-3.9230715E-2,-4.7810087E-3,3.420676E-2],"split_indices":[1224,5923,0,3028,7746,2147483647,2147483647,2212,0,7043,0,0,0],"split_type":[0,0,0,0,0,0,0,0,0,0,0,0,0],"sum_hessian":[8.912109E1,8.186032E1,7.260777E0,5.9076065E1,2.2784252E1,5.2024643E1,7.0514207E0,1.6836405E1,5.9478474E0,1.0979238E1,5.8571677E0,5.2260723E0,5.753165E0],"tree_param":{"num_deleted":"2","num_feature":"7834","num_nodes":"13","size_leaf_vector":"0"}},{"base_weights":[-6.525315E-1,-7.2111416E-1,-3.1953108E-1,-7.6015675E-1,-2.543676E-1,1.13476515E-1,-9.686431E-1,-7.970824E-1,-3.4658533E-1,-5.6756926E-1,-8.8279533E-1,-6.7641366E-1,-2.3709475E-1,-1.0091873E0,-6.239361E-1],"categories":[],"categories_nodes":[],"categories_segments":[],"categories_sizes":[],"default_left":[1,1,1,1,0,0,0,1,1,1,1,1,1,1,1],"id":56,"left_children":[1,3,5,-1,-1,-1,-1,-1,-1,-1,-1,-1,-1,-1,-1],"loss_changes":[1.739811E0,1.0957489E0,4.7556963E0,7.12986E-1,0E0,0E0,0E0,6.536827E-1,0E0,5.144701E-1,7.0970345E-1,0E0,0E0,0E0,0E0],"parents":[2147483647,0,0,1,1,2,2,3,3,7,7,9,9,10,10],"right_children":[2,4,6,-1,-1,-1,-1,-1,-1,-1,-1,-1,-1,-1,-1],"split_conditions":[5E-1,3.05E1,5E-1,-3.8007837E-2,-1.27183795E-2,5.6738257E-3,-4.8432156E-2,-3.985412E-2,-1.7329266E-2,-2.8378462E-2,-4.413977E-2,-3.3820685E-2,-1.1854737E-2,-5.0459366E-2,-3.1196807E-2],"split_indices":[5037,5923,1415,5098,0,0,0,2147483647,2147483647,2147483647,2147483647,2147483647,2147483647,2147483647,2147483647],"split_type":[0,0,0,0,0,0,0,0,0,0,0,0,0,0,0],"sum_hessian":[8.5269646E1,6.974077E1,1.5528874E1,6.3777283E1,5.9634895E0,9.8100195E0,5.7188544E0,5.7698368E1,6.0789113E0,1.776115E1,3.9937218E1,1.2573255E1,5.1878953E0,2.4887112E1,1.5050107E1],"tree_param":{"num_deleted":"8","num_feature":"7834","num_nodes":"15","size_leaf_vector":"0"}},{"base_weights":[-5.6480855E-1,-6.566094E-1,-1.4326847E-1,-7.290449E-1,2.0641325E-1,4.2784017E-1,-9.8177904E-1,-5.737429E-1,-9.120306E-1,-6.842078E-1,-9.322261E-2,-8.9464086E-1,-4.8685476E-1],"categories":[],"categories_nodes":[],"categories_segments":[],"categories_sizes":[],"default_left":[1,1,1,1,0,0,0,1,0,1,0,1,1],"id":57,"left_children":[1,3,5,7,-1,-1,-1,9,-1,-1,-1,-1,-1],"loss_changes":[3.188692E0,4.4877625E0,8.297349E0,1.3020096E0,0E0,0E0,0E0,1.9235001E0,0E0,8.220911E-1,0E0,0E0,0E0],"parents":[2147483647,0,0,1,1,2,2,3,3,7,7,9,9],"right_children":[2,4,6,8,-1,-1,-1,10,-1,-1,-1,-1,-1],"split_conditions":[5E-1,5E-1,1.5E0,5E-1,1.03206625E-2,2.1392008E-2,-4.908895E-2,3.5E0,-4.560153E-2,-3.421039E-2,-4.6611307E-3,-4.4732045E-2,-2.4342738E-2],"split_indices":[3555,2253,1415,3253,0,0,0,5923,0,6742,0,2147483647,2147483647],"split_type":[0,0,0,0,0,0,0,0,0,0,0,0,0],"sum_hessian":[8.383085E1,6.838144E1,1.54494095E1,6.3229668E1,5.151774E0,9.4814E0,5.9680095E0,3.643896E1,2.6790705E1,2.9283262E1,7.1556993E0,1.2462055E1,1.6821207E1],"tree_param":{"num_deleted":"2","num_feature":"7834","num_nodes":"13","size_leaf_vector":"0"}},{"base_weights":[-5.462258E-1,-6.160411E-1,1.8552735E-1,-6.926323E-1,8.1764445E-2,-7.4661565E-1,-1.2152995E-1,-7.866172E-1,-2.554646E-1,-8.703385E-1,-5.618821E-1],"categories":[],"categories_nodes":[],"categories_segments":[],"categories_sizes":[],"default_left":[1,1,0,1,0,1,0,1,0,1,1],"id":58,"left_children":[1,3,-1,5,-1,7,-1,-1,-1,-1,-1],"loss_changes":[4.396242E0,4.158436E0,0E0,2.0446167E0,0E0,1.0384865E0,0E0,5.9949875E-1,0E0,0E0,0E0],"parents":[2147483647,0,0,1,1,3,3,5,5,7,7],"right_children":[2,4,-1,6,-1,8,-1,-1,-1,-1,-1],"split_conditions":[5E-1,1.5E0,9.276368E-3,2.45E1,4.0882225E-3,4.75E1,-6.0764975E-3,-3.9330862E-2,-1.2773231E-2,-4.3516926E-2,-2.8094104E-2],"split_indices":[1224,2354,0,5923,0,6621,0,3747,0,2147483647,2147483647],"split_type":[0,0,0,0,0,0,0,0,0,0,0],"sum_hessian":[8.281584E1,7.574707E1,7.06877E0,6.826203E1,7.4850345E0,6.2086044E1,6.175991E0,5.6854015E1,5.232029E0,3.9329674E1,1.7524342E1],"tree_param":{"num_deleted":"2","num_feature":"7834","num_nodes":"11","size_leaf_vector":"0"}},{"base_weights":[-5.665156E-1,-6.7596316E-1,-1.004073E-1,-7.380884E-1,3.0720882E-2,3.9448997E-1,-8.4113604E-1,-8.198788E-1,-4.7389933E-1,-8.7543243E-1,-5.323263E-1,-2.3993075E-1,-7.7493685E-1],"categories":[],"categories_nodes":[],"categories_segments":[],"categories_sizes":[],"default_left":[1,1,1,1,0,0,0,1,1,1,1,1,1],"id":59,"left_children":[1,3,5,-1,-1,-1,-1,-1,-1,-1,-1,-1,-1],"loss_changes":[4.092907E0,2.9148579E0,6.4479322E0,9.2077255E-1,0E0,0E0,0E0,2.5123215E-1,9.8989487E-1,0E0,0E0,0E0,0E0],"parents":[2147483647,0,0,1,1,2,2,3,3,7,7,8,8],"right_children":[2,4,6,-1,-1,-1,-1,-1,-1,-1,-1,-1,-1],"split_conditions":[5E-1,5E-1,1.5E0,-3.690442E-2,1.5360442E-3,1.97245E-2,-4.2056803E-2,-4.099394E-2,-2.3694968E-2,-4.377162E-2,-2.6616314E-2,-1.1996537E-2,-3.8746845E-2],"split_indices":[3555,6536,1415,5923,0,0,0,2147483647,2147483647,2147483647,2147483647,2147483647,2147483647],"split_type":[0,0,0,0,0,0,0,0,0,0,0,0,0],"sum_hessian":[8.056083E1,6.4876785E1,1.568404E1,5.9593437E1,5.283352E0,9.682426E0,6.0016136E0,4.389927E1,1.5694169E1,3.507796E1,8.821306E0,9.841948E0,5.852221E0],"tree_param":{"num_deleted":"6","num_feature":"7834","num_nodes":"13","size_leaf_vector":"0"}},{"base_weights":[-5.5113417E-1,-6.5436083E-1,-8.868614E-2,-7.0381963E-1,-1.88649E-1,-5.885271E-1,4.3081886E-1,-7.6643705E-1,-2.7554256E-1,-5.751789E-1,-8.402239E-1,-7.6686084E-1,-3.9194548E-1,-9.2838204E-1,-4.7333604E-1],"categories":[],"categories_nodes":[],"categories_segments":[],"categories_sizes":[],"default_left":[1,1,1,1,0,0,0,1,0,1,1,1,1,1,1],"id":60,"left_children":[1,3,5,7,-1,-1,-1,-1,-1,-1,-1,-1,-1,-1,-1],"loss_changes":[3.7332897E0,1.3591366E0,4.317348E0,1.3492413E0,0E0,0E0,0E0,2.2520447E-1,0E0,3.0165672E-1,6.6210175E-1,0E0,0E0,0E0,0E0],"parents":[2147483647,0,0,1,1,2,2,3,3,7,7,9,9,10,10],"right_children":[2,4,6,8,-1,-1,-1,-1,-1,-1,-1,-1,-1,-1,-1],"split_conditions":[5E-1,5E-1,5E-1,5E-1,-9.43245E-3,-2.9426355E-2,2.1540944E-2,-3.8321853E-2,-1.3777128E-2,-2.8758947E-2,-4.2011198E-2,-3.8343042E-2,-1.9597275E-2,-4.6419103E-2,-2.3666803E-2],"split_indices":[5037,1209,3561,5766,0,0,0,7801,0,2147483647,2147483647,2147483647,2147483647,2147483647,2147483647],"split_type":[0,0,0,0,0,0,0,0,0,0,0,0,0,0,0],"sum_hessian":[7.8421074E1,6.3771202E1,1.464987E1,5.7186676E1,6.584526E0,7.398527E0,7.251343E0,4.920321E1,7.9834685E0,1.6146376E1,3.305683E1,6.3345733E0,9.811804E0,2.5418652E1,7.6381807E0],"tree_param":{"num_deleted":"6","num_feature":"7834","num_nodes":"15","size_leaf_vector":"0"}},{"base_weights":[-4.9585798E-1,-5.6772053E-1,1.8871205E-1,-6.367646E-1,5.6342058E-2,-4.599624E-1,-8.363871E-1,-8.6104226E-1,-2.685972E-1,5.2966814E-2,-6.919575E-1],"categories":[],"categories_nodes":[],"categories_segments":[],"categories_sizes":[],"default_left":[1,1,0,1,0,1,0,0,1,0,0],"id":61,"left_children":[1,3,-1,5,-1,7,-1,-1,9,-1,-1],"loss_changes":[3.8907833E0,3.0457382E0,0E0,1.8379784E0,0E0,2.502605E0,0E0,0E0,3.5173185E0,0E0,0E0],"parents":[2147483647,0,0,1,1,3,3,5,5,8,8],"right_children":[2,4,-1,6,-1,8,-1,-1,10,-1,-1],"split_conditions":[5E-1,1.5E0,9.435602E-3,5E-1,2.817103E-3,3.5E0,-4.1819356E-2,-4.3052115E-2,5E-1,2.6483408E-3,-3.4597874E-2],"split_indices":[1224,2354,0,3253,0,6742,0,0,1383,0,0],"split_type":[0,0,0,0,0,0,0,0,0,0,0],"sum_hessian":[7.5911354E1,6.88541E1,7.057247E0,6.1976852E1,6.8772516E0,3.46193E1,2.7357552E1,1.0051991E1,2.456731E1,1.4459479E1,1.0107832E1],"tree_param":{"num_deleted":"0","num_feature":"7834","num_nodes":"11","size_leaf_vector":"0"}},{"base_weights":[-5.0358355E-1,-5.8972937E-1,7.1155496E-2,-6.9445264E-1,5.1922165E-3,-5.0303596E-1,-9.2415017E-1,-9.580646E-1,-2.220596E-1,1.9340657E-1,-7.4519753E-1],"categories":[],"categories_nodes":[],"categories_segments":[],"categories_sizes":[],"default_left":[1,1,0,1,0,1,0,0,1,0,0],"id":62,"left_children":[1,3,-1,5,-1,7,-1,-1,9,-1,-1],"loss_changes":[3.823101E0,4.148077E0,0E0,2.0224934E0,0E0,4.0130386E0,0E0,0E0,4.868335E0,0E0,0E0],"parents":[2147483647,0,0,1,1,3,3,5,5,8,8],"right_children":[2,4,-1,6,-1,8,-1,-1,10,-1,-1],"split_conditions":[5E-1,5E-1,3.557775E-3,5E-1,2.5961082E-4,4.5E0,-4.620751E-2,-4.7903232E-2,5E-1,9.670328E-3,-3.7259877E-2],"split_indices":[2253,3555,0,3253,0,6742,0,0,1383,0,0],"split_type":[0,0,0,0,0,0,0,0,0,0,0],"sum_hessian":[7.536911E1,6.5522125E1,9.846982E0,5.557247E1,9.949653E0,3.2052097E1,2.3520376E1,1.1316219E1,2.0735878E1,1.1908595E1,8.827283E0],"tree_param":{"num_deleted":"0","num_feature":"7834","num_nodes":"11","size_leaf_vector":"0"}},{"base_weights":[-4.9761912E-1,-5.732326E-1,2.336681E-1,-6.5491563E-1,8.382895E-2,-7.688567E-1,-3.3136272E-1,-5.334764E-1,-8.691051E-1,7.4046984E-2,-6.5712976E-1,-7.2342974E-1,-2.054808E-1,-9.544105E-1,-4.0201724E-1],"categories":[],"categories_nodes":[],"categories_segments":[],"categories_sizes":[],"default_left":[1,1,0,1,0,1,1,1,1,0,0,1,1,1,1],"id":63,"left_children":[1,3,-1,5,-1,-1,9,-1,-1,-1,-1,-1,-1,-1,-1],"loss_changes":[4.311964E0,3.7457142E0,0E0,2.004282E0,0E0,5.878353E-1,2.3884654E0,8.4193754E-1,7.981796E-1,0E0,0E0,0E0,0E0,0E0,0E0],"parents":[2147483647,0,0,1,1,3,3,5,5,6,6,7,7,8,8],"right_children":[2,4,-1,6,-1,-1,10,-1,-1,-1,-1,-1,-1,-1,-1],"split_conditions":[5E-1,1.5E0,1.1683405E-2,2.5E0,4.1914475E-3,-3.8442835E-2,5E-1,-2.6673822E-2,-4.3455254E-2,3.7023493E-3,-3.285649E-2,-3.617149E-2,-1.02740405E-2,-4.7720525E-2,-2.0100862E-2],"split_indices":[1224,2354,0,5923,0,7801,1383,2147483647,2147483647,0,0,2147483647,2147483647,2147483647,2147483647],"split_type":[0,0,0,0,0,0,0,0,0,0,0,0,0,0,0],"sum_hessian":[7.45585E1,6.776762E1,6.7908874E0,6.027745E1,7.4901648E0,4.3560917E1,1.6716532E1,1.4899309E1,2.866161E1,7.7921176E0,8.924414E0,8.671653E0,6.2276564E0,2.3353231E1,5.308378E0],"tree_param":{"num_deleted":"6","num_feature":"7834","num_nodes":"15","size_leaf_vector":"0"}},{"base_weights":[-4.6917653E-1,-5.4011506E-1,1.6144161E-1,-6.136356E-1,1.24937505E-1,-6.8771994E-1,3.506793E-2,-8.027251E-1,-4.634873E-1,-8.608818E-1,-4.1790092E-1,-2.3805918E-1,-8.938444E-1],"categories":[],"categories_nodes":[],"categories_segments":[],"categories_sizes":[],"default_left":[1,1,0,1,0,1,0,1,1,1,1,0,0],"id":64,"left_children":[1,3,-1,5,-1,7,-1,-1,11,-1,-1,-1,-1],"loss_changes":[3.3773346E0,3.3203812E0,0E0,2.9031162E0,0E0,1.0156975E0,0E0,4.057331E-1,1.7866616E0,0E0,0E0,0E0,0E0],"parents":[2147483647,0,0,1,1,3,3,5,5,7,7,8,8],"right_children":[2,4,-1,6,-1,8,-1,-1,12,-1,-1,-1,-1],"split_conditions":[5E-1,1.5E0,8.072081E-3,2.45E1,6.2468755E-3,2.5E0,1.7533966E-3,-4.0136255E-2,5E-1,-4.304409E-2,-2.0895047E-2,-1.1902959E-2,-4.4692222E-2],"split_indices":[1224,3555,0,5923,0,7455,0,6148,5913,2147483647,2147483647,0,0],"split_type":[0,0,0,0,0,0,0,0,0,0,0,0,0],"sum_hessian":[7.254705E1,6.534039E1,7.206658E0,5.8905766E1,6.434627E0,5.2814056E1,6.0917106E0,3.3204277E1,1.9609781E1,2.7770384E1,5.433891E0,1.3888122E1,5.7216597E0],"tree_param":{"num_deleted":"2","num_feature":"7834","num_nodes":"13","size_leaf_vector":"0"}},{"base_weights":[-5.239348E-1,-6.0115993E-1,-6.876878E-2,-4.8982713E-1,-9.867351E-1,3.7932298E-1,-4.8520896E-1,-6.0002846E-1,2.7681056E-1,-7.3892695E-1,-9.574902E-2,-8.385225E-1,-3.7672842E-1],"categories":[],"categories_nodes":[],"categories_segments":[],"categories_sizes":[],"default_left":[1,1,1,1,0,0,0,1,0,1,0,1,1],"id":65,"left_children":[1,3,5,7,-1,-1,-1,9,-1,-1,-1,-1,-1],"loss_changes":[2.4311676E0,2.0926762E0,2.2987144E0,4.2677736E0,0E0,0E0,0E0,2.9245567E0,0E0,8.88216E-1,0E0,0E0,0E0],"parents":[2147483647,0,0,1,1,2,2,3,3,7,7,9,9],"right_children":[2,4,6,8,-1,-1,-1,10,-1,-1,-1,-1,-1],"split_conditions":[1.5E0,1.5E0,7.5E0,5E-1,-4.9336758E-2,1.896615E-2,-2.4260448E-2,1.45E1,1.3840528E-2,-3.694635E-2,-4.787451E-3,-4.1926127E-2,-1.8836422E-2],"split_indices":[2354,1956,6148,3738,0,0,0,6621,0,3747,0,2147483647,2147483647],"split_type":[0,0,0,0,0,0,0,0,0,0,0,0,0],"sum_hessian":[6.9341156E1,5.9008762E1,1.0332394E1,4.7549484E1,1.1459278E1,5.0199895E0,5.3124046E0,4.1763466E1,5.786019E0,3.2379547E1,9.383918E0,2.4364758E1,8.0147915E0],"tree_param":{"num_deleted":"2","num_feature":"7834","num_nodes":"13","size_leaf_vector":"0"}},{"base_weights":[-4.9800506E-1,-5.8093864E-1,2.0607738E-1,-6.5138245E-1,6.5746814E-2,-4.6148023E-1,-8.786236E-1,-7.092959E-1,1.2796262E-2,-8.993649E-1,-2.206583E-1,-3.01567E-1,3.3937356E-1],"categories":[],"categories_nodes":[],"categories_segments":[],"categories_sizes":[],"default_left":[1,1,0,1,0,1,0,1,1,0,0,0,0],"id":66,"left_children":[1,3,-1,5,-1,7,-1,9,11,-1,-1,-1,-1],"loss_changes":[4.135517E0,2.8575668E0,0E0,2.0029373E0,0E0,3.8299727E0,0E0,1.7862816E0,1.3485928E0,0E0,0E0,0E0,0E0],"parents":[2147483647,0,0,1,1,3,3,5,5,7,7,8,8],"right_children":[2,4,-1,6,-1,8,-1,10,12,-1,-1,-1,-1],"split_conditions":[5E-1,1.5E0,1.0303869E-2,5E-1,3.2873407E-3,2.5E0,-4.3931182E-2,6.5E0,4.75E1,-4.4968244E-2,-1.1032916E-2,-1.507835E-2,1.6968679E-2],"split_indices":[1224,3555,0,3253,0,7455,0,6621,6742,0,0,0,0],"split_type":[0,0,0,0,0,0,0,0,0,0,0,0,0],"sum_hessian":[6.777302E1,6.0787754E1,6.985262E0,5.4810005E1,5.9777503E0,3.1509096E1,2.3300909E1,2.0369982E1,1.1139115E1,1.406029E1,6.309691E0,5.7147145E0,5.4244003E0],"tree_param":{"num_deleted":"0","num_feature":"7834","num_nodes":"13","size_leaf_vector":"0"}},{"base_weights":[-4.4215852E-1,-5.360279E-1,-5.7814583E-2,-6.0806936E-1,5.6739442E-2,4.3384758E-1,-6.7123044E-1,-6.698699E-1,-6.36645E-2,-7.4061763E-1,-2.2545618E-1,-8.039622E-1,-3.870089E-1],"categories":[],"categories_nodes":[],"categories_segments":[],"categories_sizes":[],"default_left":[1,1,1,1,0,0,0,1,0,1,0,1,1],"id":67,"left_children":[1,3,5,7,-1,-1,-1,9,-1,-1,-1,-1,-1],"loss_changes":[2.40549E0,2.3471804E0,4.6272683E0,1.5848408E0,0E0,0E0,0E0,1.1955795E0,0E0,5.164509E-1,0E0,0E0,0E0],"parents":[2147483647,0,0,1,1,2,2,3,3,7,7,9,9],"right_children":[2,4,6,8,-1,-1,-1,10,-1,-1,-1,-1,-1],"split_conditions":[5E-1,5E-1,1.05E1,4E1,2.8369722E-3,2.1692378E-2,-3.3561524E-2,3.5E0,-3.1832252E-3,-3.7030883E-2,-1.12728095E-2,-4.019811E-2,-1.9350445E-2],"split_indices":[5037,1209,6148,6621,0,0,0,5733,0,3738,0,2147483647,2147483647],"split_type":[0,0,0,0,0,0,0,0,0,0,0,0,0],"sum_hessian":[6.653344E1,5.315628E1,1.337716E1,4.7373024E1,5.7832546E0,7.587999E0,5.7891617E0,4.2336544E1,5.0364823E0,3.5947437E1,6.389104E0,2.9406115E1,6.5413246E0],"tree_param":{"num_deleted":"2","num_feature":"7834","num_nodes":"13","size_leaf_vector":"0"}},{"base_weights":[-3.9527622E-1,-5.0524086E-1,1.6208984E-2,-5.766366E-1,7.512281E-2,6.069447E-1,-3.8255045E-1,-6.5698546E-1,-1.727965E-1,-5.3082734E-1,-8.787329E-1,-8.078198E-1,-3.7232244E-1],"categories":[],"categories_nodes":[],"categories_segments":[],"categories_sizes":[],"default_left":[1,1,1,1,0,0,0,1,0,1,1,1,1],"id":68,"left_children":[1,3,5,7,-1,-1,-1,-1,-1,-1,-1,-1,-1],"loss_changes":[3.0459442E0,2.2397318E0,3.7953827E0,1.4218102E0,0E0,0E0,0E0,6.27594E-1,0E0,9.045119E-1,0E0,0E0,0E0],"parents":[2147483647,0,0,1,1,2,2,3,3,7,7,9,9],"right_children":[2,4,6,8,-1,-1,-1,-1,-1,-1,-1,-1,-1],"split_conditions":[5E-1,5E-1,1.5E0,3.5E0,3.7561406E-3,3.0347234E-2,-1.9127524E-2,-3.2849275E-2,-8.6398255E-3,-2.6541367E-2,-4.3936647E-2,-4.039099E-2,-1.8616123E-2],"split_indices":[5037,7823,7043,5733,0,0,0,3253,0,2147483647,2147483647,2147483647,2147483647],"split_type":[0,0,0,0,0,0,0,0,0,0,0,0,0],"sum_hessian":[6.6134445E1,5.2008045E1,1.4126396E1,4.6316647E1,5.691401E0,5.482441E0,8.643955E0,3.8107796E1,8.208851E0,2.645224E1,1.1655555E1,8.1366625E0,1.8315577E1],"tree_param":{"num_deleted":"4","num_feature":"7834","num_nodes":"13","size_leaf_vector":"0"}},{"base_weights":[-4.5446607E-1,-5.832405E-1,1.1414043E-2,-7.110718E-1,-2.4552503E-1,5.889174E-1,-3.825433E-1,-7.6946914E-1,-3.8483375E-1,-6.5634185E-1,1.1143445E-1],"categories":[],"categories_nodes":[],"categories_segments":[],"categories_sizes":[],"default_left":[1,1,1,1,1,0,0,1,1,0,0],"id":69,"left_children":[1,3,5,-1,9,-1,-1,-1,-1,-1,-1],"loss_changes":[3.9408054E0,2.0441532E0,3.6792707E0,4.041214E-1,2.3665957E0,0E0,0E0,0E0,0E0,0E0,0E0],"parents":[2147483647,0,0,1,1,2,2,3,3,4,4],"right_children":[2,4,6,-1,10,-1,-1,-1,-1,-1,-1],"split_conditions":[5E-1,2.5E0,1.5E0,-3.555359E-2,5E-1,2.944587E-2,-1.9127166E-2,-3.8473457E-2,-1.9241689E-2,-3.281709E-2,5.5717225E-3],"split_indices":[5037,5923,7043,979,5733,0,0,2147483647,2147483647,0,0],"split_type":[0,0,0,0,0,0,0,0,0,0,0],"sum_hessian":[6.4576294E1,5.0394722E1,1.418157E1,3.5755203E1,1.4639518E1,5.550378E0,8.631192E0,2.9174322E1,6.5808816E0,6.416364E0,8.223153E0],"tree_param":{"num_deleted":"2","num_feature":"7834","num_nodes":"11","size_leaf_vector":"0"}},{"base_weights":[-4.3959168E-1,-5.380732E-1,1.2124968E-1,-6.4844793E-1,2.6083734E-2,-7.484698E-1,-2.8775042E-1,-7.9651695E-1,-4.1018653E-1,2.2306047E-1,-7.4675286E-1,-5.5792266E-1,-8.819366E-1],"categories":[],"categories_nodes":[],"categories_segments":[],"categories_sizes":[],"default_left":[1,1,0,1,0,1,1,1,1,0,0,1,1],"id":70,"left_children":[1,3,-1,5,-1,-1,9,-1,-1,-1,-1,-1,-1],"loss_changes":[3.6011448E0,3.419282E0,0E0,1.4347458E0,0E0,2.4513817E-1,2.8756204E0,1.1419487E-1,0E0,0E0,0E0,0E0,0E0],"parents":[2147483647,0,0,1,1,3,3,5,5,6,6,7,7],"right_children":[2,4,-1,6,-1,-1,10,-1,-1,-1,-1,-1,-1],"split_conditions":[5E-1,5E-1,6.0624843E-3,3.5E0,1.3041868E-3,-3.742349E-2,6.25E1,-3.982585E-2,-2.0509327E-2,1.1153024E-2,-3.7337642E-2,-2.7896134E-2,-4.409683E-2],"split_indices":[2253,3555,0,5923,0,7409,6742,2147483647,2147483647,0,0,2147483647,2147483647],"split_type":[0,0,0,0,0,0,0,0,0,0,0,0,0],"sum_hessian":[6.3018528E1,5.3640133E1,9.378397E0,4.4737946E1,8.9021845E0,3.4183697E1,1.0554251E1,2.8746222E1,5.4374733E0,5.2385015E0,5.315749E0,9.563894E0,1.918233E1],"tree_param":{"num_deleted":"4","num_feature":"7834","num_nodes":"13","size_leaf_vector":"0"}},{"base_weights":[-3.68263E-1,-4.56813E-1,1.2905183E-1,-5.7087827E-1,9.1433376E-2,-3.3124998E-1,-8.84876E-1,-5.581984E-1,4.1092017E-1,-9.1096175E-1,-3.0736685E-1],"categories":[],"categories_nodes":[],"categories_segments":[],"categories_sizes":[],"default_left":[1,1,0,1,0,1,0,1,0,0,0],"id":71,"left_children":[1,3,-1,5,-1,7,-1,9,-1,-1,-1],"loss_changes":[2.8387012E0,3.416772E0,0E0,3.0683079E0,0E0,4.7663417E0,0E0,1.5827894E0,0E0,0E0,0E0],"parents":[2147483647,0,0,1,1,3,3,5,5,7,7],"right_children":[2,4,-1,6,-1,8,-1,10,-1,-1,-1],"split_conditions":[5E-1,5E-1,6.4525916E-3,5E-1,4.571669E-3,5E-1,-4.42438E-2,3.5E0,2.054601E-2,-4.554809E-2,-1.5368342E-2],"split_indices":[2253,3555,0,1383,0,3747,0,6742,0,0,0],"split_type":[0,0,0,0,0,0,0,0,0,0,0],"sum_hessian":[6.212268E1,5.2802338E1,9.320346E0,4.3674393E1,9.127944E0,2.5936115E1,1.7738277E1,2.0052223E1,5.883891E0,7.2392926E0,1.281293E1],"tree_param":{"num_deleted":"0","num_feature":"7834","num_nodes":"11","size_leaf_vector":"0"}},{"base_weights":[-4.6578562E-1,-5.3591055E-1,1.6241993E-1,-6.201237E-1,-2.226902E-1,-6.849451E-1,-1.3078454E-1,3.8321546E-1,-7.807817E-1,-7.8960145E-1,-4.3728268E-1,-5.236167E-1,-9.062564E-1,-6.2354974E-2,-8.7494236E-1],"categories":[],"categories_nodes":[],"categories_segments":[],"categories_sizes":[],"default_left":[1,1,0,1,1,1,0,0,0,1,1,1,1,0,0],"id":72,"left_children":[1,3,-1,5,7,9,-1,-1,-1,-1,13,-1,-1,-1,-1],"loss_changes":[2.7517662E0,1.303359E0,0E0,1.2587547E0,4.7424192E0,6.2150764E-1,0E0,0E0,0E0,3.0051517E-1,2.1312985E0,0E0,0E0,0E0,0E0],"parents":[2147483647,0,0,1,1,3,3,4,4,5,5,9,9,10,10],"right_children":[2,4,-1,6,8,10,-1,-1,-1,-1,14,-1,-1,-1,-1],"split_conditions":[1.5E0,5E-1,8.120997E-3,5E-1,5E-1,2.5E0,-6.539227E-3,1.9160774E-2,-3.9039087E-2,-3.948007E-2,7.5E0,-2.6180834E-2,-4.531282E-2,-3.1177488E-3,-4.374712E-2],"split_indices":[7823,3738,0,2090,7409,7455,0,0,0,7801,6148,2147483647,2147483647,0,0],"split_type":[0,0,0,0,0,0,0,0,0,0,0,0,0,0,0],"sum_hessian":[5.9489235E1,5.3647614E1,5.841622E0,4.1507877E1,1.2139735E1,3.629963E1,5.208246E0,5.9707694E0,6.1689653E0,2.3978611E1,1.2321019E1,8.983632E0,1.4994979E1,7.2514396E0,5.06958E0],"tree_param":{"num_deleted":"2","num_feature":"7834","num_nodes":"15","size_leaf_vector":"0"}},{"base_weights":[-3.8120845E-1,-4.6320045E-1,9.18151E-2,-5.5758387E-1,-5.240173E-2,-6.7821234E-1,-1.7808272E-1,-4.0493286E-1,-7.9236674E-1,1.1900471E-1,-4.3023625E-1,-4.4449383E-1,-8.982962E-1],"categories":[],"categories_nodes":[],"categories_segments":[],"categories_sizes":[],"default_left":[1,1,0,1,0,1,1,1,1,1,1,1,1],"id":73,"left_children":[1,3,-1,5,-1,-1,-1,-1,-1,-1,-1,-1,-1],"loss_changes":[2.3742657E0,1.9638748E0,0E0,1.7880545E0,0E0,6.55077E-1,9.061784E-1,0E0,3.7534142E-1,0E0,0E0,0E0,0E0],"parents":[2147483647,0,0,1,1,3,3,5,5,6,6,8,8],"right_children":[2,4,-1,6,-1,-1,-1,-1,-1,-1,-1,-1,-1],"split_conditions":[5E-1,5E-1,4.590755E-3,2.5E0,-2.6200865E-3,-3.3910617E-2,-8.904136E-3,-2.0246644E-2,-3.961834E-2,5.9502358E-3,-2.1511814E-2,-2.2224693E-2,-4.4914808E-2],"split_indices":[1209,5037,0,5923,0,7801,6742,2147483647,2147483647,2147483647,2147483647,2147483647,2147483647],"split_type":[0,0,0,0,0,0,0,0,0,0,0,0,0],"sum_hessian":[5.912087E1,5.040469E1,8.716181E0,4.0697E1,9.707692E0,3.0283842E1,1.0413156E1,1.0262707E1,2.0021135E1,5.023046E0,5.390109E0,5.8863764E0,1.413476E1],"tree_param":{"num_deleted":"6","num_feature":"7834","num_nodes":"13","size_leaf_vector":"0"}},{"base_weights":[-3.442591E-1,-4.3249083E-1,3.54886E-1,-5.4752135E-1,2.4303494E-2,-6.078721E-1,-1.06882006E-1,-4.4400865E-1,5.3824216E-1,-3.9986756E-1,-7.801485E-1,-5.227944E-1,-4.837963E-2,-9.5175886E-1,-3.8026384E-1],"categories":[],"categories_nodes":[],"categories_segments":[],"categories_sizes":[],"default_left":[1,1,0,1,1,1,0,0,0,1,1,1,1,1,1],"id":74,"left_children":[1,3,-1,5,7,9,-1,-1,-1,-1,-1,-1,-1,-1,-1],"loss_changes":[3.8309069E0,2.8184328E0,0E0,1.0702353E0,3.0541694E0,1.0258303E0,0E0,0E0,0E0,7.940934E-1,9.672327E-1,0E0,0E0,0E0,0E0],"parents":[2147483647,0,0,1,1,3,3,4,4,5,5,9,9,10,10],"right_children":[2,4,-1,6,8,10,-1,-1,-1,-1,-1,-1,-1,-1,-1],"split_conditions":[1.5E0,5E-1,1.77443E-2,2.5E0,5E-1,1.5E0,-5.3441003E-3,-2.2200434E-2,2.6912108E-2,-1.9993378E-2,-3.9007425E-2,-2.6139721E-2,-2.4189816E-3,-4.7587942E-2,-1.9013193E-2],"split_indices":[7823,5037,0,5098,3561,7801,0,0,0,6742,5923,2147483647,2147483647,2147483647,2147483647],"split_type":[0,0,0,0,0,0,0,0,0,0,0,0,0,0,0],"sum_hessian":[5.861445E1,5.2384907E1,6.2295437E0,4.168829E1,1.0696617E1,3.633259E1,5.3557E0,5.6679363E0,5.028681E0,1.796406E1,1.8368528E1,1.2948255E1,5.0158052E0,1.18871E1,6.481428E0],"tree_param":{"num_deleted":"4","num_feature":"7834","num_nodes":"15","size_leaf_vector":"0"}},{"base_weights":[-3.5791442E-1,-4.418467E-1,2.5303715E-1,-5.1783174E-1,1.7576668E-1,-3.2543838E-1,-7.43492E-1,-5.6489694E-1,1.0162447E-1,-8.965023E-1,-2.844125E-1,-8.443362E-1,-4.5110665E-2],"categories":[],"categories_nodes":[],"categories_segments":[],"categories_sizes":[],"default_left":[1,1,0,1,0,1,1,1,0,0,0,0,0],"id":75,"left_children":[1,3,-1,5,-1,7,9,11,-1,-1,-1,-1,-1],"loss_changes":[3.0875807E0,2.5025473E0,0E0,1.7556009E0,0E0,2.7790837E0,1.1777201E0,2.4609337E0,0E0,0E0,0E0,0E0,0E0],"parents":[2147483647,0,0,1,1,3,3,5,5,6,6,7,7],"right_children":[2,4,-1,6,-1,8,10,12,-1,-1,-1,-1,-1],"split_conditions":[5E-1,1.5E0,1.2651858E-2,5E-1,8.788334E-3,2.5E0,5E-1,3.5E0,5.0812233E-3,-4.4825118E-2,-1.4220625E-2,-4.221681E-2,-2.2555334E-3],"split_indices":[1224,3555,0,3253,0,7455,1420,6148,0,0,0,0,0],"split_type":[0,0,0,0,0,0,0,0,0,0,0,0,0],"sum_hessian":[5.7031616E1,5.038635E1,6.645267E0,4.501029E1,5.376061E0,2.5614256E1,1.9396032E1,1.6205126E1,9.40913E0,1.383277E1,5.5632615E0,1.0133124E1,6.072002E0],"tree_param":{"num_deleted":"0","num_feature":"7834","num_nodes":"13","size_leaf_vector":"0"}},{"base_weights":[-3.0753425E-1,-2.1524543E-1,-8.6897963E-1,-3.367284E-1,5.995167E-1,-7.3048335E-1,-1.042925E-1,-4.332463E-1,-8.474728E-1,1.02871664E-1,-6.023979E-1,-5.795727E-1,3.8060313E-1],"categories":[],"categories_nodes":[],"categories_segments":[],"categories_sizes":[],"default_left":[1,1,0,1,0,1,1,1,1,1,0,0,0],"id":76,"left_children":[1,3,-1,5,-1,-1,9,-1,-1,11,-1,-1,-1],"loss_changes":[2.81909E0,5.2652283E0,0E0,4.056812E0,0E0,2.0992851E-1,3.1125028E0,0E0,0E0,4.3397713E0,0E0,0E0,0E0],"parents":[2147483647,0,0,1,1,3,3,5,5,6,6,9,9],"right_children":[2,4,-1,6,-1,-1,10,-1,-1,12,-1,-1,-1],"split_conditions":[4.275E2,5E-1,-4.344898E-2,5E-1,2.9975835E-2,-3.652417E-2,1.5E0,-2.1662315E-2,-4.237364E-2,1.5E0,-3.0119896E-2,-2.8978635E-2,1.9030157E-2],"split_indices":[6742,2253,0,6621,0,7801,7254,2147483647,2147483647,6148,0,0,0],"split_type":[0,0,0,0,0,0,0,0,0,0,0,0,0],"sum_hessian":[5.7016514E1,5.015547E1,6.86104E0,4.415811E1,5.9973636E0,1.5595696E1,2.8562414E1,5.7330165E0,9.8626795E0,2.073296E1,7.829453E0,5.682662E0,1.5050299E1],"tree_param":{"num_deleted":"2","num_feature":"7834","num_nodes":"13","size_leaf_vector":"0"}},{"base_weights":[-3.2602933E-1,-4.157257E-1,3.4129116E-1,-3.3140337E-1,-8.959749E-1,-6.1694276E-1,-1.565363E-1,-8.4520984E-1,-1.2811834E-1,3.1054275E-2,-7.607406E-1,2.599304E-1,-5.072087E-1],"categories":[],"categories_nodes":[],"categories_segments":[],"categories_sizes":[],"default_left":[1,1,0,1,0,1,1,0,0,1,0,0,0],"id":77,"left_children":[1,3,-1,5,-1,7,9,-1,-1,11,-1,-1,-1],"loss_changes":[3.548993E0,1.7532873E0,0E0,2.1330314E0,0E0,1.746192E0,3.3143735E0,0E0,0E0,2.9795961E0,0E0,0E0,0E0],"parents":[2147483647,0,0,1,1,3,3,5,5,6,6,9,9],"right_children":[2,4,-1,6,-1,8,10,-1,-1,12,-1,-1,-1],"split_conditions":[1.5E0,5E-1,1.7064558E-2,5E-1,-4.4798743E-2,5E-1,1.5E0,-4.2260494E-2,-6.405917E-3,5E-1,-3.803703E-2,1.299652E-2,-2.5360435E-2],"split_indices":[7823,5852,0,6621,0,2644,7746,0,0,2212,0,0,0],"split_type":[0,0,0,0,0,0,0,0,0,0,0,0,0],"sum_hessian":[5.5921547E1,4.962794E1,6.2936063E0,4.3653336E1,5.9746056E0,1.5619796E1,2.803354E1,1.01506605E1,5.4691353E0,2.2115747E1,5.917793E0,1.5880328E1,6.2354198E0],"tree_param":{"num_deleted":"0","num_feature":"7834","num_nodes":"13","size_leaf_vector":"0"}},{"base_weights":[-3.4655637E-1,-4.4089E-1,3.451686E-1,-8.237857E-1,-2.8495207E-1,-7.3387235E-1,-1.051387E-1,2.2859327E-1,-5.09496E-1,-2.8446534E-1,8.611538E-1,-9.014108E-3,-9.1497993E-1],"categories":[],"categories_nodes":[],"categories_segments":[],"categories_sizes":[],"default_left":[1,1,0,0,1,0,1,1,1,0,0,0,0],"id":78,"left_children":[1,3,-1,-1,5,-1,7,9,11,-1,-1,-1,-1],"loss_changes":[3.7915187E0,2.72192E0,0E0,0E0,2.886695E0,0E0,3.8117619E0,5.337678E0,2.567283E0,0E0,0E0,0E0,0E0],"parents":[2147483647,0,0,1,1,4,4,6,6,7,7,8,8],"right_children":[2,4,-1,-1,6,-1,8,10,12,-1,-1,-1,-1],"split_conditions":[1.5E0,1.1416666E1,1.725843E-2,-4.1189287E-2,1.5E0,-3.6693618E-2,7.5E0,5.95E1,5E-1,-1.4223267E-2,4.305769E-2,-4.507054E-4,-4.5748997E-2],"split_indices":[7823,6967,0,0,6148,0,6148,6742,1956,0,0,0,0],"split_type":[0,0,0,0,0,0,0,0,0,0,0,0,0],"sum_hessian":[5.4772766E1,4.8518677E1,6.2540894E0,1.2801827E1,3.571685E1,9.333536E0,2.6383314E1,1.4692057E1,1.1691257E1,8.416157E0,6.2759E0,5.690188E0,6.00107E0],"tree_param":{"num_deleted":"0","num_feature":"7834","num_nodes":"13","size_leaf_vector":"0"}},{"base_weights":[-3.404079E-1,-4.1838723E-1,2.5332958E-1,-5.4235506E-1,2.4602266E-2,-7.637229E-1,-3.865045E-1,-4.2736137E-1,4.9738717E-1,-1.3930793E-1,-9.0578324E-1,2.1971175E-1,-6.4572144E-1],"categories":[],"categories_nodes":[],"categories_segments":[],"categories_sizes":[],"default_left":[1,1,0,1,1,0,1,0,0,1,0,0,0],"id":79,"left_children":[1,3,-1,5,7,-1,9,-1,-1,11,-1,-1,-1],"loss_changes":[2.658575E0,2.7102442E0,0E0,1.0301342E0,2.7114751E0,0E0,3.0274568E0,0E0,0E0,3.382911E0,0E0,0E0,0E0],"parents":[2147483647,0,0,1,1,3,3,4,4,6,6,9,9],"right_children":[2,4,-1,6,8,-1,10,-1,-1,12,-1,-1,-1],"split_conditions":[1.5E0,5E-1,1.2666479E-2,5E-1,5E-1,-3.8186144E-2,5E-1,-2.136807E-2,2.4869358E-2,5E-1,-4.5289163E-2,1.0985588E-2,-3.2286074E-2],"split_indices":[7823,5037,0,6621,3561,0,5561,0,0,4930,0,0,0],"split_type":[0,0,0,0,0,0,0,0,0,0,0,0,0],"sum_hessian":[5.413233E1,4.810918E1,6.0231514E0,3.7414627E1,1.0694555E1,1.3846668E1,2.3567959E1,5.5167947E0,5.1777606E0,1.6826277E1,6.741681E0,1.0177279E1,6.6489973E0],"tree_param":{"num_deleted":"0","num_feature":"7834","num_nodes":"13","size_leaf_vector":"0"}},{"base_weights":[-2.9870605E-1,-2.1318102E-1,-8.972365E-1,-5.903337E-1,-3.9271105E-2,-8.7027377E-1,-3.3790186E-1,1.01864636E-1,-7.325661E-1,3.0020133E-1,-6.371562E-1,-6.962816E-1,5.96587E-1],"categories":[],"categories_nodes":[],"categories_segments":[],"categories_sizes":[],"default_left":[1,1,0,1,1,1,1,1,0,1,0,0,0],"id":80,"left_children":[1,3,-1,-1,7,-1,-1,9,-1,11,-1,-1,-1],"loss_changes":[2.614183E0,3.2081366E0,0E0,7.995763E-1,3.4786525E0,0E0,0E0,4.556638E0,0E0,7.551031E0,0E0,0E0,0E0],"parents":[2147483647,0,0,1,1,3,3,4,4,7,7,9,9],"right_children":[2,4,-1,-1,8,-1,-1,10,-1,12,-1,-1,-1],"split_conditions":[5E-1,5E-1,-4.4861827E-2,-2.9516686E-2,5E-1,-4.351369E-2,-1.6895093E-2,2.5E0,-3.6628306E-2,1.5E0,-3.185781E-2,-3.4814082E-2,2.9829351E-2],"split_indices":[3646,6621,0,5778,6696,2147483647,2147483647,1956,0,6148,0,0,0],"split_type":[0,0,0,0,0,0,0,0,0,0,0,0,0],"sum_hessian":[5.3805477E1,4.8264984E1,5.5404925E0,1.4476276E1,3.3788708E1,5.703591E0,8.772686E0,2.8782463E1,5.0062437E0,2.316049E1,5.6219726E0,5.000154E0,1.8160336E1],"tree_param":{"num_deleted":"2","num_feature":"7834","num_nodes":"13","size_leaf_vector":"0"}},{"base_weights":[-3.367831E-1,-2.2119346E-1,-7.998693E-1,-3.4869903E-1,5.81481E-1,-4.760111E-1,4.282217E-1,-3.233515E-1,-9.226858E-1,-5.375084E-1,1.3233678E-1],"categories":[],"categories_nodes":[],"categories_segments":[],"categories_sizes":[],"default_left":[1,1,0,1,0,1,0,1,0,0,0],"id":81,"left_children":[1,3,-1,5,-1,7,-1,9,-1,-1,-1],"loss_changes":[2.6975665E0,4.742432E0,0E0,4.051617E0,0E0,2.0131054E0,0E0,2.6868017E0,0E0,0E0,0E0],"parents":[2147483647,0,0,1,1,3,3,5,5,7,7],"right_children":[2,4,-1,6,-1,8,-1,10,-1,-1,-1],"split_conditions":[5E-1,5E-1,-3.9993465E-2,5E-1,2.9074049E-2,9.35E1,2.1411086E-2,2.5E0,-4.613429E-2,-2.6875421E-2,6.616839E-3],"split_indices":[2500,2253,0,3555,0,6742,0,7801,0,0,0],"split_type":[0,0,0,0,0,0,0,0,0,0,0],"sum_hessian":[5.270075E1,4.3356342E1,9.344405E0,3.790127E1,5.4550734E0,3.2897713E1,5.003556E0,2.5802967E1,7.0947475E0,1.7431324E1,8.371642E0],"tree_param":{"num_deleted":"0","num_feature":"7834","num_nodes":"11","size_leaf_vector":"0"}},{"base_weights":[-3.005602E-1,-5.300476E-1,-8.366786E-2,-6.4551777E-1,-4.4728372E-2,1.85629E-1,-7.463095E-1,-9.236571E-1,-3.3359832E-1,6.876485E-1,-2.9660726E-1,-2.0322268E-1,-4.060217E-1,-7.2058374E-1,1.67743E-1],"categories":[],"categories_nodes":[],"categories_segments":[],"categories_sizes":[],"default_left":[1,1,1,1,0,1,0,0,1,0,1,1,1,0,0],"id":82,"left_children":[1,3,5,7,-1,9,-1,-1,-1,-1,13,-1,-1,-1,-1],"loss_changes":[2.6246538E0,1.4207234E0,5.269809E0,1.4982538E0,0E0,5.347624E0,0E0,0E0,2.4939537E-2,0E0,2.391916E0,0E0,0E0,0E0,0E0],"parents":[2147483647,0,0,1,1,2,2,3,3,5,5,8,8,10,10],"right_children":[2,4,6,8,-1,10,-1,-1,-1,-1,14,-1,-1,-1,-1],"split_conditions":[4.75E1,7.5E0,5E-1,5E-1,-2.2364187E-3,1.5E0,-3.7315477E-2,-4.6182856E-2,-1.6679917E-2,3.4382425E-2,5E-1,-1.0161134E-2,-2.0301087E-2,-3.6029186E-2,8.38715E-3],"split_indices":[6742,6148,946,5778,0,3253,0,0,6742,0,3561,2147483647,2147483647,0,0],"split_type":[0,0,0,0,0,0,0,0,0,0,0,0,0,0,0],"sum_hessian":[5.262234E1,2.486723E1,2.7755112E1,1.9821165E1,5.0460644E0,2.0246729E1,7.508383E0,9.44121E0,1.0379955E1,9.711189E0,1.0535539E1,5.0660887E0,5.313866E0,5.2187405E0,5.316798E0],"tree_param":{"num_deleted":"2","num_feature":"7834","num_nodes":"15","size_leaf_vector":"0"}},{"base_weights":[-2.3609114E-1,-1.4998539E-1,-8.80169E-1,-2.4674548E-1,4.9213433E-1,-3.6647958E-1,1.5335763E-1,-1.4786002E-1,-7.153213E-1,-7.6448685E-1,1.8978277E-1,-3.7992498E-1,-9.002091E-1],"categories":[],"categories_nodes":[],"categories_segments":[],"categories_sizes":[],"default_left":[1,1,0,1,0,1,0,1,1,0,0,1,1],"id":83,"left_children":[1,3,-1,5,-1,7,-1,9,-1,-1,-1,-1,-1],"loss_changes":[2.8065782E0,3.100263E0,0E0,2.084133E0,0E0,2.401497E0,0E0,4.615332E0,4.272504E-1,0E0,0E0,0E0,0E0],"parents":[2147483647,0,0,1,1,3,3,5,5,7,7,8,8],"right_children":[2,4,-1,6,-1,8,-1,10,-1,-1,-1,-1,-1],"split_conditions":[5E-1,1.5E0,-4.400845E-2,5E-1,2.4606718E-2,5E-1,7.6678814E-3,6.5E0,-3.5766065E-2,-3.8224343E-2,9.489139E-3,-1.899625E-2,-4.501046E-2],"split_indices":[3646,7823,0,5037,0,4930,0,6742,6940,0,0,2147483647,2147483647],"split_type":[0,0,0,0,0,0,0,0,0,0,0,0,0],"sum_hessian":[5.198691E1,4.694392E1,5.0429907E0,4.1331474E1,5.6124473E0,3.1876278E1,9.455196E0,2.0470963E1,1.1405316E1,6.7958035E0,1.36751585E1,5.1385703E0,6.2667456E0],"tree_param":{"num_deleted":"2","num_feature":"7834","num_nodes":"13","size_leaf_vector":"0"}},{"base_weights":[-2.51299E-1,-1.5348445E-1,-9.10563E-1,-2.6522654E-1,6.1550534E-1,-4.675302E-1,-6.720113E-5,-1.2177452E-1,-6.3702047E-1,3.8131303E-1,-5.608011E-1,-8.100765E-1,-3.1736752E-1,9.2376804E-1,-2.4852605E-1],"categories":[],"categories_nodes":[],"categories_segments":[],"categories_sizes":[],"default_left":[1,1,0,1,0,1,1,0,1,1,0,1,1,0,0],"id":84,"left_children":[1,3,-1,5,-1,7,9,-1,-1,13,-1,-1,-1,-1,-1],"loss_changes":[3.192988E0,4.133785E0,0E0,2.2016656E0,0E0,1.2867537E0,4.2262793E0,0E0,5.9405327E-1,4.248356E0,0E0,0E0,0E0,0E0,0E0],"parents":[2147483647,0,0,1,1,3,3,5,5,6,6,8,8,9,9],"right_children":[2,4,-1,6,-1,8,10,-1,-1,14,-1,-1,-1,-1,-1],"split_conditions":[5E-1,1.5E0,-4.552815E-2,4.75E1,3.0775268E-2,5E-1,8.5E0,-6.0887258E-3,-3.1851023E-2,1.5E0,-2.8040055E-2,-4.0503826E-2,-1.5868377E-2,4.6188403E-2,-1.2426303E-2],"split_indices":[1481,7823,0,6742,0,7801,6148,0,7801,3253,0,2147483647,2147483647,0,0],"split_type":[0,0,0,0,0,0,0,0,0,0,0,0,0,0,0],"sum_hessian":[5.0682003E1,4.520742E1,5.4745817E0,4.004375E1,5.16367E0,2.2281132E1,1.7762619E1,7.894677E0,1.4386454E1,1.0762521E1,7.0000973E0,8.338085E0,6.0483685E0,5.5316553E0,5.2308655E0],"tree_param":{"num_deleted":"2","num_feature":"7834","num_nodes":"15","size_leaf_vector":"0"}},{"base_weights":[-3.0567425E-1,-1.8938334E-1,-8.620822E-1,-3.175328E-1,5.9481114E-1,-4.6046293E-1,3.774218E-1,-1.0513623E-1,-6.179231E-1,-8.737133E-1,-2.2717726E-1],"categories":[],"categories_nodes":[],"categories_segments":[],"categories_sizes":[],"default_left":[1,1,0,1,0,1,0,0,1,0,0],"id":85,"left_children":[1,3,-1,5,-1,7,-1,-1,9,-1,-1],"loss_changes":[3.0804143E0,4.4845467E0,0E0,3.8880718E0,0E0,1.6954999E0,0E0,0E0,1.960226E0,0E0,0E0],"parents":[2147483647,0,0,1,1,3,3,5,5,8,8],"right_children":[2,4,-1,6,-1,8,-1,-1,10,-1,-1],"split_conditions":[1.5E0,5E-1,-4.310411E-2,6.5E0,2.9740557E-2,5E-1,1.887109E-2,-5.2568116E-3,4.5E0,-4.3685667E-2,-1.1358864E-2],"split_indices":[1415,7823,0,7801,0,7801,0,0,6148,0,0],"split_type":[0,0,0,0,0,0,0,0,0,0,0],"sum_hessian":[4.9130116E1,4.174554E1,7.384575E0,3.6393383E1,5.3521557E0,3.0465097E1,5.928285E0,9.866937E0,2.0598162E1,1.1701866E1,8.896296E0],"tree_param":{"num_deleted":"0","num_feature":"7834","num_nodes":"11","size_leaf_vector":"0"}},{"base_weights":[-2.567374E-1,-1.5328209E-1,-8.101918E-1,-4.4915816E-1,1.4626025E-1,-6.695493E-1,-6.279349E-2,4.493089E-1,-7.5546837E-1,8.66127E-1,-4.4073483E-1,1.755949E-1,1.3929715E0],"categories":[],"categories_nodes":[],"categories_segments":[],"categories_sizes":[],"default_left":[1,1,0,1,1,0,0,1,0,1,0,0,0],"id":86,"left_children":[1,3,-1,5,7,-1,-1,9,-1,11,-1,-1,-1],"loss_changes":[2.7856846E0,3.9697542E0,0E0,1.865891E0,6.527275E0,0E0,0E0,6.9018574E0,0E0,4.2326717E0,0E0,0E0,0E0],"parents":[2147483647,0,0,1,1,3,3,4,4,7,7,9,9],"right_children":[2,4,-1,6,8,-1,-1,10,-1,12,-1,-1,-1],"split_conditions":[5E-1,4.75E1,-4.0509593E-2,3.5E0,5E-1,-3.3477467E-2,-3.1396747E-3,1.45E1,-3.777342E-2,3.5E0,-2.2036742E-2,8.779745E-3,6.964858E-2],"split_indices":[5852,6742,0,6621,946,0,0,6148,0,7455,0,0,0],"split_type":[0,0,0,0,0,0,0,0,0,0,0,0,0],"sum_hessian":[4.9820538E1,4.305026E1,6.7702813E0,2.140639E1,2.1643867E1,1.3164255E1,8.242135E0,1.657511E1,5.0687585E0,1.1306849E1,5.268261E0,5.4702797E0,5.8365684E0],"tree_param":{"num_deleted":"0","num_feature":"7834","num_nodes":"13","size_leaf_vector":"0"}},{"base_weights":[-2.3210531E-1,-1.3650256E-1,-7.84839E-1,-2.7212912E-1,3.2784826E-1,-1.5583559E-2,-5.90719E-1,-2.9944694E-1,6.66041E-1,-8.940338E-1,-2.6288402E-1,-5.5643804E-2,-5.2281445E-1],"categories":[],"categories_nodes":[],"categories_segments":[],"categories_sizes":[],"default_left":[1,1,0,1,0,1,1,1,0,0,0,1,1],"id":87,"left_children":[1,3,-1,5,-1,7,9,-1,-1,-1,-1,-1,-1],"loss_changes":[2.5494905E0,2.8647482E0,0E0,2.8232653E0,0E0,4.112547E0,1.2994146E0,7.860192E-1,0E0,0E0,0E0,0E0,0E0],"parents":[2147483647,0,0,1,1,3,3,5,5,6,6,7,7],"right_children":[2,4,-1,6,-1,8,10,-1,-1,-1,-1,-1,-1],"split_conditions":[5E-1,5E-1,-3.924195E-2,5E-1,1.6392414E-2,3.5E0,5E-1,-1.4972347E-2,3.330205E-2,-4.470169E-2,-1.3144202E-2,-2.7821902E-3,-2.6140723E-2],"split_indices":[1579,5037,0,3253,0,5923,1956,6742,0,0,0,2147483647,2147483647],"split_type":[0,0,0,0,0,0,0,0,0,0,0,0,0],"sum_hessian":[4.927403E1,4.3071236E1,6.202792E0,3.3655247E1,9.415991E0,1.9223984E1,1.4431262E1,1.3967773E1,5.2562094E0,6.5988674E0,7.8323946E0,7.2756243E0,6.692149E0],"tree_param":{"num_deleted":"2","num_feature":"7834","num_nodes":"13","size_leaf_vector":"0"}},{"base_weights":[-2.8033563E-1,-3.7275702E-1,3.590563E-1,-4.840424E-1,2.4854825E-1,-6.132129E-1,1.1045033E-1,-3.5536554E-1,-9.498647E-1,-6.241075E-1,1.23151116E-1],"categories":[],"categories_nodes":[],"categories_segments":[],"categories_sizes":[],"default_left":[1,1,0,1,0,1,0,1,0,0,0],"id":88,"left_children":[1,3,-1,5,-1,7,-1,9,-1,-1,-1],"loss_changes":[3.0693984E0,3.1551957E0,0E0,2.9523811E0,0E0,2.3544807E0,0E0,2.5407145E0,0E0,0E0,0E0],"parents":[2147483647,0,0,1,1,3,3,5,5,7,7],"right_children":[2,4,-1,6,-1,8,-1,10,-1,-1,-1],