{"learner":{"attributes":{"best_iteration":"99","best_ntree_limit":"100","scikit_learn":"{\"use_label_encoder\": false, \"n_estimators\": 100, \"objective\": \"binary:logistic\", \"max_depth\": 5, \"max_leaves\": null, \"max_bin\": null, \"grow_policy\": null, \"learning_rate\": 0.05, \"verbosity\": null, \"booster\": null, \"tree_method\": null, \"gamma\": 1, \"min_child_weight\": 5.0, \"max_delta_step\": null, \"subsample\": 0.9, \"sampling_method\": null, \"colsample_bytree\": 0.9, \"colsample_bylevel\": null, \"colsample_bynode\": null, \"reg_alpha\": null, \"reg_lambda\": null, \"scale_pos_weight\": null, \"base_score\": null, \"missing\": NaN, \"num_parallel_tree\": null, \"random_state\": 42, \"n_jobs\": null, \"monotone_constraints\": null, \"interaction_constraints\": null, \"importance_type\": null, \"gpu_id\": null, \"validate_parameters\": null, \"predictor\": null, \"enable_categorical\": false, \"max_cat_to_onehot\": null, \"eval_metric\": null, \"early_stopping_rounds\": null, \"callbacks\": null, \"classes_\": [0, 1], \"n_classes_\": 2, \"evals_result_\": {\"validation_0\": {\"logloss\": [0.6480046461667913, 0.6070966413802742, 0.5701514136497058, 0.5357832648779335, 0.5040842580459093, 0.4749969544828148, 0.4479480011412736, 0.42328127518243713, 0.4007254993033045, 0.3796006184066925, 0.35986424508021947, 0.3417106479511418, 0.3243358893063878, 0.3081800750994094, 0.29300682455056143, 0.2788030352141406, 0.2654800357430578, 0.25328061287537584, 0.24161302048787386, 0.23095941629378972, 0.22091133587859071, 0.21150782380415045, 0.20230298311603895, 0.19370432131508963, 0.18596513599122313, 0.1785701864019264, 0.1713177941730804, 0.16457059193231804, 0.15823137061506265, 0.152716766373111, 0.14717108720407923, 0.14185054721059026, 0.13672050248862153, 0.13188459186625395, 0.12756096219729313, 0.12355120169254924, 0.11963103879702777, 0.11579625865337291, 0.11227827399233674, 0.1088445461262127, 0.10572325163351243, 0.10265217014926581, 0.09977850851577681, 0.09717263886322006, 0.0946545586576543, 0.09240559881200662, 0.09010860423713958, 0.08804323343444094, 0.08601247033785009, 0.084108565808148, 0.08234373804019846, 0.08065193553141085, 0.07911594582833219, 0.07758719530985302, 0.07623020429536262, 0.07489176977920477, 0.07362112183600979, 0.07268807517209218, 0.07154891142658845, 0.07047430889902048, 0.06960684849883919, 0.06872574785411288, 0.06780124962828904, 0.06695859331186733, 0.06643351183637329, 0.06571238433020726, 0.06500061404848631, 0.06430607750031278, 0.06367019119154832, 0.06303477266499144, 0.06258773552002134, 0.0619704796944676, 0.06136579161945437, 0.06091777265365164, 0.06039418173531458, 0.06002096261951709, 0.05973695411393912, 0.05933947011950993, 0.0591650108821016, 0.05880814854637856, 0.05849572198879145, 0.05815409595359086, 0.057842979202163, 0.05747739493641148, 0.05721343000508083, 0.05697597446058002, 0.05701488927969781, 0.0569821115885232, 0.05689321368709469, 0.05673159754229874, 0.05651934607420664, 0.05662143845592662, 0.05658329409775877, 0.05664606693503912, 0.05662107901192422, 0.05662564757596329, 0.0564850509176567, 0.05645296278822243, 0.05619397115391338, 0.05594883807721415]}}, \"_estimator_type\": \"classifier\"}"},"feature_names":[],"feature_types":[],"gradient_booster":{"model":{"gbtree_model_param":{"num_parallel_tree":"1","num_trees":"100","size_leaf_vector":"0"},"tree_info":[0,0,0,0,0,0,0,0,0,0,0,0,0,0,0,0,0,0,0,0,0,0,0,0,0,0,0,0,0,0,0,0,0,0,0,0,0,0,0,0,0,0,0,0,0,0,0,0,0,0,0,0,0,0,0,0,0,0,0,0,0,0,0,0,0,0,0,0,0,0,0,0,0,0,0,0,0,0,0,0,0,0,0,0,0,0,0,0,0,0,0,0,0,0,0,0,0,0,0,0],"trees":[{"base_weights":[-1.9174567E0,-1.9597394E0,-1.1851852E0,2.2222222E-1,-1.5764706E0],"categories":[],"categories_nodes":[],"categories_segments":[],"categories_sizes":[],"default_left":[1,0,1,0,0],"id":0,"left_children":[1,-1,3,-1,-1],"loss_changes":[1.1556274E1,0E0,1.521917E1,0E0,0E0],"parents":[2147483647,0,0,2,2],"right_children":[2,-1,4,-1,-1],"split_conditions":[5E-1,-9.7986974E-2,3.8E1,1.1111111E-2,-7.882353E-2],"split_indices":[933,0,6742,0,0],"split_type":[0,0,0,0,0],"sum_hessian":[4.4725E2,4.2125E2,2.6E1,5.75E0,2.025E1],"tree_param":{"num_deleted":"0","num_feature":"7834","num_nodes":"5","size_leaf_vector":"0"}},{"base_weights":[-1.8263896E0,-1.8454095E0,-3.6303318E-1,-1.871105E0,-1.3078531E0,-8.9335576E-2,-1.6539873E0],"categories":[],"categories_nodes":[],"categories_segments":[],"categories_sizes":[],"default_left":[1,1,0,0,1,0,0],"id":1,"left_children":[1,3,-1,-1,5,-1,-1],"loss_changes":[1.1791016E1,3.6542969E0,0E0,0E0,9.752487E0,0E0,0E0],"parents":[2147483647,0,0,1,1,4,4],"right_children":[2,4,-1,-1,6,-1,-1],"split_conditions":[2.75E1,5E-1,-1.815166E-2,-9.355525E-2,3.65E1,-4.466779E-3,-8.2699366E-2],"split_indices":[5852,933,0,0,6742,0,0],"split_type":[0,0,0,0,0,0,0],"sum_hessian":[4.467076E2,4.407183E2,5.989296E0,4.1824524E2,2.2473072E1,5.249838E0,1.7223234E1],"tree_param":{"num_deleted":"0","num_feature":"7834","num_nodes":"7","size_leaf_vector":"0"}},{"base_weights":[-1.7490354E0,-1.7859823E0,-1.0897943E0,-1.7973257E0,-1.0835966E0,-5.3840154E-1,-1.6324096E0,6.056826E-2,-1.1061741E0],"categories":[],"categories_nodes":[],"categories_segments":[],"categories_sizes":[],"default_left":[1,1,1,0,0,1,0,0,0],"id":2,"left_children":[1,3,5,-1,-1,7,-1,-1,-1],"loss_changes":[8.869385E0,1.3901367E0,6.9394855E0,0E0,0E0,4.9821677E0,0E0,0E0,0E0],"parents":[2147483647,0,0,1,1,2,2,5,5],"right_children":[2,4,6,-1,-1,8,-1,-1,-1],"split_conditions":[5E-1,5E-1,5E-1,-8.986629E-2,-5.417983E-2,1.5E0,-8.162048E-2,3.028413E-3,-5.5308707E-2],"split_indices":[933,3641,1420,0,0,1383,0,0,0],"split_type":[0,0,0,0,0,0,0,0,0],"sum_hessian":[4.430539E2,4.1792242E2,2.5131462E1,4.0974622E2,8.176229E0,1.3453037E1,1.1678425E1,6.981378E0,6.471659E0],"tree_param":{"num_deleted":"0","num_feature":"7834","num_nodes":"9","size_leaf_vector":"0"}},{"base_weights":[-1.6760211E0,-1.7156605E0,-9.737976E-1,-1.7264843E0,-1.0408535E0,-1.6331619E0,8.0320746E-1],"categories":[],"categories_nodes":[],"categories_segments":[],"categories_sizes":[],"default_left":[1,1,1,0,0,0,0],"id":3,"left_children":[1,3,5,-1,-1,-1,-1],"loss_changes":[1.0681885E1,1.2614746E0,3.1803915E1,0E0,0E0,0E0,0E0],"parents":[2147483647,0,0,1,1,2,2],"right_children":[2,4,6,-1,-1,-1,-1],"split_conditions":[5E-1,5E-1,1.275E1,-8.6324215E-2,-5.2042674E-2,-8.1658095E-2,4.0160373E-2],"split_indices":[933,3641,6967,0,0,0,0],"split_type":[0,0,0,0,0,0,0],"sum_hessian":[4.4276486E2,4.1774088E2,2.5023994E1,4.096122E2,8.128642E0,1.8310692E1,6.713302E0],"tree_param":{"num_deleted":"0","num_feature":"7834","num_nodes":"7","size_leaf_vector":"0"}},{"base_weights":[-1.623513E0,-1.641528E0,-2.6357457E-1,-1.6647514E0,-1.1529832E0,-1.6578364E0,3.0949855E-1],"categories":[],"categories_nodes":[],"categories_segments":[],"categories_sizes":[],"default_left":[1,1,0,0,1,0,0],"id":4,"left_children":[1,3,-1,-1,5,-1,-1],"loss_changes":[1.0307617E1,2.9870605E0,0E0,0E0,1.7404497E1,0E0,0E0],"parents":[2147483647,0,0,1,1,4,4],"right_children":[2,4,-1,-1,6,-1,-1],"split_conditions":[2.75E1,5E-1,-1.31787285E-2,-8.323757E-2,1.225E1,-8.289182E-2,1.5474928E-2],"split_indices":[5852,933,0,0,6967,0,0],"split_type":[0,0,0,0,0,0,0],"sum_hessian":[4.3738657E2,4.3146393E2,5.922635E0,4.0958633E2,2.1877577E1,1.61641E1,5.7134757E0],"tree_param":{"num_deleted":"0","num_feature":"7834","num_nodes":"7","size_leaf_vector":"0"}},{"base_weights":[-1.565356E0,-1.5801047E0,-2.8109476E-1,-1.609146E0,-1.034449E0,-1.5574945E0,4.0926695E-1],"categories":[],"categories_nodes":[],"categories_segments":[],"categories_sizes":[],"default_left":[1,1,0,0,1,0,0],"id":5,"left_children":[1,3,-1,-1,5,-1,-1],"loss_changes":[7.663086E0,5.037842E0,0E0,0E0,1.8891336E1,0E0,0E0],"parents":[2147483647,0,0,1,1,4,4],"right_children":[2,4,-1,-1,6,-1,-1],"split_conditions":[5E-1,5E-1,-1.4054738E-2,-8.04573E-2,1.225E1,-7.787473E-2,2.0463347E-2],"split_indices":[3652,933,0,0,6967,0,0],"split_type":[0,0,0,0,0,0,0],"sum_hessian":[4.270302E2,4.219541E2,5.076131E0,3.9878085E2,2.3173223E1,1.6952627E1,6.220596E0],"tree_param":{"num_deleted":"0","num_feature":"7834","num_nodes":"7","size_leaf_vector":"0"}},{"base_weights":[-1.5112902E0,-1.5279472E0,-1.8741053E-1,-1.5442159E0,-2.0168932E-1,-1.5751711E0,-1.267011E0,-1.5413246E0,5.4720217E-1],"categories":[],"categories_nodes":[],"categories_segments":[],"categories_sizes":[],"default_left":[1,1,0,1,0,0,1,0,0],"id":6,"left_children":[1,3,-1,5,-1,-1,7,-1,-1],"loss_changes":[8.907715E0,8.569641E0,0E0,1.4921875E0,0E0,0E0,2.370713E1,0E0,0E0],"parents":[2147483647,0,0,1,1,3,3,6,6],"right_children":[2,4,-1,6,-1,-1,8,-1,-1],"split_conditions":[5E-1,2.75E1,-9.370527E-3,5E-1,-1.0084466E-2,-7.875856E-2,1.275E1,-7.7066235E-2,2.736011E-2],"split_indices":[3652,5852,0,5852,0,0,6967,0,0],"split_type":[0,0,0,0,0,0,0,0,0],"sum_hessian":[4.1592944E2,4.1060904E2,5.3203983E0,4.0547092E2,5.138127E0,3.6052878E2,4.4942146E1,3.9169964E1,5.7721796E0],"tree_param":{"num_deleted":"0","num_feature":"7834","num_nodes":"9","size_leaf_vector":"0"}},{"base_weights":[-1.4695624E0,-1.4862219E0,-1.1827873E-1,-1.5000367E0,-3.4342468E-1,-1.5191478E0,-1.0828649E0,-1.5019792E0,1.5570731E-1],"categories":[],"categories_nodes":[],"categories_segments":[],"categories_sizes":[],"default_left":[1,1,0,1,0,0,1,0,0],"id":7,"left_children":[1,3,-1,5,-1,-1,7,-1,-1],"loss_changes":[9.033325E0,5.863159E0,0E0,1.5352173E0,0E0,0E0,1.1111765E1,0E0,0E0],"parents":[2147483647,0,0,1,1,3,3,6,6],"right_children":[2,4,-1,6,-1,-1,8,-1,-1],"split_conditions":[5E-1,2.75E1,-5.9139365E-3,5E-1,-1.7171234E-2,-7.595739E-2,1.225E1,-7.509896E-2,7.785366E-3],"split_indices":[3652,5852,0,933,0,0,6967,0,0],"split_type":[0,0,0,0,0,0,0,0,0],"sum_hessian":[4.080811E2,4.030126E2,5.0684705E0,3.9789014E2,5.122494E0,3.7793497E2,1.9955162E1,1.475098E1,5.204181E0],"tree_param":{"num_deleted":"0","num_feature":"7834","num_nodes":"9","size_leaf_vector":"0"}},{"base_weights":[-1.4337406E0,-1.4730285E0,-7.9168314E-1,-1.4822232E0,-8.5815126E-1,-2.2120023E-1,-1.2767901E0,1.9310088E-1,-6.568812E-1],"categories":[],"categories_nodes":[],"categories_segments":[],"categories_sizes":[],"default_left":[1,1,1,1,1,1,0,0,0],"id":8,"left_children":[1,-1,5,-1,-1,7,-1,-1,-1],"loss_changes":[8.875244E0,8.422241E-1,6.668227E0,0E0,0E0,2.4285715E0,0E0,0E0,0E0],"parents":[2147483647,0,0,1,1,2,2,5,5],"right_children":[2,-1,6,-1,-1,8,-1,-1,-1],"split_conditions":[5E-1,-7.3651426E-2,1.5E0,-7.4111156E-2,-4.2907562E-2,5E-1,-6.383951E-2,9.655044E-3,-3.2844063E-2],"split_indices":[933,3634,1956,2147483647,2147483647,7043,0,0,0],"split_type":[0,0,0,0,0,0,0,0,0],"sum_hessian":[3.9707315E2,3.7295746E2,2.4115715E1,3.660727E2,6.8847466E0,1.1751731E1,1.2363984E1,6.309057E0,5.4426737E0],"tree_param":{"num_deleted":"2","num_feature":"7834","num_nodes":"9","size_leaf_vector":"0"}},{"base_weights":[-1.3925072E0,-1.4283845E0,-8.260914E-1,-1.4378341E0,-7.859859E-1,-1.4138263E0,4.3139803E-1],"categories":[],"categories_nodes":[],"categories_segments":[],"categories_sizes":[],"default_left":[1,1,1,0,0,0,0],"id":9,"left_children":[1,3,5,-1,-1,-1,-1],"loss_changes":[6.748413E0,1.0888672E0,1.9538965E1,0E0,0E0,0E0,0E0],"parents":[2147483647,0,0,1,1,2,2],"right_children":[2,4,6,-1,-1,-1,-1],"split_conditions":[5E-1,5E-1,1.225E1,-7.189171E-2,-3.9299294E-2,-7.069132E-2,2.1569902E-2],"split_indices":[933,3634,6967,0,0,0,0],"split_type":[0,0,0,0,0,0,0],"sum_hessian":[3.891497E2,3.6453775E2,2.4611954E1,3.5803287E2,6.5048685E0,1.6687908E1,7.924046E0],"tree_param":{"num_deleted":"0","num_feature":"7834","num_nodes":"7","size_leaf_vector":"0"}},{"base_weights":[-1.3599145E0,-1.3945277E0,-7.9449105E-1,-1.4114565E0,-1.0791368E0,-1.3732101E0,5.5012655E-1,-1.4190474E0,-8.363114E-1,-4.5956638E-1,-1.3028542E0],"categories":[],"categories_nodes":[],"categories_segments":[],"categories_sizes":[],"default_left":[1,1,1,1,1,0,0,1,1,0,0],"id":10,"left_children":[1,3,5,-1,9,-1,-1,-1,-1,-1,-1],"loss_changes":[6.2665405E0,3.6553955E-1,1.9477936E1,2.6483154E-1,2.4877071E0,0E0,0E0,0E0,0E0,0E0,0E0],"parents":[2147483647,0,0,1,1,2,2,3,3,4,4],"right_children":[2,4,6,-1,10,-1,-1,-1,-1,-1,-1],"split_conditions":[5E-1,1.5E0,1.275E1,-7.057282E-2,3.6E1,-6.8660505E-2,2.7506327E-2,-7.095237E-2,-4.181557E-2,-2.2978319E-2,-6.514271E-2],"split_indices":[933,5852,6967,3641,6742,0,0,2147483647,2147483647,0,0],"split_type":[0,0,0,0,0,0,0,0,0,0,0],"sum_hessian":[3.7580496E2,3.5274487E2,2.3060087E1,3.3147745E2,2.1267426E1,1.6106596E1,6.953491E0,3.257113E2,5.766151E0,6.4523335E0,1.4815091E1],"tree_param":{"num_deleted":"2","num_feature":"7834","num_nodes":"11","size_leaf_vector":"0"}},{"base_weights":[-1.3260678E0,-1.3613828E0,-7.5069374E-1,-1.3713801E0,-6.458738E-1,-1.3303752E0,5.4606575E-1],"categories":[],"categories_nodes":[],"categories_segments":[],"categories_sizes":[],"default_left":[1,1,1,0,0,0,0],"id":11,"left_children":[1,3,5,-1,-1,-1,-1],"loss_changes":[6.423218E0,1.5748291E0,1.8330013E1,0E0,0E0,0E0,0E0],"parents":[2147483647,0,0,1,1,2,2],"right_children":[2,4,6,-1,-1,-1,-1],"split_conditions":[5E-1,5E-1,1.225E1,-6.8569005E-2,-3.229369E-2,-6.651876E-2,2.7303288E-2],"split_indices":[933,3634,6967,0,0,0,0],"split_type":[0,0,0,0,0,0,0],"sum_hessian":[3.6540976E2,3.4299167E2,2.2418074E1,3.3736136E2,5.6303043E0,1.5474632E1,6.943441E0],"tree_param":{"num_deleted":"0","num_feature":"7834","num_nodes":"7","size_leaf_vector":"0"}},{"base_weights":[-1.3046111E0,-1.3213435E0,-1.6258183E-1,-1.3760049E0,-1.0927973E0,-1.2605361E0,7.8706914E-1,-1.2891338E0,-7.5415474E-1],"categories":[],"categories_nodes":[],"categories_segments":[],"categories_sizes":[],"default_left":[1,1,0,0,1,1,0,1,1],"id":12,"left_children":[1,3,-1,-1,5,-1,-1,-1,-1],"loss_changes":[6.712158E0,2.9577026E0,0E0,0E0,2.4258812E1,1.4343262E-2,0E0,0E0,0E0],"parents":[2147483647,0,0,1,1,4,4,5,5],"right_children":[2,4,-1,-1,6,-1,-1,-1,-1],"split_conditions":[2.75E1,1.275E1,-8.129092E-3,-6.880025E-2,5E-1,-6.302681E-2,3.9353456E-2,-6.4456694E-2,-3.770774E-2],"split_indices":[5852,6967,0,0,5852,3457,0,2147483647,2147483647],"split_type":[0,0,0,0,0,0,0,0,0],"sum_hessian":[3.614966E2,3.5612186E2,5.374771E0,2.8333585E2,7.2786E1,6.712587E1,5.660127E0,6.2074467E1,5.051407E0],"tree_param":{"num_deleted":"2","num_feature":"7834","num_nodes":"9","size_leaf_vector":"0"}},{"base_weights":[-1.269615E0,-1.2890222E0,-1.00386344E-1,-1.3465619E0,-1.0547693E0,-1.2313318E0,7.8852475E-1,-1.264418E0,-6.8917257E-1],"categories":[],"categories_nodes":[],"categories_segments":[],"categories_sizes":[],"default_left":[1,1,0,0,1,1,0,1,1],"id":13,"left_children":[1,3,-1,-1,5,-1,-1,-1,-1],"loss_changes":[7.820923E0,3.223938E0,0E0,0E0,2.4585983E1,3.234024E-1,0E0,0E0,0E0],"parents":[2147483647,0,0,1,1,4,4,5,5],"right_children":[2,4,-1,-1,6,-1,-1,-1,-1],"split_conditions":[2.75E1,1.275E1,-5.0193174E-3,-6.7328095E-2,5E-1,-6.156659E-2,3.9426237E-2,-6.32209E-2,-3.445863E-2],"split_indices":[5852,6967,0,0,5852,7043,0,2147483647,2147483647],"split_type":[0,0,0,0,0,0,0,0,0],"sum_hessian":[3.4936407E2,3.435591E2,5.8049417E0,2.719994E2,7.1559715E1,6.560741E1,5.9523067E0,6.057832E1,5.029087E0],"tree_param":{"num_deleted":"2","num_feature":"7834","num_nodes":"9","size_leaf_vector":"0"}},{"base_weights":[-1.2491455E0,-1.2681886E0,1.6641445E-2,-1.2855449E0,-1.133912E-1,-1.3138613E0,-1.0385821E0,-1.2795405E0,4.9724516E-1],"categories":[],"categories_nodes":[],"categories_segments":[],"categories_sizes":[],"default_left":[1,1,0,1,0,0,1,0,0],"id":14,"left_children":[1,3,-1,5,-1,-1,7,-1,-1],"loss_changes":[8.333923E0,6.6640625E0,0E0,9.75647E-1,0E0,0E0,1.5141159E1,0E0,0E0],"parents":[2147483647,0,0,1,1,3,3,6,6],"right_children":[2,4,-1,6,-1,-1,8,-1,-1],"split_conditions":[5E-1,2.75E1,8.320723E-4,5E-1,-5.66956E-3,-6.5693066E-2,1.275E1,-6.3977025E-2,2.4862258E-2],"split_indices":[3652,5852,0,5852,0,0,6967,0,0],"split_type":[0,0,0,0,0,0,0,0,0],"sum_hessian":[3.438625E2,3.3876404E2,5.0984454E0,3.3363638E2,5.127666E0,2.9544138E2,3.8194996E1,3.315943E1,5.035566E0],"tree_param":{"num_deleted":"0","num_feature":"7834","num_nodes":"9","size_leaf_vector":"0"}},{"base_weights":[-1.2310084E0,-1.3009325E0,-9.543369E-1,-1.170159E0,8.100093E-1,-1.2068782E0,-6.350517E-1],"categories":[],"categories_nodes":[],"categories_segments":[],"categories_sizes":[],"default_left":[1,0,1,1,0,1,1],"id":15,"left_children":[1,-1,3,-1,-1,-1,-1],"loss_changes":[5.175354E0,0E0,2.7858063E1,4.788437E-1,0E0,0E0,0E0],"parents":[2147483647,0,0,2,2,3,3],"right_children":[2,-1,4,-1,-1,-1,-1],"split_conditions":[1.275E1,-6.504663E-2,5E-1,-5.850795E-2,4.0500466E-2,-6.034391E-2,-3.1752586E-2],"split_indices":[6967,0,5852,6148,0,2147483647,2147483647],"split_type":[0,0,0,0,0,0,0],"sum_hessian":[3.3069003E2,2.6101965E2,6.9670395E1,6.2376957E1,7.2934346E0,5.719672E1,5.1802387E0],"tree_param":{"num_deleted":"2","num_feature":"7834","num_nodes":"7","size_leaf_vector":"0"}},{"base_weights":[-1.2059375E0,-1.2804171E0,-9.125148E-1,-1.1600946E0,9.510822E-1,-1.1990138E0,-6.5747684E-1],"categories":[],"categories_nodes":[],"categories_segments":[],"categories_sizes":[],"default_left":[1,0,1,1,0,1,1],"id":16,"left_children":[1,-1,3,-1,-1,-1,-1],"loss_changes":[5.788391E0,0E0,3.2442913E1,3.9337158E-1,0E0,0E0,0E0],"parents":[2147483647,0,0,2,2,3,3],"right_children":[2,-1,4,-1,-1,-1,-1],"split_conditions":[1.275E1,-6.402086E-2,5E-1,-5.8004733E-2,4.7554113E-2,-5.995069E-2,-3.2873843E-2],"split_indices":[6967,0,5852,6148,0,2147483647,2147483647],"split_type":[0,0,0,0,0,0,0],"sum_hessian":[3.173306E2,2.504062E2,6.6924416E1,5.9409348E1,7.515064E0,5.3853752E1,5.5555973E0],"tree_param":{"num_deleted":"2","num_feature":"7834","num_nodes":"7","size_leaf_vector":"0"}},{"base_weights":[-1.1822782E0,-1.2227776E0,-6.0454327E-1,-1.2378155E0,-4.4719183E-1,-1.1752064E0,4.0480286E-1,-1.2576337E0,-9.079278E-1,-2.1013996E-1,-1.1549634E0],"categories":[],"categories_nodes":[],"categories_segments":[],"categories_sizes":[],"default_left":[1,1,1,1,0,0,0,0,1,0,0],"id":17,"left_children":[1,3,5,7,-1,-1,-1,-1,9,-1,-1],"loss_changes":[6.4542236E0,2.7858887E0,1.3215434E1,6.9073486E-1,0E0,0E0,0E0,0E0,3.1155205E0,0E0,0E0],"parents":[2147483647,0,0,1,1,2,2,3,3,8,8],"right_children":[2,4,6,8,-1,-1,-1,-1,10,-1,-1],"split_conditions":[5E-1,5E-1,1.225E1,1.5E0,-2.2359593E-2,-5.8760323E-2,2.0240143E-2,-6.2881686E-2,3.65E1,-1.0506998E-2,-5.774817E-2],"split_indices":[933,3641,6967,5852,0,0,0,0,6742,0,0],"split_type":[0,0,0,0,0,0,0,0,0,0,0],"sum_hessian":[3.0643906E2,2.8532138E2,2.1117676E1,2.7930984E2,6.0115337E0,1.3385481E1,7.7321944E0,2.6082816E2,1.8481686E1,5.316136E0,1.3165549E1],"tree_param":{"num_deleted":"0","num_feature":"7834","num_nodes":"11","size_leaf_vector":"0"}},{"base_weights":[-1.169147E0,-1.2443792E0,-8.91541E-1,-1.1066135E0,7.040724E-1,-1.1451514E0,-5.9382945E-1],"categories":[],"categories_nodes":[],"categories_segments":[],"categories_sizes":[],"default_left":[1,0,1,1,0,1,1],"id":18,"left_children":[1,-1,3,-1,-1,-1,-1],"loss_changes":[5.0736694E0,0E0,2.3652176E1,4.8835754E-1,0E0,0E0,0E0],"parents":[2147483647,0,0,2,2,3,3],"right_children":[2,-1,4,-1,-1,-1,-1],"split_conditions":[1.275E1,-6.221896E-2,5E-1,-5.5330675E-2,3.520362E-2,-5.725757E-2,-2.9691473E-2],"split_indices":[6967,0,5852,6148,0,2147483647,2147483647],"split_type":[0,0,0,0,0,0,0],"sum_hessian":[2.9505554E2,2.2940382E2,6.5651726E1,5.8123707E1,7.5280185E0,5.2913803E1,5.209903E0],"tree_param":{"num_deleted":"2","num_feature":"7834","num_nodes":"7","size_leaf_vector":"0"}},{"base_weights":[-1.1471921E0,-1.187787E0,-5.5647767E-1,-1.2002463E0,-4.752038E-1,-1.1266617E0,4.6149912E-1,-1.2359748E0,-1.0430824E0,-1.0955517E0,-5.0404245E-1],"categories":[],"categories_nodes":[],"categories_segments":[],"categories_sizes":[],"default_left":[1,1,1,1,0,0,0,1,1,1,1],"id":19,"left_children":[1,3,5,-1,-1,-1,-1,-1,-1,-1,-1],"loss_changes":[6.1720886E0,1.7890015E0,1.2247301E1,1.7370605E-1,0E0,0E0,0E0,0E0,9.938278E-1,0E0,0E0],"parents":[2147483647,0,0,1,1,2,2,3,3,8,8],"right_children":[2,4,6,-1,-1,-1,-1,-1,-1,-1,-1],"split_conditions":[5E-1,5E-1,1.225E1,-6.001232E-2,-2.376019E-2,-5.6333084E-2,2.3074957E-2,-6.179874E-2,-5.215412E-2,-5.477759E-2,-2.5202123E-2],"split_indices":[933,3634,6967,6967,0,0,0,2147483647,2147483647,2147483647,2147483647],"split_type":[0,0,0,0,0,0,0,0,0,0,0],"sum_hessian":[2.8394864E2,2.647442E2,1.9204443E1,2.595222E2,5.222021E0,1.2241199E1,6.9632444E0,2.0585934E2,5.366283E1,4.7961872E1,5.7009587E0],"tree_param":{"num_deleted":"4","num_feature":"7834","num_nodes":"11","size_leaf_vector":"0"}},{"base_weights":[-1.140034E0,-1.1817589E0,-5.558491E-1,-1.1947931E0,-4.7421062E-1,-1.1243516E0,6.029584E-1],"categories":[],"categories_nodes":[],"categories_segments":[],"categories_sizes":[],"default_left":[1,1,1,0,0,0,0],"id":20,"left_children":[1,3,5,-1,-1,-1,-1],"loss_changes":[6.060913E0,1.7974548E0,1.4025181E1,0E0,0E0,0E0,0E0],"parents":[2147483647,0,0,1,1,2,2],"right_children":[2,4,6,-1,-1,-1,-1],"split_conditions":[5E-1,5E-1,1.275E1,-5.9739657E-2,-2.3710532E-2,-5.621758E-2,3.014792E-2],"split_indices":[933,3641,6967,0,0,0,0],"split_type":[0,0,0,0,0,0,0],"sum_hessian":[2.7460065E2,2.5534026E2,1.9260393E1,2.5004536E2,5.294897E0,1.2941246E1,6.3191485E0],"tree_param":{"num_deleted":"0","num_feature":"7834","num_nodes":"7","size_leaf_vector":"0"}},{"base_weights":[-1.1180807E0,-1.1598046E0,-5.4198223E-1,-1.1737083E0,-4.177214E-1,-1.0820293E0,3.1664693E-1],"categories":[],"categories_nodes":[],"categories_segments":[],"categories_sizes":[],"default_left":[1,1,1,0,0,0,0],"id":21,"left_children":[1,3,5,-1,-1,-1,-1],"loss_changes":[5.7594604E0,2.057495E0,9.53544E0,0E0,0E0,0E0,0E0],"parents":[2147483647,0,0,1,1,2,2],"right_children":[2,4,6,-1,-1,-1,-1],"split_conditions":[5E-1,5E-1,1.225E1,-5.868542E-2,-2.088607E-2,-5.4101467E-2,1.5832348E-2],"split_indices":[933,2230,6967,0,0,0,0],"split_type":[0,0,0,0,0,0,0],"sum_hessian":[2.6475873E2,2.4593379E2,1.8824917E1,2.4083975E2,5.0940475E0,1.1396649E1,7.4282684E0],"tree_param":{"num_deleted":"0","num_feature":"7834","num_nodes":"7","size_leaf_vector":"0"}},{"base_weights":[-1.1024246E0,-1.1915227E0,-7.750944E-1,-1.0484611E0,8.5779166E-1],"categories":[],"categories_nodes":[],"categories_segments":[],"categories_sizes":[],"default_left":[1,0,1,0,0],"id":22,"left_children":[1,-1,3,-1,-1],"loss_changes":[6.5479736E0,0E0,2.6643715E1,0E0,0E0],"parents":[2147483647,0,0,2,2],"right_children":[2,-1,4,-1,-1],"split_conditions":[1.275E1,-5.9576135E-2,5E-1,-5.2423056E-2,4.2889584E-2],"split_indices":[6967,0,5852,0,0],"split_type":[0,0,0,0,0],"sum_hessian":[2.5518513E2,1.9851108E2,5.667406E1,4.8853287E1,7.820776E0],"tree_param":{"num_deleted":"0","num_feature":"7834","num_nodes":"5","size_leaf_vector":"0"}},{"base_weights":[-1.0868124E0,-1.1738396E0,-7.6051867E-1,-1.18315E0,-6.9376147E-1,-1.0249056E0,7.991138E-1,-1.0858915E0,-5.9344965E-1],"categories":[],"categories_nodes":[],"categories_segments":[],"categories_sizes":[],"default_left":[1,1,1,1,1,1,0,1,1],"id":23,"left_children":[1,-1,5,-1,-1,-1,-1,-1,-1],"loss_changes":[6.154724E0,4.6691895E-2,2.3537617E1,0E0,0E0,6.0669327E-1,0E0,0E0,0E0],"parents":[2147483647,0,0,1,1,2,2,5,5],"right_children":[2,-1,6,-1,-1,-1,-1,-1,-1],"split_conditions":[1.275E1,-5.869198E-2,5E-1,-5.9157502E-2,-3.4688074E-2,-5.124528E-2,3.995569E-2,-5.4294575E-2,-2.9672483E-2],"split_indices":[6967,1540,5852,2147483647,2147483647,6148,0,2147483647,2147483647],"split_type":[0,0,0,0,0,0,0,0,0],"sum_hessian":[2.4718065E2,1.9308473E2,5.409591E1,1.879747E2,5.1100383E0,4.6548004E1,7.547903E0,3.9454357E1,7.0936494E0],"tree_param":{"num_deleted":"4","num_feature":"7834","num_nodes":"9","size_leaf_vector":"0"}},{"base_weights":[-1.0700332E0,-1.1678612E0,-7.114564E-1,-8.726919E-1,3.4926498E-1,-9.3068075E-1,-4.7831294E-1],"categories":[],"categories_nodes":[],"categories_segments":[],"categories_sizes":[],"default_left":[1,0,1,1,0,1,1],"id":24,"left_children":[1,-1,3,-1,-1,-1,-1],"loss_changes":[7.637146E0,0E0,9.591791E0,6.393738E-1,0E0,0E0,0E0],"parents":[2147483647,0,0,2,2,3,3],"right_children":[2,-1,4,-1,-1,-1,-1],"split_conditions":[1.275E1,-5.839306E-2,5E-1,-4.3634597E-2,1.746325E-2,-4.653404E-2,-2.3915647E-2],"split_indices":[6967,0,933,5098,0,2147483647,2147483647],"split_type":[0,0,0,0,0,0,0],"sum_hessian":[2.403998E2,1.8709814E2,5.330165E1,4.6422447E1,6.8792014E0,3.9286034E1,7.1364155E0],"tree_param":{"num_deleted":"2","num_feature":"7834","num_nodes":"7","size_leaf_vector":"0"}},{"base_weights":[-1.0562215E0,-1.1260298E0,-6.089505E-1,3.156009E-1,-8.718193E-1,-5.558855E-1,-1.1353692E0,-8.679293E-1,-9.06705E-2],"categories":[],"categories_nodes":[],"categories_segments":[],"categories_sizes":[],"default_left":[1,0,1,0,1,1,0,0,0],"id":25,"left_children":[1,-1,3,-1,5,7,-1,-1,-1],"loss_changes":[6.48999E0,0E0,8.345004E0,0E0,1.5436859E0,1.9301953E0,0E0,0E0,0E0],"parents":[2147483647,0,0,2,2,4,4,5,5],"right_children":[2,-1,4,-1,6,8,-1,-1,-1],"split_conditions":[5E-1,-5.6301493E-2,2.35E1,1.5780045E-2,1.5E0,7.5E0,-5.676846E-2,-4.3396465E-2,-4.533525E-3],"split_indices":[5852,0,6742,0,7043,5852,0,0,0],"split_type":[0,0,0,0,0,0,0,0,0],"sum_hessian":[2.2881892E2,1.9661452E2,3.2204403E1,7.084941E0,2.5119461E1,1.283844E1,1.2281022E1,7.166108E0,5.672332E0],"tree_param":{"num_deleted":"0","num_feature":"7834","num_nodes":"9","size_leaf_vector":"0"}},{"base_weights":[-1.0475861E0,-1.147142E0,-6.9385797E-1,-9.864921E-1,8.9866614E-1,-1.0526584E0,-5.446688E-1],"categories":[],"categories_nodes":[],"categories_segments":[],"categories_sizes":[],"default_left":[1,0,1,1,0,1,1],"id":26,"left_children":[1,-1,3,-1,-1,-1,-1],"loss_changes":[7.086975E0,0E0,2.4977732E1,7.1723557E-1,0E0,0E0,0E0],"parents":[2147483647,0,0,2,2,3,3],"right_children":[2,-1,4,-1,-1,-1,-1],"split_conditions":[1.275E1,-5.7357103E-2,5E-1,-4.9324606E-2,4.4933308E-2,-5.2632924E-2,-2.723344E-2],"split_indices":[6967,0,5852,6148,0,2147483647,2147483647],"split_type":[0,0,0,0,0,0,0],"sum_hessian":[2.2284712E2,1.7215224E2,5.069489E1,4.314697E1,7.5479183E0,3.6324562E1,6.8224063E0],"tree_param":{"num_deleted":"2","num_feature":"7834","num_nodes":"7","size_leaf_vector":"0"}},{"base_weights":[-1.0247288E0,-1.1314645E0,-6.472477E-1,-9.426949E-1,8.37975E-1,-1.0104308E0,-4.865295E-1],"categories":[],"categories_nodes":[],"categories_segments":[],"categories_sizes":[],"default_left":[1,0,1,1,0,1,1],"id":27,"left_children":[1,-1,3,-1,-1,-1,-1],"loss_changes":[7.9704437E0,0E0,2.2708006E1,8.102379E-1,0E0,0E0,0E0],"parents":[2147483647,0,0,2,2,3,3],"right_children":[2,-1,4,-1,-1,-1,-1],"split_conditions":[1.275E1,-5.6573223E-2,5E-1,-4.7134746E-2,4.1898753E-2,-5.052154E-2,-2.4326475E-2],"split_indices":[6967,0,5852,6148,0,2147483647,2147483647],"split_type":[0,0,0,0,0,0,0],"sum_hessian":[2.1499976E2,1.6605034E2,4.8949417E1,4.113245E1,7.816969E0,3.4756416E1,6.376031E0],"tree_param":{"num_deleted":"2","num_feature":"7834","num_nodes":"7","size_leaf_vector":"0"}},{"base_weights":[-1.0136057E0,-1.1214461E0,-6.558126E-1,-1.1333872E0,-6.6408145E-1,-9.3521243E-1,6.507348E-1,-1.0028658E0,-4.5760453E-1],"categories":[],"categories_nodes":[],"categories_segments":[],"categories_sizes":[],"default_left":[1,1,1,1,1,1,0,1,1],"id":28,"left_children":[1,-1,5,-1,-1,-1,-1,-1,-1],"loss_changes":[7.266678E0,1.0997009E-1,1.9021774E1,0E0,0E0,8.970337E-1,0E0,0E0,0E0],"parents":[2147483647,0,0,1,1,2,2,5,5],"right_children":[2,-1,6,-1,-1,-1,-1,-1,-1],"split_conditions":[1.275E1,-5.6072306E-2,5E-1,-5.6669362E-2,-3.3204075E-2,-4.6760622E-2,3.253674E-2,-5.014329E-2,-2.2880226E-2],"split_indices":[6967,7801,5852,2147483647,2147483647,6148,0,2147483647,2147483647],"split_type":[0,0,0,0,0,0,0,0,0],"sum_hessian":[2.0639227E2,1.5695193E2,4.944034E1,1.5151797E2,5.4339695E0,4.0964466E1,8.475873E0,3.491848E1,6.0459857E0],"tree_param":{"num_deleted":"4","num_feature":"7834","num_nodes":"9","size_leaf_vector":"0"}},{"base_weights":[-1.019357E0,-1.1187208E0,-6.786015E-1,-1.1313885E0,-6.5573055E-1,-8.152402E-1,-2.5886446E-1,-6.657439E-1,-9.996141E-1,1.2223495E-1,-7.0875967E-1,-8.0799425E-1,-3.701894E-1,-9.229944E-1,-4.9811774E-1],"categories":[],"categories_nodes":[],"categories_segments":[],"categories_sizes":[],"default_left":[1,1,1,1,1,1,1,1,1,0,0,1,1,1,1],"id":29,"left_children":[1,-1,5,-1,-1,-1,9,-1,-1,-1,-1,-1,-1,-1,-1],"loss_changes":[5.9473267E0,1.485138E-1,2.499426E0,0E0,0E0,3.0441475E-1,2.3278372E0,6.4374256E-1,0E0,0E0,0E0,4.9614906E-2,0E0,0E0,0E0],"parents":[2147483647,0,0,1,1,2,2,5,5,6,6,7,7,11,11],"right_children":[2,-1,6,-1,-1,-1,10,-1,-1,-1,-1,-1,-1,-1,-1],"split_conditions":[1.275E1,-5.593604E-2,1.5E0,-5.6569427E-2,-3.278653E-2,-4.076201E-2,3.5E0,-3.3287194E-2,-4.9980707E-2,6.1117476E-3,-3.5437983E-2,-4.039971E-2,-1.850947E-2,-4.614972E-2,-2.4905888E-2],"split_indices":[6967,7801,3253,2147483647,2147483647,5923,6940,2147483647,2147483647,0,0,2147483647,2147483647,2147483647,2147483647],"split_type":[0,0,0,0,0,0,0,0,0,0,0,0,0,0,0],"sum_hessian":[1.9707277E2,1.508129E2,4.6259876E1,1.4539122E2,5.4216776E0,3.4188194E1,1.2071681E1,2.1426077E1,1.2762118E1,6.92983E0,5.1418505E0,1.3293897E1,8.132179E0,8.252627E0,5.04127E0],"tree_param":{"num_deleted":"8","num_feature":"7834","num_nodes":"15","size_leaf_vector":"0"}},{"base_weights":[-1.0044385E0,-1.0592698E0,-3.4867E-1,-1.114169E0,-8.460139E-1,-1.029962E0,4.150737E-1,-9.4138813E-1,-4.0421093E-1],"categories":[],"categories_nodes":[],"categories_segments":[],"categories_sizes":[],"default_left":[1,1,1,0,1,0,0,0,0],"id":30,"left_children":[1,3,5,-1,7,-1,-1,-1,-1],"loss_changes":[6.5585938E0,1.1333313E0,8.939006E0,0E0,1.324194E0,0E0,0E0,0E0,0E0],"parents":[2147483647,0,0,1,1,2,2,4,4],"right_children":[2,4,6,-1,8,-1,-1,-1,-1],"split_conditions":[5E-1,1.275E1,1.225E1,-5.570845E-2,3.5E0,-5.1498096E-2,2.0753685E-2,-4.7069408E-2,-2.0210547E-2],"split_indices":[933,6967,6967,0,7455,0,0,0,0],"split_type":[0,0,0,0,0,0,0,0,0],"sum_hessian":[1.916745E2,1.7631668E2,1.5357805E1,1.3685986E2,3.9456825E1,7.9328213E0,7.424984E0,3.152136E1,7.9354634E0],"tree_param":{"num_deleted":"0","num_feature":"7834","num_nodes":"9","size_leaf_vector":"0"}},{"base_weights":[-9.88751E-1,-1.1025554E0,-6.142392E-1,-9.1287893E-1,6.844058E-1,-1.0770794E0,-7.1982414E-1,-4.3681988E-1,-1.0229639E0,3.0724464E-2,-8.3703834E-1],"categories":[],"categories_nodes":[],"categories_segments":[],"categories_sizes":[],"default_left":[1,0,1,1,0,0,1,1,0,0,0],"id":31,"left_children":[1,-1,3,5,-1,-1,7,9,-1,-1,-1],"loss_changes":[7.096527E0,0E0,1.7985973E1,3.9200592E-1,0E0,0E0,1.2637873E0,2.2819471E0,0E0,0E0,0E0],"parents":[2147483647,0,0,2,2,3,3,6,6,7,7],"right_children":[2,-1,4,6,-1,-1,8,10,-1,-1,-1],"split_conditions":[1.275E1,-5.512777E-2,5E-1,1.5E0,3.422029E-2,-5.385397E-2,5E-1,1.5E0,-5.1148195E-2,1.5362232E-3,-4.185192E-2],"split_indices":[6967,0,5852,6621,0,0,7746,5733,0,0,0],"split_type":[0,0,0,0,0,0,0,0,0,0,0],"sum_hessian":[1.813925E2,1.376272E2,4.376531E1,3.582415E1,7.9411583E0,1.6884283E1,1.8939867E1,1.1057669E1,7.882198E0,5.525677E0,5.531991E0],"tree_param":{"num_deleted":"0","num_feature":"7834","num_nodes":"11","size_leaf_vector":"0"}},{"base_weights":[-9.86661E-1,-1.0690062E0,-5.2858734E-1,-1.0854088E0,-5.2952904E-1,-1.029228E0,5.686881E-1],"categories":[],"categories_nodes":[],"categories_segments":[],"categories_sizes":[],"default_left":[1,1,1,1,1,0,0],"id":32,"left_children":[1,-1,5,-1,-1,-1,-1],"loss_changes":[6.119629E0,7.458191E-1,1.6505947E1,0E0,0E0,0E0,0E0],"parents":[2147483647,0,0,1,1,2,2],"right_children":[2,-1,6,-1,-1,-1,-1],"split_conditions":[5E-1,-5.3450312E-2,1.225E1,-5.4270443E-2,-2.6476452E-2,-5.14614E-2,2.8434405E-2],"split_indices":[5852,1224,6967,2147483647,2147483647,0,0],"split_type":[0,0,0,0,0,0,0],"sum_hessian":[1.7621802E2,1.4823666E2,2.7981352E1,1.4288048E2,5.3561926E0,1.9257143E1,8.72421E0],"tree_param":{"num_deleted":"2","num_feature":"7834","num_nodes":"7","size_leaf_vector":"0"}},{"base_weights":[-9.694205E-1,-1.0601909E0,-4.7469997E-1,-1.0187017E0,6.637428E-1],"categories":[],"categories_nodes":[],"categories_segments":[],"categories_sizes":[],"default_left":[1,0,1,0,0],"id":33,"left_children":[1,-1,3,-1,-1],"loss_changes":[7.1562347E0,0E0,1.8174515E1,0E0,0E0],"parents":[2147483647,0,0,2,2],"right_children":[2,-1,4,-1,-1],"split_conditions":[5E-1,-5.3009547E-2,1.225E1,-5.0935086E-2,3.318714E-2],"split_indices":[5852,0,6967,0,0],"split_type":[0,0,0,0,0],"sum_hessian":[1.695677E2,1.4231331E2,2.7254387E1,1.851312E1,8.741265E0],"tree_param":{"num_deleted":"0","num_feature":"7834","num_nodes":"5","size_leaf_vector":"0"}},{"base_weights":[-9.7203034E-1,-1.0299709E0,-3.303271E-1,-1.0681658E0,-6.811427E-1,2.8761443E-1,-9.75649E-1,-2.650591E-1,-1.0124897E0],"categories":[],"categories_nodes":[],"categories_segments":[],"categories_sizes":[],"default_left":[1,1,1,0,1,0,0,0,0],"id":34,"left_children":[1,3,5,-1,7,-1,-1,-1,-1],"loss_changes":[5.7312317E0,1.2616272E0,6.2603483E0,0E0,2.1435385E0,0E0,0E0,0E0,0E0],"parents":[2147483647,0,0,1,1,2,2,4,4],"right_children":[2,4,6,-1,8,-1,-1,-1,-1],"split_conditions":[5E-1,5E-1,6.5E0,-5.340829E-2,5E-1,1.4380722E-2,-4.878245E-2,-1.3252956E-2,-5.0624486E-2],"split_indices":[933,5852,6940,0,7043,0,0,0,0],"split_type":[0,0,0,0,0,0,0,0,0],"sum_hessian":[1.6229634E2,1.4830092E2,1.3995409E1,1.3180661E2,1.6494322E1,7.4325366E0,6.562873E0,8.110118E0,8.384204E0],"tree_param":{"num_deleted":"0","num_feature":"7834","num_nodes":"9","size_leaf_vector":"0"}},{"base_weights":[-9.503431E-1,-1.0123081E0,-2.843931E-1,-1.0799631E0,-7.6126534E-1,2.5119564E-1,-1.0910485E0,-8.6671954E-1,-3.4969774E-1,-9.5126307E-1,-5.86693E-1],"categories":[],"categories_nodes":[],"categories_segments":[],"categories_sizes":[],"default_left":[1,1,1,0,1,0,0,1,0,1,1],"id":35,"left_children":[1,3,5,-1,7,-1,-1,-1,-1,-1,-1],"loss_changes":[6.1127777E0,1.5813751E0,6.579463E0,0E0,1.147831E0,0E0,0E0,5.5900574E-2,0E0,0E0,0E0],"parents":[2147483647,0,0,1,1,2,2,4,4,7,7],"right_children":[2,4,6,-1,8,-1,-1,-1,-1,-1,-1],"split_conditions":[5E-1,1.275E1,2.385E2,-5.3998154E-2,3.5E0,1.2559782E-2,-5.4552425E-2,-4.3335978E-2,-1.7484887E-2,-4.7563154E-2,-2.933465E-2],"split_indices":[933,6967,6742,0,7455,0,0,1383,0,2147483647,2147483647],"split_type":[0,0,0,0,0,0,0,0,0,0,0],"sum_hessian":[1.5410904E2,1.405144E2,1.3594623E1,1.0808424E2,3.2430164E1,8.583859E0,5.0107627E0,2.4935223E1,7.4949436E0,1.7311592E1,7.62363E0],"tree_param":{"num_deleted":"2","num_feature":"7834","num_nodes":"11","size_leaf_vector":"0"}},{"base_weights":[-9.3462586E-1,-1.0148457E0,-4.931417E-1,-1.0275638E0,-5.941287E-1,3.3924702E-1,-7.4188536E-1,-4.572796E-1,-1.0995584E0,-7.160741E-1,-8.7683834E-2],"categories":[],"categories_nodes":[],"categories_segments":[],"categories_sizes":[],"default_left":[1,1,1,1,1,0,1,1,0,0,0],"id":36,"left_children":[1,-1,5,-1,-1,-1,7,9,-1,-1,-1],"loss_changes":[4.8446503E0,6.782532E-2,5.4594827E0,0E0,0E0,0E0,1.5004387E0,1.1491716E0,0E0,0E0,0E0],"parents":[2147483647,0,0,1,1,2,2,6,6,7,7],"right_children":[2,-1,6,-1,-1,-1,8,10,-1,-1,-1],"split_conditions":[5E-1,-5.0742287E-2,2.35E1,-5.137819E-2,-2.9706437E-2,1.6962351E-2,2.5E0,7.5E0,-5.497792E-2,-3.5803705E-2,-4.3841917E-3],"split_indices":[5852,6148,6742,2147483647,2147483647,0,7043,5852,0,0,0],"split_type":[0,0,0,0,0,0,0,0,0,0,0],"sum_hessian":[1.4992474E2,1.2577254E2,2.4152212E1,1.2068197E2,5.090564E0,5.473155E0,1.8679056E1,1.1670861E1,7.008195E0,6.3129916E0,5.35787E0],"tree_param":{"num_deleted":"2","num_feature":"7834","num_nodes":"11","size_leaf_vector":"0"}},{"base_weights":[-9.286025E-1,-1.0553194E0,-5.230588E-1,-1.0725E0,-5.9456056E-1,-8.45673E-1,7.9590994E-1,-9.4749236E-1,-2.9386184E-1],"categories":[],"categories_nodes":[],"categories_segments":[],"categories_sizes":[],"default_left":[1,1,1,1,1,1,0,0,0],"id":37,"left_children":[1,-1,5,-1,-1,7,-1,-1,-1],"loss_changes":[6.890045E0,2.2801971E-1,1.6187359E1,0E0,0E0,1.3947182E0,0E0,0E0,0E0],"parents":[2147483647,0,0,1,1,2,2,5,5],"right_children":[2,-1,6,-1,-1,8,-1,-1,-1],"split_conditions":[1.275E1,-5.2765973E-2,5E-1,-5.3625E-2,-2.9728029E-2,1.05E1,3.97955E-2,-4.7374617E-2,-1.4693092E-2],"split_indices":[6967,7801,5852,2147483647,2147483647,6148,0,0,0],"split_type":[0,0,0,0,0,0,0,0,0],"sum_hessian":[1.4381697E2,1.0835723E2,3.545974E1,1.03182144E2,5.1750875E0,2.8779285E1,6.6804557E0,2.3690832E1,5.0884547E0],"tree_param":{"num_deleted":"2","num_feature":"7834","num_nodes":"9","size_leaf_vector":"0"}},{"base_weights":[-9.0462685E-1,-1.0492113E0,-4.847421E-1,-1.0671473E0,-5.853303E-1,-7.830447E-1,5.556413E-1,-1.0255725E0,-5.135807E-1,-1.1555732E-1,-9.6275043E-1],"categories":[],"categories_nodes":[],"categories_segments":[],"categories_sizes":[],"default_left":[1,1,1,1,1,1,0,0,1,0,0],"id":38,"left_children":[1,-1,5,-1,-1,7,-1,-1,9,-1,-1],"loss_changes":[8.102936E0,2.461319E-1,1.2288096E1,0E0,0E0,1.4402027E0,0E0,0E0,2.7956948E0,0E0,0E0],"parents":[2147483647,0,0,1,1,2,2,5,5,8,8],"right_children":[2,-1,6,-1,-1,8,-1,-1,10,-1,-1],"split_conditions":[1.275E1,-5.2460562E-2,5E-1,-5.3357363E-2,-2.9266516E-2,1.5E0,2.7782066E-2,-5.127863E-2,5E-1,-5.777866E-3,-4.8137523E-2],"split_indices":[6967,7801,5852,2147483647,2147483647,6621,0,0,7746,0,0],"split_type":[0,0,0,0,0,0,0,0,0,0,0],"sum_hessian":[1.4084981E2,1.0365731E2,3.7192497E1,9.854652E1,5.110792E0,2.9097036E1,8.095461E0,1.3837125E1,1.52599125E1,8.7571745E0,6.5027385E0],"tree_param":{"num_deleted":"2","num_feature":"7834","num_nodes":"11","size_leaf_vector":"0"}},{"base_weights":[-9.2720795E-1,-1.0148375E0,-4.5437694E-1,-1.0300454E0,-5.759174E-1,-9.601128E-1,4.714652E-1],"categories":[],"categories_nodes":[],"categories_segments":[],"categories_sizes":[],"default_left":[1,1,1,1,1,0,0],"id":39,"left_children":[1,-1,5,-1,-1,-1,-1],"loss_changes":[5.0706863E0,1.5320587E-1,1.1074591E1,0E0,0E0,0E0,0E0],"parents":[2147483647,0,0,1,1,2,2],"right_children":[2,-1,6,-1,-1,-1,-1],"split_conditions":[5E-1,-5.0741877E-2,1.225E1,-5.150227E-2,-2.8795872E-2,-4.800564E-2,2.357326E-2],"split_indices":[5852,6148,6967,2147483647,2147483647,0,0],"split_type":[0,0,0,0,0,0,0],"sum_hessian":[1.3250896E2,1.1082375E2,2.168521E1,1.05810814E2,5.012939E0,1.4000502E1,7.684708E0],"tree_param":{"num_deleted":"2","num_feature":"7834","num_nodes":"7","size_leaf_vector":"0"}},{"base_weights":[-8.935297E-1,-1.0371722E0,-4.8378253E-1,-1.0567048E0,-5.9057933E-1,-7.5265735E-1,4.4920832E-1,-1.0087914E0,-4.8724765E-1,-1.17106505E-1,-9.41727E-1],"categories":[],"categories_nodes":[],"categories_segments":[],"categories_sizes":[],"default_left":[1,1,1,1,1,1,0,0,1,0,0],"id":40,"left_children":[1,-1,5,-1,-1,7,-1,-1,9,-1,-1],"loss_changes":[7.171768E0,2.1038055E-1,9.297646E0,0E0,0E0,1.4186716E0,0E0,0E0,2.5365174E0,0E0,0E0],"parents":[2147483647,0,0,1,1,2,2,5,5,8,8],"right_children":[2,-1,6,-1,-1,8,-1,-1,10,-1,-1],"split_conditions":[1.275E1,-5.185861E-2,5E-1,-5.2835237E-2,-2.9528966E-2,1.5E0,2.2460416E-2,-5.0439574E-2,5E-1,-5.855325E-3,-4.708635E-2],"split_indices":[6967,7801,5852,2147483647,2147483647,6621,0,0,7746,0,0],"split_type":[0,0,0,0,0,0,0,0,0,0,0],"sum_hessian":[1.2937573E2,9.4660095E1,3.4715645E1,8.938456E1,5.275535E0,2.7099295E1,7.6163497E0,1.2365278E1,1.4734015E1,8.81362E0,5.920396E0],"tree_param":{"num_deleted":"2","num_feature":"7834","num_nodes":"11","size_leaf_vector":"0"}},{"base_weights":[-8.909691E-1,-1.041758E0,-4.6021605E-1,-1.0607803E0,-6.1305445E-1,-7.675331E-1,5.685688E-1,-9.002733E-1,-2.2645551E-1],"categories":[],"categories_nodes":[],"categories_segments":[],"categories_sizes":[],"default_left":[1,1,1,1,1,1,0,0,0],"id":41,"left_children":[1,-1,5,-1,-1,7,-1,-1,-1],"loss_changes":[7.584671E0,9.3170166E-2,1.11806555E1,0E0,0E0,1.7060623E0,0E0,0E0,0E0],"parents":[2147483647,0,0,1,1,2,2,5,5],"right_children":[2,-1,6,-1,-1,8,-1,-1,-1],"split_conditions":[1.275E1,-5.20879E-2,5E-1,-5.3039014E-2,-3.0652722E-2,5E-1,2.842844E-2,-4.5013666E-2,-1.1322776E-2],"split_indices":[6967,5852,5852,2147483647,2147483647,2199,0,0,0],"split_type":[0,0,0,0,0,0,0,0,0],"sum_hessian":[1.2315333E2,9.017005E1,3.2983276E1,8.492729E1,5.2427573E0,2.559232E1,7.390957E0,2.001763E1,5.57469E0],"tree_param":{"num_deleted":"2","num_feature":"7834","num_nodes":"9","size_leaf_vector":"0"}},{"base_weights":[-8.789606E-1,-1.0253162E0,-4.6853524E-1,-1.046607E0,-5.728352E-1,-7.9104894E-1,5.821566E-1,-9.65785E-1,-3.7270662E-1],"categories":[],"categories_nodes":[],"categories_segments":[],"categories_sizes":[],"default_left":[1,1,1,1,1,1,0,0,0],"id":42,"left_children":[1,-1,5,-1,-1,7,-1,-1,-1],"loss_changes":[6.7092667E0,2.4233246E-1,1.1745913E1,0E0,0E0,1.5337563E0,0E0,0E0,0E0],"parents":[2147483647,0,0,1,1,2,2,5,5],"right_children":[2,-1,6,-1,-1,8,-1,-1,-1],"split_conditions":[1.275E1,-5.1265813E-2,5E-1,-5.2330352E-2,-2.864176E-2,5E-1,2.910783E-2,-4.828925E-2,-1.863533E-2],"split_indices":[6967,7801,5852,2147483647,2147483647,3747,0,0,0],"split_type":[0,0,0,0,0,0,0,0,0],"sum_hessian":[1.1869195E2,8.638818E1,3.230377E1,8.125195E1,5.1362267E0,2.490592E1,7.3978477E0,1.6644945E1,8.260974E0],"tree_param":{"num_deleted":"2","num_feature":"7834","num_nodes":"9","size_leaf_vector":"0"}},{"base_weights":[-8.6355215E-1,-1.0200522E0,-4.3670198E-1,-1.0421082E0,-5.8808935E-1,-7.3030984E-1,4.190121E-1,-9.837553E-1,-4.7237888E-1,-6.706118E-2,-9.25556E-1],"categories":[],"categories_nodes":[],"categories_segments":[],"categories_sizes":[],"default_left":[1,1,1,1,1,1,0,0,1,0,0],"id":43,"left_children":[1,-1,5,-1,-1,7,-1,-1,9,-1,-1],"loss_changes":[7.325203E0,1.9095612E-1,8.585939E0,0E0,0E0,1.1631317E0,0E0,0E0,2.558173E0,0E0,0E0],"parents":[2147483647,0,0,1,1,2,2,5,5,8,8],"right_children":[2,-1,6,-1,-1,8,-1,-1,10,-1,-1],"split_conditions":[1.275E1,-5.100261E-2,5E-1,-5.210541E-2,-2.9404467E-2,1.5E0,2.0950606E-2,-4.9187765E-2,5E-1,-3.353059E-3,-4.6277802E-2],"split_indices":[6967,7801,5852,2147483647,2147483647,6621,0,0,7746,0,0],"split_type":[0,0,0,0,0,0,0,0,0,0,0],"sum_hessian":[1.1532363E2,8.336794E1,3.1955685E1,7.7974106E1,5.393838E0,2.390134E1,8.054346E0,1.063614E1,1.32652E1,7.608343E0,5.656856E0],"tree_param":{"num_deleted":"2","num_feature":"7834","num_nodes":"11","size_leaf_vector":"0"}},{"base_weights":[-8.573326E-1,-1.0150504E0,-4.2664894E-1,-1.0377363E0,-5.73308E-1,-6.877324E-1,3.8924247E-1,-8.22866E-1,-1.4970912E-1],"categories":[],"categories_nodes":[],"categories_segments":[],"categories_sizes":[],"default_left":[1,1,1,1,1,1,0,0,0],"id":44,"left_children":[1,-1,5,-1,-1,7,-1,-1,-1],"loss_changes":[7.200287E0,2.220993E-1,7.051629E0,0E0,0E0,1.6572151E0,0E0,0E0,0E0],"parents":[2147483647,0,0,1,1,2,2,5,5],"right_children":[2,-1,6,-1,-1,8,-1,-1,-1],"split_conditions":[1.275E1,-5.075252E-2,5E-1,-5.1886816E-2,-2.86654E-2,5E-1,1.9462124E-2,-4.1143302E-2,-7.4854563E-3],"split_indices":[6967,7801,5852,2147483647,2147483647,2199,0,0,0],"split_type":[0,0,0,0,0,0,0,0,0],"sum_hessian":[1.1137683E2,8.0529724E1,3.0847105E1,7.531282E1,5.216905E0,2.3488058E1,7.359048E0,1.8349777E1,5.1382813E0],"tree_param":{"num_deleted":"2","num_feature":"7834","num_nodes":"9","size_leaf_vector":"0"}},{"base_weights":[-8.4488475E-1,-9.1383374E-1,-1.6759825E-1,-9.570337E-1,-5.312054E-1,3.3843312E-1,-6.442893E-1,-9.13821E-1,1.2056489E-2],"categories":[],"categories_nodes":[],"categories_segments":[],"categories_sizes":[],"default_left":[1,1,1,0,1,0,0,0,0],"id":45,"left_children":[1,3,5,-1,7,-1,-1,-1,-1],"loss_changes":[4.886299E0,1.1068726E0,2.9186354E0,0E0,2.538818E0,0E0,0E0,0E0,0E0],"parents":[2147483647,0,0,1,1,2,2,4,4],"right_children":[2,4,6,-1,8,-1,-1,-1,-1],"split_conditions":[5E-1,2.5E0,2.5E0,-4.7851685E-2,5E-1,1.6921656E-2,-3.2214466E-2,-4.569105E-2,6.0282444E-4],"split_indices":[933,3253,3715,0,5098,0,0,0,0],"split_type":[0,0,0,0,0,0,0,0,0],"sum_hessian":[1.0691522E2,9.671972E1,1.0195503E1,8.555867E1,1.1161044E1,5.0862412E0,5.109262E0,6.1485577E0,5.012487E0],"tree_param":{"num_deleted":"0","num_feature":"7834","num_nodes":"9","size_leaf_vector":"0"}},{"base_weights":[-8.357019E-1,-1.0044886E0,-4.1415575E-1,-1.0293602E0,-5.654722E-1,-7.142029E-1,4.4715828E-1,-8.5947865E-1,-1.6610526E-1],"categories":[],"categories_nodes":[],"categories_segments":[],"categories_sizes":[],"default_left":[1,1,1,1,1,1,0,0,0],"id":46,"left_children":[1,-1,5,-1,-1,7,-1,-1,-1],"loss_changes":[7.0137024E0,2.2444916E-1,8.474907E0,0E0,0E0,1.7514706E0,0E0,0E0,0E0],"parents":[2147483647,0,0,1,1,2,2,5,5],"right_children":[2,-1,6,-1,-1,8,-1,-1,-1],"split_conditions":[1.275E1,-5.022443E-2,5E-1,-5.146801E-2,-2.827361E-2,5E-1,2.2357915E-2,-4.2973932E-2,-8.305263E-3],"split_indices":[6967,7801,5852,2147483647,2147483647,2199,0,0,0],"split_type":[0,0,0,0,0,0,0,0,0],"sum_hessian":[1.0342123E2,7.286377E1,3.0557453E1,6.768455E1,5.179223E0,2.2789358E1,7.7680964E0,1.7565445E1,5.223912E0],"tree_param":{"num_deleted":"2","num_feature":"7834","num_nodes":"9","size_leaf_vector":"0"}},{"base_weights":[-8.116604E-1,-9.991806E-1,-3.4346002E-1,-1.0250231E0,-5.52146E-1,-6.367302E-1,3.960143E-1,-9.574219E-1,-3.5652128E-1,-5.693372E-1,-4.195927E-2],"categories":[],"categories_nodes":[],"categories_segments":[],"categories_sizes":[],"default_left":[1,1,1,1,1,1,0,0,1,1,1],"id":47,"left_children":[1,-1,5,-1,-1,7,-1,-1,-1,-1,-1],"loss_changes":[8.451813E0,2.5429535E-1,6.795242E0,0E0,0E0,1.6344118E0,0E0,0E0,8.6829543E-1,0E0,0E0],"parents":[2147483647,0,0,1,1,2,2,5,5,8,8],"right_children":[2,-1,6,-1,-1,8,-1,-1,-1,-1,-1],"split_conditions":[1.275E1,-4.995903E-2,5E-1,-5.1251154E-2,-2.7607301E-2,1.5E0,1.9800715E-2,-4.7871094E-2,-1.7826064E-2,-2.846686E-2,-2.0979636E-3],"split_indices":[6967,7801,5852,2147483647,2147483647,6621,0,0,1383,2147483647,2147483647],"split_type":[0,0,0,0,0,0,0,0,0,0,0],"sum_hessian":[9.917404E1,7.00029E1,2.917114E1,6.495499E1,5.0479083E0,2.098685E1,8.184292E0,8.659485E0,1.2327365E1,6.8697333E0,5.457632E0],"tree_param":{"num_deleted":"4","num_feature":"7834","num_nodes":"11","size_leaf_vector":"0"}},{"base_weights":[-8.097747E-1,-1.0067345E0,-3.6564705E-1,-1.0357473E0,-5.5013216E-1,-6.925684E-1,5.2364427E-1,-9.614029E-1,-4.3789643E-1,-5.9936357E-1,-1.513141E-1],"categories":[],"categories_nodes":[],"categories_segments":[],"categories_sizes":[],"default_left":[1,1,1,1,1,1,0,0,1,1,1],"id":48,"left_children":[1,-1,5,-1,-1,7,-1,-1,-1,-1,-1],"loss_changes":[8.017998E0,3.0246735E-1,9.382146E0,0E0,0E0,1.1615677E0,0E0,0E0,5.435643E-1,0E0,0E0],"parents":[2147483647,0,0,1,1,2,2,5,5,8,8],"right_children":[2,-1,6,-1,-1,8,-1,-1,-1,-1,-1],"split_conditions":[1.2416666E1,-5.0336726E-2,5E-1,-5.1787365E-2,-2.7506609E-2,1.5E0,2.6182214E-2,-4.8070144E-2,-2.1894822E-2,-2.9968178E-2,-7.5657046E-3],"split_indices":[6967,7801,5852,2147483647,2147483647,6621,0,0,1383,2147483647,2147483647],"split_type":[0,0,0,0,0,0,0,0,0,0,0],"sum_hessian":[9.486833E1,6.4844574E1,3.0023762E1,5.977787E1,5.066703E0,2.211504E1,7.908721E0,9.408385E0,1.2706655E1,7.4293623E0,5.2772927E0],"tree_param":{"num_deleted":"4","num_feature":"7834","num_nodes":"11","size_leaf_vector":"0"}},{"base_weights":[-8.184113E-1,-1.0182997E0,-3.3898064E-1,-6.160571E-1,4.3838534E-1,-7.901098E-1,-2.0545906E-1],"categories":[],"categories_nodes":[],"categories_segments":[],"categories_sizes":[],"default_left":[1,0,1,1,0,0,0],"id":49,"left_children":[1,-1,3,5,-1,-1,-1],"loss_changes":[8.386944E0,0E0,6.367854E0,1.3589582E0,0E0,0E0,0E0],"parents":[2147483647,0,0,2,2,3,3],"right_children":[2,-1,4,6,-1,-1,-1],"split_conditions":[1.275E1,-5.0914984E-2,5E-1,5E-1,2.1919267E-2,-3.9505493E-2,-1.0272953E-2],"split_indices":[6967,0,5852,3747,0,0,0],"split_type":[0,0,0,0,0,0,0],"sum_hessian":[9.011851E1,6.2808052E1,2.7310455E1,2.028705E1,7.0234046E0,1.3598395E1,6.6886544E0],"tree_param":{"num_deleted":"0","num_feature":"7834","num_nodes":"7","size_leaf_vector":"0"}},{"base_weights":[-8.033778E-1,-8.9717937E-1,-2.0803954E-1,-9.380402E-1,-6.1658674E-1,3.1167355E-1,-8.22563E-1,-2.2814788E-1,-9.67469E-1],"categories":[],"categories_nodes":[],"categories_segments":[],"categories_sizes":[],"default_left":[1,1,1,0,1,0,0,0,0],"id":50,"left_children":[1,3,5,-1,7,-1,-1,-1,-1],"loss_changes":[4.8195915E0,3.0608368E-1,4.5692744E0,0E0,1.5135107E0,0E0,0E0,0E0,0E0],"parents":[2147483647,0,0,1,1,2,2,4,4],"right_children":[2,4,6,-1,8,-1,-1,-1,-1],"split_conditions":[1.5E0,5E-1,6.5E0,-4.6902012E-2,2.5E0,1.5583678E-2,-4.112815E-2,-1.1407394E-2,-4.837345E-2],"split_indices":[5852,3420,6940,0,1383,0,0,0,0],"split_type":[0,0,0,0,0,0,0,0,0],"sum_hessian":[8.86475E1,7.614334E1,1.250416E1,6.441932E1,1.1724019E1,7.0416965E0,5.462464E0,6.347418E0,5.376601E0],"tree_param":{"num_deleted":"0","num_feature":"7834","num_nodes":"9","size_leaf_vector":"0"}},{"base_weights":[-7.9462683E-1,-9.933902E-1,-3.840981E-1,-1.0261239E0,-5.7995147E-1,-6.758216E-1,4.281079E-1,-7.698663E-1,-3.0813777E-1],"categories":[],"categories_nodes":[],"categories_segments":[],"categories_sizes":[],"default_left":[1,1,1,1,1,1,0,1,1],"id":51,"left_children":[1,-1,5,-1,-1,-1,-1,-1,-1],"loss_changes":[6.680271E0,1.8552017E-1,7.365011E0,0E0,0E0,5.3592396E-1,0E0,0E0,0E0],"parents":[2147483647,0,0,1,1,2,2,5,5],"right_children":[2,-1,6,-1,-1,-1,-1,-1,-1],"split_conditions":[1.2416666E1,-4.966951E-2,5E-1,-5.1306196E-2,-2.8997574E-2,-3.379108E-2,2.1405395E-2,-3.8493317E-2,-1.5406889E-2],"split_indices":[6967,7801,5852,2147483647,2147483647,2199,0,2147483647,2147483647],"split_type":[0,0,0,0,0,0,0,0,0],"sum_hessian":[8.554409E1,5.6681255E1,2.8862831E1,5.1149605E1,5.531649E0,2.1359108E1,7.503723E0,1.6137655E1,5.2214527E0],"tree_param":{"num_deleted":"4","num_feature":"7834","num_nodes":"9","size_leaf_vector":"0"}},{"base_weights":[-7.5886333E-1,-9.914812E-1,-2.3448128E-1,-1.0223227E0,-5.94096E-1,-6.1259836E-1,6.818457E-1,-9.338048E-1,-3.2302803E-1,3.9824948E-2,-6.151406E-1],"categories":[],"categories_nodes":[],"categories_segments":[],"categories_sizes":[],"default_left":[1,1,1,1,1,1,0,0,1,0,0],"id":52,"left_children":[1,-1,5,-1,-1,7,-1,-1,9,-1,-1],"loss_changes":[9.851788E0,9.070587E-2,9.673424E0,0E0,0E0,1.5062404E0,0E0,0E0,1.2700163E0,0E0,0E0],"parents":[2147483647,0,0,1,1,2,2,5,5,8,8],"right_children":[2,-1,6,-1,-1,8,-1,-1,10,-1,-1],"split_conditions":[1.275E1,-4.957406E-2,5E-1,-5.1116135E-2,-2.97048E-2,1.5E0,3.409229E-2,-4.669024E-2,5E-1,1.9912475E-3,-3.075703E-2],"split_indices":[6967,5852,5852,2147483647,2147483647,6621,0,0,5733,0,0],"split_type":[0,0,0,0,0,0,0,0,0,0,0],"sum_hessian":[8.16711E1,5.5957417E1,2.5713678E1,5.0467934E1,5.4894853E0,1.8437155E1,7.2765236E0,7.686309E0,1.0750847E1,5.180036E0,5.5708103E0],"tree_param":{"num_deleted":"2","num_feature":"7834","num_nodes":"11","size_leaf_vector":"0"}},{"base_weights":[-7.4921155E-1,-9.836608E-1,-2.9389626E-1,-1.0196087E0,-5.4322517E-1,-5.9858435E-1,4.9063352E-1,-9.36238E-1,-3.1483534E-1,-5.47611E-1,3.212975E-2],"categories":[],"categories_nodes":[],"categories_segments":[],"categories_sizes":[],"default_left":[1,1,1,1,1,1,0,0,1,0,0],"id":53,"left_children":[1,-1,5,-1,-1,7,-1,-1,9,-1,-1],"loss_changes":[8.251873E0,2.7558136E-1,7.135251E0,0E0,0E0,1.723505E0,0E0,0E0,1.0637525E0,0E0,0E0],"parents":[2147483647,0,0,1,1,2,2,5,5,8,8],"right_children":[2,-1,6,-1,-1,8,-1,-1,10,-1,-1],"split_conditions":[1.2416666E1,-4.918304E-2,5E-1,-5.0980438E-2,-2.716126E-2,1.5E0,2.4531676E-2,-4.68119E-2,5E-1,-2.738055E-2,1.6064876E-3],"split_indices":[6967,7801,5852,2147483647,2147483647,6621,0,0,1383,0,0],"split_type":[0,0,0,0,0,0,0,0,0,0,0],"sum_hessian":[7.901029E1,5.1388912E1,2.7621384E1,4.6295334E1,5.0935783E0,2.0065538E1,7.5558453E0,8.112434E0,1.1953104E1,6.8076353E0,5.1454687E0],"tree_param":{"num_deleted":"2","num_feature":"7834","num_nodes":"11","size_leaf_vector":"0"}},{"base_weights":[-7.359441E-1,-9.7969E-1,-2.7176017E-1,-1.0166954E0,-5.4476285E-1,-5.7394093E-1,4.2031303E-1,-9.310989E-1,-2.6625684E-1,6.404919E-2,-5.118524E-1],"categories":[],"categories_nodes":[],"categories_segments":[],"categories_sizes":[],"default_left":[1,1,1,1,1,1,0,0,1,0,0],"id":54,"left_children":[1,-1,5,-1,-1,7,-1,-1,9,-1,-1],"loss_changes":[8.551617E0,2.6242447E-1,6.142439E0,0E0,0E0,1.9569936E0,0E0,0E0,1.0207793E0,0E0,0E0],"parents":[2147483647,0,0,1,1,2,2,5,5,8,8],"right_children":[2,-1,6,-1,-1,8,-1,-1,10,-1,-1],"split_conditions":[1.2416666E1,-4.89845E-2,5E-1,-5.083477E-2,-2.7238144E-2,1.5E0,2.1015652E-2,-4.6554945E-2,5E-1,3.2024595E-3,-2.559262E-2],"split_indices":[6967,7801,5852,2147483647,2147483647,6621,0,0,5733,0,0],"split_type":[0,0,0,0,0,0,0,0,0,0,0],"sum_hessian":[7.693553E1,4.9717827E1,2.7217709E1,4.4586597E1,5.1312284E0,1.9064323E1,8.153386E0,7.885143E0,1.117918E1,5.0826445E0,6.096535E0],"tree_param":{"num_deleted":"2","num_feature":"7834","num_nodes":"11","size_leaf_vector":"0"}},{"base_weights":[-7.323874E-1,-9.741896E-1,-3.075363E-1,-1.0131292E0,-5.628554E-1,-5.8278745E-1,3.2481277E-1,-9.235968E-1,-3.1511605E-1,-5.5478305E-1,5.4018572E-2],"categories":[],"categories_nodes":[],"categories_segments":[],"categories_sizes":[],"default_left":[1,1,1,1,1,1,0,0,1,0,0],"id":55,"left_children":[1,-1,5,-1,-1,7,-1,-1,9,-1,-1],"loss_changes":[7.471073E0,1.9448471E-1,5.2190237E0,0E0,0E0,1.57829E0,0E0,0E0,1.1796378E0,0E0,0E0],"parents":[2147483647,0,0,1,1,2,2,5,5,8,8],"right_children":[2,-1,6,-1,-1,8,-1,-1,10,-1,-1],"split_conditions":[1.2416666E1,-4.870948E-2,5E-1,-5.0656464E-2,-2.814277E-2,1.5E0,1.624064E-2,-4.6179842E-2,5E-1,-2.7739152E-2,2.7009286E-3],"split_indices":[6967,7801,5852,2147483647,2147483647,6621,0,0,3747,0,0],"split_type":[0,0,0,0,0,0,0,0,0,0,0],"sum_hessian":[7.4641754E1,4.674438E1,2.7897373E1,4.136542E1,5.3789606E0,1.9491444E1,8.405929E0,7.496338E0,1.1995106E1,6.9680505E0,5.0270557E0],"tree_param":{"num_deleted":"2","num_feature":"7834","num_nodes":"11","size_leaf_vector":"0"}},{"base_weights":[-7.8594106E-1,-8.8862133E-1,-3.3768E-3,-9.8911273E-1,-6.194227E-1,-4.4514284E-1,-9.431017E-1,-1.5489917E-1,-5.781548E-1],"categories":[],"categories_nodes":[],"categories_segments":[],"categories_sizes":[],"default_left":[1,1,0,0,1,1,1,1,1],"id":56,"left_children":[1,3,-1,-1,-1,-1,-1,-1,-1],"loss_changes":[5.716831E0,1.089508E0,0E0,0E0,6.959615E-1,4.799137E-1,0E0,0E0,0E0],"parents":[2147483647,0,0,1,1,4,4,5,5],"right_children":[2,4,-1,-1,-1,-1,-1,-1,-1],"split_conditions":[5E-1,1.275E1,-1.6884001E-4,-4.945564E-2,-3.0971134E-2,-2.2257142E-2,-4.7155086E-2,-7.744958E-3,-2.890774E-2],"split_indices":[933,6967,0,0,7043,2147483647,2147483647,2147483647,2147483647],"split_type":[0,0,0,0,0,0,0,0,0],"sum_hessian":[7.018294E1,6.1922554E1,8.260386E0,4.3143044E1,1.877951E1,1.3750847E1,5.028663E0,5.0015597E0,8.749287E0],"tree_param":{"num_deleted":"4","num_feature":"7834","num_nodes":"9","size_leaf_vector":"0"}},{"base_weights":[-7.289341E-1,-9.6795535E-1,-2.6739442E-1,-1.0088328E0,-5.4873985E-1,4.6297754E-3,-9.5126355E-1,-2.165858E-1,4.9135768E-1,-4.9700186E-1,1.6348763E-1],"categories":[],"categories_nodes":[],"categories_segments":[],"categories_sizes":[],"default_left":[1,1,1,1,1,1,0,1,0,0,0],"id":57,"left_children":[1,-1,5,-1,-1,7,-1,9,-1,-1,-1],"loss_changes":[7.3930206E0,2.2294998E-1,4.663861E0,0E0,0E0,2.1429625E0,0E0,1.5411817E0,0E0,0E0,0E0],"parents":[2147483647,0,0,1,1,2,2,5,5,7,7],"right_children":[2,-1,6,-1,-1,8,-1,10,-1,-1,-1],"split_conditions":[1.275E1,-4.839777E-2,3.5E0,-5.044164E-2,-2.7436992E-2,5E-1,-4.7563177E-2,1.35E1,2.4567885E-2,-2.4850093E-2,8.174381E-3],"split_indices":[6967,7801,6940,2147483647,2147483647,5807,0,6742,0,0,0],"split_type":[0,0,0,0,0,0,0,0,0,0,0],"sum_hessian":[6.836185E1,4.4314903E1,2.4046946E1,3.9096176E1,5.218727E0,1.7914345E1,6.1326003E0,1.2698123E1,5.2162213E0,7.1300006E0,5.568122E0],"tree_param":{"num_deleted":"2","num_feature":"7834","num_nodes":"11","size_leaf_vector":"0"}},{"base_weights":[-7.291841E-1,-8.9010715E-1,-1.6513132E-1,-9.2911583E-1,-5.713248E-1,3.7603104E-1,-9.3499357E-1],"categories":[],"categories_nodes":[],"categories_segments":[],"categories_sizes":[],"default_left":[1,1,1,1,1,0,0],"id":58,"left_children":[1,-1,5,-1,-1,-1,-1],"loss_changes":[6.017475E0,1.2340927E-1,7.1435747E0,0E0,0E0,0E0,0E0],"parents":[2147483647,0,0,1,1,2,2],"right_children":[2,-1,6,-1,-1,-1,-1],"split_conditions":[5E-1,-4.4505358E-2,6.5E0,-4.6455793E-2,-2.8566241E-2,1.8801553E-2,-4.6749678E-2],"split_indices":[5852,3420,6940,2147483647,2147483647,0,0],"split_type":[0,0,0,0,0,0,0],"sum_hessian":[6.691361E1,5.161104E1,1.5302578E1,4.4278236E1,7.332803E0,9.286407E0,6.0161705E0],"tree_param":{"num_deleted":"2","num_feature":"7834","num_nodes":"7","size_leaf_vector":"0"}},{"base_weights":[-7.159137E-1,-9.584821E-1,-2.7481973E-1,-1.0032336E0,-5.3113645E-1,-5.6102717E-1,4.3044844E-1,-9.007995E-1,-2.8946322E-1],"categories":[],"categories_nodes":[],"categories_segments":[],"categories_sizes":[],"default_left":[1,1,1,1,1,1,0,0,0],"id":59,"left_children":[1,-1,5,-1,-1,7,-1,-1,-1],"loss_changes":[6.6589127E0,2.5775146E-1,5.158042E0,0E0,0E0,1.3779755E0,0E0,0E0,0E0],"parents":[2147483647,0,0,1,1,2,2,5,5],"right_children":[2,-1,6,-1,-1,8,-1,-1,-1],"split_conditions":[1.2416666E1,-4.7924105E-2,5E-1,-5.016168E-2,-2.6556823E-2,1.5E0,2.1522423E-2,-4.5039978E-2,-1.4473162E-2],"split_indices":[6967,7801,5852,2147483647,2147483647,6621,0,0,0],"split_type":[0,0,0,0,0,0,0,0,0],"sum_hessian":[6.3697346E1,4.034027E1,2.335707E1,3.5296448E1,5.0438247E0,1.6760109E1,6.596962E0,6.4157915E0,1.0344317E1],"tree_param":{"num_deleted":"2","num_feature":"7834","num_nodes":"9","size_leaf_vector":"0"}},{"base_weights":[-7.1396846E-1,-9.785396E-1,-2.723538E-1,-5.187632E-2,-8.0369294E-1,-4.2302135E-1,1.2252679E-1,-3.1487504E-1,4.7992375E-1],"categories":[],"categories_nodes":[],"categories_segments":[],"categories_sizes":[],"default_left":[1,0,1,1,0,0,1,0,0],"id":60,"left_children":[1,-1,3,5,-1,-1,7,-1,-1],"loss_changes":[7.128624E0,0E0,2.8985572E0,1.2691959E0,0E0,0E0,2.2724924E0,0E0,0E0],"parents":[2147483647,0,0,2,2,3,3,6,6],"right_children":[2,-1,4,6,-1,-1,8,-1,-1],"split_conditions":[1.2416666E1,-4.892698E-2,3.5E0,3.5E0,-4.0184647E-2,-2.1151068E-2,1.5E0,-1.5743753E-2,2.3996187E-2],"split_indices":[6967,0,6940,6742,0,0,6621,0,0],"split_type":[0,0,0,0,0,0,0,0,0],"sum_hessian":[6.229368E1,3.8195152E1,2.4098524E1,1.780714E1,6.2913823E0,5.2369394E0,1.2570202E1,5.7059393E0,6.864262E0],"tree_param":{"num_deleted":"0","num_feature":"7834","num_nodes":"9","size_leaf_vector":"0"}},{"base_weights":[-6.774685E-1,-9.505183E-1,-2.0782018E-1,-9.9805707E-1,-5.3295684E-1,-4.929536E-1,3.0996713E-1,-8.8601696E-1,-1.7555125E-1],"categories":[],"categories_nodes":[],"categories_segments":[],"categories_sizes":[],"default_left":[1,1,1,1,1,1,0,0,0],"id":61,"left_children":[1,-1,5,-1,-1,7,-1,-1,-1],"loss_changes":[7.6500416E0,2.3068237E-1,3.6633713E0,0E0,0E0,1.8056872E0,0E0,0E0,0E0],"parents":[2147483647,0,0,1,1,2,2,5,5],"right_children":[2,-1,6,-1,-1,8,-1,-1,-1],"split_conditions":[1.275E1,-4.7525916E-2,5E-1,-4.9902853E-2,-2.6647842E-2,1.5E0,1.5498357E-2,-4.430085E-2,-8.7775625E-3],"split_indices":[6967,7801,5852,2147483647,2147483647,6621,0,0,0],"split_type":[0,0,0,0,0,0,0,0,0],"sum_hessian":[6.019572E1,3.7417553E1,2.2778166E1,3.234493E1,5.072626E0,1.4720107E1,8.058059E0,5.775904E0,8.944202E0],"tree_param":{"num_deleted":"2","num_feature":"7834","num_nodes":"9","size_leaf_vector":"0"}},{"base_weights":[-6.947148E-1,-8.6742973E-1,-1.03556074E-1,-9.3734336E-1,-3.7601757E-1,6.321515E-1,-5.6386733E-1],"categories":[],"categories_nodes":[],"categories_segments":[],"categories_sizes":[],"default_left":[1,1,1,0,0,0,0],"id":62,"left_children":[1,3,5,-1,-1,-1,-1],"loss_changes":[6.050375E0,1.241848E0,5.3458476E0,0E0,0E0,0E0,0E0],"parents":[2147483647,0,0,1,1,2,2],"right_children":[2,4,6,-1,-1,-1,-1],"split_conditions":[5E-1,5E-1,3.1E1,-4.686717E-2,-1.8800879E-2,3.1607576E-2,-2.8193368E-2],"split_indices":[5852,3420,6742,0,0,0,0],"split_type":[0,0,0,0,0,0,0],"sum_hessian":[5.9137974E1,4.540497E1,1.3733005E1,3.8955315E1,6.449654E0,5.1417394E0,8.591266E0],"tree_param":{"num_deleted":"0","num_feature":"7834","num_nodes":"7","size_leaf_vector":"0"}},{"base_weights":[-6.535354E-1,-9.3970746E-1,-2.2856879E-1,-9.911897E-1,-5.7213974E-1,-5.280456E-1,3.409726E-1,-7.6561E-1,-8.387853E-2],"categories":[],"categories_nodes":[],"categories_segments":[],"categories_sizes":[],"default_left":[1,1,1,1,1,1,0,0,0],"id":63,"left_children":[1,-1,5,-1,-1,7,-1,-1,-1],"loss_changes":[6.9535656E0,9.337044E-2,4.4511833E0,0E0,0E0,1.7089086E0,0E0,0E0,0E0],"parents":[2147483647,0,0,1,1,2,2,5,5],"right_children":[2,-1,6,-1,-1,8,-1,-1,-1],"split_conditions":[1.2416666E1,-4.6985373E-2,5E-1,-4.9559485E-2,-2.8606987E-2,5E-1,1.704863E-2,-3.82805E-2,-4.1939267E-3],"split_indices":[6967,7801,5852,2147483647,2147483647,3747,0,0,0],"split_type":[0,0,0,0,0,0,0,0,0],"sum_hessian":[5.7943707E1,3.390253E1,2.4041178E1,2.8249264E1,5.6532664E0,1.5803975E1,8.237203E0,9.825221E0,5.9787545E0],"tree_param":{"num_deleted":"2","num_feature":"7834","num_nodes":"9","size_leaf_vector":"0"}},{"base_weights":[-6.411065E-1,-9.378889E-1,-1.6426814E-1,-9.901241E-1,-5.448329E-1,9.123226E-2,-8.572085E-1,-1.5469615E-1,2.6822942E-1],"categories":[],"categories_nodes":[],"categories_segments":[],"categories_sizes":[],"default_left":[1,1,1,1,1,1,0,1,1],"id":64,"left_children":[1,-1,5,-1,-1,-1,-1,-1,-1],"loss_changes":[7.8078613E0,1.6817093E-1,4.1141024E0,0E0,0E0,8.0579436E-1,0E0,0E0,0E0],"parents":[2147483647,0,0,1,1,2,2,5,5],"right_children":[2,-1,6,-1,-1,-1,-1,-1,-1],"split_conditions":[1.275E1,-4.6894446E-2,3.5E0,-4.9506206E-2,-2.7241645E-2,4.5616133E-3,-4.2860426E-2,-7.7348077E-3,1.3411472E-2],"split_indices":[6967,7801,6940,2147483647,2147483647,6621,0,2147483647,2147483647],"split_type":[0,0,0,0,0,0,0,0,0],"sum_hessian":[5.526117E1,3.3465485E1,2.1795685E1,2.8198942E1,5.2665424E0,1.6558565E1,5.23712E0,6.9825997E0,9.575966E0],"tree_param":{"num_deleted":"4","num_feature":"7834","num_nodes":"9","size_leaf_vector":"0"}},{"base_weights":[-6.412543E-1,-9.285781E-1,-2.3041448E-1,-9.854562E-1,-5.315191E-1,-4.6564004E-1,3.6636576E-1,-6.132552E-1,-1.6540281E-1],"categories":[],"categories_nodes":[],"categories_segments":[],"categories_sizes":[],"default_left":[1,1,1,1,1,1,0,1,1],"id":65,"left_children":[1,-1,5,-1,-1,-1,-1,-1,-1],"loss_changes":[6.1860847E0,1.89291E-1,3.4895196E0,0E0,0E0,6.696737E-1,0E0,0E0,0E0],"parents":[2147483647,0,0,1,1,2,2,5,5],"right_children":[2,-1,6,-1,-1,-1,-1,-1,-1],"split_conditions":[1.2416666E1,-4.6428904E-2,1.5E0,-4.9272813E-2,-2.6575956E-2,-2.3282003E-2,1.8318288E-2,-3.066276E-2,-8.270141E-3],"split_indices":[6967,7801,5852,2147483647,2147483647,3747,0,2147483647,2147483647],"split_type":[0,0,0,0,0,0,0,0,0],"sum_hessian":[5.3217403E1,3.0574625E1,2.2642778E1,2.5447426E1,5.1271996E0,1.6398808E1,6.243971E0,1.0294719E1,6.1040897E0],"tree_param":{"num_deleted":"4","num_feature":"7834","num_nodes":"9","size_leaf_vector":"0"}},{"base_weights":[-6.313584E-1,-8.293626E-1,-3.308219E-2,-9.101819E-1,-3.2538283E-1,-7.03634E-1,4.4288093E-1],"categories":[],"categories_nodes":[],"categories_segments":[],"categories_sizes":[],"default_left":[1,1,1,0,0,0,0],"id":66,"left_children":[1,3,5,-1,-1,-1,-1],"loss_changes":[6.1505547E0,1.2981586E0,4.7829475E0,0E0,0E0,0E0,0E0],"parents":[2147483647,0,0,1,1,2,2],"right_children":[2,4,6,-1,-1,-1,-1],"split_conditions":[5E-1,5E-1,1.225E1,-4.5509096E-2,-1.6269142E-2,-3.51817E-2,2.2144048E-2],"split_indices":[5852,3420,6967,0,0,0,0],"split_type":[0,0,0,0,0,0,0],"sum_hessian":[5.115203E1,3.814229E1,1.3009745E1,3.2176414E1,5.9658713E0,5.202276E0,7.807468E0],"tree_param":{"num_deleted":"0","num_feature":"7834","num_nodes":"7","size_leaf_vector":"0"}},{"base_weights":[-6.158302E-1,-9.5339406E-1,-1.4764085E-1,-4.365405E-1,3.4063327E-1,-7.032038E-1,-1.9761547E-3],"categories":[],"categories_nodes":[],"categories_segments":[],"categories_sizes":[],"default_left":[1,0,1,1,0,0,0],"id":67,"left_children":[1,-1,3,5,-1,-1,-1],"loss_changes":[7.892008E0,0E0,3.3192806E0,1.6858068E0,0E0,0E0,0E0],"parents":[2147483647,0,0,2,2,3,3],"right_children":[2,-1,4,6,-1,-1,-1],"split_conditions":[1.2416666E1,-4.7669705E-2,5E-1,5E-1,1.7031664E-2,-3.516019E-2,-9.880774E-5],"split_indices":[6967,0,5852,1383,0,0,0],"split_type":[0,0,0,0,0,0,0],"sum_hessian":[4.9826202E1,2.8349737E1,2.1476463E1,1.3559561E1,7.9169035E0,8.020023E0,5.539537E0],"tree_param":{"num_deleted":"0","num_feature":"7834","num_nodes":"7","size_leaf_vector":"0"}},{"base_weights":[-6.84356E-1,-9.192293E-1,-3.0950403E-1,-9.794749E-1,-5.281681E-1,-5.4563105E-1,1.573995E-1,-7.932741E-1,-1.4079766E-1],"categories":[],"categories_nodes":[],"categories_segments":[],"categories_sizes":[],"default_left":[1,1,1,1,1,1,0,0,0],"id":68,"left_children":[1,-1,5,-1,-1,7,-1,-1,-1],"loss_changes":[4.0067654E0,1.7668533E-1,2.322067E0,0E0,0E0,1.2612414E0,0E0,0E0,0E0],"parents":[2147483647,0,0,1,1,2,2,5,5],"right_children":[2,-1,6,-1,-1,8,-1,-1,-1],"split_conditions":[1.275E1,-4.5961466E-2,5E-1,-4.8973747E-2,-2.6408404E-2,5E-1,7.869976E-3,-3.9663706E-2,-7.039883E-3],"split_indices":[6967,7801,5852,2147483647,2147483647,1383,0,0,0],"split_type":[0,0,0,0,0,0,0,0,0],"sum_hessian":[4.7740757E1,2.8457634E1,1.9283125E1,2.3354986E1,5.1026473E0,1.2694515E1,6.58861E0,7.281064E0,5.4134507E0],"tree_param":{"num_deleted":"2","num_feature":"7834","num_nodes":"9","size_leaf_vector":"0"}},{"base_weights":[-5.968698E-1,-7.80756E-1,-1.8975936E-2,-8.5439074E-1,-4.107466E-1,6.286144E-1,-6.306499E-1,-9.3215275E-1,-5.781239E-1],"categories":[],"categories_nodes":[],"categories_segments":[],"categories_sizes":[],"default_left":[1,1,1,1,1,0,0,1,1],"id":69,"left_children":[1,-1,5,-1,-1,-1,-1,-1,-1],"loss_changes":[4.999861E0,6.237316E-1,5.314588E0,8.2178116E-2,0E0,0E0,0E0,0E0,0E0],"parents":[2147483647,0,0,1,1,2,2,3,3],"right_children":[2,-1,6,-1,-1,-1,-1,-1,-1],"split_conditions":[5E-1,-3.90378E-2,5.05E1,-4.271954E-2,-2.053733E-2,3.143072E-2,-3.1532496E-2,-4.660764E-2,-2.8906196E-2],"split_indices":[5852,1415,6742,2147483647,2147483647,0,0,2147483647,2147483647],"split_type":[0,0,0,0,0,0,0,0,0],"sum_hessian":[4.6189537E1,3.477354E1,1.14159975E1,2.7910107E1,6.863434E0,5.531744E0,5.8842535E0,1.992705E1,7.9830565E0],"tree_param":{"num_deleted":"4","num_feature":"7834","num_nodes":"9","size_leaf_vector":"0"}},{"base_weights":[-6.0665107E-1,-9.4105864E-1,-1.9508141E-1,1.3753968E-1,-9.2168796E-1,-3.349623E-1,9.7730064E-1],"categories":[],"categories_nodes":[],"categories_segments":[],"categories_sizes":[],"default_left":[1,0,1,1,0,0,0],"id":70,"left_children":[1,-1,3,5,-1,-1,-1],"loss_changes":[6.3007107E0,0E0,5.536034E0,6.7646065E0,0E0,0E0,0E0],"parents":[2147483647,0,0,2,2,3,3],"right_children":[2,-1,4,6,-1,-1,-1],"split_conditions":[1.2416666E1,-4.705293E-2,1.5E0,5E-1,-4.60844E-2,-1.6748115E-2,4.886503E-2],"split_indices":[6967,0,6940,5852,0,0,0],"split_type":[0,0,0,0,0,0,0],"sum_hessian":[4.6113262E1,2.473176E1,2.1381502E1,1.5223363E1,6.1581397E0,1.01266165E1,5.0967455E0],"tree_param":{"num_deleted":"0","num_feature":"7834","num_nodes":"7","size_leaf_vector":"0"}},{"base_weights":[-5.559905E-1,-9.3698305E-1,-9.741462E-2,1.4517151E-1,-7.0858413E-1,-2.4616277E-1,4.069593E-1],"categories":[],"categories_nodes":[],"categories_segments":[],"categories_sizes":[],"default_left":[1,0,1,1,0,0,0],"id":71,"left_children":[1,-1,3,5,-1,-1,-1],"loss_changes":[7.8398676E0,0E0,3.3225205E0,1.7778058E0,0E0,0E0,0E0],"parents":[2147483647,0,0,2,2,3,3],"right_children":[2,-1,4,6,-1,-1,-1],"split_conditions":[1.2416666E1,-4.6849154E-2,5.5E0,1.5E0,-3.5429206E-2,-1.2308138E-2,2.0347966E-2],"split_indices":[6967,0,7801,6621,0,0,0],"split_type":[0,0,0,0,0,0,0],"sum_hessian":[4.4395004E1,2.3678917E1,2.071609E1,1.537564E1,5.340448E0,6.186868E0,9.188772E0],"tree_param":{"num_deleted":"0","num_feature":"7834","num_nodes":"7","size_leaf_vector":"0"}},{"base_weights":[-5.8135414E-1,-7.4031913E-1,3.316368E-1,-8.1544846E-1,-2.8483856E-1,-6.374085E-1,-9.4345194E-1,-8.5944754E-1,-4.4165388E-1],"categories":[],"categories_nodes":[],"categories_segments":[],"categories_sizes":[],"default_left":[1,1,0,1,0,1,1,1,1],"id":72,"left_children":[1,3,-1,-1,-1,-1,-1,-1,-1],"loss_changes":[6.456582E0,1.0256062E0,0E0,1.055069E-1,0E0,3.1828594E-1,0E0,0E0,0E0],"parents":[2147483647,0,0,1,1,3,3,5,5],"right_children":[2,4,-1,-1,-1,-1,-1,-1,-1],"split_conditions":[5E-1,5E-1,1.6581839E-2,-4.0772423E-2,-1.4241928E-2,-3.1870425E-2,-4.71726E-2,-4.297238E-2,-2.2082694E-2],"split_indices":[933,3420,0,6742,0,2147483647,2147483647,2147483647,2147483647],"split_type":[0,0,0,0,0,0,0,0,0],"sum_hessian":[4.179552E1,3.5758564E1,6.036957E0,3.0017084E1,5.7414794E0,1.5055713E1,1.4961371E1,5.4656935E0,9.590019E0],"tree_param":{"num_deleted":"4","num_feature":"7834","num_nodes":"9","size_leaf_vector":"0"}},{"base_weights":[-4.7544736E-1,-8.860639E-1,-4.9724763E-6,-9.595079E-1,-5.433335E-1,-3.0288455E-1,4.7363025E-1,-5.4559433E-1,6.685879E-2],"categories":[],"categories_nodes":[],"categories_segments":[],"categories_sizes":[],"default_left":[1,1,1,1,1,1,0,0,0],"id":73,"left_children":[1,-1,5,-1,-1,7,-1,-1,-1],"loss_changes":[8.353413E0,5.6596756E-2,3.1314874E0,0E0,0E0,1.231341E0,0E0,0E0,0E0],"parents":[2147483647,0,0,1,1,2,2,5,5],"right_children":[2,-1,6,-1,-1,8,-1,-1,-1],"split_conditions":[1.2416666E1,-4.4303194E-2,5E-1,-4.7975395E-2,-2.7166674E-2,5E-1,2.3681512E-2,-2.7279718E-2,3.3429395E-3],"split_indices":[6967,7801,5852,2147483647,2147483647,1383,0,0,0],"split_type":[0,0,0,0,0,0,0,0,0],"sum_hessian":[4.1788773E1,2.1959639E1,1.9829136E1,1.6602312E1,5.357326E0,1.2314675E1,7.5144606E0,7.147352E0,5.1673226E0],"tree_param":{"num_deleted":"2","num_feature":"7834","num_nodes":"9","size_leaf_vector":"0"}},{"base_weights":[-5.006802E-1,-8.799425E-1,-7.815001E-2,-9.56874E-1,-5.164402E-1,1.4908323E-1,-6.299242E-1,-3.1957394E-1,4.2837897E-1],"categories":[],"categories_nodes":[],"categories_segments":[],"categories_sizes":[],"default_left":[1,1,1,1,1,1,0,0,0],"id":74,"left_children":[1,-1,5,-1,-1,7,-1,-1,-1],"loss_changes":[6.668647E0,1.22694016E-1,2.7249985E0,0E0,0E0,2.1882882E0,0E0,0E0,0E0],"parents":[2147483647,0,0,1,1,2,2,5,5],"right_children":[2,-1,6,-1,-1,8,-1,-1,-1],"split_conditions":[1.2416666E1,-4.3997124E-2,5.5E0,-4.7843702E-2,-2.5822012E-2,1.5E0,-3.149621E-2,-1.5978698E-2,2.141895E-2],"split_indices":[6967,7801,7801,2147483647,2147483647,6621,0,0,0],"split_type":[0,0,0,0,0,0,0,0,0],"sum_hessian":[4.104321E1,2.1058546E1,1.9984665E1,1.6032959E1,5.025588E0,1.4672149E1,5.3125157E0,5.424928E0,9.247221E0],"tree_param":{"num_deleted":"2","num_feature":"7834","num_nodes":"9","size_leaf_vector":"0"}},{"base_weights":[-5.199978E-1,-6.8124586E-1,3.8356608E-1,-9.174268E-1,-3.1695125E-1,-5.454532E-1,2.0753132E-2],"categories":[],"categories_nodes":[],"categories_segments":[],"categories_sizes":[],"default_left":[1,1,0,0,1,0,0],"id":75,"left_children":[1,3,-1,-1,5,-1,-1],"loss_changes":[6.139701E0,2.685917E0,0E0,0E0,1.1792744E0,0E0,0E0],"parents":[2147483647,0,0,1,1,4,4],"right_children":[2,4,-1,-1,6,-1,-1],"split_conditions":[5E-1,1.275E1,1.9178305E-2,-4.5871343E-2,3.5E0,-2.727266E-2,1.0376567E-3],"split_indices":[933,6967,0,0,6148,0,0],"split_type":[0,0,0,0,0,0,0],"sum_hessian":[3.934647E1,3.359689E1,5.749582E0,1.9461296E1,1.41355915E1,8.064025E0,6.0715656E0],"tree_param":{"num_deleted":"0","num_feature":"7834","num_nodes":"7","size_leaf_vector":"0"}},{"base_weights":[-4.9200943E-1,-8.686183E-1,-9.810508E-2,-9.490422E-1,-5.294254E-1,1.7099383E-1,-7.887998E-1,-3.1330016E-1,1.0056608E0],"categories":[],"categories_nodes":[],"categories_segments":[],"categories_sizes":[],"default_left":[1,1,1,1,1,1,0,0,0],"id":76,"left_children":[1,-1,5,-1,-1,7,-1,-1,-1],"loss_changes":[5.9083843E0,5.7519913E-2,4.014824E0,0E0,0E0,6.719648E0,0E0,0E0,0E0],"parents":[2147483647,0,0,1,1,2,2,5,5],"right_children":[2,-1,6,-1,-1,8,-1,-1,-1],"split_conditions":[1.2416666E1,-4.3430917E-2,3.5E0,-4.745211E-2,-2.647127E-2,5E-1,-3.943999E-2,-1.5665008E-2,5.028304E-2],"split_indices":[6967,6940,6940,2147483647,2147483647,5852,0,0,0],"split_type":[0,0,0,0,0,0,0,0,0],"sum_hessian":[3.940233E1,1.952729E1,1.987504E1,1.4331335E1,5.195955E0,1.4844114E1,5.0309258E0,9.788961E0,5.0551524E0],"tree_param":{"num_deleted":"2","num_feature":"7834","num_nodes":"9","size_leaf_vector":"0"}},{"base_weights":[-4.9357948E-1,-6.6195714E-1,3.4969214E-1,-9.0905654E-1,-2.9929954E-1,-4.115448E-2,-5.186308E-1],"categories":[],"categories_nodes":[],"categories_segments":[],"categories_sizes":[],"default_left":[1,1,0,0,1,1,1],"id":77,"left_children":[1,3,-1,-1,-1,-1,-1],"loss_changes":[5.7729244E0,2.6741533E0,0E0,0E0,8.174255E-1,0E0,0E0],"parents":[2147483647,0,0,1,1,4,4],"right_children":[2,4,-1,-1,-1,-1,-1],"split_conditions":[5E-1,1.275E1,1.7484607E-2,-4.545283E-2,-1.4964977E-2,-2.0577242E-3,-2.593154E-2],"split_indices":[933,6967,0,0,7801,2147483647,2147483647],"split_type":[0,0,0,0,0,0,0],"sum_hessian":[3.8027515E1,3.187749E1,6.1500263E0,1.8063286E1,1.3814203E1,6.891174E0,6.9230294E0],"tree_param":{"num_deleted":"2","num_feature":"7834","num_nodes":"7","size_leaf_vector":"0"}},{"base_weights":[-4.7193822E-1,-8.5460985E-1,-9.478718E-2,-9.40421E-1,-5.19325E-1,2.2704795E-1,-8.619E-1,-1.8879117E-1,5.0228447E-1],"categories":[],"categories_nodes":[],"categories_segments":[],"categories_sizes":[],"default_left":[1,1,1,1,1,1,0,0,0],"id":78,"left_children":[1,-1,5,-1,-1,7,-1,-1,-1],"loss_changes":[5.444125E0,5.4742813E-2,5.233384E0,0E0,0E0,1.8306313E0,0E0,0E0,0E0],"parents":[2147483647,0,0,1,1,2,2,5,5],"right_children":[2,-1,6,-1,-1,8,-1,-1,-1],"split_conditions":[1.2416666E1,-4.273049E-2,3.5E0,-4.702105E-2,-2.5966251E-2,1.5E0,-4.3095E-2,-9.439559E-3,2.5114223E-2],"split_indices":[6967,6940,6940,2147483647,2147483647,6621,0,0,0],"split_type":[0,0,0,0,0,0,0,0,0],"sum_hessian":[3.728257E1,1.7877464E1,1.9405107E1,1.2797335E1,5.0801296E0,1.416594E1,5.2391677E0,5.7669945E0,8.398946E0],"tree_param":{"num_deleted":"2","num_feature":"7834","num_nodes":"9","size_leaf_vector":"0"}},{"base_weights":[-4.2232603E-1,-8.4666103E-1,-1.2735438E-2,-9.35673E-1,-5.126845E-1,2.3140801E-1,-4.8221824E-1,-1.709163E-1,5.2662665E-1],"categories":[],"categories_nodes":[],"categories_segments":[],"categories_sizes":[],"default_left":[1,1,1,1,1,1,0,0,0],"id":79,"left_children":[1,-1,5,-1,-1,7,-1,-1,-1],"loss_changes":[6.3760633E0,5.6396484E-2,2.371216E0,0E0,0E0,1.7106941E0,0E0,0E0,0E0],"parents":[2147483647,0,0,1,1,2,2,5,5],"right_children":[2,-1,6,-1,-1,8,-1,-1,-1],"split_conditions":[1.2416666E1,-4.233305E-2,5E-1,-4.6783652E-2,-2.5634227E-2,1.5E0,-2.4110911E-2,-8.545815E-3,2.6331333E-2],"split_indices":[6967,7801,7043,2147483647,2147483647,6621,0,0,0],"split_type":[0,0,0,0,0,0,0,0,0],"sum_hessian":[3.5747482E1,1.703361E1,1.8713873E1,1.2026636E1,5.0069723E0,1.2645158E1,6.0687156E0,5.5299654E0,7.1151924E0],"tree_param":{"num_deleted":"2","num_feature":"7834","num_nodes":"9","size_leaf_vector":"0"}},{"base_weights":[-4.368701E-1,-8.420285E-1,-6.6702046E-2,-9.317343E-1,-5.217932E-1,2.2381493E-1,-5.9915483E-1,-2.5330427E-1,8.587692E-1],"categories":[],"categories_nodes":[],"categories_segments":[],"categories_sizes":[],"default_left":[1,1,1,1,1,1,0,0,0],"id":80,"left_children":[1,-1,5,-1,-1,7,-1,-1,-1],"loss_changes":[5.500421E0,1.9501686E-2,3.2969584E0,0E0,0E0,4.4457746E0,0E0,0E0,0E0],"parents":[2147483647,0,0,1,1,2,2,5,5],"right_children":[2,-1,6,-1,-1,8,-1,-1,-1],"split_conditions":[1.2416666E1,-4.2101424E-2,5E-1,-4.658672E-2,-2.6089659E-2,5E-1,-2.9957741E-2,-1.2665214E-2,4.293846E-2],"split_indices":[6967,7801,7043,2147483647,2147483647,5852,0,0,0],"split_type":[0,0,0,0,0,0,0,0,0],"sum_hessian":[3.6049664E1,1.6602777E1,1.9446884E1,1.1477981E1,5.124798E0,1.2956959E1,6.489925E0,7.7411485E0,5.2158103E0],"tree_param":{"num_deleted":"2","num_feature":"7834","num_nodes":"9","size_leaf_vector":"0"}},{"base_weights":[-4.3498898E-1,-6.6446954E-1,8.432994E-2,-7.6992744E-1,-2.1782663E-1,7.206321E-1,-5.181676E-1,-5.475056E-1,-9.2263293E-1],"categories":[],"categories_nodes":[],"categories_segments":[],"categories_sizes":[],"default_left":[1,1,1,1,0,0,0,1,1],"id":81,"left_children":[1,3,5,-1,-1,-1,-1,-1,-1],"loss_changes":[4.3057446E0,1.002491E0,4.903259E0,1.6409779E-1,0E0,0E0,0E0,0E0,0E0],"parents":[2147483647,0,0,1,1,2,2,3,3],"right_children":[2,4,6,-1,-1,-1,-1,-1,-1],"split_conditions":[5E-1,9.5E0,3.75E1,-3.849637E-2,-1.0891332E-2,3.6031604E-2,-2.590838E-2,-2.737528E-2,-4.6131648E-2],"split_indices":[5852,6148,6742,6742,0,0,0,2147483647,2147483647],"split_type":[0,0,0,0,0,0,0,0,0],"sum_hessian":[3.465983E1,2.3843973E1,1.0815856E1,1.8703932E1,5.140041E0,5.164994E0,5.6508627E0,9.480526E0,9.223406E0],"tree_param":{"num_deleted":"2","num_feature":"7834","num_nodes":"9","size_leaf_vector":"0"}},{"base_weights":[-4.0860564E-1,-6.076672E-1,4.6162546E-1,-8.865436E-1,-2.4648128E-1,-4.5505643E-1,4.578134E-2],"categories":[],"categories_nodes":[],"categories_segments":[],"categories_sizes":[],"default_left":[1,1,0,0,1,1,1],"id":82,"left_children":[1,3,-1,-1,-1,-1,-1],"loss_changes":[6.3707714E0,2.7069693E0,0E0,0E0,8.766684E-1,0E0,0E0],"parents":[2147483647,0,0,1,1,4,4],"right_children":[2,4,-1,-1,-1,-1,-1],"split_conditions":[5E-1,1.275E1,2.3081273E-2,-4.432718E-2,-1.2324064E-2,-2.2752821E-2,2.289067E-3],"split_indices":[933,6967,0,0,6621,2147483647,2147483647],"split_type":[0,0,0,0,0,0,0],"sum_hessian":[3.4157146E1,2.8043936E1,6.1132107E0,1.5004347E1,1.3039588E1,7.2841763E0,5.755412E0],"tree_param":{"num_deleted":"2","num_feature":"7834","num_nodes":"7","size_leaf_vector":"0"}},{"base_weights":[-5.1504713E-1,-6.659424E-1,2.9013878E-1,-7.4383134E-1,-2.8399998E-1,-5.077371E-1,-8.4181166E-1],"categories":[],"categories_nodes":[],"categories_segments":[],"categories_sizes":[],"default_left":[1,1,0,1,1,1,1],"id":83,"left_children":[1,-1,-1,-1,-1,-1,-1],"loss_changes":[4.3545837E0,6.5588284E-1,0E0,1.1835384E-1,0E0,0E0,0E0],"parents":[2147483647,0,0,1,1,3,3],"right_children":[2,-1,-1,-1,-1,-1,-1],"split_conditions":[6.5E0,-3.3297118E-2,1.4506939E-2,-3.7191566E-2,-1.4199999E-2,-2.5386855E-2,-4.2090584E-2],"split_indices":[5852,3420,0,2147483647,2147483647,2147483647,2147483647],"split_type":[0,0,0,0,0,0,0],"sum_hessian":[3.3250305E1,2.8148155E1,5.102149E0,2.259325E1,5.5549045E0,8.439469E0,1.4153781E1],"tree_param":{"num_deleted":"4","num_feature":"7834","num_nodes":"7","size_leaf_vector":"0"}},{"base_weights":[-3.593749E-1,-5.6019664E-1,4.940429E-1,-8.769361E-1,-1.7571674E-1,3.9269224E-2,-3.941819E-1],"categories":[],"categories_nodes":[],"categories_segments":[],"categories_sizes":[],"default_left":[1,1,0,0,1,1,1],"id":84,"left_children":[1,3,-1,-1,-1,-1,-1],"loss_changes":[6.0419774E0,3.219182E0,0E0,0E0,6.618624E-1,0E0,0E0],"parents":[2147483647,0,0,1,1,4,4],"right_children":[2,4,-1,-1,-1,-1,-1],"split_conditions":[5E-1,1.275E1,2.4702145E-2,-4.3846805E-2,-8.785837E-3,1.9634613E-3,-1.9709095E-2],"split_indices":[933,6967,0,0,6742,2147483647,2147483647],"split_type":[0,0,0,0,0,0,0],"sum_hessian":[3.263901E1,2.6699755E1,5.939259E0,1.3937241E1,1.2762513E1,6.845894E0,5.9166193E0],"tree_param":{"num_deleted":"2","num_feature":"7834","num_nodes":"7","size_leaf_vector":"0"}},{"base_weights":[-3.9170203E-1,-8.0928653E-1,-2.971456E-2,2.6027888E-1,-5.80942E-1,-5.1902015E-2,4.998539E-1],"categories":[],"categories_nodes":[],"categories_segments":[],"categories_sizes":[],"default_left":[1,0,1,1,0,1,1],"id":85,"left_children":[1,-1,3,-1,-1,-1,-1],"loss_changes":[4.834692E0,0E0,3.069434E0,9.7227544E-1,0E0,0E0,0E0],"parents":[2147483647,0,0,2,2,3,3],"right_children":[2,-1,4,-1,-1,-1,-1],"split_conditions":[1.2416666E1,-4.0464327E-2,5E-1,1.3013944E-2,-2.90471E-2,-2.5951008E-3,2.4992695E-2],"split_indices":[6967,0,5820,6742,0,2147483647,2147483647],"split_type":[0,0,0,0,0,0,0],"sum_hessian":[3.114295E1,1.3887183E1,1.7255768E1,1.1653065E1,5.6027036E0,5.399953E0,6.2531114E0],"tree_param":{"num_deleted":"2","num_feature":"7834","num_nodes":"7","size_leaf_vector":"0"}},{"base_weights":[-3.8361663E-1,-8.1788206E-1,8.2184775E-3,2.4995278E-1,-5.222978E-1,-9.920008E-2,6.700802E-1],"categories":[],"categories_nodes":[],"categories_segments":[],"categories_sizes":[],"default_left":[1,0,1,1,0,0,0],"id":86,"left_children":[1,-1,3,5,-1,-1,-1],"loss_changes":[5.559498E0,0E0,2.4574583E0,1.9941168E0,0E0,0E0,0E0],"parents":[2147483647,0,0,2,2,3,3],"right_children":[2,-1,4,6,-1,-1,-1],"split_conditions":[1.275E1,-4.0894102E-2,5E-1,3.5E0,-2.611489E-2,-4.960004E-3,3.350401E-2],"split_indices":[6967,0,7254,6148,0,0,0],"split_type":[0,0,0,0,0,0,0],"sum_hessian":[3.163259E1,1.4488203E1,1.7144386E1,1.2141059E1,5.003328E0,7.047781E0,5.093278E0],"tree_param":{"num_deleted":"0","num_feature":"7834","num_nodes":"7","size_leaf_vector":"0"}},{"base_weights":[-3.8453242E-1,-7.932405E-1,-7.0494585E-2,1.5520182E-1,-5.4118866E-1,3.8169652E-1,-1.2998629E-1],"categories":[],"categories_nodes":[],"categories_segments":[],"categories_sizes":[],"default_left":[1,0,1,1,0,1,1],"id":87,"left_children":[1,-1,3,-1,-1,-1,-1],"loss_changes":[4.063705E0,0E0,2.128795E0,9.401686E-1,0E0,0E0,0E0],"parents":[2147483647,0,0,2,2,3,3],"right_children":[2,-1,4,-1,-1,-1,-1],"split_conditions":[1.2416666E1,-3.9662026E-2,1.5E0,7.760091E-3,-2.7059434E-2,1.9084826E-2,-6.499314E-3],"split_indices":[6967,0,6940,7801,0,2147483647,2147483647],"split_type":[0,0,0,0,0,0,0],"sum_hessian":[3.1096848E1,1.2848754E1,1.8248095E1,1.27870245E1,5.46107E0,6.9382806E0,5.8487434E0],"tree_param":{"num_deleted":"2","num_feature":"7834","num_nodes":"7","size_leaf_vector":"0"}},{"base_weights":[-3.6879587E-1,-7.8649324E-1,-5.7613514E-2,1.6427927E-1,-5.5008554E-1,-2.371477E-1,6.2521875E-1],"categories":[],"categories_nodes":[],"categories_segments":[],"categories_sizes":[],"default_left":[1,0,1,1,0,0,0],"id":88,"left_children":[1,-1,3,5,-1,-1,-1],"loss_changes":[4.077112E0,0E0,2.1944065E0,2.7468226E0,0E0,0E0,0E0],"parents":[2147483647,0,0,2,2,3,3],"right_children":[2,-1,4,6,-1,-1,-1],"split_conditions":[1.2416666E1,-3.9324664E-2,5E-1,3.5E0,-2.7504278E-2,-1.1857386E-2,3.1260937E-2],"split_indices":[6967,0,7254,6148,0,0,0],"split_type":[0,0,0,0,0,0,0],"sum_hessian":[3.0715824E1,1.2461468E1,1.8254356E1,1.3043689E1,5.210667E0,7.2314305E0,5.8122582E0],"tree_param":{"num_deleted":"0","num_feature":"7834","num_nodes":"7","size_leaf_vector":"0"}},{"base_weights":[-2.7838007E-1,-7.776434E-1,7.473266E-2,-2.1281625E-1,4.8109946E-1,-4.6318352E-1,1.09812014E-1],"categories":[],"categories_nodes":[],"categories_segments":[],"categories_sizes":[],"default_left":[1,0,1,1,0,0,0],"id":89,"left_children":[1,-1,3,5,-1,-1,-1],"loss_changes":[5.5398684E0,0E0,2.3371537E0,1.0115435E0,0E0,0E0,0E0],"parents":[2147483647,0,0,2,2,3,3],"right_children":[2,-1,4,6,-1,-1,-1],"split_conditions":[1.2416666E1,-3.888217E-2,5E-1,3.5E0,2.4054972E-2,-2.3159176E-2,5.4906006E-3],"split_indices":[6967,0,5852,6148,0,0,0],"split_type":[0,0,0,0,0,0,0],"sum_hessian":[3.0093987E1,1.1968942E1,1.8125044E1,1.0893206E1,7.2318387E0,5.8881803E0,5.005026E0],"tree_param":{"num_deleted":"0","num_feature":"7834","num_nodes":"7","size_leaf_vector":"0"}},{"base_weights":[-3.678671E-1,-5.755921E-1,4.1795322E-1,-9.253851E-1,-2.2385594E-1,-4.498992E-1,8.005854E-2],"categories":[],"categories_nodes":[],"categories_segments":[],"categories_sizes":[],"default_left":[1,1,0,0,1,1,1],"id":90,"left_children":[1,3,-1,-1,-1,-1,-1],"loss_changes":[5.2349515E0,2.8219786E0,0E0,0E0,9.6996886E-1,0E0,0E0],"parents":[2147483647,0,0,1,1,4,4],"right_children":[2,4,-1,-1,-1,-1,-1],"split_conditions":[5E-1,1.275E1,2.0897662E-2,-4.6269257E-2,-1.1192798E-2,-2.249496E-2,4.002927E-3],"split_indices":[933,6967,0,0,6148,2147483647,2147483647],"split_type":[0,0,0,0,0,0,0],"sum_hessian":[2.9596355E1,2.3620108E1,5.9762483E0,1.1025053E1,1.2595054E1,6.9474115E0,5.6476426E0],"tree_param":{"num_deleted":"2","num_feature":"7834","num_nodes":"7","size_leaf_vector":"0"}},{"base_weights":[-3.125302E-1,-7.725725E-1,3.0578619E-2,2.8754428E-1,-5.170208E-1,8.7108344E-2,4.8545754E-1],"categories":[],"categories_nodes":[],"categories_segments":[],"categories_sizes":[],"default_left":[1,0,1,1,0,1,1],"id":91,"left_children":[1,-1,3,-1,-1,-1,-1],"loss_changes":[4.6916795E0,0E0,2.667687E0,4.665364E-1,0E0,0E0,0E0],"parents":[2147483647,0,0,2,2,3,3],"right_children":[2,-1,4,-1,-1,-1,-1],"split_conditions":[1.275E1,-3.8628627E-2,1.5E0,1.4377214E-2,-2.5851041E-2,4.355417E-3,2.4272878E-2],"split_indices":[6967,0,6940,6148,0,2147483647,2147483647],"split_type":[0,0,0,0,0,0,0],"sum_hessian":[2.8573744E1,1.1672073E1,1.690167E1,1.1826763E1,5.074908E0,6.59144E0,5.235323E0],"tree_param":{"num_deleted":"2","num_feature":"7834","num_nodes":"7","size_leaf_vector":"0"}},{"base_weights":[-3.431331E-1,-7.681083E-1,-3.0437551E-2,-2.4257198E-1,4.055443E-1,9.7361274E-2,-5.544969E-1],"categories":[],"categories_nodes":[],"categories_segments":[],"categories_sizes":[],"default_left":[1,0,1,1,0,0,0],"id":92,"left_children":[1,-1,3,5,-1,-1,-1],"loss_changes":[3.886388E0,0E0,1.7623163E0,1.4036043E0,0E0,0E0,0E0],"parents":[2147483647,0,0,2,2,3,3],"right_children":[2,-1,4,6,-1,-1,-1],"split_conditions":[1.275E1,-3.8405415E-2,1.5E0,1.5E0,2.0277215E-2,4.8680636E-3,-2.7724845E-2],"split_indices":[6967,0,3253,7801,0,0,0],"split_type":[0,0,0,0,0,0,0],"sum_hessian":[2.8421555E1,1.1430411E1,1.6991144E1,1.1728205E1,5.262939E0,5.941296E0,5.786908E0],"tree_param":{"num_deleted":"0","num_feature":"7834","num_nodes":"7","size_leaf_vector":"0"}},{"base_weights":[-2.7959007E-1,-7.4350435E-1,1.3854881E-2,2.7163613E-1,-5.325118E-1,4.327759E-1,4.591984E-2],"categories":[],"categories_nodes":[],"categories_segments":[],"categories_sizes":[],"default_left":[1,0,1,1,0,1,1],"id":93,"left_children":[1,-1,3,-1,-1,-1,-1],"loss_changes":[3.9922662E0,0E0,2.8064222E0,4.7124767E-1,0E0,0E0,0E0],"parents":[2147483647,0,0,2,2,3,3],"right_children":[2,-1,4,-1,-1,-1,-1],"split_conditions":[1.2416666E1,-3.717522E-2,1.5E0,1.3581807E-2,-2.6625589E-2,2.1638796E-2,2.295992E-3],"split_indices":[6967,0,6940,7801,0,2147483647,2147483647],"split_type":[0,0,0,0,0,0,0],"sum_hessian":[2.8250484E1,1.035163E1,1.7898855E1,1.250276E1,5.396095E0,6.7596636E0,5.7430964E0],"tree_param":{"num_deleted":"2","num_feature":"7834","num_nodes":"7","size_leaf_vector":"0"}},{"base_weights":[-3.3494604E-1,-1.13714494E-1,-9.151658E-1,-4.7681054E-1,7.899383E-1,-7.458843E-1,-2.1045384E-1],"categories":[],"categories_nodes":[],"categories_segments":[],"categories_sizes":[],"default_left":[1,1,0,1,0,0,0],"id":94,"left_children":[1,3,-1,5,-1,-1,-1],"loss_changes":[3.562636E0,7.5367064E0,0E0,1.0033975E0,0E0,0E0,0E0],"parents":[2147483647,0,0,1,1,3,3],"right_children":[2,4,-1,6,-1,-1,-1],"split_conditions":[6.5E0,5E-1,-4.575829E-2,1.275E1,3.9496914E-2,-3.7294216E-2,-1.0522692E-2],"split_indices":[6940,5852,0,6967,0,0,0],"split_type":[0,0,0,0,0,0,0],"sum_hessian":[2.7565132E1,2.0821938E1,6.7431946E0,1.5190575E1,5.6313615E0,6.661153E0,8.529422E0],"tree_param":{"num_deleted":"0","num_feature":"7834","num_nodes":"7","size_leaf_vector":"0"}},{"base_weights":[-2.7325273E-1,-7.4615866E-1,4.398872E-2,-1.8576455E-1,5.192073E-1,1.528661E-1,-5.2858996E-1],"categories":[],"categories_nodes":[],"categories_segments":[],"categories_sizes":[],"default_left":[1,0,1,1,0,0,0],"id":95,"left_children":[1,-1,3,5,-1,-1,-1],"loss_changes":[4.280265E0,0E0,2.0496097E0,1.5662245E0,0E0,0E0,0E0],"parents":[2147483647,0,0,2,2,3,3],"right_children":[2,-1,4,6,-1,-1,-1],"split_conditions":[1.275E1,-3.7307933E-2,1.5E0,1.5E0,2.5960365E-2,7.6433048E-3,-2.6429499E-2],"split_indices":[6967,0,3253,7801,0,0,0],"split_type":[0,0,0,0,0,0,0],"sum_hessian":[2.7311491E1,1.0422638E1,1.6888853E1,1.1795296E1,5.0935583E0,6.212706E0,5.582589E0],"tree_param":{"num_deleted":"0","num_feature":"7834","num_nodes":"7","size_leaf_vector":"0"}},{"base_weights":[-2.8101683E-1,-8.103194E-1,2.5607994E-2,2.948187E-1,-3.9178693E-1,2.3550543E-3,5.440046E-1],"categories":[],"categories_nodes":[],"categories_segments":[],"categories_sizes":[],"default_left":[1,0,1,1,0,1,1],"id":96,"left_children":[1,-1,3,-1,-1,-1,-1],"loss_changes":[4.508495E0,0E0,2.1918268E0,8.589386E-1,0E0,0E0,0E0],"parents":[2147483647,0,0,2,2,3,3],"right_children":[2,-1,4,-1,-1,-1,-1],"split_conditions":[1.2416666E1,-4.051597E-2,5E-1,1.47409355E-2,-1.9589348E-2,1.17752716E-4,2.7200231E-2],"split_indices":[6967,0,1492,6621,0,2147483647,2147483647],"split_type":[0,0,0,0,0,0,0],"sum_hessian":[2.6651379E1,9.17338E0,1.7477999E1,1.0803588E1,6.6744113E0,5.4345894E0,5.3689985E0],"tree_param":{"num_deleted":"2","num_feature":"7834","num_nodes":"7","size_leaf_vector":"0"}},{"base_weights":[-3.1145257E-1,-8.043285E-1,-2.264066E-2,-2.5846002E-1,4.3393132E-1,2.4687191E-2,-5.256101E-1],"categories":[],"categories_nodes":[],"categories_segments":[],"categories_sizes":[],"default_left":[1,0,1,1,0,1,1],"id":97,"left_children":[1,-1,3,-1,-1,-1,-1],"loss_changes":[3.8004727E0,0E0,2.0441256E0,9.5541173E-1,0E0,0E0,0E0],"parents":[2147483647,0,0,2,2,3,3],"right_children":[2,-1,4,-1,-1,-1,-1],"split_conditions":[1.2416666E1,-4.0216427E-2,1.5E0,-1.2923001E-2,2.1696566E-2,1.2343596E-3,-2.6280506E-2],"split_indices":[6967,0,3253,7455,0,2147483647,2147483647],"split_type":[0,0,0,0,0,0,0],"sum_hessian":[2.5826315E1,8.882612E0,1.69437E1,1.1459027E1,5.484674E0,6.0035605E0,5.4554667E0],"tree_param":{"num_deleted":"2","num_feature":"7834","num_nodes":"7","size_leaf_vector":"0"}},{"base_weights":[-2.7811366E-1,-5.042912E-1,5.376287E-1,-6.5246654E-1,-1.7163903E-2,-8.0774224E-1,-3.7585297E-1],"categories":[],"categories_nodes":[],"categories_segments":[],"categories_sizes":[],"default_left":[1,1,0,1,0,1,1],"id":98,"left_children":[1,3,-1,-1,-1,-1,-1],"loss_changes":[5.187484E0,1.5318847E0,0E0,3.9930773E-1,0E0,0E0,0E0],"parents":[2147483647,0,0,1,1,3,3],"right_children":[2,4,-1,-1,-1,-1,-1],"split_conditions":[5E-1,5E-1,2.6881436E-2,-3.262333E-2,-8.581951E-4,-4.0387113E-2,-1.879265E-2],"split_indices":[933,5852,0,6148,0,2147483647,2147483647],"split_type":[0,0,0,0,0,0,0],"sum_hessian":[2.5646574E1,2.0378197E1,5.2683773E0,1.5365019E1,5.013178E0,8.611104E0,6.7539153E0],"tree_param":{"num_deleted":"2","num_feature":"7834","num_nodes":"7","size_leaf_vector":"0"}},{"base_weights":[-2.4063669E-1,-4.5559704E-1,5.071236E-1,-5.856796E-1,-3.3362925E-2,-8.0721307E-1,-2.2823697E-1],"categories":[],"categories_nodes":[],"categories_segments":[],"categories_sizes":[],"default_left":[1,1,0,1,0,0,0],"id":99,"left_children":[1,3,-1,5,-1,-1,-1],"loss_changes":[4.5161176E0,1.1466846E0,0E0,1.0963287E0,0E0,0E0,0E0],"parents":[2147483647,0,0,1,1,3,3],"right_children":[2,4,-1,6,-1,-1,-1],"split_conditions":[5E-1,5E-1,2.535618E-2,3.5E0,-1.6681462E-3,-4.0360656E-2,-1.14118485E-2],"split_indices":[933,5852,0,6148,0,0,0],"split_type":[0,0,0,0,0,0,0],"sum_hessian":[2.5658611E1,2.0232924E1,5.425687E0,1.5171704E1,5.061219E0,8.589722E0,6.581983E0],"tree_param":{"num_deleted":"0","num_feature":"7834","num_nodes":"7","size_leaf_vector":"0"}}]},"name":"gbtree"},"learner_model_param":{"base_score":"5E-1","num_class":"0","num_feature":"7834","num_target":"1"},"objective":{"name":"binary:logistic","reg_loss_param":{"scale_pos_weight":"1"}}},"version":[1,6,1]}