{"learner":{"attributes":{"best_iteration":"99","best_ntree_limit":"100","scikit_learn":"{\"use_label_encoder\": false, \"n_estimators\": 100, \"objective\": \"binary:logistic\", \"max_depth\": 5, \"max_leaves\": null, \"max_bin\": null, \"grow_policy\": null, \"learning_rate\": 0.05, \"verbosity\": null, \"booster\": null, \"tree_method\": null, \"gamma\": 1, \"min_child_weight\": 5.0, \"max_delta_step\": null, \"subsample\": 0.9, \"sampling_method\": null, \"colsample_bytree\": 0.9, \"colsample_bylevel\": null, \"colsample_bynode\": null, \"reg_alpha\": null, \"reg_lambda\": null, \"scale_pos_weight\": null, \"base_score\": null, \"missing\": NaN, \"num_parallel_tree\": null, \"random_state\": 42, \"n_jobs\": null, \"monotone_constraints\": null, \"interaction_constraints\": null, \"importance_type\": null, \"gpu_id\": null, \"validate_parameters\": null, \"predictor\": null, \"enable_categorical\": false, \"max_cat_to_onehot\": null, \"eval_metric\": null, \"early_stopping_rounds\": null, \"callbacks\": null, \"classes_\": [0, 1], \"n_classes_\": 2, \"evals_result_\": {\"validation_0\": {\"logloss\": [0.6473474633539605, 0.6060885324041095, 0.5687299685948884, 0.5343706599413718, 0.5031304581465088, 0.4741233937468568, 0.4475152272245158, 0.422999370987631, 0.4003081441485924, 0.37936488616900776, 0.35968761606586247, 0.34155731143038087, 0.3246889173914487, 0.309074303518311, 0.29422080061550565, 0.2805241111022465, 0.2675130373407615, 0.25549156123336697, 0.24409342552814303, 0.2335421710015744, 0.2236699547211516, 0.21423918273208004, 0.20551993732026544, 0.19719280502140593, 0.1893963720627593, 0.1819458692985752, 0.17515941239131744, 0.16872799415776088, 0.16260539124841275, 0.1569054948404589, 0.15168063578958657, 0.14660231846129712, 0.14189269162548135, 0.13739971769262285, 0.13308713094853347, 0.12914618463654917, 0.12527315419267965, 0.12173655662427357, 0.11832105807881238, 0.11512246256044133, 0.11211185101266473, 0.10930394930228783, 0.10667081265661046, 0.10411309619400252, 0.10167980408591473, 0.09943250711179928, 0.09726287449516365, 0.09527675106193428, 0.09340199435919909, 0.09161458516408078, 0.08989643206607581, 0.08834516434338202, 0.086835249150927, 0.08544953924315937, 0.08419956898559695, 0.08291449871890413, 0.0816856695450711, 0.08062339890595048, 0.07958702938948549, 0.07863653340890181, 0.07771912747917459, 0.07680359574036999, 0.07608900430199682, 0.07525236553104307, 0.0745372587681412, 0.07385232635105049, 0.07325144920204837, 0.07274993984674384, 0.0721536236459479, 0.07165430443302305, 0.07115114583348205, 0.0708759526747304, 0.07041820189362932, 0.06991166590584921, 0.06958292026650577, 0.06922223791589503, 0.0689775299097025, 0.06861528517846915, 0.0683060828880894, 0.06806811161085385, 0.06775918222315934, 0.06766758004660892, 0.06744250439580193, 0.06722342290124307, 0.06698888787052011, 0.06686707011716206, 0.0667217627953471, 0.06632658488584461, 0.06606765649665572, 0.06591682515591908, 0.06570914908849605, 0.06554816231912945, 0.06542806082364658, 0.06541637519919494, 0.0652934587960045, 0.06530137782310137, 0.0652778825791581, 0.06526876171858222, 0.06509727105655906, 0.06501664174939523]}}, \"_estimator_type\": \"classifier\"}"},"feature_names":[],"feature_types":[],"gradient_booster":{"model":{"gbtree_model_param":{"num_parallel_tree":"1","num_trees":"100","size_leaf_vector":"0"},"tree_info":[0,0,0,0,0,0,0,0,0,0,0,0,0,0,0,0,0,0,0,0,0,0,0,0,0,0,0,0,0,0,0,0,0,0,0,0,0,0,0,0,0,0,0,0,0,0,0,0,0,0,0,0,0,0,0,0,0,0,0,0,0,0,0,0,0,0,0,0,0,0,0,0,0,0,0,0,0,0,0,0,0,0,0,0,0,0,0,0,0,0,0,0,0,0,0,0,0,0,0,0],"trees":[{"base_weights":[-1.912995E0,-1.9610091E0,-1.8867925E-1,-1.9791183E0,-3.3333334E-1,4.6153846E-1,-7.096774E-1],"categories":[],"categories_nodes":[],"categories_segments":[],"categories_sizes":[],"default_left":[1,1,1,0,0,0,0],"id":0,"left_children":[1,3,5,-1,-1,-1,-1],"loss_changes":[3.6741333E1,1.2191772E1,4.816143E0,0E0,0E0,0E0,0E0],"parents":[2147483647,0,0,1,1,2,2],"right_children":[2,4,6,-1,-1,-1,-1],"split_conditions":[5E-1,5E-1,3.3E1,-9.895592E-2,-1.6666668E-2,2.3076924E-2,-3.548387E-2],"split_indices":[2280,3479,6742,0,0,0,0],"split_type":[0,0,0,0,0,0,0],"sum_hessian":[4.4725E2,4.35E2,1.225E1,4.3E2,5E0,5.5E0,6.75E0],"tree_param":{"num_deleted":"0","num_feature":"7834","num_nodes":"7","size_leaf_vector":"0"}},{"base_weights":[-1.8199065E0,-1.8633713E0,-2.2283964E-1,-1.885081E0,-1.3975206E-1,-7.015852E-1,4.0645885E-1],"categories":[],"categories_nodes":[],"categories_segments":[],"categories_sizes":[],"default_left":[1,1,1,0,0,0,0],"id":1,"left_children":[1,3,5,-1,-1,-1,-1],"loss_changes":[3.066211E1,1.604004E1,4.2008886E0,0E0,0E0,0E0,0E0],"parents":[2147483647,0,0,1,1,2,2],"right_children":[2,4,6,-1,-1,-1,-1],"split_conditions":[5E-1,5E-1,5E-1,-9.4254054E-2,-6.987603E-3,-3.507926E-2,2.0322943E-2],"split_indices":[2280,3479,2275,0,0,0,0],"split_type":[0,0,0,0,0,0,0],"sum_hessian":[4.4669528E2,4.3469806E2,1.1997222E1,4.2919843E2,5.4996185E0,6.7484202E0,5.2488017E0],"tree_param":{"num_deleted":"0","num_feature":"7834","num_nodes":"7","size_leaf_vector":"0"}},{"base_weights":[-1.7466635E0,-1.7775092E0,3.5907617E-1,-1.7984313E0,-4.659617E-1],"categories":[],"categories_nodes":[],"categories_segments":[],"categories_sizes":[],"default_left":[1,1,0,0,0],"id":2,"left_children":[1,3,-1,-1,-1],"loss_changes":[2.9476562E1,1.117395E1,0E0,0E0,0E0],"parents":[2147483647,0,0,1,1],"right_children":[2,4,-1,-1,-1],"split_conditions":[5E-1,5E-1,1.795381E-2,-8.9921564E-2,-2.3298085E-2],"split_indices":[2275,3486,0,0,0],"split_type":[0,0,0,0,0],"sum_hessian":[4.429876E2,4.3674585E2,6.2417564E0,4.2952277E2,7.2230625E0],"tree_param":{"num_deleted":"0","num_feature":"7834","num_nodes":"5","size_leaf_vector":"0"}},{"base_weights":[-1.6738555E0,-1.7171679E0,-1.3350606E-1,-1.7354585E0,-5.629161E-1,4.894168E-1,-6.393616E-1],"categories":[],"categories_nodes":[],"categories_segments":[],"categories_sizes":[],"default_left":[1,1,1,0,0,0,0],"id":3,"left_children":[1,3,5,-1,-1,-1,-1],"loss_changes":[2.9369751E1,8.131592E0,4.4780517E0,0E0,0E0,0E0,0E0],"parents":[2147483647,0,0,1,1,2,2],"right_children":[2,4,6,-1,-1,-1,-1],"split_conditions":[5E-1,5E-1,3.3E1,-8.6772926E-2,-2.8145805E-2,2.4470842E-2,-3.1968083E-2],"split_indices":[2280,3486,6742,0,0,0,0],"split_type":[0,0,0,0,0,0,0],"sum_hessian":[4.426573E2,4.3043918E2,1.2218085E1,4.2322903E2,7.2101407E0,5.490028E0,6.728058E0],"tree_param":{"num_deleted":"0","num_feature":"7834","num_nodes":"7","size_leaf_vector":"0"}},{"base_weights":[-1.6057177E0,-1.6479106E0,-9.413503E-2,-1.6703507E0,-3.0012327E-1,4.4682285E-1,-7.034758E-1],"categories":[],"categories_nodes":[],"categories_segments":[],"categories_sizes":[],"default_left":[1,1,1,0,0,0,0],"id":4,"left_children":[1,3,5,-1,-1,-1,-1],"loss_changes":[2.7793823E1,1.2390747E1,4.5864778E0,0E0,0E0,0E0,0E0],"parents":[2147483647,0,0,1,1,2,2],"right_children":[2,4,6,-1,-1,-1,-1],"split_conditions":[5E-1,5E-1,5E-1,-8.351754E-2,-1.5006164E-2,2.2341143E-2,-3.517379E-2],"split_indices":[2280,3486,7043,0,0,0,0],"split_type":[0,0,0,0,0,0,0],"sum_hessian":[4.372208E2,4.2526025E2,1.1960527E1,4.1806042E2,7.1998463E0,6.477061E0,5.483466E0],"tree_param":{"num_deleted":"0","num_feature":"7834","num_nodes":"7","size_leaf_vector":"0"}},{"base_weights":[-1.5599036E0,-1.5926787E0,-3.3934703E-1,-1.6131576E0,1.5429733E-2,2.4326253E-1,-7.95981E-1],"categories":[],"categories_nodes":[],"categories_segments":[],"categories_sizes":[],"default_left":[1,1,1,0,0,0,0],"id":5,"left_children":[1,3,5,-1,-1,-1,-1],"loss_changes":[1.6575684E1,1.3738037E1,3.508353E0,0E0,0E0,0E0,0E0],"parents":[2147483647,0,0,1,1,2,2],"right_children":[2,4,6,-1,-1,-1,-1],"split_conditions":[5E-1,5E-1,3.3E1,-8.0657884E-2,7.7148667E-4,1.2163127E-2,-3.979905E-2],"split_indices":[2280,3479,6742,0,0,0,0],"split_type":[0,0,0,0,0,0,0],"sum_hessian":[4.2686392E2,4.1540442E2,1.1459513E1,4.1017773E2,5.226686E0,5.2405176E0,6.218995E0],"tree_param":{"num_deleted":"0","num_feature":"7834","num_nodes":"7","size_leaf_vector":"0"}},{"base_weights":[-1.5097984E0,-1.547439E0,-1.622783E-1,-1.5649766E0,-4.693181E-1,3.932968E-1,-6.2136793E-1],"categories":[],"categories_nodes":[],"categories_segments":[],"categories_sizes":[],"default_left":[1,1,1,0,0,0,0],"id":6,"left_children":[1,3,5,-1,-1,-1,-1],"loss_changes":[2.0881348E1,6.92688E0,3.4170396E0,0E0,0E0,0E0,0E0],"parents":[2147483647,0,0,1,1,2,2],"right_children":[2,4,6,-1,-1,-1,-1],"split_conditions":[5E-1,5E-1,3.3E1,-7.824883E-2,-2.3465905E-2,1.966484E-2,-3.1068398E-2],"split_indices":[2280,3486,6742,0,0,0,0],"split_type":[0,0,0,0,0,0,0],"sum_hessian":[4.1563788E2,4.0419897E2,1.1438928E1,3.9728485E2,6.914128E0,5.240436E0,6.198491E0],"tree_param":{"num_deleted":"0","num_feature":"7834","num_nodes":"7","size_leaf_vector":"0"}},{"base_weights":[-1.4701229E0,-1.5034003E0,-2.0957638E-1,-1.5231787E0,-4.0230975E-1,3.3763814E-1,-7.4797535E-1],"categories":[],"categories_nodes":[],"categories_segments":[],"categories_sizes":[],"default_left":[1,1,1,0,0,0,0],"id":7,"left_children":[1,3,5,-1,-1,-1,-1],"loss_changes":[1.6828735E1,8.055237E0,3.6918461E0,0E0,0E0,0E0,0E0],"parents":[2147483647,0,0,1,1,2,2],"right_children":[2,4,6,-1,-1,-1,-1],"split_conditions":[5E-1,5E-1,5E-1,-7.615893E-2,-2.0115487E-2,1.6881907E-2,-3.7398767E-2],"split_indices":[2280,3486,3304,0,0,0,0],"split_type":[0,0,0,0,0,0,0],"sum_hessian":[4.076955E2,3.9702182E2,1.06736965E1,3.8963956E2,7.3822603E0,5.4784393E0,5.1952567E0],"tree_param":{"num_deleted":"0","num_feature":"7834","num_nodes":"7","size_leaf_vector":"0"}},{"base_weights":[-1.4293414E0,-1.4671869E0,-1.0823854E-1,-1.4855865E0,-2.4036323E-1,6.2188674E-2,-2.5633857E-1,-1.4933064E0,-9.323879E-1],"categories":[],"categories_nodes":[],"categories_segments":[],"categories_sizes":[],"default_left":[1,1,1,1,0,1,1,1,1],"id":8,"left_children":[1,3,-1,-1,-1,-1,-1,-1,-1],"loss_changes":[1.9720032E1,8.366089E0,3.226679E-1,2.3278809E-1,0E0,0E0,0E0,0E0,0E0],"parents":[2147483647,0,0,1,1,2,2,3,3],"right_children":[2,4,-1,-1,-1,-1,-1,-1,-1],"split_conditions":[5E-1,5E-1,-5.411927E-3,-7.427933E-2,-1.2018162E-2,3.1094337E-3,-1.2816928E-2,-7.466532E-2,-4.6619397E-2],"split_indices":[2280,3486,7455,3087,0,2147483647,2147483647,2147483647,2147483647],"split_type":[0,0,0,0,0,0,0,0,0],"sum_hessian":[3.9659393E2,3.8544168E2,1.1152266E1,3.795385E2,5.9031577E0,5.4549875E0,5.6972775E0,3.7263895E2,6.899564E0],"tree_param":{"num_deleted":"4","num_feature":"7834","num_nodes":"9","size_leaf_vector":"0"}},{"base_weights":[-1.3892448E0,-1.4288908E0,-9.45978E-2,-1.4451612E0,-3.324778E-1,3.8186243E-1,-5.7455564E-1,-1.4529891E0,-8.713955E-1],"categories":[],"categories_nodes":[],"categories_segments":[],"categories_sizes":[],"default_left":[1,1,1,1,0,0,0,1,1],"id":9,"left_children":[1,3,5,-1,-1,-1,-1,-1,-1],"loss_changes":[1.9861572E1,6.2616577E0,3.1114964E0,4.052124E-1,0E0,0E0,0E0,0E0,0E0],"parents":[2147483647,0,0,1,1,2,2,3,3],"right_children":[2,4,6,-1,-1,-1,-1,-1,-1],"split_conditions":[5E-1,3.5E0,5E-1,-7.225806E-2,-1.662389E-2,1.9093122E-2,-2.8727783E-2,-7.264946E-2,-4.3569777E-2],"split_indices":[2280,3483,2283,3087,0,0,0,2147483647,2147483647],"split_type":[0,0,0,0,0,0,0,0,0],"sum_hessian":[3.8859073E2,3.7694388E2,1.1646864E1,3.711185E2,5.825362E0,5.9472938E0,5.69957E0,3.6461172E2,6.50678E0],"tree_param":{"num_deleted":"2","num_feature":"7834","num_nodes":"9","size_leaf_vector":"0"}},{"base_weights":[-1.3511338E0,-1.3905267E0,-1.0855689E-1,-1.4121047E0,9.024271E-2,3.3925903E-1,-5.946716E-1,-1.4202381E0,-7.503317E-1],"categories":[],"categories_nodes":[],"categories_segments":[],"categories_sizes":[],"default_left":[1,1,1,1,0,0,0,1,1],"id":10,"left_children":[1,3,5,-1,-1,-1,-1,-1,-1],"loss_changes":[1.8278015E1,1.1784912E1,2.9563472E0,8.701782E-1,0E0,0E0,0E0,0E0,0E0],"parents":[2147483647,0,0,1,1,2,2,3,3],"right_children":[2,4,6,-1,-1,-1,-1,-1,-1],"split_conditions":[5E-1,5E-1,3.55E1,-7.060524E-2,4.512136E-3,1.6962951E-2,-2.9733581E-2,-7.101191E-2,-3.7516586E-2],"split_indices":[2280,3479,6742,3087,0,0,0,2147483647,2147483647],"split_type":[0,0,0,0,0,0,0,0,0],"sum_hessian":[3.7549582E2,3.6384204E2,1.1653776E1,3.586619E2,5.180126E0,6.2230835E0,5.430693E0,3.531752E2,5.4866962E0],"tree_param":{"num_deleted":"2","num_feature":"7834","num_nodes":"9","size_leaf_vector":"0"}},{"base_weights":[-1.3272613E0,-1.3563343E0,3.3304188E-1,-1.3724272E0,-4.6571258E-1,-1.3860844E0,-5.0715244E-1],"categories":[],"categories_nodes":[],"categories_segments":[],"categories_sizes":[],"default_left":[1,1,0,1,0,0,0],"id":11,"left_children":[1,3,-1,5,-1,-1,-1],"loss_changes":[1.8117615E1,4.51886E0,0E0,3.4682617E0,0E0,0E0,0E0],"parents":[2147483647,0,0,1,1,3,3],"right_children":[2,4,-1,6,-1,-1,-1],"split_conditions":[5E-1,5E-1,1.6652094E-2,5E-1,-2.328563E-2,-6.930422E-2,-2.5357623E-2],"split_indices":[2275,2280,0,3486,0,0,0],"split_type":[0,0,0,0,0,0,0],"sum_hessian":[3.6498132E2,3.588802E2,6.101142E0,3.5197922E2,6.900972E0,3.4591745E2,6.061747E0],"tree_param":{"num_deleted":"0","num_feature":"7834","num_nodes":"7","size_leaf_vector":"0"}},{"base_weights":[-1.302155E0,-1.32832E0,2.4499243E-1,-1.3436228E0,-4.147492E-1,-1.356089E0,-4.974904E-1,-1.3645921E0,-7.488786E-1],"categories":[],"categories_nodes":[],"categories_segments":[],"categories_sizes":[],"default_left":[1,1,0,1,0,1,0,1,1],"id":12,"left_children":[1,3,-1,5,-1,-1,-1,-1,-1],"loss_changes":[1.4970642E1,4.418518E0,0E0,3.0130615E0,0E0,7.540283E-1,0E0,0E0,0E0],"parents":[2147483647,0,0,1,1,3,3,5,5],"right_children":[2,4,-1,6,-1,-1,-1,-1,-1],"split_conditions":[5E-1,5E-1,1.2249622E-2,5E-1,-2.073746E-2,-6.780445E-2,-2.4874521E-2,-6.822961E-2,-3.7443932E-2],"split_indices":[2275,3486,0,2280,0,3087,0,2147483647,2147483647],"split_type":[0,0,0,0,0,0,0,0,0],"sum_hessian":[3.607804E2,3.5491953E2,5.860861E0,3.486094E2,6.3101335E0,3.4295392E2,5.6554694E0,3.3698758E2,5.9663377E0],"tree_param":{"num_deleted":"2","num_feature":"7834","num_nodes":"9","size_leaf_vector":"0"}},{"base_weights":[-1.2645028E0,-1.3065478E0,1.0188934E-1,-1.3294024E0,1.5115396E-2,4.1577193E-1,-2.3001248E-1,-1.3381842E0,-6.282985E-1],"categories":[],"categories_nodes":[],"categories_segments":[],"categories_sizes":[],"default_left":[1,1,1,1,0,0,0,0,0],"id":13,"left_children":[1,3,5,7,-1,-1,-1,-1,-1],"loss_changes":[2.0216125E1,1.0266357E1,1.2794322E0,1.2122803E0,0E0,0E0,0E0,0E0,0E0],"parents":[2147483647,0,0,1,1,2,2,3,3],"right_children":[2,4,6,8,-1,-1,-1,-1,-1],"split_conditions":[5E-1,3.5E0,5E-1,5E-1,7.5576984E-4,2.0788597E-2,-1.1500624E-2,-6.690922E-2,-3.1414926E-2],"split_indices":[2280,3483,2644,3087,0,0,0,0,0],"split_type":[0,0,0,0,0,0,0,0,0],"sum_hessian":[3.4857425E2,3.3821103E2,1.0363216E1,3.324562E2,5.7548137E0,5.1963167E0,5.1668997E0,3.2744604E2,5.010151E0],"tree_param":{"num_deleted":"0","num_feature":"7834","num_nodes":"9","size_leaf_vector":"0"}},{"base_weights":[-1.2519478E0,-1.2918094E0,-1.2148716E-1,-1.3109992E0,-2.8397536E-1,3.4301952E-1,-4.8549154E-1],"categories":[],"categories_nodes":[],"categories_segments":[],"categories_sizes":[],"default_left":[1,1,1,0,0,0,0],"id":14,"left_children":[1,3,5,-1,-1,-1,-1],"loss_changes":[1.535498E1,6.0565186E0,2.335624E0,0E0,0E0,0E0,0E0],"parents":[2147483647,0,0,1,1,2,2],"right_children":[2,4,6,-1,-1,-1,-1],"split_conditions":[5E-1,5E-1,3.15E1,-6.554996E-2,-1.4198768E-2,1.7150976E-2,-2.4274578E-2],"split_indices":[2280,3486,6742,0,0,0,0],"split_type":[0,0,0,0,0,0,0],"sum_hessian":[3.4323483E2,3.3140625E2,1.1828598E1,3.249188E2,6.48744E0,5.222195E0,6.6064034E0],"tree_param":{"num_deleted":"0","num_feature":"7834","num_nodes":"7","size_leaf_vector":"0"}},{"base_weights":[-1.2256082E0,-1.2549015E0,2.9577678E-1,-1.2774049E0,-1.18616804E-1,-1.2882218E0,-5.529217E-1],"categories":[],"categories_nodes":[],"categories_segments":[],"categories_sizes":[],"default_left":[1,1,0,1,0,0,0],"id":15,"left_children":[1,3,-1,5,-1,-1,-1],"loss_changes":[1.5124298E1,8.158203E0,0E0,1.7841187E0,0E0,0E0,0E0],"parents":[2147483647,0,0,1,1,3,3],"right_children":[2,4,-1,6,-1,-1,-1],"split_conditions":[5E-1,3.5E0,1.4788839E-2,5E-1,-5.9308405E-3,-6.44111E-2,-2.7646085E-2],"split_indices":[2275,3483,0,2282,0,0,0],"split_type":[0,0,0,0,0,0,0],"sum_hessian":[3.3003787E2,3.239751E2,6.0627646E0,3.175618E2,6.4133043E0,3.121235E2,5.4383044E0],"tree_param":{"num_deleted":"0","num_feature":"7834","num_nodes":"7","size_leaf_vector":"0"}},{"base_weights":[-1.2029445E0,-1.2312932E0,2.7666765E-1,-1.2644773E0,-2.8054705E-1,-1.2739768E0,-6.201261E-1,8.639717E-2,-6.375089E-1],"categories":[],"categories_nodes":[],"categories_segments":[],"categories_sizes":[],"default_left":[1,1,0,1,1,0,0,0,0],"id":16,"left_children":[1,3,-1,5,7,-1,-1,-1,-1],"loss_changes":[1.3672455E1,9.490234E0,0E0,1.053894E0,1.6019132E0,0E0,0E0,0E0,0E0],"parents":[2147483647,0,0,1,1,3,3,4,4],"right_children":[2,4,-1,6,8,-1,-1,-1,-1],"split_conditions":[5E-1,5E-1,1.3833383E-2,5E-1,3.55E1,-6.369884E-2,-3.1006306E-2,4.3198587E-3,-3.1875446E-2],"split_indices":[3479,2280,0,3087,6742,0,0,0,0],"split_type":[0,0,0,0,0,0,0,0,0],"sum_hessian":[3.1683932E2,3.110476E2,5.7917123E0,3.0023837E2,1.0809237E1,2.9491336E2,5.325036E0,5.703848E0,5.1053886E0],"tree_param":{"num_deleted":"0","num_feature":"7834","num_nodes":"9","size_leaf_vector":"0"}},{"base_weights":[-1.1725036E0,-1.2171587E0,-1.11239254E-1,-1.2438407E0,-1.2019099E-1,2.913536E-1,-5.788813E-1],"categories":[],"categories_nodes":[],"categories_segments":[],"categories_sizes":[],"default_left":[1,1,1,0,0,0,0],"id":17,"left_children":[1,3,5,-1,-1,-1,-1],"loss_changes":[1.4418884E1,8.473602E0,2.7105284E0,0E0,0E0,0E0,0E0],"parents":[2147483647,0,0,1,1,2,2],"right_children":[2,4,6,-1,-1,-1,-1],"split_conditions":[5E-1,5E-1,5E-1,-6.2192034E-2,-6.00955E-3,1.4567681E-2,-2.8944066E-2],"split_indices":[2280,3486,3304,0,0,0,0],"split_type":[0,0,0,0,0,0,0],"sum_hessian":[3.0611234E2,2.936111E2,1.2501236E1,2.8650833E2,7.102775E0,6.9204206E0,5.580815E0],"tree_param":{"num_deleted":"0","num_feature":"7834","num_nodes":"7","size_leaf_vector":"0"}},{"base_weights":[-1.1640717E0,-1.206019E0,-9.473787E-2,-1.2299105E0,-2.3858881E-1,2.957522E-1,-5.071763E-1,-1.2401254E0,-5.677222E-1],"categories":[],"categories_nodes":[],"categories_segments":[],"categories_sizes":[],"default_left":[1,1,1,1,0,0,0,0,0],"id":18,"left_children":[1,3,5,7,-1,-1,-1,-1,-1],"loss_changes":[1.3146088E1,6.2794495E0,2.1219425E0,1.1715393E0,0E0,0E0,0E0,0E0,0E0],"parents":[2147483647,0,0,1,1,2,2,3,3],"right_children":[2,4,6,8,-1,-1,-1,-1,-1],"split_conditions":[5E-1,5E-1,4.6E1,5E-1,-1.192944E-2,1.478761E-2,-2.5358815E-2,-6.2006272E-2,-2.838611E-2],"split_indices":[2280,3486,6742,3087,0,0,0,0,0],"split_type":[0,0,0,0,0,0,0,0,0],"sum_hessian":[2.94622E2,2.8337796E2,1.1244061E1,2.762836E2,7.0943503E0,5.9210362E0,5.3230247E0,2.712269E2,5.056705E0],"tree_param":{"num_deleted":"0","num_feature":"7834","num_nodes":"9","size_leaf_vector":"0"}},{"base_weights":[-1.1391808E0,-1.1854293E0,-1.3171403E-2,-1.2136873E0,-8.058467E-2,4.0892646E-1,-5.0328624E-1],"categories":[],"categories_nodes":[],"categories_segments":[],"categories_sizes":[],"default_left":[1,1,1,0,0,0,0],"id":19,"left_children":[1,3,5,-1,-1,-1,-1],"loss_changes":[1.4796875E1,8.431824E0,2.7365324E0,0E0,0E0,0E0,0E0],"parents":[2147483647,0,0,1,1,2,2],"right_children":[2,4,6,-1,-1,-1,-1],"split_conditions":[5E-1,5E-1,5E-1,-6.0684364E-2,-4.0292335E-3,2.0446323E-2,-2.5164312E-2],"split_indices":[2280,3486,7043,0,0,0,0],"split_type":[0,0,0,0,0,0,0],"sum_hessian":[2.8343787E2,2.7220483E2,1.1233027E1,2.6532034E2,6.8844657E0,6.1242976E0,5.10873E0],"tree_param":{"num_deleted":"0","num_feature":"7834","num_nodes":"7","size_leaf_vector":"0"}},{"base_weights":[-1.1210728E0,-1.168043E0,-1.4058927E-2,-1.1948555E0,-3.36726E-2,4.8145294E-1,-5.9854174E-1],"categories":[],"categories_nodes":[],"categories_segments":[],"categories_sizes":[],"default_left":[1,1,1,0,0,0,0],"id":20,"left_children":[1,3,5,-1,-1,-1,-1],"loss_changes":[1.4294342E1,7.989685E0,3.8257236E0,0E0,0E0,0E0,0E0],"parents":[2147483647,0,0,1,1,2,2],"right_children":[2,4,6,-1,-1,-1,-1],"split_conditions":[5E-1,5E-1,5E-1,-5.9742775E-2,-1.68363E-3,2.4072647E-2,-2.9927088E-2],"split_indices":[2280,3486,3304,0,0,0,0],"split_type":[0,0,0,0,0,0,0],"sum_hessian":[2.742241E2,2.6300952E2,1.1214544E1,2.568844E2,6.125144E0,6.1646028E0,5.0499415E0],"tree_param":{"num_deleted":"0","num_feature":"7834","num_nodes":"7","size_leaf_vector":"0"}},{"base_weights":[-1.121228E0,-1.1684356E0,-6.80368E-2,-1.1861421E0,-2.846122E-1,3.5763776E-1,-5.107098E-1,-1.1937805E0,-6.8554264E-1],"categories":[],"categories_nodes":[],"categories_segments":[],"categories_sizes":[],"default_left":[1,1,1,1,0,0,0,1,1],"id":21,"left_children":[1,3,5,-1,-1,-1,-1,-1,-1],"loss_changes":[1.3099182E1,3.6316223E0,2.5255039E0,1.3122559E-1,0E0,0E0,0E0,0E0,0E0],"parents":[2147483647,0,0,1,1,2,2,3,3],"right_children":[2,4,6,-1,-1,-1,-1,-1,-1],"split_conditions":[5E-1,3.5E0,3.55E1,-5.9307106E-2,-1.4230611E-2,1.7881889E-2,-2.5535492E-2,-5.9689026E-2,-3.4277134E-2],"split_indices":[2280,3483,6742,2676,0,0,0,2147483647,2147483647],"split_type":[0,0,0,0,0,0,0,0,0],"sum_hessian":[2.6406537E2,2.5263213E2,1.143325E1,2.4733495E2,5.2971783E0,5.9264593E0,5.506791E0,2.4225377E2,5.0811687E0],"tree_param":{"num_deleted":"2","num_feature":"7834","num_nodes":"9","size_leaf_vector":"0"}},{"base_weights":[-1.0936875E0,-1.1312892E0,3.5900104E-1,-1.1520283E0,-4.0830818E-1,-1.1707464E0,-2.9979527E-1],"categories":[],"categories_nodes":[],"categories_segments":[],"categories_sizes":[],"default_left":[1,1,0,1,0,0,0],"id":22,"left_children":[1,3,-1,5,-1,-1,-1],"loss_changes":[1.4393127E1,3.2757263E0,0E0,3.514618E0,0E0,0E0,0E0],"parents":[2147483647,0,0,1,1,3,3],"right_children":[2,4,-1,6,-1,-1,-1],"split_conditions":[5E-1,5E-1,1.7950052E-2,5E-1,-2.0415409E-2,-5.8537323E-2,-1.49897635E-2],"split_indices":[2275,3486,0,2280,0,0,0],"split_type":[0,0,0,0,0,0,0],"sum_hessian":[2.550605E2,2.4884068E2,6.2198157E0,2.4132472E2,7.5159736E0,2.3577258E2,5.552135E0],"tree_param":{"num_deleted":"0","num_feature":"7834","num_nodes":"7","size_leaf_vector":"0"}},{"base_weights":[-1.0840071E0,-1.1183304E0,3.2928613E-1,-1.156711E0,-1.5123439E-1,-1.1714357E0,-8.319846E-1,-4.0988883E-1,-1.0557885E0],"categories":[],"categories_nodes":[],"categories_segments":[],"categories_sizes":[],"default_left":[1,1,0,1,0,1,1,1,1],"id":23,"left_children":[1,3,-1,-1,-1,-1,-1,-1,-1],"loss_changes":[1.2403656E1,8.824341E0,0E0,1.3970947E-1,0E0,0E0,8.482256E-1,0E0,0E0],"parents":[2147483647,0,0,1,1,3,3,6,6],"right_children":[2,4,-1,-1,-1,-1,-1,-1,-1],"split_conditions":[5E-1,5E-1,1.6464306E-2,-5.783555E-2,-7.5617195E-3,-5.8571786E-2,-4.159923E-2,-2.0494442E-2,-5.2789427E-2],"split_indices":[3479,2282,0,933,0,2147483647,2147483647,2147483647,2147483647],"split_type":[0,0,0,0,0,0,0,0,0],"sum_hessian":[2.4710779E2,2.4145259E2,5.6551995E0,2.320474E2,9.405205E0,2.1948724E2,1.2560143E1,5.333184E0,7.2269597E0],"tree_param":{"num_deleted":"4","num_feature":"7834","num_nodes":"9","size_leaf_vector":"0"}},{"base_weights":[-1.0566518E0,-1.1104206E0,4.867431E-3,-1.1427028E0,-7.224695E-2,4.1423973E-1,-3.8084015E-1,-1.1509353E0,-6.699158E-1],"categories":[],"categories_nodes":[],"categories_segments":[],"categories_sizes":[],"default_left":[1,1,1,1,0,0,0,1,1],"id":24,"left_children":[1,3,5,-1,-1,-1,-1,-1,-1],"loss_changes":[1.377475E1,7.612976E0,2.1513994E0,9.5458984E-2,0E0,0E0,0E0,0E0,0E0],"parents":[2147483647,0,0,1,1,2,2,3,3],"right_children":[2,4,6,-1,-1,-1,-1,-1,-1],"split_conditions":[5E-1,5E-1,1.5E0,-5.7135142E-2,-3.6123474E-3,2.0711986E-2,-1.9042008E-2,-5.7546765E-2,-3.349579E-2],"split_indices":[2280,3486,7455,933,0,0,0,2147483647,2147483647],"split_type":[0,0,0,0,0,0,0,0,0],"sum_hessian":[2.402434E2,2.2861726E2,1.1626127E1,2.2162509E2,6.992162E0,5.604158E0,6.0219693E0,2.1642224E2,5.202861E0],"tree_param":{"num_deleted":"2","num_feature":"7834","num_nodes":"9","size_leaf_vector":"0"}},{"base_weights":[-1.072447E0,-1.104701E0,1.7431141E-1,-1.1418406E0,-1.9942364E-1],"categories":[],"categories_nodes":[],"categories_segments":[],"categories_sizes":[],"default_left":[1,1,0,0,0],"id":25,"left_children":[1,3,-1,-1,-1],"loss_changes":[9.410126E0,7.2891846E0,0E0,0E0,0E0],"parents":[2147483647,0,0,1,1],"right_children":[2,4,-1,-1,-1],"split_conditions":[5E-1,5E-1,8.715571E-3,-5.709203E-2,-9.971182E-3],"split_indices":[3479,2282,0,0,0],"split_type":[0,0,0,0,0],"sum_hessian":[2.2821837E2,2.2257422E2,5.6441436E0,2.1355183E2,9.022387E0],"tree_param":{"num_deleted":"0","num_feature":"7834","num_nodes":"5","size_leaf_vector":"0"}},{"base_weights":[-1.0394738E0,-1.0949484E0,4.108661E-2,-1.1230209E0,-6.0447935E-2,3.7823763E-1,-3.1487373E-1],"categories":[],"categories_nodes":[],"categories_segments":[],"categories_sizes":[],"default_left":[1,1,1,0,0,0,0],"id":26,"left_children":[1,3,5,-1,-1,-1,-1],"loss_changes":[1.3429886E1,6.101074E0,1.5433484E0,0E0,0E0,0E0,0E0],"parents":[2147483647,0,0,1,1,2,2],"right_children":[2,4,6,-1,-1,-1,-1],"split_conditions":[5E-1,3.5E0,5E-1,-5.6151044E-2,-3.0223967E-3,1.8911881E-2,-1.5743686E-2],"split_indices":[2280,3483,2283,0,0,0,0],"split_type":[0,0,0,0,0,0,0],"sum_hessian":[2.2229074E2,2.114232E2,1.0867536E1,2.0575426E2,5.6689544E0,5.5490856E0,5.31845E0],"tree_param":{"num_deleted":"0","num_feature":"7834","num_nodes":"7","size_leaf_vector":"0"}},{"base_weights":[-1.0334499E0,-1.0878154E0,-6.912823E-2,-1.1165376E0,-5.2829754E-2,3.263145E-1,-4.9526283E-1],"categories":[],"categories_nodes":[],"categories_segments":[],"categories_sizes":[],"default_left":[1,1,1,0,0,0,0],"id":27,"left_children":[1,3,5,-1,-1,-1,-1],"loss_changes":[1.1226837E1,6.0055695E0,2.2803192E0,0E0,0E0,0E0,0E0],"parents":[2147483647,0,0,1,1,2,2],"right_children":[2,4,6,-1,-1,-1,-1],"split_conditions":[5E-1,3.5E0,5E-1,-5.582688E-2,-2.6414876E-3,1.6315727E-2,-2.4763143E-2],"split_indices":[2280,3483,3304,0,0,0,0],"split_type":[0,0,0,0,0,0,0],"sum_hessian":[2.1458115E2,2.0300809E2,1.157305E1,1.9744983E2,5.558272E0,6.1241913E0,5.4488583E0],"tree_param":{"num_deleted":"0","num_feature":"7834","num_nodes":"7","size_leaf_vector":"0"}},{"base_weights":[-1.0021491E0,-1.0452795E0,4.1021565E-1,-1.098449E0,-6.1009713E-2,3.034359E-1,-4.1481766E-1],"categories":[],"categories_nodes":[],"categories_segments":[],"categories_sizes":[],"default_left":[1,1,0,0,1,0,0],"id":28,"left_children":[1,3,-1,-1,5,-1,-1],"loss_changes":[1.3035263E1,1.0457092E1,0E0,0E0,1.5913486E0,0E0,0E0],"parents":[2147483647,0,0,1,1,4,4],"right_children":[2,4,-1,-1,6,-1,-1],"split_conditions":[5E-1,5E-1,2.0510783E-2,-5.492245E-2,3.45E1,1.5171795E-2,-2.0740883E-2],"split_indices":[3479,2280,0,0,6742,0,0],"split_type":[0,0,0,0,0,0,0],"sum_hessian":[2.0594923E2,2.0009859E2,5.850642E0,1.8973334E2,1.0365252E1,5.1759996E0,5.1892514E0],"tree_param":{"num_deleted":"0","num_feature":"7834","num_nodes":"7","size_leaf_vector":"0"}},{"base_weights":[-9.920676E-1,-1.0532418E0,2.0669039E-1,-1.0872946E0,1.23072706E-1],"categories":[],"categories_nodes":[],"categories_segments":[],"categories_sizes":[],"default_left":[1,1,0,0,0],"id":29,"left_children":[1,3,-1,-1,-1],"loss_changes":[1.4736038E1,7.685669E0,0E0,0E0,0E0],"parents":[2147483647,0,0,1,1],"right_children":[2,4,-1,-1,-1],"split_conditions":[5E-1,5E-1,1.033452E-2,-5.436473E-2,6.153635E-3],"split_indices":[2282,3479,0,0,0],"split_type":[0,0,0,0,0],"sum_hessian":[1.9697789E2,1.8752939E2,9.448501E0,1.8232697E2,5.2024336E0],"tree_param":{"num_deleted":"0","num_feature":"7834","num_nodes":"5","size_leaf_vector":"0"}},{"base_weights":[-9.785779E-1,-1.0414482E0,1.9244672E-1,-1.0791492E0,1.329481E-1,-1.1085583E0,-8.0791235E-1,-2.418795E-1,-1.0136342E0],"categories":[],"categories_nodes":[],"categories_segments":[],"categories_sizes":[],"default_left":[1,1,0,1,0,0,1,0,0],"id":30,"left_children":[1,3,-1,5,-1,-1,7,-1,-1],"loss_changes":[1.4302322E1,8.19902E0,0E0,5.114136E-1,0E0,0E0,2.1933823E0,0E0,0E0],"parents":[2147483647,0,0,1,1,3,3,6,6],"right_children":[2,4,-1,6,-1,-1,8,-1,-1],"split_conditions":[5E-1,3.5E0,9.622336E-3,5E-1,6.647405E-3,-5.5427916E-2,1.5E0,-1.2093975E-2,-5.068171E-2],"split_indices":[2280,3483,0,5852,0,0,6621,0,0],"split_type":[0,0,0,0,0,0,0,0,0],"sum_hessian":[1.9054305E2,1.8093938E2,9.60367E0,1.7539003E2,5.5493503E0,1.5544836E2,1.994167E1,5.895706E0,1.4045962E1],"tree_param":{"num_deleted":"0","num_feature":"7834","num_nodes":"9","size_leaf_vector":"0"}},{"base_weights":[-9.6691936E-1,-1.0128793E0,3.1252587E-1,-1.0700432E0,-1.2365401E-1,-1.085211E0,-7.391161E-1,2.1449666E-1,-4.5500967E-1],"categories":[],"categories_nodes":[],"categories_segments":[],"categories_sizes":[],"default_left":[1,1,0,1,1,1,1,0,0],"id":31,"left_children":[1,3,-1,-1,7,-1,-1,-1,-1],"loss_changes":[1.107547E1,8.857605E0,0E0,3.135681E-2,1.4212432E0,0E0,0E0,0E0,0E0],"parents":[2147483647,0,0,1,1,3,3,4,4],"right_children":[2,4,-1,-1,8,-1,-1,-1,-1],"split_conditions":[5E-1,5E-1,1.5626295E-2,-5.350216E-2,5E-1,-5.4260552E-2,-3.6955804E-2,1.0724833E-2,-2.2750484E-2],"split_indices":[3479,2280,0,933,2283,2147483647,2147483647,0,0],"split_type":[0,0,0,0,0,0,0,0,0],"sum_hessian":[1.8196523E2,1.758565E2,6.1087213E0,1.6504332E2,1.0813182E1,1.5563077E2,9.412556E0,5.526263E0,5.286919E0],"tree_param":{"num_deleted":"2","num_feature":"7834","num_nodes":"9","size_leaf_vector":"0"}},{"base_weights":[-9.5443934E-1,-1.0055852E0,4.8861468E-1,-1.0455971E0,-5.2653994E-2,-1.0709229E0,-2.3666313E-1,-1.0881289E0,-6.758358E-1],"categories":[],"categories_nodes":[],"categories_segments":[],"categories_sizes":[],"default_left":[1,1,0,1,0,1,0,1,1],"id":32,"left_children":[1,3,-1,5,-1,-1,-1,-1,-1],"loss_changes":[1.3586685E1,6.4909515E0,0E0,3.120987E0,0E0,3.483734E-1,0E0,0E0,0E0],"parents":[2147483647,0,0,1,1,3,3,5,5],"right_children":[2,4,-1,6,-1,-1,-1,-1,-1],"split_conditions":[5E-1,5E-1,2.4430735E-2,5E-1,-2.6326997E-3,-5.354614E-2,-1.1833156E-2,-5.4406445E-2,-3.379179E-2],"split_indices":[2275,3486,0,2280,0,933,0,2147483647,2147483647],"split_type":[0,0,0,0,0,0,0,0,0],"sum_hessian":[1.764289E2,1.7068259E2,5.7463045E0,1.637114E2,6.97119E0,1.5842752E2,5.283874E0,1.50135E2,8.292532E0],"tree_param":{"num_deleted":"2","num_feature":"7834","num_nodes":"9","size_leaf_vector":"0"}},{"base_weights":[-9.580431E-1,-1.005203E0,2.9085538E-1,-1.0374438E0,-1.5940489E-1,-1.063027E0,-3.003323E-1,-1.0810058E0,-6.524027E-1],"categories":[],"categories_nodes":[],"categories_segments":[],"categories_sizes":[],"default_left":[1,1,0,1,0,1,0,1,1],"id":33,"left_children":[1,3,-1,5,-1,-1,-1,-1,-1],"loss_changes":[1.0353439E1,4.3294067E0,0E0,2.6715088E0,0E0,4.2340088E-1,0E0,0E0,0E0],"parents":[2147483647,0,0,1,1,3,3,5,5],"right_children":[2,4,-1,6,-1,-1,-1,-1,-1],"split_conditions":[5E-1,5E-1,1.4542769E-2,5E-1,-7.970245E-3,-5.315135E-2,-1.5016615E-2,-5.4050293E-2,-3.2620136E-2],"split_indices":[2275,3486,0,2280,0,933,0,2147483647,2147483647],"split_type":[0,0,0,0,0,0,0,0,0],"sum_hessian":[1.698219E2,1.6383058E2,5.991316E0,1.5759662E2,6.233968E0,1.51883E2,5.7136207E0,1.4394781E2,7.9351854E0],"tree_param":{"num_deleted":"2","num_feature":"7834","num_nodes":"9","size_leaf_vector":"0"}},{"base_weights":[-9.4986916E-1,-9.9362403E-1,1.5442513E-1,-1.043952E0,-1.12805024E-1,-1.0585275E0,-6.716682E-1],"categories":[],"categories_nodes":[],"categories_segments":[],"categories_sizes":[],"default_left":[1,1,0,1,0,1,1],"id":34,"left_children":[1,3,-1,-1,-1,-1,-1],"loss_changes":[8.06041E0,6.8660126E0,0E0,9.700012E-2,0E0,0E0,0E0],"parents":[2147483647,0,0,1,1,3,3],"right_children":[2,4,-1,-1,-1,-1,-1],"split_conditions":[5E-1,5E-1,7.7212565E-3,-5.21976E-2,-5.640251E-3,-5.2926373E-2,-3.358341E-2],"split_indices":[3479,2282,0,3609,0,2147483647,2147483647],"split_type":[0,0,0,0,0,0,0],"sum_hessian":[1.6264348E2,1.5654114E2,6.1023316E0,1.4790498E2,8.636154E0,1.4055858E2,7.3464165E0],"tree_param":{"num_deleted":"2","num_feature":"7834","num_nodes":"7","size_leaf_vector":"0"}},{"base_weights":[-9.4106585E-1,-9.871856E-1,2.2736771E-1,-1.0215551E0,-1.7685586E-1,-1.0392283E0,-4.8732153E-1,-1.0575778E0,-6.05691E-1],"categories":[],"categories_nodes":[],"categories_segments":[],"categories_sizes":[],"default_left":[1,1,0,1,0,1,1,1,1],"id":35,"left_children":[1,3,-1,-1,-1,-1,-1,-1,-1],"loss_changes":[8.637329E0,4.007416E0,0E0,8.5362244E-1,0E0,4.6165466E-1,0E0,0E0,0E0],"parents":[2147483647,0,0,1,1,3,3,5,5],"right_children":[2,4,-1,-1,-1,-1,-1,-1,-1],"split_conditions":[5E-1,3.5E0,1.13683855E-2,-5.1077753E-2,-8.842793E-3,-5.196142E-2,-2.4366077E-2,-5.2878894E-2,-3.0284552E-2],"split_indices":[2275,3483,0,3291,0,2147483647,2147483647,2147483647,2147483647],"split_type":[0,0,0,0,0,0,0,0,0],"sum_hessian":[1.5511798E2,1.4937697E2,5.741008E0,1.43049E2,6.327973E0,1.3755327E2,5.495728E0,1.3058676E2,6.9665112E0],"tree_param":{"num_deleted":"4","num_feature":"7834","num_nodes":"9","size_leaf_vector":"0"}},{"base_weights":[-9.3823457E-1,-1.0091692E0,-6.454218E-2,-1.042461E0,-1.7997925E-1,3.7282494E-1,-4.4766307E-1,-1.0676492E0,-7.8975344E-1,-3.0827436E-1,-1.009487E0],"categories":[],"categories_nodes":[],"categories_segments":[],"categories_sizes":[],"default_left":[1,1,1,1,0,0,0,0,1,0,0],"id":36,"left_children":[1,3,5,7,-1,-1,-1,-1,9,-1,-1],"loss_changes":[9.329681E0,3.6809235E0,2.253357E0,1.3076782E-2,0E0,0E0,0E0,0E0,1.3852301E0,0E0,0E0],"parents":[2147483647,0,0,1,1,2,2,3,3,8,8],"right_children":[2,4,6,8,-1,-1,-1,-1,10,-1,-1],"split_conditions":[5E-1,3.5E0,3.3E1,5E-1,-8.998963E-3,1.8641246E-2,-2.2383153E-2,-5.3382464E-2,2.5E0,-1.5413718E-2,-5.0474353E-2],"split_indices":[2280,3483,6742,5852,0,0,0,0,6621,0,0],"split_type":[0,0,0,0,0,0,0,0,0,0,0],"sum_hessian":[1.5059032E2,1.3913866E2,1.1451668E1,1.3352063E2,5.618018E0,5.3598213E0,6.0918465E0,1.18485886E2,1.5034743E1,5.4643135E0,9.57043E0],"tree_param":{"num_deleted":"0","num_feature":"7834","num_nodes":"11","size_leaf_vector":"0"}},{"base_weights":[-9.054205E-1,-9.6086305E-1,4.4451073E-1,-1.0066692E0,2.2148678E-1,-1.0381676E0,-2.352409E-1,-1.0587003E0,-5.9226894E-1],"categories":[],"categories_nodes":[],"categories_segments":[],"categories_sizes":[],"default_left":[1,1,0,1,0,1,0,1,1],"id":37,"left_children":[1,3,-1,5,-1,-1,-1,-1,-1],"loss_changes":[1.1382233E1,7.854782E0,0E0,3.0565186E0,0E0,5.651703E-1,0E0,0E0,0E0],"parents":[2147483647,0,0,1,1,3,3,5,5],"right_children":[2,4,-1,6,-1,-1,-1,-1,-1],"split_conditions":[5E-1,5E-1,2.2225536E-2,5E-1,1.1074339E-2,-5.190838E-2,-1.1762045E-2,-5.2935015E-2,-2.9613448E-2],"split_indices":[2275,3479,0,2280,0,933,0,2147483647,2147483647],"split_type":[0,0,0,0,0,0,0,0,0],"sum_hessian":[1.453734E2,1.399152E2,5.458196E0,1.3483987E2,5.075329E0,1.2921796E2,5.621914E0,1.2221588E2,7.0020776E0],"tree_param":{"num_deleted":"2","num_feature":"7834","num_nodes":"9","size_leaf_vector":"0"}},{"base_weights":[-9.122712E-1,-9.868785E-1,-4.961572E-2,-1.035798E0,-9.011773E-3,2.8547361E-1,-4.2829067E-1,-1.0581561E0,-5.712465E-1],"categories":[],"categories_nodes":[],"categories_segments":[],"categories_sizes":[],"default_left":[1,1,1,1,0,0,0,1,1],"id":38,"left_children":[1,3,5,-1,-1,-1,-1,-1,-1],"loss_changes":[9.0914E0,6.241066E0,1.6903452E0,6.8788147E-1,0E0,0E0,0E0,0E0,0E0],"parents":[2147483647,0,0,1,1,2,2,3,3],"right_children":[2,4,6,-1,-1,-1,-1,-1,-1],"split_conditions":[5E-1,5E-1,5E-1,-5.17899E-2,-4.5058868E-4,1.4273681E-2,-2.1414533E-2,-5.2907806E-2,-2.8562326E-2],"split_indices":[2280,3486,2283,933,0,0,0,2147483647,2147483647],"split_type":[0,0,0,0,0,0,0,0,0],"sum_hessian":[1.4101859E2,1.296608E2,1.1357793E1,1.2342691E2,6.2338853E0,6.156252E0,5.2015405E0,1.1654021E2,6.8867006E0],"tree_param":{"num_deleted":"2","num_feature":"7834","num_nodes":"9","size_leaf_vector":"0"}},{"base_weights":[-8.976751E-1,-9.525561E-1,3.213002E-1,-1.0156405E0,-1.8529148E-1,-1.0427607E0,-7.523454E-1,-2.60852E-1,-9.7994417E-1],"categories":[],"categories_nodes":[],"categories_segments":[],"categories_sizes":[],"default_left":[1,1,0,1,0,0,1,0,0],"id":39,"left_children":[1,3,-1,5,-1,-1,7,-1,-1],"loss_changes":[9.311638E0,6.0590286E0,0E0,6.549835E-2,0E0,0E0,1.3895521E0,0E0,0E0],"parents":[2147483647,0,0,1,1,3,3,6,6],"right_children":[2,4,-1,6,-1,-1,8,-1,-1],"split_conditions":[5E-1,5E-1,1.606501E-2,5E-1,-9.264574E-3,-5.2138038E-2,1.5E0,-1.3042601E-2,-4.899721E-2],"split_indices":[3479,2280,0,5852,0,0,6621,0,0],"split_type":[0,0,0,0,0,0,0,0,0],"sum_hessian":[1.336155E2,1.2806815E2,5.54735E0,1.18039246E2,1.0028893E1,1.0433225E2,1.3706995E1,5.01764E0,8.689355E0],"tree_param":{"num_deleted":"0","num_feature":"7834","num_nodes":"9","size_leaf_vector":"0"}},{"base_weights":[-8.637128E-1,-9.5565104E-1,7.5766765E-2,-1.0058297E0,-2.0396419E-2,5.178814E-1,-4.6027336E-1,-1.045592E0,-6.441133E-1,-1.0117701E-1,-9.553451E-1],"categories":[],"categories_nodes":[],"categories_segments":[],"categories_sizes":[],"default_left":[1,1,1,1,0,0,0,0,1,0,0],"id":40,"left_children":[1,3,5,7,-1,-1,-1,-1,9,-1,-1],"loss_changes":[1.1422791E1,5.6002426E0,3.2339578E0,9.6110535E-1,0E0,0E0,0E0,0E0,2.2454271E0,0E0,0E0],"parents":[2147483647,0,0,1,1,2,2,3,3,8,8],"right_children":[2,4,6,8,-1,-1,-1,-1,10,-1,-1],"split_conditions":[5E-1,5E-1,7.5E0,5E-1,-1.0198209E-3,2.589407E-2,-2.3013668E-2,-5.22796E-2,2.5E0,-5.0588506E-3,-4.7767255E-2],"split_indices":[2280,3486,6621,5852,0,0,0,0,6621,0,0],"split_type":[0,0,0,0,0,0,0,0,0,0,0],"sum_hessian":[1.3040956E2,1.1876946E2,1.1640093E1,1.1265006E2,6.1194E0,6.3974695E0,5.242623E0,9.978985E1,1.2860216E1,5.168675E0,7.6915417E0],"tree_param":{"num_deleted":"0","num_feature":"7834","num_nodes":"11","size_leaf_vector":"0"}},{"base_weights":[-8.806214E-1,-9.369211E-1,3.2435146E-1,-9.833102E-1,-1.735629E-1,-1.0132357E0,-4.069743E-1,-1.046536E0,-3.7715694E-1],"categories":[],"categories_nodes":[],"categories_segments":[],"categories_sizes":[],"default_left":[1,1,0,1,0,1,0,0,0],"id":41,"left_children":[1,3,-1,5,-1,7,-1,-1,-1],"loss_changes":[8.790253E0,4.0704803E0,0E0,1.5312576E0,0E0,1.8602371E0,0E0,0E0,0E0],"parents":[2147483647,0,0,1,1,3,3,5,5],"right_children":[2,4,-1,6,-1,8,-1,-1,-1],"split_conditions":[5E-1,5E-1,1.6217573E-2,5E-1,-8.678145E-3,5E-1,-2.0348715E-2,-5.23268E-2,-1.8857848E-2],"split_indices":[2275,3486,0,933,0,3300,0,0,0],"split_type":[0,0,0,0,0,0,0,0,0],"sum_hessian":[1.2409433E2,1.18767624E2,5.3267045E0,1.1169199E2,7.0756307E0,1.05458145E2,6.2338448E0,9.959864E1,5.859512E0],"tree_param":{"num_deleted":"0","num_feature":"7834","num_nodes":"9","size_leaf_vector":"0"}},{"base_weights":[-8.5854995E-1,-9.22919E-1,2.9155055E-1,-9.687389E-1,-3.841337E-2,-1.0013958E0,-2.5244677E-1,-1.0276746E0,-4.5457765E-1],"categories":[],"categories_nodes":[],"categories_segments":[],"categories_sizes":[],"default_left":[1,1,0,1,0,1,0,0,0],"id":42,"left_children":[1,3,-1,5,-1,7,-1,-1,-1],"loss_changes":[9.210892E0,4.6082306E0,0E0,2.2954254E0,0E0,1.0251312E0,0E0,0E0,0E0],"parents":[2147483647,0,0,1,1,3,3,5,5],"right_children":[2,4,-1,6,-1,8,-1,-1,-1],"split_conditions":[5E-1,5E-1,1.45775275E-2,5E-1,-1.9206684E-3,5E-1,-1.2622339E-2,-5.138373E-2,-2.2728883E-2],"split_indices":[2275,3486,0,2280,0,933,0,0,0],"split_type":[0,0,0,0,0,0,0,0,0],"sum_hessian":[1.1978492E2,1.1362317E2,6.1617503E0,1.07936516E2,5.6866546E0,1.0284943E2,5.08709E0,9.729431E1,5.555113E0],"tree_param":{"num_deleted":"0","num_feature":"7834","num_nodes":"9","size_leaf_vector":"0"}},{"base_weights":[-8.4627074E-1,-9.090591E-1,2.4079056E-1,-9.9030787E-1,-1.0084943E-1,-1.0156894E0,-4.7866857E-1,1.5968049E-1,-3.5655656E-1,-1.0328525E0,-5.9272563E-1],"categories":[],"categories_nodes":[],"categories_segments":[],"categories_sizes":[],"default_left":[1,1,0,1,1,1,1,1,1,1,1],"id":43,"left_children":[1,3,-1,-1,-1,-1,-1,-1,-1,-1,-1],"loss_changes":[8.298424E0,7.26252E0,0E0,8.353348E-1,8.133985E-1,8.515167E-2,0E0,0E0,0E0,0E0,0E0],"parents":[2147483647,0,0,1,1,3,3,4,4,5,5],"right_children":[2,4,-1,-1,-1,-1,-1,-1,-1,-1,-1],"split_conditions":[5E-1,5E-1,1.2039528E-2,-4.9515393E-2,-5.0424715E-3,-5.078447E-2,-2.393343E-2,7.9840245E-3,-1.782783E-2,-5.1642627E-2,-2.9636282E-2],"split_indices":[3479,2280,0,933,6742,2147483647,2147483647,2147483647,2147483647,2147483647,2147483647],"split_type":[0,0,0,0,0,0,0,0,0,0,0],"sum_hessian":[1.1737303E2,1.111186E2,6.254433E0,1.0076359E2,1.0355009E1,9.506255E1,5.7010336E0,5.3151484E0,5.039861E0,8.996979E1,5.0927663E0],"tree_param":{"num_deleted":"6","num_feature":"7834","num_nodes":"11","size_leaf_vector":"0"}},{"base_weights":[-8.543368E-1,-9.1876245E-1,3.9467335E-1,-9.952371E-1,-1.4161642E-1],"categories":[],"categories_nodes":[],"categories_segments":[],"categories_sizes":[],"default_left":[1,1,0,0,0],"id":44,"left_children":[1,3,-1,-1,-1],"loss_changes":[9.508064E0,6.3002167E0,0E0,0E0,0E0],"parents":[2147483647,0,0,1,1],"right_children":[2,4,-1,-1,-1],"split_conditions":[5E-1,5E-1,1.9733667E-2,-4.9761858E-2,-7.080821E-3],"split_indices":[3479,2280,0,0,0],"split_type":[0,0,0,0,0],"sum_hessian":[1.1265293E2,1.073786E2,5.274327E0,9.750322E1,9.875388E0],"tree_param":{"num_deleted":"0","num_feature":"7834","num_nodes":"5","size_leaf_vector":"0"}},{"base_weights":[-7.9719967E-1,-9.065485E-1,1.4465454E-1,-9.724904E-1,1.3109119E-2,4.9668866E-1,-1.7211406E-1,-9.995368E-1,-6.2587684E-1],"categories":[],"categories_nodes":[],"categories_segments":[],"categories_sizes":[],"default_left":[1,1,1,1,0,0,0,1,1],"id":45,"left_children":[1,3,5,-1,-1,-1,-1,-1,-1],"loss_changes":[1.143528E1,5.9849167E0,1.4548488E0,2.359848E-1,0E0,0E0,0E0,0E0,0E0],"parents":[2147483647,0,0,1,1,2,2,3,3],"right_children":[2,4,6,-1,-1,-1,-1,-1,-1],"split_conditions":[5E-1,5E-1,3.3E1,-4.862452E-2,6.554559E-4,2.4834434E-2,-8.605703E-3,-4.997684E-2,-3.1293843E-2],"split_indices":[2280,3486,6742,1402,0,0,0,2147483647,2147483647],"split_type":[0,0,0,0,0,0,0,0,0],"sum_hessian":[1.0875897E2,9.747917E1,1.1279799E1,9.090369E1,6.5754857E0,5.0734935E0,6.2063065E0,8.2576485E1,8.327204E0],"tree_param":{"num_deleted":"2","num_feature":"7834","num_nodes":"9","size_leaf_vector":"0"}},{"base_weights":[-8.289045E-1,-9.020599E-1,3.66439E-1,-9.794955E-1,-7.210258E-2,-1.0049615E0,-4.9764678E-1],"categories":[],"categories_nodes":[],"categories_segments":[],"categories_sizes":[],"default_left":[1,1,0,1,0,1,1],"id":46,"left_children":[1,3,-1,-1,-1,-1,-1],"loss_changes":[9.515923E0,6.309387E0,0E0,6.1309814E-1,0E0,0E0,0E0],"parents":[2147483647,0,0,1,1,3,3],"right_children":[2,4,-1,-1,-1,-1,-1],"split_conditions":[5E-1,5E-1,1.8321952E-2,-4.897478E-2,-3.605129E-3,-5.0248075E-2,-2.4882339E-2],"split_indices":[3479,2282,0,3609,0,2147483647,2147483647],"split_type":[0,0,0,0,0,0,0],"sum_hessian":[1.0404064E2,9.8271736E1,5.768907E0,8.972057E1,8.551165E0,8.418568E1,5.534896E0],"tree_param":{"num_deleted":"2","num_feature":"7834","num_nodes":"7","size_leaf_vector":"0"}},{"base_weights":[-8.072445E-1,-8.760523E-1,3.6533242E-1,-9.528618E-1,-1.7164946E-1,-1.0004963E0,-5.827325E-1,-8.880168E-2,-9.295371E-1],"categories":[],"categories_nodes":[],"categories_segments":[],"categories_sizes":[],"default_left":[1,1,0,1,0,0,1,0,0],"id":47,"left_children":[1,3,-1,5,-1,-1,7,-1,-1],"loss_changes":[8.441765E0,4.9968185E0,0E0,9.2935944E-1,0E0,0E0,2.003131E0,0E0,0E0],"parents":[2147483647,0,0,1,1,3,3,6,6],"right_children":[2,4,-1,6,-1,-1,8,-1,-1],"split_conditions":[5E-1,5E-1,1.8266622E-2,5E-1,-8.582473E-3,-5.0024815E-2,4.5E0,-4.440084E-3,-4.6476856E-2],"split_indices":[3479,2280,0,5852,0,0,6621,0,0],"split_type":[0,0,0,0,0,0,0,0,0],"sum_hessian":[9.9662674E1,9.43774E1,5.2852683E0,8.478009E1,9.597312E0,7.360435E1,1.1175749E1,5.128138E0,6.0476108E0],"tree_param":{"num_deleted":"0","num_feature":"7834","num_nodes":"9","size_leaf_vector":"0"}},{"base_weights":[-7.7916044E-1,-8.504912E-1,2.8271848E-1,-9.423455E-1,-6.1038905E-4,-9.831088E-1,-2.9137927E-1],"categories":[],"categories_nodes":[],"categories_segments":[],"categories_sizes":[],"default_left":[1,1,0,1,0,0,0],"id":48,"left_children":[1,3,-1,5,-1,-1,-1],"loss_changes":[7.6582375E0,7.1827087E0,0E0,1.9170837E0,0E0,0E0,0E0],"parents":[2147483647,0,0,1,1,3,3],"right_children":[2,4,-1,6,-1,-1,-1],"split_conditions":[5E-1,5E-1,1.4135924E-2,5E-1,-3.051945E-5,-4.915544E-2,-1.4568964E-2],"split_indices":[3479,2282,0,933,0,0,0],"split_type":[0,0,0,0,0,0,0],"sum_hessian":[9.693148E1,9.101659E1,5.9148917E0,8.204089E1,8.975693E0,7.67261E1,5.3147974E0],"tree_param":{"num_deleted":"0","num_feature":"7834","num_nodes":"7","size_leaf_vector":"0"}},{"base_weights":[-7.79177E-1,-8.8865787E-1,1.2411299E-1,-9.586484E-1,2.7936468E-2,-9.970584E-1,-6.07974E-1],"categories":[],"categories_nodes":[],"categories_segments":[],"categories_sizes":[],"default_left":[1,1,0,1,0,1,1],"id":49,"left_children":[1,3,-1,-1,-1,-1,-1],"loss_changes":[9.334591E0,5.3716736E0,0E0,4.3679047E-1,0E0,0E0,0E0],"parents":[2147483647,0,0,1,1,3,3],"right_children":[2,4,-1,-1,-1,-1,-1],"split_conditions":[5E-1,5E-1,6.2056496E-3,-4.793242E-2,1.3968234E-3,-4.985292E-2,-3.03987E-2],"split_indices":[2282,3486,0,5852,0,2147483647,2147483647],"split_type":[0,0,0,0,0,0,0],"sum_hessian":[9.227553E1,8.231496E1,9.960568E0,7.643273E1,5.8822303E0,6.7226074E1,9.206658E0],"tree_param":{"num_deleted":"2","num_feature":"7834","num_nodes":"7","size_leaf_vector":"0"}},{"base_weights":[-7.571165E-1,-8.727336E-1,8.203561E-2,-9.3966407E-1,-6.1252102E-2,4.3645805E-1,-3.1864622E-1,-1.0001934E0,-4.5000333E-1],"categories":[],"categories_nodes":[],"categories_segments":[],"categories_sizes":[],"default_left":[1,1,1,1,0,0,0,0,0],"id":50,"left_children":[1,3,5,7,-1,-1,-1,-1,-1],"loss_changes":[8.947636E0,4.314289E0,1.8421463E0,1.7518082E0,0E0,0E0,0E0,0E0,0E0],"parents":[2147483647,0,0,1,1,2,2,3,3],"right_children":[2,4,6,8,-1,-1,-1,-1,-1],"split_conditions":[5E-1,5E-1,5E-1,5E-1,-3.0626052E-3,2.1822903E-2,-1.5932312E-2,-5.0009668E-2,-2.2500167E-2],"split_indices":[2280,3486,2286,5852,0,0,0,0,0],"split_type":[0,0,0,0,0,0,0,0,0],"sum_hessian":[9.04864E1,7.949384E1,1.0992557E1,7.329089E1,6.202948E0,5.7856135E0,5.206943E0,6.429986E1,8.991034E0],"tree_param":{"num_deleted":"0","num_feature":"7834","num_nodes":"9","size_leaf_vector":"0"}},{"base_weights":[-7.642064E-1,-8.7243694E-1,-2.055382E-2,-9.4708884E-1,5.77169E-2,4.3007198E-1,-4.6678907E-1,-9.956304E-1,-5.4601777E-1],"categories":[],"categories_nodes":[],"categories_segments":[],"categories_sizes":[],"default_left":[1,1,1,1,0,0,0,1,1],"id":51,"left_children":[1,3,5,-1,-1,-1,-1,-1,-1],"loss_changes":[7.093006E0,5.408394E0,2.6638203E0,8.47023E-1,0E0,0E0,0E0,0E0,0E0],"parents":[2147483647,0,0,1,1,2,2,3,3],"right_children":[2,4,6,-1,-1,-1,-1,-1,-1],"split_conditions":[5E-1,5E-1,5E-1,-4.735444E-2,2.885845E-3,2.15036E-2,-2.3339454E-2,-4.978152E-2,-2.7300889E-2],"split_indices":[2280,3486,2283,5852,0,0,0,2147483647,2147483647],"split_type":[0,0,0,0,0,0,0,0,0],"sum_hessian":[8.735006E1,7.610118E1,1.12488785E1,7.04304E1,5.670779E0,5.6149273E0,5.6339517E0,6.150414E1,8.92626E0],"tree_param":{"num_deleted":"2","num_feature":"7834","num_nodes":"9","size_leaf_vector":"0"}},{"base_weights":[-7.660456E-1,-8.756009E-1,8.494559E-2,-9.404788E-1,-3.137184E-2,-1.0115328E0,-4.3416166E-1],"categories":[],"categories_nodes":[],"categories_segments":[],"categories_sizes":[],"default_left":[1,1,0,1,0,0,0],"id":52,"left_children":[1,3,-1,5,-1,-1,-1],"loss_changes":[7.8849792E0,4.040615E0,0E0,2.0421867E0,0E0,0E0,0E0],"parents":[2147483647,0,0,1,1,3,3],"right_children":[2,4,-1,6,-1,-1,-1],"split_conditions":[5E-1,2.5E0,4.2472794E-3,5E-1,-1.568592E-3,-5.057664E-2,-2.1708084E-2],"split_indices":[2282,3483,0,5852,0,0,0],"split_type":[0,0,0,0,0,0,0],"sum_hessian":[8.277725E1,7.3310455E1,9.466795E0,6.7972824E1,5.3376346E0,5.8732742E1,9.24008E0],"tree_param":{"num_deleted":"0","num_feature":"7834","num_nodes":"7","size_leaf_vector":"0"}},{"base_weights":[-7.192247E-1,-8.013156E-1,3.153787E-1,-9.104296E-1,-7.08332E-2,-9.713464E-1,-4.7309312E-1,-3.39663E-2,-9.5765635E-2,-1.0009181E0,-5.789065E-1],"categories":[],"categories_nodes":[],"categories_segments":[],"categories_sizes":[],"default_left":[1,1,0,1,1,1,0,1,1,1,1],"id":53,"left_children":[1,3,-1,5,-1,-1,-1,-1,-1,-1,-1],"loss_changes":[7.2596397E0,6.0504074E0,0E0,1.3164597E0,6.9084577E-3,8.860016E-2,0E0,0E0,0E0,0E0,0E0],"parents":[2147483647,0,0,1,1,3,3,4,4,5,5],"right_children":[2,4,-1,6,-1,-1,-1,-1,-1,-1,-1],"split_conditions":[5E-1,5E-1,1.5768936E-2,5E-1,-3.54166E-3,-4.856732E-2,-2.3654656E-2,-1.698315E-3,-4.788282E-3,-5.0045907E-2,-2.8945325E-2],"split_indices":[3479,2280,0,5852,6148,2407,0,2147483647,2147483647,2147483647,2147483647],"split_type":[0,0,0,0,0,0,0,0,0,0,0],"sum_hessian":[8.150075E1,7.571834E1,5.782413E0,6.566366E1,1.0054681E1,5.6563805E1,9.099852E0,5.0095434E0,5.0451374E0,5.1158337E1,5.4054704E0],"tree_param":{"num_deleted":"4","num_feature":"7834","num_nodes":"11","size_leaf_vector":"0"}},{"base_weights":[-7.7508223E-1,-8.336392E-1,6.4605534E-2,-8.8638175E-1,-1.199875E-1,-9.5473534E-1,-5.1812345E-1,-8.1728125E-1,-9.213366E-2],"categories":[],"categories_nodes":[],"categories_segments":[],"categories_sizes":[],"default_left":[1,1,0,1,0,0,1,0,0],"id":54,"left_children":[1,3,-1,5,-1,-1,7,-1,-1],"loss_changes":[3.9432678E0,2.6796417E0,0E0,1.2363129E0,0E0,0E0,1.5753379E0,0E0,0E0],"parents":[2147483647,0,0,1,1,3,3,6,6],"right_children":[2,4,-1,6,-1,-1,8,-1,-1],"split_conditions":[5E-1,3.5E0,3.2302768E-3,5E-1,-5.999375E-3,-4.7736768E-2,5E-1,-4.086406E-2,-4.6066833E-3],"split_indices":[2275,3483,0,2407,0,0,1492,0,0],"split_type":[0,0,0,0,0,0,0,0,0],"sum_hessian":[7.810199E1,7.301722E1,5.0847673E0,6.776686E1,5.250361E0,5.5814407E1,1.1952455E1,6.4818974E0,5.4705577E0],"tree_param":{"num_deleted":"0","num_feature":"7834","num_nodes":"9","size_leaf_vector":"0"}},{"base_weights":[-7.370143E-1,-8.1711197E-1,2.545919E-1,-9.128356E-1,-1.7757557E-1,-9.8042244E-1,-4.6633035E-1],"categories":[],"categories_nodes":[],"categories_segments":[],"categories_sizes":[],"default_left":[1,1,0,1,0,0,0],"id":55,"left_children":[1,3,-1,5,-1,-1,-1],"loss_changes":[6.3180733E0,4.2099075E0,0E0,1.4101143E0,0E0,0E0,0E0],"parents":[2147483647,0,0,1,1,3,3],"right_children":[2,4,-1,6,-1,-1,-1],"split_conditions":[5E-1,5E-1,1.2729595E-2,5E-1,-8.878779E-3,-4.902112E-2,-2.3316517E-2],"split_indices":[3479,2280,0,5852,0,0,0],"split_type":[0,0,0,0,0,0,0],"sum_hessian":[7.592811E1,7.041616E1,5.5119424E0,6.087697E1,9.539194E0,5.183501E1,9.04196E0],"tree_param":{"num_deleted":"0","num_feature":"7834","num_nodes":"7","size_leaf_vector":"0"}},{"base_weights":[-7.359803E-1,-8.4354204E-1,-3.4476846E-2,-9.148252E-1,-1.0666813E-1,-9.7435755E-1,-4.738558E-1],"categories":[],"categories_nodes":[],"categories_segments":[],"categories_sizes":[],"default_left":[1,1,0,1,0,0,0],"id":56,"left_children":[1,3,-1,5,-1,-1,-1],"loss_changes":[5.4759293E0,3.2229233E0,0E0,1.0479813E0,0E0,0E0,0E0],"parents":[2147483647,0,0,1,1,3,3],"right_children":[2,4,-1,6,-1,-1,-1],"split_conditions":[5E-1,5E-1,-1.7238423E-3,5E-1,-5.3334064E-3,-4.871788E-2,-2.369279E-2],"split_indices":[2280,3486,0,5852,0,0,0],"split_type":[0,0,0,0,0,0,0],"sum_hessian":[7.1957565E1,6.2215557E1,9.742011E0,5.6507664E1,5.7078924E0,4.872063E1,7.7870317E0],"tree_param":{"num_deleted":"0","num_feature":"7834","num_nodes":"7","size_leaf_vector":"0"}},{"base_weights":[-7.1163565E-1,-7.941085E-1,2.9440582E-1,-8.685329E-1,7.321003E-2,-7.2793376E-1,-1.0721573E0,-7.9579544E-1,-2.6432705E-1],"categories":[],"categories_nodes":[],"categories_segments":[],"categories_sizes":[],"default_left":[1,1,0,1,0,1,0,0,0],"id":57,"left_children":[1,3,-1,5,-1,7,-1,-1,-1],"loss_changes":[6.1632805E0,4.3445435E0,0E0,9.7042847E-1,0E0,1.025816E0,0E0,0E0,0E0],"parents":[2147483647,0,0,1,1,3,3,5,5],"right_children":[2,4,-1,6,-1,8,-1,-1,-1],"split_conditions":[5E-1,5E-1,1.4720291E-2,5.15E1,3.6605017E-3,5E-1,-5.3607862E-2,-3.9789774E-2,-1.3216353E-2],"split_indices":[2275,3609,0,6742,0,2407,0,0,0],"split_type":[0,0,0,0,0,0,0,0,0],"sum_hessian":[7.046451E1,6.5320366E1,5.1441426E0,6.0156914E1,5.1634526E0,3.82919E1,2.1865015E1,3.2777477E1,5.514422E0],"tree_param":{"num_deleted":"0","num_feature":"7834","num_nodes":"9","size_leaf_vector":"0"}},{"base_weights":[-6.668259E-1,-8.200866E-1,1.6524994E-1,-9.023293E-1,-1.6320955E-2,3.259829E-1,-3.9580308E-2,-9.6631515E-1,-4.5119336E-1],"categories":[],"categories_nodes":[],"categories_segments":[],"categories_sizes":[],"default_left":[1,1,1,1,0,1,1,0,0],"id":58,"left_children":[1,3,-1,7,-1,-1,-1,-1,-1],"loss_changes":[9.008095E0,3.8801994E0,3.9659205E-1,1.1064339E0,0E0,0E0,0E0,0E0,0E0],"parents":[2147483647,0,0,1,1,2,2,3,3],"right_children":[2,4,-1,8,-1,-1,-1,-1,-1],"split_conditions":[5E-1,5E-1,8.262497E-3,5E-1,-8.160478E-4,1.6299145E-2,-1.9790155E-3,-4.831576E-2,-2.2559669E-2],"split_indices":[2280,3486,3302,5852,0,2147483647,2147483647,0,0],"split_type":[0,0,0,0,0,0,0,0,0],"sum_hessian":[6.857545E1,5.7921288E1,1.065416E1,5.2433567E1,5.487721E0,5.6382637E0,5.0158963E0,4.492042E1,7.513145E0],"tree_param":{"num_deleted":"2","num_feature":"7834","num_nodes":"9","size_leaf_vector":"0"}},{"base_weights":[-6.396896E-1,-7.880871E-1,8.652779E-2,-8.874958E-1,1.5905124E-1,4.8192117E-1,-4.1091537E-1,-9.626567E-1,-4.0714037E-1,-1.0040396E0,-5.8752906E-1],"categories":[],"categories_nodes":[],"categories_segments":[],"categories_sizes":[],"default_left":[1,1,1,1,0,0,0,1,0,1,1],"id":59,"left_children":[1,3,5,7,-1,-1,-1,-1,-1,-1,-1],"loss_changes":[7.524191E0,5.5592613E0,2.684103E0,1.4938164E0,0E0,0E0,0E0,9.9845886E-2,0E0,0E0,0E0],"parents":[2147483647,0,0,1,1,2,2,3,3,7,7],"right_children":[2,4,6,8,-1,-1,-1,-1,-1,-1,-1],"split_conditions":[5E-1,3.5E0,7.5E0,5E-1,7.9525625E-3,2.4096059E-2,-2.054577E-2,-4.8132833E-2,-2.0357018E-2,-5.0201982E-2,-2.9376453E-2],"split_indices":[2280,3483,6621,5852,0,0,0,1851,0,2147483647,2147483647],"split_type":[0,0,0,0,0,0,0,0,0,0,0],"sum_hessian":[6.81851E1,5.654527E1,1.1639831E1,5.123118E1,5.314091E0,6.502507E0,5.1373234E0,4.343144E1,7.7997394E0,3.76063E1,5.8251367E0],"tree_param":{"num_deleted":"2","num_feature":"7834","num_nodes":"11","size_leaf_vector":"0"}},{"base_weights":[-6.530912E-1,-7.8977007E-1,4.638716E-2,-8.893002E-1,7.0239425E-2,2.6240373E-1,-1.6975783E-1,-9.5481455E-1,-5.6809384E-1],"categories":[],"categories_nodes":[],"categories_segments":[],"categories_sizes":[],"default_left":[1,1,1,1,0,1,1,1,1],"id":60,"left_children":[1,3,-1,-1,-1,-1,-1,-1,-1],"loss_changes":[6.329817E0,4.7806587E0,5.9103495E-1,4.9874878E-1,0E0,0E0,0E0,0E0,0E0],"parents":[2147483647,0,0,1,1,2,2,3,3],"right_children":[2,4,-1,-1,-1,-1,-1,-1,-1],"split_conditions":[5E-1,5E-1,2.319358E-3,-4.4465013E-2,3.5119713E-3,1.31201865E-2,-8.487891E-3,-4.7740728E-2,-2.8404692E-2],"split_indices":[2280,3486,6742,3561,0,2147483647,2147483647,2147483647,2147483647],"split_type":[0,0,0,0,0,0,0,0,0],"sum_hessian":[6.482556E1,5.412114E1,1.070442E1,4.847679E1,5.644348E0,5.2467604E0,5.45766E0,3.8625935E1,9.85086E0],"tree_param":{"num_deleted":"4","num_feature":"7834","num_nodes":"9","size_leaf_vector":"0"}},{"base_weights":[-6.98969E-1,-8.19115E-1,-9.44207E-2,-8.999948E-1,-1.5986599E-1,2.9196522E-1,-4.952111E-1,-9.767179E-1,-3.9106965E-1],"categories":[],"categories_nodes":[],"categories_segments":[],"categories_sizes":[],"default_left":[1,1,1,1,0,0,0,0,0],"id":61,"left_children":[1,3,5,7,-1,-1,-1,-1,-1],"loss_changes":[4.5143433E0,2.6610603E0,1.9426439E0,1.4391975E0,0E0,0E0,0E0,0E0,0E0],"parents":[2147483647,0,0,1,1,2,2,3,3],"right_children":[2,4,6,8,-1,-1,-1,-1,-1],"split_conditions":[5E-1,5E-1,5E-1,5E-1,-7.9932995E-3,1.4598261E-2,-2.4760555E-2,-4.8835896E-2,-1.9553483E-2],"split_indices":[2280,3486,2283,5852,0,0,0,0,0],"split_type":[0,0,0,0,0,0,0,0,0],"sum_hessian":[6.2216667E1,5.160578E1,1.06108885E1,4.5641125E1,5.964655E0,5.540776E0,5.0701127E0,3.8863132E1,6.777994E0],"tree_param":{"num_deleted":"0","num_feature":"7834","num_nodes":"9","size_leaf_vector":"0"}},{"base_weights":[-6.1000633E-1,-7.2301E-1,5.3031904E-1,-8.137903E-1,-4.7986005E-2,-8.7454706E-1,-2.3127064E-1,-9.4903946E-1,-3.8377923E-1],"categories":[],"categories_nodes":[],"categories_segments":[],"categories_sizes":[],"default_left":[1,1,0,1,0,1,0,0,0],"id":62,"left_children":[1,3,-1,5,-1,7,-1,-1,-1],"loss_changes":[8.492773E0,3.4955215E0,0E0,1.5949402E0,0E0,1.3037338E0,0E0,0E0,0E0],"parents":[2147483647,0,0,1,1,3,3,5,5],"right_children":[2,4,-1,6,-1,8,-1,-1,-1],"split_conditions":[5E-1,5E-1,2.6515951E-2,5E-1,-2.3993002E-3,5E-1,-1.1563532E-2,-4.7451973E-2,-1.9188961E-2],"split_indices":[2275,3486,0,2280,0,5852,0,0,0],"split_type":[0,0,0,0,0,0,0,0,0],"sum_hessian":[6.193098E1,5.6680073E1,5.250907E0,4.9779877E1,6.9001946E0,4.4624252E1,5.1556234E0,3.793275E1,6.691503E0],"tree_param":{"num_deleted":"0","num_feature":"7834","num_nodes":"9","size_leaf_vector":"0"}},{"base_weights":[-6.152193E-1,-7.614972E-1,8.013314E-2,-8.694625E-1,7.556122E-2,4.0301418E-1,-2.5354314E-1,-9.45643E-1,-3.7171373E-1],"categories":[],"categories_nodes":[],"categories_segments":[],"categories_sizes":[],"default_left":[1,1,1,1,0,0,0,0,0],"id":63,"left_children":[1,3,5,7,-1,-1,-1,-1,-1],"loss_changes":[6.2030983E0,4.58304E0,1.3303859E0,1.3303642E0,0E0,0E0,0E0,0E0,0E0],"parents":[2147483647,0,0,1,1,2,2,3,3],"right_children":[2,4,6,8,-1,-1,-1,-1,-1],"split_conditions":[5E-1,5E-1,3.55E1,5E-1,3.778061E-3,2.015071E-2,-1.2677157E-2,-4.7282152E-2,-1.8585688E-2],"split_indices":[2280,3486,6742,5852,0,0,0,0,0],"split_type":[0,0,0,0,0,0,0,0,0],"sum_hessian":[5.9385345E1,4.89854E1,1.0399945E1,4.335472E1,5.63068E0,5.179863E0,5.2200823E0,3.681963E1,6.53509E0],"tree_param":{"num_deleted":"0","num_feature":"7834","num_nodes":"9","size_leaf_vector":"0"}},{"base_weights":[-6.1493E-1,-7.114082E-1,2.7566385E-1,-8.482641E-1,-6.856972E-2,-9.427796E-1,-3.2558304E-1],"categories":[],"categories_nodes":[],"categories_segments":[],"categories_sizes":[],"default_left":[1,1,0,1,0,0,0],"id":64,"left_children":[1,3,-1,5,-1,-1,-1],"loss_changes":[5.2043705E0,4.5931377E0,0E0,1.8421116E0,0E0,0E0,0E0],"parents":[2147483647,0,0,1,1,3,3],"right_children":[2,4,-1,6,-1,-1,-1],"split_conditions":[5E-1,5E-1,1.3783193E-2,5E-1,-3.428486E-3,-4.713898E-2,-1.6279152E-2],"split_indices":[3479,2280,0,5852,0,0,0],"split_type":[0,0,0,0,0,0,0],"sum_hessian":[5.7287857E1,5.1869972E1,5.4178853E0,4.2502018E1,9.367951E0,3.531274E1,7.1892776E0],"tree_param":{"num_deleted":"0","num_feature":"7834","num_nodes":"7","size_leaf_vector":"0"}},{"base_weights":[-5.8518994E-1,-7.442739E-1,8.216829E-2,-8.39858E-1,-1.0143989E-2,3.7159532E-1,-2.0158543E-1,-9.337547E-1,-3.381467E-1],"categories":[],"categories_nodes":[],"categories_segments":[],"categories_sizes":[],"default_left":[1,1,1,1,0,0,0,0,0],"id":65,"left_children":[1,3,5,7,-1,-1,-1,-1,-1],"loss_changes":[6.10511E0,3.2242813E0,1.0488435E0,1.6039772E0,0E0,0E0,0E0,0E0,0E0],"parents":[2147483647,0,0,1,1,2,2,3,3],"right_children":[2,4,6,8,-1,-1,-1,-1,-1],"split_conditions":[5E-1,3.5E0,3.3E1,5E-1,-5.0719944E-4,1.8579766E-2,-1.0079271E-2,-4.6687733E-2,-1.6907334E-2],"split_indices":[2280,3483,6742,5852,0,0,0,0,0],"split_type":[0,0,0,0,0,0,0,0,0],"sum_hessian":[5.5929283E1,4.5070244E1,1.0859038E1,3.975067E1,5.319574E0,5.2225246E0,5.636513E0,3.2758656E1,6.992015E0],"tree_param":{"num_deleted":"0","num_feature":"7834","num_nodes":"9","size_leaf_vector":"0"}},{"base_weights":[-5.8731264E-1,-7.29854E-1,8.074311E-2,-8.637563E-1,-2.7207816E-1,5.079805E-1,-9.394132E-1],"categories":[],"categories_nodes":[],"categories_segments":[],"categories_sizes":[],"default_left":[1,1,0,0,1,0,0],"id":66,"left_children":[1,3,-1,-1,5,-1,-1],"loss_changes":[5.2576923E0,2.5291023E0,0E0,0E0,6.5495086E0,0E0,0E0],"parents":[2147483647,0,0,1,1,4,4],"right_children":[2,4,-1,-1,6,-1,-1],"split_conditions":[5E-1,5E-1,4.037156E-3,-4.3187816E-2,4.5E0,2.5399027E-2,-4.697066E-2],"split_indices":[2282,5852,0,0,6621,0,0],"split_type":[0,0,0,0,0,0,0],"sum_hessian":[5.359419E1,4.4093555E1,9.500632E0,3.342862E1,1.0664937E1,5.0272713E0,5.6376657E0],"tree_param":{"num_deleted":"0","num_feature":"7834","num_nodes":"7","size_leaf_vector":"0"}},{"base_weights":[-5.919512E-1,-7.5797504E-1,7.865231E-2,-4.7680598E-1,-9.590524E-1,3.4638035E-1,-2.2130147E-1,-6.787088E-1,3.1690527E-2,-7.875414E-1,-4.402056E-1],"categories":[],"categories_nodes":[],"categories_segments":[],"categories_sizes":[],"default_left":[1,1,1,1,0,0,0,1,0,1,1],"id":67,"left_children":[1,3,5,7,-1,-1,-1,-1,-1,-1,-1],"loss_changes":[6.0177555E0,1.9731846E0,1.0022378E0,2.0659614E0,0E0,0E0,0E0,2.4463654E-2,0E0,0E0,0E0],"parents":[2147483647,0,0,1,1,2,2,3,3,7,7],"right_children":[2,4,6,8,-1,-1,-1,-1,-1,-1,-1],"split_conditions":[5E-1,1.5E0,6E0,5E-1,-4.795262E-2,1.7319018E-2,-1.1065073E-2,-3.393544E-2,1.5845264E-3,-3.937707E-2,-2.201028E-2],"split_indices":[2280,6621,6621,1492,0,0,0,6148,0,2147483647,2147483647],"split_type":[0,0,0,0,0,0,0,0,0,0,0],"sum_hessian":[5.251486E1,4.1989155E1,1.05257015E1,1.8913462E1,2.3075693E1,5.4798255E0,5.045876E0,1.3298461E1,5.6150017E0,7.5508676E0,5.7475934E0],"tree_param":{"num_deleted":"2","num_feature":"7834","num_nodes":"11","size_leaf_vector":"0"}},{"base_weights":[-6.3606364E-1,-7.7195495E-1,1.5514215E-2,-8.8398826E-1,-3.4942332E-1],"categories":[],"categories_nodes":[],"categories_segments":[],"categories_sizes":[],"default_left":[1,1,0,0,0],"id":68,"left_children":[1,3,-1,-1,-1],"loss_changes":[4.5525417E0,1.7006359E0,0E0,0E0,0E0],"parents":[2147483647,0,0,1,1],"right_children":[2,4,-1,-1,-1],"split_conditions":[5E-1,5E-1,7.757108E-4,-4.4199415E-2,-1.7471166E-2],"split_indices":[2282,5852,0,0,0],"split_type":[0,0,0,0,0],"sum_hessian":[5.028048E1,4.1450855E1,8.829625E0,3.1900406E1,9.550448E0],"tree_param":{"num_deleted":"0","num_feature":"7834","num_nodes":"5","size_leaf_vector":"0"}},{"base_weights":[-5.300151E-1,-6.391904E-1,3.4296772E-1,-7.8002363E-1,-9.531954E-2,-8.8460565E-1,-2.8835544E-1],"categories":[],"categories_nodes":[],"categories_segments":[],"categories_sizes":[],"default_left":[1,1,0,1,0,0,0],"id":69,"left_children":[1,3,-1,5,-1,-1,-1],"loss_changes":[5.096694E0,3.4364948E0,0E0,1.6098747E0,0E0,0E0,0E0],"parents":[2147483647,0,0,1,1,3,3],"right_children":[2,4,-1,6,-1,-1,-1],"split_conditions":[5E-1,5E-1,1.7148387E-2,5E-1,-4.765977E-3,-4.4230282E-2,-1.4417772E-2],"split_indices":[3479,2280,0,5852,0,0,0],"split_type":[0,0,0,0,0,0,0],"sum_hessian":[5.0175846E1,4.4836414E1,5.3394327E0,3.5269344E1,9.567071E0,2.8424103E1,6.8452415E0],"tree_param":{"num_deleted":"0","num_feature":"7834","num_nodes":"7","size_leaf_vector":"0"}},{"base_weights":[-6.307856E-1,-7.7106386E-1,-1.02063715E-1,-8.7560976E-1,-8.354836E-2,2.905408E-1,-5.046943E-1,-9.814917E-1,-3.406604E-1],"categories":[],"categories_nodes":[],"categories_segments":[],"categories_sizes":[],"default_left":[1,1,1,1,0,0,0,0,0],"id":70,"left_children":[1,3,5,7,-1,-1,-1,-1,-1],"loss_changes":[3.5893764E0,2.7252598E0,1.9680808E0,1.573843E0,0E0,0E0,0E0,0E0,0E0],"parents":[2147483647,0,0,1,1,2,2,3,3],"right_children":[2,4,6,8,-1,-1,-1,-1,-1],"split_conditions":[5E-1,2.5E0,5E-1,5E-1,-4.177418E-3,1.45270405E-2,-2.5234714E-2,-4.9074586E-2,-1.703302E-2],"split_indices":[2280,3483,2283,5852,0,0,0,0,0],"split_type":[0,0,0,0,0,0,0,0,0],"sum_hessian":[4.845615E1,3.793345E1,1.0522703E1,3.2689056E1,5.2443914E0,5.468636E0,5.0540667E0,2.659116E1,6.0978966E0],"tree_param":{"num_deleted":"0","num_feature":"7834","num_nodes":"9","size_leaf_vector":"0"}},{"base_weights":[-4.93116E-1,-6.481984E-1,5.8837872E-2,-7.3530066E-1,-1.9551355E-1,5.5269223E-1,-4.6217597E-1,-8.238156E-1,-2.6162547E-1,-6.375051E-1,-9.697309E-1],"categories":[],"categories_nodes":[],"categories_segments":[],"categories_sizes":[],"default_left":[1,1,1,1,0,0,0,1,0,1,1],"id":71,"left_children":[1,3,5,7,-1,-1,-1,-1,-1,-1,-1],"loss_changes":[4.118519E0,1.326829E0,3.1816564E0,1.0806885E0,0E0,0E0,0E0,7.727623E-2,0E0,0E0,0E0],"parents":[2147483647,0,0,1,1,2,2,3,3,7,7],"right_children":[2,4,6,8,-1,-1,-1,-1,-1,-1,-1],"split_conditions":[5E-1,5E-1,5E-1,5E-1,-9.775678E-3,2.7634611E-2,-2.3108799E-2,-4.119078E-2,-1.3081274E-2,-3.1875256E-2,-4.8486546E-2],"split_indices":[2280,3646,7043,1415,0,0,0,6742,0,2147483647,2147483647],"split_type":[0,0,0,0,0,0,0,0,0,0,0],"sum_hessian":[4.666891E1,3.6296356E1,1.0372557E1,2.9915861E1,6.380495E0,5.2938566E0,5.0786996E0,2.4582893E1,5.3329663E0,1.3155033E1,1.1427861E1],"tree_param":{"num_deleted":"2","num_feature":"7834","num_nodes":"11","size_leaf_vector":"0"}},{"base_weights":[-5.05675E-1,-3.045217E-1,-9.722072E-1,-5.553257E-1,4.102675E-1,-6.8911403E-1,-2.2798602E-2,-5.212886E-1,-8.8870096E-1,-7.9476345E-1,-2.04819E-1],"categories":[],"categories_nodes":[],"categories_segments":[],"categories_sizes":[],"default_left":[1,1,0,1,0,1,0,1,0,0,0],"id":72,"left_children":[1,3,-1,5,-1,7,-1,9,-1,-1,-1],"loss_changes":[4.092614E0,6.3468285E0,0E0,1.814723E0,0E0,2.2335815E-1,0E0,1.0102952E0,0E0,0E0,0E0],"parents":[2147483647,0,0,1,1,3,3,5,5,7,7],"right_children":[2,4,-1,6,-1,8,-1,10,-1,-1,-1],"split_conditions":[5E-1,5E-1,-4.861036E-2,5E-1,2.0513376E-2,1.5E0,-1.1399301E-3,1.05E1,-4.443505E-2,-3.9738175E-2,-1.024095E-2],"split_indices":[5916,5852,0,2407,0,7801,0,6742,0,0,0],"split_type":[0,0,0,0,0,0,0,0,0,0,0],"sum_hessian":[4.5765373E1,3.3132477E1,1.2632897E1,2.4691767E1,8.440711E0,1.9498943E1,5.192824E0,1.2554309E1,6.9446335E0,5.923884E0,6.630425E0],"tree_param":{"num_deleted":"0","num_feature":"7834","num_nodes":"11","size_leaf_vector":"0"}},{"base_weights":[-5.0951356E-1,-3.158286E-1,-9.610731E-1,-5.896695E-1,4.0444952E-1,-8.1401026E-1,-3.085308E-1,-9.5041744E-2,-5.001611E-1],"categories":[],"categories_nodes":[],"categories_segments":[],"categories_sizes":[],"default_left":[1,1,0,1,0,0,1,1,1],"id":73,"left_children":[1,3,-1,5,-1,-1,-1,-1,-1],"loss_changes":[3.7888832E0,6.9911757E0,0E0,1.3389864E0,0E0,0E0,4.7611773E-1,0E0,0E0],"parents":[2147483647,0,0,1,1,3,3,6,6],"right_children":[2,4,-1,6,-1,-1,-1,-1,-1],"split_conditions":[5E-1,5E-1,-4.8053656E-2,2.25E1,2.0222476E-2,-4.0700514E-2,-1.5426541E-2,-4.7520874E-3,-2.5008056E-2],"split_indices":[5916,5852,0,6742,0,0,7801,2147483647,2147483647],"split_type":[0,0,0,0,0,0,0,0,0],"sum_hessian":[4.579172E1,3.3235584E1,1.2556138E1,2.421186E1,9.023724E0,1.2412019E1,1.1799843E1,6.289206E0,5.5106363E0],"tree_param":{"num_deleted":"2","num_feature":"7834","num_nodes":"9","size_leaf_vector":"0"}},{"base_weights":[-4.535605E-1,-5.675891E-1,3.504382E-1,-7.4328E-1,-6.8198806E-3,-9.1063213E-1,-1.7543107E-1],"categories":[],"categories_nodes":[],"categories_segments":[],"categories_sizes":[],"default_left":[1,1,0,1,0,0,0],"id":74,"left_children":[1,3,-1,5,-1,-1,-1],"loss_changes":[4.387723E0,3.9748955E0,0E0,2.7624722E0,0E0,0E0,0E0],"parents":[2147483647,0,0,1,1,3,3],"right_children":[2,4,-1,6,-1,-1,-1],"split_conditions":[5E-1,5E-1,1.752191E-2,5E-1,-3.4099404E-4,-4.553161E-2,-8.771554E-3],"split_indices":[3479,5852,0,5913,0,0,0],"split_type":[0,0,0,0,0,0,0],"sum_hessian":[4.4690136E1,3.939667E1,5.2934623E0,2.9750326E1,9.646345E0,2.2512085E1,7.238242E0],"tree_param":{"num_deleted":"0","num_feature":"7834","num_nodes":"7","size_leaf_vector":"0"}},{"base_weights":[-4.0796682E-1,-2.3834953E-1,-1.0335141E0,-3.8185027E-1,5.486228E-1,-6.338915E-1,2.1542326E-1,-3.7185794E-1,-9.127749E-1,-5.941278E-1,-2.2402331E-2],"categories":[],"categories_nodes":[],"categories_segments":[],"categories_sizes":[],"default_left":[1,1,0,1,0,1,0,1,0,0,0],"id":75,"left_children":[1,3,-1,5,-1,7,-1,9,-1,-1,-1],"loss_changes":[4.5463357E0,4.3692274E0,0E0,4.9150968E0,0E0,1.3104162E0,0E0,1.0218818E0,0E0,0E0,0E0],"parents":[2147483647,0,0,1,1,3,3,5,5,7,7],"right_children":[2,4,-1,6,-1,8,-1,10,-1,-1,-1],"split_conditions":[2.5E0,5E-1,-5.1675707E-2,5E-1,2.743114E-2,2.75E1,1.0771163E-2,8.5E0,-4.5638748E-2,-2.9706389E-2,-1.1201166E-3],"split_indices":[5733,2275,0,2407,0,6742,0,6742,0,0,0],"split_type":[0,0,0,0,0,0,0,0,0,0,0],"sum_hessian":[4.4169727E1,3.5834282E1,8.335448E0,3.0743189E1,5.0910916E0,2.1576777E1,9.166412E0,1.2327487E1,9.2492895E0,7.106973E0,5.2205133E0],"tree_param":{"num_deleted":"0","num_feature":"7834","num_nodes":"11","size_leaf_vector":"0"}},{"base_weights":[-4.2628112E-1,-5.505853E-1,3.5987747E-1,-7.450122E-1,6.053223E-4,-8.410894E-1,-3.2210886E-1,3.5828406E-1,-3.4804052E-1],"categories":[],"categories_nodes":[],"categories_segments":[],"categories_sizes":[],"default_left":[1,1,0,1,1,1,1,0,0],"id":76,"left_children":[1,3,-1,-1,7,-1,-1,-1,-1],"loss_changes":[4.562477E0,4.175454E0,0E0,8.992729E-1,1.5161242E0,0E0,0E0,0E0,0E0],"parents":[2147483647,0,0,1,1,3,3,4,4],"right_children":[2,4,-1,-1,8,-1,-1,-1,-1],"split_conditions":[5E-1,5E-1,1.7993873E-2,-3.7250612E-2,5E-1,-4.205447E-2,-1.6105443E-2,1.7914204E-2,-1.7402027E-2],"split_indices":[3479,2280,0,5852,2283,2147483647,2147483647,0,0],"split_type":[0,0,0,0,0,0,0,0,0],"sum_hessian":[4.3660328E1,3.7958187E1,5.702143E0,2.780028E1,1.0157907E1,2.184792E1,5.9523606E0,5.0003552E0,5.157552E0],"tree_param":{"num_deleted":"2","num_feature":"7834","num_nodes":"9","size_leaf_vector":"0"}},{"base_weights":[-4.2135552E-1,-2.4649654E-1,-1.0369607E0,-4.607481E-1,3.807989E-1,-6.09482E-1,1.599795E-2,-4.2364132E-1,-9.601248E-1,-2.626105E-1,-6.011766E-1],"categories":[],"categories_nodes":[],"categories_segments":[],"categories_sizes":[],"default_left":[1,1,0,1,0,1,0,1,1,1,1],"id":77,"left_children":[1,3,-1,5,-1,-1,-1,-1,-1,-1,-1],"loss_changes":[4.3755264E0,4.8548803E0,0E0,1.8821311E0,0E0,9.064431E-1,0E0,2.6984048E-1,0E0,0E0,0E0],"parents":[2147483647,0,0,1,1,3,3,5,5,7,7],"right_children":[2,4,-1,6,-1,-1,-1,-1,-1,-1,-1],"split_conditions":[2.5E0,5E-1,-5.1848035E-2,5E-1,1.9039946E-2,-3.04741E-2,7.9989753E-4,-2.1182066E-2,-4.800624E-2,-1.3130525E-2,-3.0058831E-2],"split_indices":[5733,2280,0,2407,0,7801,0,2147483647,2147483647,2147483647,2147483647],"split_type":[0,0,0,0,0,0,0,0,0,0,0],"sum_hessian":[4.2022644E1,3.381742E1,8.205224E0,2.5405664E1,8.4117565E0,1.9152197E1,6.2534685E0,1.3961034E1,5.191163E0,8.620833E0,5.3402004E0],"tree_param":{"num_deleted":"4","num_feature":"7834","num_nodes":"11","size_leaf_vector":"0"}},{"base_weights":[-4.5231983E-1,-5.7999533E-1,2.7054176E-1,-7.108908E-1,-1.2893955E-1,-8.457562E-1,-1.7745443E-1],"categories":[],"categories_nodes":[],"categories_segments":[],"categories_sizes":[],"default_left":[1,1,0,1,0,0,0],"id":78,"left_children":[1,3,-1,5,-1,-1,-1],"loss_changes":[4.045371E0,2.0412474E0,0E0,1.8483696E0,0E0,0E0,0E0],"parents":[2147483647,0,0,1,1,3,3],"right_children":[2,4,-1,6,-1,-1,-1],"split_conditions":[5E-1,5E-1,1.3527088E-2,5E-1,-6.4469776E-3,-4.2287808E-2,-8.872721E-3],"split_indices":[3479,2282,0,5852,0,0,0],"split_type":[0,0,0,0,0,0,0],"sum_hessian":[4.1132263E1,3.5125805E1,6.0064583E0,2.6778637E1,8.347168E0,2.0907291E1,5.871344E0],"tree_param":{"num_deleted":"0","num_feature":"7834","num_nodes":"7","size_leaf_vector":"0"}},{"base_weights":[-3.8254386E-1,-5.26987E-1,5.1440006E-1,-7.211652E-1,3.913253E-2,-8.7770545E-1,-1.4305559E-1],"categories":[],"categories_nodes":[],"categories_segments":[],"categories_sizes":[],"default_left":[1,1,0,1,0,0,0],"id":79,"left_children":[1,3,-1,5,-1,-1,-1],"loss_changes":[5.6027584E0,3.978918E0,0E0,2.300827E0,0E0,0E0,0E0],"parents":[2147483647,0,0,1,1,3,3],"right_children":[2,4,-1,6,-1,-1,-1],"split_conditions":[5E-1,5E-1,2.5720004E-2,1.5E0,1.9566265E-3,-4.3885272E-2,-7.1527795E-3],"split_indices":[3479,5852,0,2280,0,0,0],"split_type":[0,0,0,0,0,0,0],"sum_hessian":[4.0153004E1,3.4938927E1,5.2140746E0,2.5811684E1,9.127244E0,1.9903885E1,5.9077983E0],"tree_param":{"num_deleted":"0","num_feature":"7834","num_nodes":"7","size_leaf_vector":"0"}},{"base_weights":[-3.9486367E-1,-1.9044042E-1,-9.2278135E-1,-4.4325238E-1,3.6812297E-1,-7.3874325E-1,-2.3024112E-1,-3.7309106E-2,-4.7277445E-1],"categories":[],"categories_nodes":[],"categories_segments":[],"categories_sizes":[],"default_left":[1,1,0,1,0,0,1,1,1],"id":80,"left_children":[1,3,-1,5,-1,-1,-1,-1,-1],"loss_changes":[4.355367E0,4.6150627E0,0E0,1.224535E0,0E0,0E0,6.528132E-1,0E0,0E0],"parents":[2147483647,0,0,1,1,3,3,6,6],"right_children":[2,4,-1,6,-1,-1,-1,-1,-1],"split_conditions":[5E-1,5E-1,-4.613907E-2,1.05E1,1.8406149E-2,-3.6937162E-2,-1.1512056E-2,-1.8654553E-3,-2.3638723E-2],"split_indices":[5916,5852,0,6742,0,0,7801,2147483647,2147483647],"split_type":[0,0,0,0,0,0,0,0,0],"sum_hessian":[4.0986275E1,3.0526407E1,1.04598675E1,2.1156971E1,9.369436E0,7.82876E0,1.332821E1,8.065803E0,5.2624073E0],"tree_param":{"num_deleted":"2","num_feature":"7834","num_nodes":"9","size_leaf_vector":"0"}},{"base_weights":[-4.45804E-1,-5.8616847E-1,3.2558402E-1,-2.421835E-1,-8.3267987E-1,-4.0456492E-1,4.4862904E-2,-5.327335E-1,-9.368611E-1],"categories":[],"categories_nodes":[],"categories_segments":[],"categories_sizes":[],"default_left":[1,1,0,1,1,1,1,1,1],"id":81,"left_children":[1,3,-1,-1,-1,-1,-1,-1,-1],"loss_changes":[4.4593067E0,2.6568422E0,0E0,7.398272E-1,1.017313E-1,0E0,0E0,0E0,0E0],"parents":[2147483647,0,0,1,1,3,3,4,4],"right_children":[2,4,-1,-1,-1,-1,-1,-1,-1],"split_conditions":[5E-1,1.5E0,1.6279202E-2,-1.2109175E-2,-4.1633993E-2,-2.0228246E-2,2.2431451E-3,-2.6636675E-2,-4.6843056E-2],"split_indices":[2275,6621,0,6148,6742,2147483647,2147483647,2147483647,2147483647],"split_type":[0,0,0,0,0,0,0,0,0],"sum_hessian":[3.8422226E1,3.2710262E1,5.711962E0,1.4482981E1,1.8227283E1,8.988694E0,5.494287E0,6.2748876E0,1.1952395E1],"tree_param":{"num_deleted":"4","num_feature":"7834","num_nodes":"9","size_leaf_vector":"0"}},{"base_weights":[-4.4788495E-1,-6.3912493E-1,9.370508E-2,-7.6366365E-1,-4.9279705E-2,-8.521685E-1,-3.6052775E-1],"categories":[],"categories_nodes":[],"categories_segments":[],"categories_sizes":[],"default_left":[1,1,0,1,0,1,1],"id":82,"left_children":[1,3,-1,-1,-1,-1,-1],"loss_changes":[4.083697E0,2.080864E0,0E0,5.398989E-1,0E0,0E0,0E0],"parents":[2147483647,0,0,1,1,3,3],"right_children":[2,4,-1,-1,-1,-1,-1],"split_conditions":[5E-1,5E-1,4.6852543E-3,-3.8183182E-2,-2.4639852E-3,-4.2608425E-2,-1.8026387E-2],"split_indices":[2280,3486,0,5852,0,2147483647,2147483647],"split_type":[0,0,0,0,0,0,0],"sum_hessian":[3.784972E1,2.7839329E1,1.001039E1,2.2742779E1,5.09655E0,1.7735306E1,5.0074735E0],"tree_param":{"num_deleted":"2","num_feature":"7834","num_nodes":"7","size_leaf_vector":"0"}},{"base_weights":[-3.1432897E-1,-1.2639423E-1,-1.0206616E0,-3.3117276E-1,4.7447315E-1,-5.138249E-1,8.9717716E-2,-6.932459E-1,-3.0994332E-1],"categories":[],"categories_nodes":[],"categories_segments":[],"categories_sizes":[],"default_left":[1,1,0,1,0,1,0,1,1],"id":83,"left_children":[1,3,-1,5,-1,-1,-1,-1,-1],"loss_changes":[5.0149775E0,4.063636E0,0E0,1.9117177E0,0E0,4.0964365E-1,0E0,0E0,0E0],"parents":[2147483647,0,0,1,1,3,3,5,5],"right_children":[2,4,-1,6,-1,-1,-1,-1,-1],"split_conditions":[2.5E0,5E-1,-5.103308E-2,5E-1,2.3723658E-2,-2.5691245E-2,4.485886E-3,-3.4662295E-2,-1.5497166E-2],"split_indices":[5733,2282,0,5852,0,6742,0,2147483647,2147483647],"split_type":[0,0,0,0,0,0,0,0,0],"sum_hessian":[3.7751022E1,3.0748638E1,7.0023823E0,2.3267725E1,7.480913E0,1.6072155E1,7.19557E0,7.2721963E0,8.799959E0],"tree_param":{"num_deleted":"2","num_feature":"7834","num_nodes":"9","size_leaf_vector":"0"}},{"base_weights":[-3.8499314E-1,-2.2298284E-1,-1.0109472E0,-3.936728E-1,3.6533737E-1,-5.430177E-1,1.1897016E-1,-3.3616504E-1,-8.762882E-1,-2.032152E-1,-4.4858474E-1],"categories":[],"categories_nodes":[],"categories_segments":[],"categories_sizes":[],"default_left":[1,1,0,1,0,1,0,1,0,1,1],"id":84,"left_children":[1,3,-1,5,-1,7,-1,-1,-1,-1,-1],"loss_changes":[3.7058601E0,3.3651419E0,0E0,2.0050886E0,0E0,1.0709057E0,0E0,1.15757346E-1,0E0,0E0,0E0],"parents":[2147483647,0,0,1,1,3,3,5,5,7,7],"right_children":[2,4,-1,6,-1,8,-1,-1,-1,-1,-1],"split_conditions":[2.5E0,5E-1,-5.054736E-2,5E-1,1.826687E-2,5E-1,5.948508E-3,-1.6808253E-2,-4.381441E-2,-1.016076E-2,-2.2429237E-2],"split_indices":[5733,5561,0,2282,0,5807,0,6742,0,2147483647,2147483647],"split_type":[0,0,0,0,0,0,0,0,0,0,0],"sum_hessian":[3.7765854E1,3.1078342E1,6.6875114E0,2.434574E1,6.7326016E0,1.880744E1,5.5382996E0,1.2844108E1,5.963332E0,7.1710844E0,5.6730237E0],"tree_param":{"num_deleted":"2","num_feature":"7834","num_nodes":"11","size_leaf_vector":"0"}},{"base_weights":[-3.3903283E-1,-4.7898394E-1,3.7231478E-1,-7.08567E-1,8.2460456E-2,-5.0829816E-1,-9.169565E-1,-6.675694E-1,-1.956326E-1],"categories":[],"categories_nodes":[],"categories_segments":[],"categories_sizes":[],"default_left":[1,1,0,1,0,1,1,1,1],"id":85,"left_children":[1,3,-1,-1,-1,-1,-1,-1,-1],"loss_changes":[3.8821535E0,4.1219754E0,0E0,4.720831E-1,0E0,5.519953E-1,0E0,0E0,0E0],"parents":[2147483647,0,0,1,1,3,3,5,5],"right_children":[2,4,-1,-1,-1,-1,-1,-1,-1],"split_conditions":[5E-1,5E-1,1.861574E-2,-3.5428353E-2,4.123023E-3,-2.5414908E-2,-4.5847826E-2,-3.337847E-2,-9.781631E-3],"split_indices":[3479,2280,0,6621,0,2147483647,2147483647,2147483647,2147483647],"split_type":[0,0,0,0,0,0,0,0,0],"sum_hessian":[3.620417E1,3.0525257E1,5.678912E0,2.1479801E1,9.045457E0,1.2707075E1,8.772726E0,7.666622E0,5.0404525E0],"tree_param":{"num_deleted":"4","num_feature":"7834","num_nodes":"9","size_leaf_vector":"0"}},{"base_weights":[-3.4213963E-1,-7.491807E-2,-7.843433E-1,-3.193954E-1,5.673159E-1,-4.931707E-1,-1.0035367E0,-4.983179E-1,1.0662154E-1,-7.3000425E-1,-2.167157E-1],"categories":[],"categories_nodes":[],"categories_segments":[],"categories_sizes":[],"default_left":[1,1,1,1,0,1,1,1,0,1,1],"id":86,"left_children":[1,3,-1,7,-1,-1,-1,-1,-1,-1,-1],"loss_changes":[4.3360267E0,3.994709E0,3.9244747E-1,1.4427981E0,0E0,0E0,0E0,6.909609E-1,0E0,0E0,0E0],"parents":[2147483647,0,0,1,1,2,2,3,3,7,7],"right_children":[2,4,-1,8,-1,-1,-1,-1,-1,-1,-1],"split_conditions":[7.5E0,5E-1,-3.9217167E-2,5E-1,2.8365795E-2,-2.4658537E-2,-5.0176837E-2,-2.4915894E-2,5.331077E-3,-3.650021E-2,-1.08357845E-2],"split_indices":[6621,5852,3253,1956,0,2147483647,2147483647,6148,0,2147483647,2147483647],"split_type":[0,0,0,0,0,0,0,0,0,0,0],"sum_hessian":[3.619154E1,2.3288082E1,1.2903458E1,1.7231354E1,6.0567284E0,6.9376044E0,5.965853E0,1.201533E1,5.2160225E0,5.7183065E0,6.297024E0],"tree_param":{"num_deleted":"4","num_feature":"7834","num_nodes":"11","size_leaf_vector":"0"}},{"base_weights":[-2.8799036E-1,-1.3414681E-1,-9.625623E-1,-3.1982908E-1,4.8984903E-1,-5.329316E-1,4.2788136E-1,-8.588314E-1,-3.194934E-1,2.0278564E-1,-6.642608E-1],"categories":[],"categories_nodes":[],"categories_segments":[],"categories_sizes":[],"default_left":[1,1,0,1,0,1,0,0,1,0,0],"id":87,"left_children":[1,3,-1,5,-1,7,-1,-1,9,-1,-1],"loss_changes":[3.6904092E0,3.7637365E0,0E0,4.147337E0,0E0,1.0880761E0,0E0,0E0,2.552621E0,0E0,0E0],"parents":[2147483647,0,0,1,1,3,3,5,5,8,8],"right_children":[2,4,-1,6,-1,8,-1,-1,10,-1,-1],"split_conditions":[2.5E0,5E-1,-4.8128117E-2,5E-1,2.4492452E-2,1.35E1,2.1394068E-2,-4.294157E-2,3.55E1,1.0139282E-2,-3.321304E-2],"split_indices":[5733,946,0,5561,0,6742,0,0,6742,0,0],"split_type":[0,0,0,0,0,0,0,0,0,0,0],"sum_hessian":[3.5804657E1,3.0131662E1,5.672995E0,2.3597279E1,6.5343857E0,1.8587082E1,5.010196E0,6.1590333E0,1.2428048E1,5.1055713E0,7.322477E0],"tree_param":{"num_deleted":"0","num_feature":"7834","num_nodes":"11","size_leaf_vector":"0"}},{"base_weights":[-2.8513327E-1,-1.13458894E-1,-9.8684245E-1,-3.3213624E-1,3.4275648E-1,-5.110947E-1,1.22027524E-1,-3.501582E-1,-6.8875545E-1],"categories":[],"categories_nodes":[],"categories_segments":[],"categories_sizes":[],"default_left":[1,1,0,1,0,1,0,1,1],"id":88,"left_children":[1,3,-1,5,-1,-1,-1,-1,-1],"loss_changes":[4.3150625E0,3.1721778E0,0E0,1.7879136E0,0E0,1.9978237E-1,0E0,0E0,0E0],"parents":[2147483647,0,0,1,1,3,3,5,5],"right_children":[2,4,-1,6,-1,-1,-1,-1,-1],"split_conditions":[2.5E0,5E-1,-4.9342122E-2,5E-1,1.7137824E-2,-2.5554735E-2,6.1013764E-3,-1.750791E-2,-3.4437772E-2],"split_indices":[5733,5852,0,2407,0,7043,0,2147483647,2147483647],"split_type":[0,0,0,0,0,0,0,0,0],"sum_hessian":[3.574935E1,2.9655718E1,6.093634E0,2.0230583E1,9.425135E0,1.4422281E1,5.8083014E0,9.126159E0,5.2961226E0],"tree_param":{"num_deleted":"2","num_feature":"7834","num_nodes":"9","size_leaf_vector":"0"}},{"base_weights":[-3.9542985E-1,-2.1542707E-1,-9.562174E-1,-4.210158E-1,2.665904E-1,-6.4350617E-1,-1.7442186E-1],"categories":[],"categories_nodes":[],"categories_segments":[],"categories_sizes":[],"default_left":[1,1,0,1,0,1,1],"id":89,"left_children":[1,3,-1,-1,-1,-1,-1],"loss_changes":[3.2723885E0,2.8251805E0,0E0,9.619491E-1,0E0,0E0,0E0],"parents":[2147483647,0,0,1,1,3,3],"right_children":[2,4,-1,-1,-1,-1,-1],"split_conditions":[5.5E0,5E-1,-4.781087E-2,-2.105079E-2,1.332952E-2,-3.217531E-2,-8.721094E-3],"split_indices":[7801,5852,0,6742,0,2147483647,2147483647],"split_type":[0,0,0,0,0,0,0],"sum_hessian":[3.3458775E1,2.637653E1,7.0822434E0,1.8578875E1,7.797655E0,8.920628E0,9.658248E0],"tree_param":{"num_deleted":"2","num_feature":"7834","num_nodes":"7","size_leaf_vector":"0"}},{"base_weights":[-2.50153E-1,-4.5448178E-1,1.9136193E-1,-6.348881E-1,6.0839765E-2,8.603954E-1,-4.3466327E-1,-2.5946146E-1,-9.233186E-1],"categories":[],"categories_nodes":[],"categories_segments":[],"categories_sizes":[],"default_left":[1,1,1,1,0,0,0,0,0],"id":90,"left_children":[1,3,5,7,-1,-1,-1,-1,-1],"loss_changes":[3.230021E0,2.2804117E0,5.285272E0,1.7039595E0,0E0,0E0,0E0,0E0,0E0],"parents":[2147483647,0,0,1,1,2,2,3,3],"right_children":[2,4,6,8,-1,-1,-1,-1,-1],"split_conditions":[5E-1,5E-1,8.75E1,5E-1,3.0419882E-3,4.3019768E-2,-2.1733163E-2,-1.2973073E-2,-4.6165932E-2],"split_indices":[5852,5913,6742,6621,0,0,0,0,0],"split_type":[0,0,0,0,0,0,0,0,0],"sum_hessian":[3.3839863E1,2.31137E1,1.0726162E1,1.6948324E1,6.1653776E0,5.0040035E0,5.722159E0,8.188969E0,8.759356E0],"tree_param":{"num_deleted":"0","num_feature":"7834","num_nodes":"9","size_leaf_vector":"0"}},{"base_weights":[-2.9058957E-1,-6.5728545E-2,-9.322909E-1,-3.801417E-1,5.787118E-1,-7.425971E-1,-1.4254299E-1,7.539305E-2,-3.6120504E-1],"categories":[],"categories_nodes":[],"categories_segments":[],"categories_sizes":[],"default_left":[1,1,0,1,0,0,1,1,1],"id":91,"left_children":[1,3,-1,5,-1,-1,-1,-1,-1],"loss_changes":[4.8758297E0,5.571819E0,0E0,1.4749141E0,0E0,0E0,6.1457384E-1,0E0,0E0],"parents":[2147483647,0,0,1,1,3,3,6,6],"right_children":[2,4,-1,6,-1,-1,-1,-1,-1],"split_conditions":[5E-1,5E-1,-4.6614546E-2,1.05E1,2.893559E-2,-3.7129857E-2,-7.1271495E-3,3.7696527E-3,-1.8060252E-2],"split_indices":[5916,5852,0,6742,0,0,3253,2147483647,2147483647],"split_type":[0,0,0,0,0,0,0,0,0],"sum_hessian":[3.3215706E1,2.541305E1,7.802656E0,1.7355616E1,8.057434E0,6.0305796E0,1.1325037E1,6.000083E0,5.3249536E0],"tree_param":{"num_deleted":"2","num_feature":"7834","num_nodes":"9","size_leaf_vector":"0"}},{"base_weights":[-2.257707E-1,-1.53933745E-2,-9.0279347E-1,-2.2155797E-1,3.6894682E-1,-5.9283984E-1,3.780764E-3,3.0101824E-1,-3.0054125E-1],"categories":[],"categories_nodes":[],"categories_segments":[],"categories_sizes":[],"default_left":[1,1,0,1,0,0,1,0,0],"id":92,"left_children":[1,3,-1,5,-1,-1,7,-1,-1],"loss_changes":[4.923311E0,2.2578804E0,0E0,1.5500212E0,0E0,0E0,1.2217379E0,0E0,0E0],"parents":[2147483647,0,0,1,1,3,3,6,6],"right_children":[2,4,-1,6,-1,-1,8,-1,-1],"split_conditions":[5E-1,5E-1,-4.5139674E-2,1.05E1,1.8447341E-2,-2.9641991E-2,5E-1,1.5050912E-2,-1.5027063E-2],"split_indices":[5916,5852,0,6742,0,0,3253,0,0],"split_type":[0,0,0,0,0,0,0,0,0],"sum_hessian":[3.3664043E1,2.6463531E1,7.2005124E0,1.749991E1,8.963621E0,5.9936028E0,1.1506308E1,5.8264008E0,5.6799073E0],"tree_param":{"num_deleted":"0","num_feature":"7834","num_nodes":"9","size_leaf_vector":"0"}},{"base_weights":[-2.3008463E-1,-3.9487246E-2,-7.7140236E-1,-2.265407E-1,5.207843E-1,-4.2672533E-1,2.8618506E-1,-1.8690133E-1,-6.7516476E-1],"categories":[],"categories_nodes":[],"categories_segments":[],"categories_sizes":[],"default_left":[1,1,0,1,0,1,0,1,1],"id":93,"left_children":[1,3,-1,5,-1,-1,-1,-1,-1],"loss_changes":[3.5001352E0,2.880807E0,0E0,2.2222395E0,0E0,7.7450943E-1,0E0,0E0,0E0],"parents":[2147483647,0,0,1,1,3,3,5,5],"right_children":[2,4,-1,6,-1,-1,-1,-1,-1],"split_conditions":[4.5E0,5E-1,-3.8570117E-2,5E-1,2.6039217E-2,-2.1336267E-2,1.4309253E-2,-9.345067E-3,-3.3758238E-2],"split_indices":[7801,946,0,2282,0,6742,0,2147483647,2147483647],"split_type":[0,0,0,0,0,0,0,0,0],"sum_hessian":[3.3219902E1,2.5362679E1,7.8572245E0,1.9461037E1,5.9016433E0,1.4117026E1,5.34401E0,8.074671E0,6.042355E0],"tree_param":{"num_deleted":"2","num_feature":"7834","num_nodes":"9","size_leaf_vector":"0"}},{"base_weights":[-2.811321E-1,-2.6743293E-2,-7.4277395E-1,-3.1817976E-1,6.3561755E-1,-3.7524477E-1,-1.0027891E0,-5.139578E-1,9.6361324E-2],"categories":[],"categories_nodes":[],"categories_segments":[],"categories_sizes":[],"default_left":[1,1,1,1,0,1,1,0,0],"id":94,"left_children":[1,3,-1,7,-1,-1,-1,-1,-1],"loss_changes":[3.8746002E0,4.5296984E0,7.4604416E-1,1.3670783E0,0E0,0E0,0E0,0E0,0E0],"parents":[2147483647,0,0,1,1,2,2,3,3],"right_children":[2,4,-1,8,-1,-1,-1,-1,-1],"split_conditions":[7.5E0,5E-1,-3.7138697E-2,5.05E1,3.178088E-2,-1.8762238E-2,-5.0139457E-2,-2.569789E-2,4.8180665E-3],"split_indices":[6621,5852,3253,6742,0,2147483647,2147483647,0,0],"split_type":[0,0,0,0,0,0,0,0,0],"sum_hessian":[3.2162296E1,2.1417864E1,1.07444315E1,1.52344055E1,6.183458E0,5.464116E0,5.2803154E0,1.0184623E1,5.0497828E0],"tree_param":{"num_deleted":"2","num_feature":"7834","num_nodes":"9","size_leaf_vector":"0"}},{"base_weights":[-2.5925055E-1,-4.07846E-1,4.29051E-1,-6.498159E-1,7.897546E-2,-8.5145754E-1,-2.6674777E-1],"categories":[],"categories_nodes":[],"categories_segments":[],"categories_sizes":[],"default_left":[1,1,0,1,0,0,0],"id":95,"left_children":[1,3,-1,5,-1,-1,-1],"loss_changes":[3.6356053E0,3.3896976E0,0E0,1.2435141E0,0E0,0E0,0E0],"parents":[2147483647,0,0,1,1,3,3],"right_children":[2,4,-1,6,-1,-1,-1],"split_conditions":[5E-1,5E-1,2.1452552E-2,5E-1,3.9487733E-3,-4.257288E-2,-1.3337389E-2],"split_indices":[3479,2280,0,1492,0,0,0],"split_type":[0,0,0,0,0,0,0],"sum_hessian":[3.2835255E1,2.7340296E1,5.4949584E0,1.803925E1,9.301047E0,1.1017213E1,7.0220366E0],"tree_param":{"num_deleted":"0","num_feature":"7834","num_nodes":"7","size_leaf_vector":"0"}},{"base_weights":[-1.6168743E-1,1.1154293E-2,-9.4640654E-1,-1.4309146E-1,5.60939E-1,-4.3527114E-1,4.9892688E-1,-8.105323E-1,1.24331206E-1],"categories":[],"categories_nodes":[],"categories_segments":[],"categories_sizes":[],"default_left":[1,1,0,1,0,1,0,0,0],"id":96,"left_children":[1,3,-1,5,-1,7,-1,-1,-1],"loss_changes":[4.512928E0,2.4709978E0,0E0,4.496377E0,0E0,3.5051386E0,0E0,0E0,0E0],"parents":[2147483647,0,0,1,1,3,3,5,5],"right_children":[2,4,-1,6,-1,8,-1,-1,-1],"split_conditions":[2.5E0,5E-1,-4.732033E-2,5E-1,2.804695E-2,5E-1,2.4946345E-2,-4.0526614E-2,6.2165605E-3],"split_indices":[5733,3483,0,1492,0,2280,0,0,0],"split_type":[0,0,0,0,0,0,0,0,0],"sum_hessian":[3.2195446E1,2.719195E1,5.0034957E0,2.181214E1,5.3798084E0,1.5211487E1,6.600653E0,8.8370695E0,6.3744173E0],"tree_param":{"num_deleted":"0","num_feature":"7834","num_nodes":"9","size_leaf_vector":"0"}},{"base_weights":[-1.6004995E-1,-3.0028605E-1,4.5509034E-1,-5.5375564E-1,1.5784776E-1,-2.503797E-1,-7.9523015E-1],"categories":[],"categories_nodes":[],"categories_segments":[],"categories_sizes":[],"default_left":[1,1,0,1,0,0,0],"id":97,"left_children":[1,3,-1,5,-1,-1,-1],"loss_changes":[2.8977911E0,3.184161E0,0E0,1.0748916E0,0E0,0E0,0E0],"parents":[2147483647,0,0,1,1,3,3],"right_children":[2,4,-1,6,-1,-1,-1],"split_conditions":[5E-1,5E-1,2.2754518E-2,1.5E0,7.892388E-3,-1.2518986E-2,-3.976151E-2],"split_indices":[3486,2280,0,6621,0,0,0],"split_type":[0,0,0,0,0,0,0],"sum_hessian":[3.1007624E1,2.5667856E1,5.339768E0,1.6390718E1,9.277139E0,8.167001E0,8.223717E0],"tree_param":{"num_deleted":"0","num_feature":"7834","num_nodes":"7","size_leaf_vector":"0"}},{"base_weights":[-2.6691124E-1,1.3768251E-1,-5.6273526E-1,-2.2973202E-1,5.1913327E-1,-2.376934E-1,-9.950786E-1,-6.1759055E-1,1.5184714E-1],"categories":[],"categories_nodes":[],"categories_segments":[],"categories_sizes":[],"default_left":[1,1,1,0,0,1,0,0,0],"id":98,"left_children":[1,3,5,-1,-1,7,-1,-1,-1],"loss_changes":[3.9564102E0,2.1502247E0,2.4219117E0,0E0,0E0,1.8862509E0,0E0,0E0,0E0],"parents":[2147483647,0,0,1,1,2,2,5,5],"right_children":[2,4,6,-1,-1,8,-1,-1,-1],"split_conditions":[2.75E1,1.05E1,6.5E0,-1.1486601E-2,2.5956664E-2,8.85E1,-4.975393E-2,-3.0879527E-2,7.592357E-3],"split_indices":[6742,6742,6621,0,0,6742,0,0,0],"split_type":[0,0,0,0,0,0,0,0,0],"sum_hessian":[3.140854E1,1.3491295E1,1.7917246E1,7.0746818E0,6.416613E0,1.11124935E1,6.804752E0,5.329498E0,5.7829957E0],"tree_param":{"num_deleted":"0","num_feature":"7834","num_nodes":"9","size_leaf_vector":"0"}},{"base_weights":[-2.7490446E-1,-1.0783106E-1,-6.892711E-1,-4.1411966E-1,3.3792838E-1,-1.0254371E-1,-8.1786984E-1],"categories":[],"categories_nodes":[],"categories_segments":[],"categories_sizes":[],"default_left":[1,1,0,1,0,0,0],"id":99,"left_children":[1,3,-1,5,-1,-1,-1],"loss_changes":[2.0829632E0,3.3337808E0,0E0,1.7169273E0,0E0,0E0,0E0],"parents":[2147483647,0,0,1,1,3,3],"right_children":[2,4,-1,6,-1,-1,-1],"split_conditions":[4.5E0,3.5E0,-3.4463555E-2,1.5E0,1.689642E-2,-5.1271855E-3,-4.089349E-2],"split_indices":[7801,6148,0,7455,0,0,0],"split_type":[0,0,0,0,0,0,0],"sum_hessian":[3.0161333E1,2.2392761E1,7.768572E0,1.3314874E1,9.0778885E0,8.223069E0,5.091804E0],"tree_param":{"num_deleted":"0","num_feature":"7834","num_nodes":"7","size_leaf_vector":"0"}}]},"name":"gbtree"},"learner_model_param":{"base_score":"5E-1","num_class":"0","num_feature":"7834","num_target":"1"},"objective":{"name":"binary:logistic","reg_loss_param":{"scale_pos_weight":"1"}}},"version":[1,6,1]}