{"learner":{"attributes":{"best_iteration":"99","best_ntree_limit":"100","scikit_learn":"{\"use_label_encoder\": false, \"n_estimators\": 100, \"objective\": \"binary:logistic\", \"max_depth\": 5, \"max_leaves\": null, \"max_bin\": null, \"grow_policy\": null, \"learning_rate\": 0.05, \"verbosity\": null, \"booster\": null, \"tree_method\": null, \"gamma\": 1, \"min_child_weight\": 5.0, \"max_delta_step\": null, \"subsample\": 0.9, \"sampling_method\": null, \"colsample_bytree\": 0.9, \"colsample_bylevel\": null, \"colsample_bynode\": null, \"reg_alpha\": null, \"reg_lambda\": null, \"scale_pos_weight\": null, \"base_score\": null, \"missing\": NaN, \"num_parallel_tree\": null, \"random_state\": 42, \"n_jobs\": null, \"monotone_constraints\": null, \"interaction_constraints\": null, \"importance_type\": null, \"gpu_id\": null, \"validate_parameters\": null, \"predictor\": null, \"enable_categorical\": false, \"max_cat_to_onehot\": null, \"eval_metric\": null, \"early_stopping_rounds\": null, \"callbacks\": null, \"classes_\": [0, 1], \"n_classes_\": 2, \"evals_result_\": {\"validation_0\": {\"logloss\": [0.647624074502221, 0.6065076722661701, 0.569152259518481, 0.5348400776870943, 0.5034790518140961, 0.4745604478164229, 0.44791923272483636, 0.4234538978681441, 0.4008159695584962, 0.3799330430361415, 0.3604639143837325, 0.3424012207466623, 0.32555917927997513, 0.3099323922262629, 0.2950635292205071, 0.28129839511931853, 0.2683306865210259, 0.2562488870811238, 0.2449003494969546, 0.23429184234520523, 0.2244792942189722, 0.21504380244906166, 0.20633926546391534, 0.19822203766305074, 0.19056414206075611, 0.1831595361863124, 0.17644084314131708, 0.16995307603537965, 0.163936754213657, 0.15823529548636614, 0.1529977679882991, 0.14794840542851267, 0.14328331037147626, 0.13885522817647836, 0.13455283282856542, 0.1305444531676772, 0.12671250169691833, 0.12325523912766566, 0.11987757650406464, 0.11667424475404266, 0.11382254068635746, 0.11103482021743347, 0.10847159979381236, 0.10590338784014997, 0.10344488219687437, 0.10129877628559371, 0.09913761968057948, 0.09715141996426112, 0.09528632773268096, 0.09361642955875706, 0.09207487748071254, 0.09060096804634804, 0.08904902971887001, 0.08776614400881018, 0.08631438474782625, 0.08505089470260851, 0.08386933065504361, 0.08272297718462597, 0.08181269622060933, 0.08094876733872292, 0.08012756849961962, 0.07910263614748746, 0.07842754932682956, 0.0777029535732069, 0.07715043722357509, 0.07653414737323756, 0.07586034491097884, 0.07528758275768031, 0.07466656230521398, 0.07418337800309115, 0.07357155559442229, 0.07332057647021831, 0.07292691324580325, 0.07243600406177281, 0.07205474566007262, 0.07171512172545376, 0.0714817222406963, 0.07129856040559, 0.07087024719455443, 0.07053922978476057, 0.07008417602956785, 0.06987031607655535, 0.06971475459989838, 0.06962594587999352, 0.069304247084703, 0.06924841657596105, 0.06898255508992773, 0.06861579798974018, 0.06846808449153982, 0.06830492915397403, 0.06826640142742917, 0.06803468978973642, 0.06780711143714245, 0.06781563874920687, 0.06769003448285574, 0.06772119096139956, 0.06755928054274651, 0.06759074294050996, 0.0673555708265963, 0.06728346811686275]}}, \"_estimator_type\": \"classifier\"}"},"feature_names":[],"feature_types":[],"gradient_booster":{"model":{"gbtree_model_param":{"num_parallel_tree":"1","num_trees":"100","size_leaf_vector":"0"},"tree_info":[0,0,0,0,0,0,0,0,0,0,0,0,0,0,0,0,0,0,0,0,0,0,0,0,0,0,0,0,0,0,0,0,0,0,0,0,0,0,0,0,0,0,0,0,0,0,0,0,0,0,0,0,0,0,0,0,0,0,0,0,0,0,0,0,0,0,0,0,0,0,0,0,0,0,0,0,0,0,0,0,0,0,0,0,0,0,0,0,0,0,0,0,0,0,0,0,0,0,0,0],"trees":[{"base_weights":[-1.912995E0,-1.9610538E0,-1.1764706E-1,-1.9791425E0,-3.3333334E-1,4.2857143E-1,-6.666667E-1,-1.985932E0,-1.1666666E0],"categories":[],"categories_nodes":[],"categories_segments":[],"categories_sizes":[],"default_left":[1,1,1,1,0,0,0,1,1],"id":0,"left_children":[1,3,5,-1,-1,-1,-1,-1,-1],"loss_changes":[3.8445435E1,1.2192261E1,4.1092434E0,6.323242E-2,0E0,0E0,0E0,0E0,0E0],"parents":[2147483647,0,0,1,1,2,2,3,3],"right_children":[2,4,6,-1,-1,-1,-1,-1,-1],"split_conditions":[2.2146897E-2,3.1302015E-3,7.238821E-3,-9.895713E-2,-1.6666668E-2,2.1428572E-2,-3.3333335E-2,-9.92966E-2,-5.8333334E-2],"split_indices":[2280,3479,2283,3087,0,0,0,2147483647,2147483647],"split_type":[0,0,0,0,0,0,0,0,0],"sum_hessian":[4.4725E2,4.355E2,1.175E1,4.305E2,5E0,6E0,5.75E0,4.255E2,5E0],"tree_param":{"num_deleted":"2","num_feature":"7834","num_nodes":"9","size_leaf_vector":"0"}},{"base_weights":[-1.8199375E0,-1.8634187E0,-1.5674253E-1,-1.8854315E0,-4.6298917E-2,-6.203761E-1,4.061624E-1,-1.8922282E0,-1.1192417E0],"categories":[],"categories_nodes":[],"categories_segments":[],"categories_sizes":[],"default_left":[1,1,1,1,0,0,0,1,1],"id":1,"left_children":[1,3,5,-1,-1,-1,-1,-1,-1],"loss_changes":[3.208423E1,1.7360596E1,3.5136762E0,1.2634277E-1,0E0,0E0,0E0,0E0,0E0],"parents":[2147483647,0,0,1,1,2,2,3,3],"right_children":[2,4,6,-1,-1,-1,-1,-1,-1],"split_conditions":[2.2146897E-2,3.790676E-2,3.7999342E-3,-9.427158E-2,-2.314946E-3,-3.1018807E-2,2.030812E-2,-9.4611414E-2,-5.5962086E-2],"split_indices":[2280,3486,2275,3087,0,0,0,2147483647,2147483647],"split_type":[0,0,0,0,0,0,0,0,0],"sum_hessian":[4.4669464E2,4.351968E2,1.1497825E1,4.299507E2,5.2460737E0,6.248875E0,5.2489495E0,4.2471356E2,5.2371683E0],"tree_param":{"num_deleted":"2","num_feature":"7834","num_nodes":"9","size_leaf_vector":"0"}},{"base_weights":[-1.7466288E0,-1.7776719E0,5.303737E-1,-1.7986146E0,-3.3161557E-1,-1.8053344E0,-1.0463444E0],"categories":[],"categories_nodes":[],"categories_segments":[],"categories_sizes":[],"default_left":[1,1,0,1,0,1,1],"id":2,"left_children":[1,3,-1,-1,-1,-1,-1],"loss_changes":[3.2326294E1,1.2675537E1,0E0,2.9370117E-1,0E0,0E0,0E0],"parents":[2147483647,0,0,1,1,3,3],"right_children":[2,4,-1,-1,-1,-1,-1],"split_conditions":[1.5686074E-2,1.2227994E-2,2.6518686E-2,-8.9930736E-2,-1.658078E-2,-9.026673E-2,-5.231722E-2],"split_indices":[2275,3486,0,3087,0,2147483647,2147483647],"split_type":[0,0,0,0,0,0,0],"sum_hessian":[4.4298755E2,4.3724573E2,5.741824E0,4.3076334E2,6.4824066E0,4.2556204E2,5.201298E0],"tree_param":{"num_deleted":"2","num_feature":"7834","num_nodes":"7","size_leaf_vector":"0"}},{"base_weights":[-1.673966E0,-1.7172099E0,-1.0580286E-1,-1.7354412E0,-4.5079622E-1,-8.7115043E-1,5.711345E-1,-1.742363E0,-9.800057E-1],"categories":[],"categories_nodes":[],"categories_segments":[],"categories_sizes":[],"default_left":[1,1,1,1,0,0,0,1,1],"id":3,"left_children":[1,3,5,-1,-1,-1,-1,-1,-1],"loss_changes":[2.9904175E1,9.18457E0,7.2180614E0,5.1586914E-1,0E0,0E0,0E0,0E0,0E0],"parents":[2147483647,0,0,1,1,2,2,3,3],"right_children":[2,4,6,-1,-1,-1,-1,-1,-1],"split_conditions":[2.0750549E-2,1.2227994E-2,7.688865E-2,-8.677206E-2,-2.2539811E-2,-4.355752E-2,2.8556725E-2,-8.711815E-2,-4.9000286E-2],"split_indices":[2280,3486,6967,3087,0,0,0,2147483647,2147483647],"split_type":[0,0,0,0,0,0,0,0,0],"sum_hessian":[4.4265604E2,4.306844E2,1.1971657E1,4.2420715E2,6.477234E0,5.4842486E0,6.4874086E0,4.19061E2,5.146155E0],"tree_param":{"num_deleted":"2","num_feature":"7834","num_nodes":"9","size_leaf_vector":"0"}},{"base_weights":[-1.6056975E0,-1.6480067E0,-2.8774215E-2,-1.6685727E0,8.981376E-3,-7.425243E-1,6.8753123E-1,-1.675506E0,-9.185608E-1],"categories":[],"categories_nodes":[],"categories_segments":[],"categories_sizes":[],"default_left":[1,1,1,1,0,0,0,1,1],"id":4,"left_children":[1,3,5,-1,-1,-1,-1,-1,-1],"loss_changes":[2.9189087E1,1.4557251E1,6.884827E0,6.5283203E-1,0E0,0E0,0E0,0E0,0E0],"parents":[2147483647,0,0,1,1,2,2,3,3],"right_children":[2,4,6,-1,-1,-1,-1,-1,-1],"split_conditions":[2.2146897E-2,1.631544E-1,9.4634876E-2,-8.3428636E-2,4.4906882E-4,-3.7126217E-2,3.437656E-2,-8.3775304E-2,-4.5928042E-2],"split_indices":[2280,3483,6967,3087,0,0,0,2147483647,2147483647],"split_type":[0,0,0,0,0,0,0,0,0],"sum_hessian":[4.3720856E2,4.2574078E2,1.1467785E1,4.205145E2,5.226278E0,5.7258043E0,5.741981E0,4.154401E2,5.0744042E0],"tree_param":{"num_deleted":"2","num_feature":"7834","num_nodes":"9","size_leaf_vector":"0"}},{"base_weights":[-1.5598094E0,-1.5921903E0,-7.571077E-2,-1.6146636E0,1.5578553E-1,-1.6217465E0,-8.910471E-1],"categories":[],"categories_nodes":[],"categories_segments":[],"categories_sizes":[],"default_left":[1,1,0,1,0,1,1],"id":5,"left_children":[1,3,-1,-1,-1,-1,-1],"loss_changes":[2.0439087E1,1.66969E1,0E0,6.738281E-1,0E0,0E0,0E0],"parents":[2147483647,0,0,1,1,3,3],"right_children":[2,4,-1,-1,-1,-1,-1],"split_conditions":[3.0603673E-2,1.3268457E-2,-3.7855387E-3,-8.073318E-2,7.7892765E-3,-8.108733E-2,-4.4552356E-2],"split_indices":[2282,3479,0,3087,0,2147483647,2147483647],"split_type":[0,0,0,0,0,0,0],"sum_hessian":[4.2682413E2,4.17639E2,9.185111E0,4.1241296E2,5.226036E0,4.071862E2,5.226795E0],"tree_param":{"num_deleted":"2","num_feature":"7834","num_nodes":"7","size_leaf_vector":"0"}},{"base_weights":[-1.5097467E0,-1.5443293E0,9.784802E-2,-1.5645384E0,1.413145E-2,-1.5718052E0,-8.375181E-1],"categories":[],"categories_nodes":[],"categories_segments":[],"categories_sizes":[],"default_left":[1,1,0,1,0,1,1],"id":6,"left_children":[1,3,-1,-1,-1,-1,-1],"loss_changes":[2.3311829E1,1.2868408E1,0E0,8.1103516E-1,0E0,0E0,0E0],"parents":[2147483647,0,0,1,1,3,3],"right_children":[2,4,-1,-1,-1,-1,-1],"split_conditions":[9.6303105E-2,3.1302015E-3,4.892401E-3,-7.822692E-2,7.065725E-4,-7.859027E-2,-4.1875906E-2],"split_indices":[2280,3479,0,3087,0,2147483647,2147483647],"split_type":[0,0,0,0,0,0,0],"sum_hessian":[4.155982E2,4.0688464E2,8.713553E0,4.0167215E2,5.212506E0,3.9654645E2,5.1256943E0],"tree_param":{"num_deleted":"2","num_feature":"7834","num_nodes":"7","size_leaf_vector":"0"}},{"base_weights":[-1.4701682E0,-1.5036156E0,-1.4792462E-1,-1.5215771E0,-1.20625004E-1],"categories":[],"categories_nodes":[],"categories_segments":[],"categories_sizes":[],"default_left":[1,1,0,0,0],"id":7,"left_children":[1,3,-1,-1,-1],"loss_changes":[1.7850342E1,9.7144165E0,0E0,0E0,0E0],"parents":[2147483647,0,0,1,1],"right_children":[2,4,-1,-1,-1],"split_conditions":[2.2146897E-2,3.5718717E-2,-7.396231E-3,-7.6078855E-2,-6.03125E-3],"split_indices":[2280,3486,0,0,0],"split_type":[0,0,0,0,0],"sum_hessian":[4.0765048E2,3.9745923E2,1.0191245E1,3.922645E2,5.194726E0],"tree_param":{"num_deleted":"0","num_feature":"7834","num_nodes":"5","size_leaf_vector":"0"}},{"base_weights":[-1.4289396E0,-1.4671248E0,-4.2061627E-2,-1.4857725E0,-1.6932577E-1,4.6669325E-1,-5.2565545E-1,-1.4935226E0,-7.6659834E-1],"categories":[],"categories_nodes":[],"categories_segments":[],"categories_sizes":[],"default_left":[1,1,1,1,0,0,0,1,1],"id":8,"left_children":[1,3,5,-1,-1,-1,-1,-1,-1],"loss_changes":[2.0990784E1,9.110474E0,3.119326E0,9.7998047E-1,0E0,0E0,0E0,0E0,0E0],"parents":[2147483647,0,0,1,1,2,2,3,3],"right_children":[2,4,6,-1,-1,-1,-1,-1,-1],"split_conditions":[2.2146897E-2,1.2227994E-2,1.1935056E-2,-7.428863E-2,-8.466288E-3,2.3334663E-2,-2.6282772E-2,-7.467613E-2,-3.8329918E-2],"split_indices":[2280,3486,7455,3087,0,0,0,2147483647,2147483647],"split_type":[0,0,0,0,0,0,0,0,0],"sum_hessian":[3.965293E2,3.858478E2,1.0681493E1,3.8023944E2,5.60838E0,5.2223625E0,5.4591303E0,3.7512027E2,5.119181E0],"tree_param":{"num_deleted":"2","num_feature":"7834","num_nodes":"9","size_leaf_vector":"0"}},{"base_weights":[-1.3891337E0,-1.4289409E0,-3.7892714E-2,-1.4449431E0,-2.2355805E-1,5.6112355E-1,-6.5740806E-1,-1.4527916E0,-7.466694E-1],"categories":[],"categories_nodes":[],"categories_segments":[],"categories_sizes":[],"default_left":[1,1,1,1,0,0,0,1,1],"id":9,"left_children":[1,3,5,-1,-1,-1,-1,-1,-1],"loss_changes":[2.0897705E1,6.9747925E0,4.8866463E0,9.605713E-1,0E0,0E0,0E0,0E0,0E0],"parents":[2147483647,0,0,1,1,2,2,3,3],"right_children":[2,4,6,-1,-1,-1,-1,-1,-1],"split_conditions":[2.2146897E-2,2.6658406E-2,7.238821E-3,-7.2247155E-2,-1.1177903E-2,2.8056178E-2,-3.2870404E-2,-7.263958E-2,-3.733347E-2],"split_indices":[2280,3486,2283,3087,0,0,0,2147483647,2147483647],"split_type":[0,0,0,0,0,0,0,0,0],"sum_hessian":[3.8851816E2,3.7734418E2,1.1173975E1,3.722042E2,5.1399717E0,5.7288957E0,5.445079E0,3.6699863E2,5.2055745E0],"tree_param":{"num_deleted":"2","num_feature":"7834","num_nodes":"9","size_leaf_vector":"0"}},{"base_weights":[-1.3512241E0,-1.3797628E0,4.4179013E-1,-1.3978103E0,-8.475183E-2,-1.4148453E0,-3.5204875E-1,-1.4230384E0,-7.028175E-1],"categories":[],"categories_nodes":[],"categories_segments":[],"categories_sizes":[],"default_left":[1,1,0,1,0,1,0,0,0],"id":10,"left_children":[1,3,-1,5,-1,7,-1,-1,-1],"loss_changes":[1.9872986E1,8.547852E0,0E0,6.015625E0,0E0,1.0967407E0,0E0,0E0,0E0],"parents":[2147483647,0,0,1,1,3,3,5,5],"right_children":[2,4,-1,6,-1,8,-1,-1,-1],"split_conditions":[1.5686074E-2,3.1302015E-3,2.2089507E-2,2.9164093E-2,-4.2375918E-3,9.013956E-3,-1.7602438E-2,-7.115192E-2,-3.5140876E-2],"split_indices":[2275,3479,0,2280,0,3087,0,0,0],"split_type":[0,0,0,0,0,0,0,0,0],"sum_hessian":[3.7545728E2,3.698018E2,5.6555023E0,3.6464066E2,5.1611176E0,3.584488E2,6.19189E0,3.5338397E2,5.0648227E0],"tree_param":{"num_deleted":"0","num_feature":"7834","num_nodes":"9","size_leaf_vector":"0"}},{"base_weights":[-1.3272829E0,-1.3564391E0,5.1964355E-1,-1.3723351E0,-5.011355E-1,-1.3862908E0,-4.2171434E-1],"categories":[],"categories_nodes":[],"categories_segments":[],"categories_sizes":[],"default_left":[1,1,0,1,0,0,0],"id":11,"left_children":[1,3,-1,5,-1,-1,-1],"loss_changes":[2.0408142E1,4.213379E0,0E0,4.1029053E0,0E0,0E0,0E0],"parents":[2147483647,0,0,1,1,3,3],"right_children":[2,4,-1,6,-1,-1,-1],"split_conditions":[1.5686074E-2,2.32051E-2,2.5982177E-2,1.2227994E-2,-2.5056778E-2,-6.931454E-2,-2.1085717E-2],"split_indices":[2275,2280,0,3486,0,0,0],"split_type":[0,0,0,0,0,0,0],"sum_hessian":[3.6489542E2,3.59486E2,5.4094076E0,3.5233337E2,7.152641E0,3.4678403E2,5.549322E0],"tree_param":{"num_deleted":"0","num_feature":"7834","num_nodes":"7","size_leaf_vector":"0"}},{"base_weights":[-1.30258E0,-1.3289415E0,4.3387598E-1,-1.3438044E0,-4.0764722E-1,-1.3569006E0,-3.9406362E-1,-1.3652132E0,-6.652509E-1],"categories":[],"categories_nodes":[],"categories_segments":[],"categories_sizes":[],"default_left":[1,1,0,1,0,1,0,0,0],"id":12,"left_children":[1,3,-1,5,-1,7,-1,-1,-1],"loss_changes":[1.7135864E1,4.3349E0,0E0,3.824646E0,0E0,1.0771484E0,0E0,0E0,0E0],"parents":[2147483647,0,0,1,1,3,3,5,5],"right_children":[2,4,-1,6,-1,8,-1,-1,-1],"split_conditions":[1.5686074E-2,1.2227994E-2,2.16938E-2,5.0559603E-2,-2.0382361E-2,1.2142444E-2,-1.9703181E-2,-6.826066E-2,-3.3262547E-2],"split_indices":[2275,3486,0,2280,0,3087,0,0,0],"split_type":[0,0,0,0,0,0,0,0,0],"sum_hessian":[3.6074826E2,3.5558475E2,5.163527E0,3.49488E2,6.096743E0,3.443115E2,5.176509E0,3.3926025E2,5.051233E0],"tree_param":{"num_deleted":"0","num_feature":"7834","num_nodes":"9","size_leaf_vector":"0"}},{"base_weights":[-1.2648501E0,-1.3067925E0,1.2906718E-1,-1.3292041E0,1.3257438E-1,-1.3373356E0,-6.6346675E-1],"categories":[],"categories_nodes":[],"categories_segments":[],"categories_sizes":[],"default_left":[1,1,0,1,0,1,1],"id":13,"left_children":[1,3,-1,-1,-1,-1,-1],"loss_changes":[2.0599243E1,1.1122803E1,0E0,9.219971E-1,0E0,0E0,0E0],"parents":[2147483647,0,0,1,1,3,3],"right_children":[2,4,-1,-1,-1,-1,-1],"split_conditions":[2.0750549E-2,3.3640623E-2,6.453359E-3,-6.646021E-2,6.628719E-3,-6.686678E-2,-3.3173338E-2],"split_indices":[2280,3486,0,3087,0,2147483647,2147483647],"split_type":[0,0,0,0,0,0,0],"sum_hessian":[3.4845557E2,3.3833765E2,1.0117926E1,3.3322568E2,5.111962E0,3.282081E2,5.0175886E0],"tree_param":{"num_deleted":"2","num_feature":"7834","num_nodes":"7","size_leaf_vector":"0"}},{"base_weights":[-1.2522837E0,-1.2922379E0,-7.472281E-2,-1.3111924E0,-2.5610217E-1,-7.267619E-1,4.9149653E-1],"categories":[],"categories_nodes":[],"categories_segments":[],"categories_sizes":[],"default_left":[1,1,1,0,0,0,0],"id":14,"left_children":[1,3,5,-1,-1,-1,-1],"loss_changes":[1.6092285E1,6.1989136E0,4.917913E0,0E0,0E0,0E0,0E0],"parents":[2147483647,0,0,1,1,2,2],"right_children":[2,4,6,-1,-1,-1,-1],"split_conditions":[2.2146897E-2,1.0286819E-2,9.4634876E-2,-6.555962E-2,-1.2805109E-2,-3.6338095E-2,2.4574827E-2],"split_indices":[2280,3486,6967,0,0,0,0],"split_type":[0,0,0,0,0,0,0],"sum_hessian":[3.430888E2,3.3173578E2,1.1353053E1,3.2551553E2,6.2202415E0,5.1448655E0,6.208188E0],"tree_param":{"num_deleted":"0","num_feature":"7834","num_nodes":"7","size_leaf_vector":"0"}},{"base_weights":[-1.225965E0,-1.2550349E0,3.8650465E-1,-1.2751276E0,2.3532402E-2,-1.2884941E0,-5.099574E-1],"categories":[],"categories_nodes":[],"categories_segments":[],"categories_sizes":[],"default_left":[1,1,0,1,0,0,0],"id":15,"left_children":[1,3,-1,5,-1,-1,-1],"loss_changes":[1.5994293E1,8.385559E0,0E0,2.618103E0,0E0,0E0,0E0],"parents":[2147483647,0,0,1,1,3,3],"right_children":[2,4,-1,6,-1,-1,-1],"split_conditions":[1.3639638E-2,1.4151269E-1,1.9325232E-2,2.8392873E-3,1.1766201E-3,-6.442471E-2,-2.5497869E-2],"split_indices":[2275,3483,0,2282,0,0,0],"split_type":[0,0,0,0,0,0,0],"sum_hessian":[3.2986868E2,3.242448E2,5.62387E0,3.1923077E2,5.014033E0,3.130778E2,6.1529913E0],"tree_param":{"num_deleted":"0","num_feature":"7834","num_nodes":"7","size_leaf_vector":"0"}},{"base_weights":[-1.2031089E0,-1.230647E0,2.9059067E-1,-1.2643994E0,-2.2208497E-1,-1.2737494E0,-5.969128E-1,-6.9413084E-1,2.7813023E-1],"categories":[],"categories_nodes":[],"categories_segments":[],"categories_sizes":[],"default_left":[1,1,0,1,1,0,0,0,0],"id":16,"left_children":[1,3,-1,5,7,-1,-1,-1,-1],"loss_changes":[1.3421783E1,1.0341614E1,0E0,1.1227722E0,2.8654575E0,0E0,0E0,0E0,0E0],"parents":[2147483647,0,0,1,1,3,3,4,4],"right_children":[2,4,-1,6,8,-1,-1,-1,-1],"split_conditions":[6.6291047E-3,2.2146897E-2,1.4529534E-2,6.196511E-3,1.0611496E-1,-6.3687466E-2,-2.984564E-2,-3.4706544E-2,1.39065115E-2],"split_indices":[3479,2280,0,3087,6967,0,0,0,0],"split_type":[0,0,0,0,0,0,0,0,0],"sum_hessian":[3.1660306E2,3.110447E2,5.558367E0,3.0072696E2,1.0317754E1,2.9567688E2,5.0500746E0,5.108897E0,5.2088566E0],"tree_param":{"num_deleted":"0","num_feature":"7834","num_nodes":"9","size_leaf_vector":"0"}},{"base_weights":[-1.1728938E0,-1.217694E0,-6.8497874E-2,-1.2418431E0,1.2961267E-1,-7.016297E-1,4.6060765E-1,-1.2510637E0,-5.997159E-1],"categories":[],"categories_nodes":[],"categories_segments":[],"categories_sizes":[],"default_left":[1,1,1,1,0,0,0,1,1],"id":17,"left_children":[1,3,5,-1,-1,-1,-1,-1,-1],"loss_changes":[1.5098694E1,9.75354E0,4.685417E0,9.651489E-1,0E0,0E0,0E0,0E0,0E0],"parents":[2147483647,0,0,1,1,2,2,3,3],"right_children":[2,4,6,-1,-1,-1,-1,-1,-1],"split_conditions":[2.2146897E-2,3.5718717E-2,7.688865E-2,-6.2092155E-2,6.4806337E-3,-3.5081487E-2,2.3030384E-2,-6.255319E-2,-2.9985795E-2],"split_indices":[2280,3486,6967,3087,0,0,0,2147483647,2147483647],"split_type":[0,0,0,0,0,0,0,0,0],"sum_hessian":[3.058504E2,2.9382852E2,1.2021867E1,2.887316E2,5.096928E0,5.324482E0,6.6973844E0,2.8370938E2,5.022225E0],"tree_param":{"num_deleted":"2","num_feature":"7834","num_nodes":"9","size_leaf_vector":"0"}},{"base_weights":[-1.1642491E0,-1.2064661E0,-4.4496845E-2,-1.2277495E0,-2.5146658E-2,-6.9340426E-1,5.9683233E-1,-1.237702E0,-5.817841E-1],"categories":[],"categories_nodes":[],"categories_segments":[],"categories_sizes":[],"default_left":[1,1,1,1,0,0,0,0,0],"id":18,"left_children":[1,3,5,7,-1,-1,-1,-1,-1],"loss_changes":[1.3906006E1,7.1230164E0,5.310973E0,1.0766907E0,0E0,0E0,0E0,0E0,0E0],"parents":[2147483647,0,0,1,1,2,2,3,3],"right_children":[2,4,6,8,-1,-1,-1,-1,-1],"split_conditions":[2.2146897E-2,1.631544E-1,9.4634876E-2,6.208402E-4,-1.2573329E-3,-3.4670215E-2,2.9841617E-2,-6.18851E-2,-2.9089207E-2],"split_indices":[2280,3483,6967,3087,0,0,0,0,0],"split_type":[0,0,0,0,0,0,0,0,0],"sum_hessian":[2.94302E2,2.835347E2,1.0767322E1,2.7847818E2,5.0565195E0,5.311679E0,5.4556427E0,2.7335056E2,5.1276207E0],"tree_param":{"num_deleted":"0","num_feature":"7834","num_nodes":"9","size_leaf_vector":"0"}},{"base_weights":[-1.1402558E0,-1.1860024E0,2.0833628E-2,-1.2115777E0,1.4051805E-1,-4.77976E-1,4.6939927E-1],"categories":[],"categories_nodes":[],"categories_segments":[],"categories_sizes":[],"default_left":[1,1,1,0,0,0,0],"id":19,"left_children":[1,3,5,-1,-1,-1,-1],"loss_changes":[1.51171875E1,9.445343E0,2.8541968E0,0E0,0E0,0E0,0E0],"parents":[2147483647,0,0,1,1,2,2],"right_children":[2,4,6,-1,-1,-1,-1],"split_conditions":[2.2146897E-2,3.3640623E-2,9.4634876E-2,-6.0578883E-2,7.0259026E-3,-2.38988E-2,2.3469964E-2],"split_indices":[2280,3486,6967,0,0,0,0],"split_type":[0,0,0,0,0,0,0],"sum_hessian":[2.8314294E2,2.7238943E2,1.0753513E1,2.673221E2,5.0673256E0,5.060557E0,5.6929564E0],"tree_param":{"num_deleted":"0","num_feature":"7834","num_nodes":"7","size_leaf_vector":"0"}},{"base_weights":[-1.1219758E0,-1.1636806E0,1.8230784E-1,-1.1926954E0,3.2761034E-2,-1.2117239E0,-8.619393E-1,-1.1259121E0,-4.1051137E-1],"categories":[],"categories_nodes":[],"categories_segments":[],"categories_sizes":[],"default_left":[1,1,0,1,0,0,1,0,0],"id":20,"left_children":[1,3,-1,5,-1,-1,7,-1,-1],"loss_changes":[1.516391E1,9.290283E0,0E0,5.9329224E-1,0E0,0E0,1.6374636E0,0E0,0E0],"parents":[2147483647,0,0,1,1,3,3,6,6],"right_children":[2,4,-1,6,-1,-1,8,-1,-1],"split_conditions":[3.0603673E-2,1.2227994E-2,9.115392E-3,1.4938684E-2,1.6380517E-3,-6.0586195E-2,9.366197E-2,-5.6295604E-2,-2.052557E-2],"split_indices":[2282,3486,0,5852,0,0,6967,0,0],"split_type":[0,0,0,0,0,0,0,0,0],"sum_hessian":[2.7387473E2,2.654933E2,8.381417E0,2.5921033E2,6.2829676E0,2.4259048E2,1.6619848E1,9.544553E0,7.0752954E0],"tree_param":{"num_deleted":"0","num_feature":"7834","num_nodes":"9","size_leaf_vector":"0"}},{"base_weights":[-1.1216035E0,-1.1687335E0,-2.8201604E-2,-1.1855634E0,-3.0309847E-1,-6.1650133E-1,4.885345E-1,-1.1931198E0,-6.91086E-1],"categories":[],"categories_nodes":[],"categories_segments":[],"categories_sizes":[],"default_left":[1,1,1,1,0,0,0,1,1],"id":21,"left_children":[1,3,5,-1,-1,-1,-1,-1,-1],"loss_changes":[1.3611298E1,3.3382874E0,3.9387536E0,1.04400635E-1,0E0,0E0,0E0,0E0,0E0],"parents":[2147483647,0,0,1,1,2,2,3,3],"right_children":[2,4,6,-1,-1,-1,-1,-1,-1],"split_conditions":[2.2146897E-2,7.509689E-2,9.4634876E-2,-5.927817E-2,-1.5154923E-2,-3.0825067E-2,2.4426727E-2,-5.965599E-2,-3.45543E-2],"split_indices":[2280,3483,6967,933,0,0,0,2147483647,2147483647],"split_type":[0,0,0,0,0,0,0,0,0],"sum_hessian":[2.637724E2,2.5280652E2,1.0965864E1,2.4762257E2,5.1839447E0,5.037567E0,5.9282966E0,2.4250389E2,5.118693E0],"tree_param":{"num_deleted":"2","num_feature":"7834","num_nodes":"9","size_leaf_vector":"0"}},{"base_weights":[-1.0943037E0,-1.1320367E0,5.1397014E-1,-1.1559387E0,1.1458205E-2,-1.173564E0,-3.6413807E-1,-1.1814388E0,-6.759581E-1],"categories":[],"categories_nodes":[],"categories_segments":[],"categories_sizes":[],"default_left":[1,1,0,1,0,1,0,1,1],"id":22,"left_children":[1,3,-1,5,-1,-1,-1,-1,-1],"loss_changes":[1.609967E1,6.850647E0,0E0,2.9924927E0,0E0,1.3897705E-1,0E0,0E0,0E0],"parents":[2147483647,0,0,1,1,3,3,5,5],"right_children":[2,4,-1,6,-1,-1,-1,-1,-1],"split_conditions":[1.5686074E-2,3.1302015E-3,2.5698507E-2,2.9164093E-2,5.7291024E-4,-5.86782E-2,-1.8206904E-2,-5.907194E-2,-3.3797905E-2],"split_indices":[2275,3479,0,2280,0,933,0,2147483647,2147483647],"split_type":[0,0,0,0,0,0,0,0,0],"sum_hessian":[2.5471213E2,2.4916248E2,5.5496626E0,2.4405028E2,5.1121902E0,2.3826447E2,5.785817E0,2.3319972E2,5.0647416E0],"tree_param":{"num_deleted":"2","num_feature":"7834","num_nodes":"9","size_leaf_vector":"0"}},{"base_weights":[-1.0843521E0,-1.1308771E0,-6.285733E-2,-1.1548818E0,-1.9820969E-1,5.090272E-1,-6.1967164E-1,-1.1628996E0,-6.612743E-1],"categories":[],"categories_nodes":[],"categories_segments":[],"categories_sizes":[],"default_left":[1,1,1,1,0,0,0,1,1],"id":23,"left_children":[1,3,5,-1,-1,-1,-1,-1,-1],"loss_changes":[1.1705353E1,5.075836E0,4.0898967E0,1.4437866E-1,0E0,0E0,0E0,0E0,0E0],"parents":[2147483647,0,0,1,1,2,2,3,3],"right_children":[2,4,6,-1,-1,-1,-1,-1,-1],"split_conditions":[2.2146897E-2,1.2227994E-2,7.238821E-3,-5.7744093E-2,-9.910485E-3,2.545136E-2,-3.0983582E-2,-5.8144983E-2,-3.3063717E-2],"split_indices":[2280,3486,2283,933,0,0,0,2147483647,2147483647],"split_type":[0,0,0,0,0,0,0,0,0],"sum_hessian":[2.4679399E2,2.3594075E2,1.0853235E1,2.2978828E2,6.1524754E0,5.3965E0,5.4567347E0,2.2478122E2,5.0070686E0],"tree_param":{"num_deleted":"2","num_feature":"7834","num_nodes":"9","size_leaf_vector":"0"}},{"base_weights":[-1.0577587E0,-1.1109815E0,3.932323E-2,-1.1404036E0,1.7275189E-1,5.621462E-1,-4.529764E-1,-1.1485586E0,-6.571595E-1],"categories":[],"categories_nodes":[],"categories_segments":[],"categories_sizes":[],"default_left":[1,1,1,1,0,0,0,1,1],"id":24,"left_children":[1,3,5,-1,-1,-1,-1,-1,-1],"loss_changes":[1.4106232E1,8.873993E0,3.3713398E0,1.3079834E-1,0E0,0E0,0E0,0E0,0E0],"parents":[2147483647,0,0,1,1,2,2,3,3],"right_children":[2,4,6,-1,-1,-1,-1,-1,-1],"split_conditions":[2.2146897E-2,3.3640623E-2,1.0919461E-2,-5.7020184E-2,8.637595E-3,2.810731E-2,-2.264882E-2,-5.742793E-2,-3.2857977E-2],"split_indices":[2280,3486,7455,933,0,0,0,2147483647,2147483647],"split_type":[0,0,0,0,0,0,0,0,0],"sum_hessian":[2.3983951E2,2.2873042E2,1.1109075E1,2.237147E2,5.0157185E0,5.318714E0,5.7903605E0,2.1864815E2,5.066559E0],"tree_param":{"num_deleted":"2","num_feature":"7834","num_nodes":"9","size_leaf_vector":"0"}},{"base_weights":[-1.0732076E0,-1.1044296E0,1.8821423E-1,-1.1379606E0,9.573399E-3,-1.148362E0,-5.862244E-1,-1.1565201E0,-6.7813283E-1,-1.1650946E0,-6.776991E-1],"categories":[],"categories_nodes":[],"categories_segments":[],"categories_sizes":[],"default_left":[1,1,0,1,0,1,1,1,1,1,1],"id":25,"left_children":[1,3,-1,-1,-1,-1,-1,-1,-1,-1,-1],"loss_changes":[9.224365E0,8.36145E0,0E0,5.7229614E-1,0E0,2.8900146E-2,0E0,6.0028076E-2,0E0,0E0,0E0],"parents":[2147483647,0,0,1,1,3,3,5,5,7,7],"right_children":[2,4,-1,-1,-1,-1,-1,-1,-1,-1,-1],"split_conditions":[6.6291047E-3,6.329573E-2,9.410712E-3,-5.6898028E-2,4.7866997E-4,-5.7418104E-2,-2.931122E-2,-5.782601E-2,-3.3906642E-2,-5.825473E-2,-3.3884954E-2],"split_indices":[3479,2282,0,3300,0,2147483647,2147483647,2147483647,2147483647,2147483647,2147483647],"split_type":[0,0,0,0,0,0,0,0,0,0,0],"sum_hessian":[2.2793777E2,2.2255373E2,5.384051E0,2.1602982E2,6.5239086E0,2.1097118E2,5.058635E0,2.059388E2,5.0323844E0,2.009078E2,5.030989E0],"tree_param":{"num_deleted":"6","num_feature":"7834","num_nodes":"11","size_leaf_vector":"0"}},{"base_weights":[-1.0405308E0,-1.0959709E0,8.6456664E-2,-1.1258273E0,-7.4295335E-2,4.7581312E-1,-2.9804638E-1,-1.1436864E0,-7.8747547E-1,-1.025787E0,-3.4033033E-1],"categories":[],"categories_nodes":[],"categories_segments":[],"categories_sizes":[],"default_left":[1,1,1,1,0,0,0,0,1,0,0],"id":26,"left_children":[1,3,5,7,-1,-1,-1,-1,9,-1,-1],"loss_changes":[1.40221405E1,6.3992615E0,1.8452475E0,3.4674072E-1,0E0,0E0,0E0,0E0,1.0958576E0,0E0,0E0],"parents":[2147483647,0,0,1,1,2,2,3,3,8,8],"right_children":[2,4,6,8,-1,-1,-1,-1,10,-1,-1],"split_conditions":[2.2146897E-2,1.2227994E-2,8.206339E-2,1.6868213E-2,-3.7147668E-3,2.3790656E-2,-1.4902319E-2,-5.718432E-2,9.366197E-2,-5.128935E-2,-1.7016517E-2],"split_indices":[2280,3486,2282,5852,0,0,0,0,6967,0,0],"split_type":[0,0,0,0,0,0,0,0,0,0,0],"sum_hessian":[2.2190845E2,2.1153014E2,1.0378314E1,2.0542506E2,6.1050673E0,5.038619E0,5.3396945E0,1.9286496E2,1.2560116E1,7.3491917E0,5.210924E0],"tree_param":{"num_deleted":"0","num_feature":"7834","num_nodes":"11","size_leaf_vector":"0"}},{"base_weights":[-1.0361757E0,-1.0899695E0,-4.1813456E-2,-1.1169856E0,-1.7014692E-2,-4.73578E-1,3.519623E-1,-1.1353917E0,-7.691747E-1,-1.0119799E0,-3.2944903E-1],"categories":[],"categories_nodes":[],"categories_segments":[],"categories_sizes":[],"default_left":[1,1,1,1,0,0,0,0,1,0,0],"id":27,"left_children":[1,3,5,7,-1,-1,-1,-1,9,-1,-1],"loss_changes":[1.1476273E1,5.903183E0,2.2230055E0,4.024048E-1,0E0,0E0,0E0,0E0,1.0669446E0,0E0,0E0],"parents":[2147483647,0,0,1,1,2,2,3,3,8,8],"right_children":[2,4,6,8,-1,-1,-1,-1,10,-1,-1],"split_conditions":[2.2146897E-2,3.5718717E-2,1.0611496E-1,1.6868213E-2,-8.507346E-4,-2.36789E-2,1.7598115E-2,-5.6769587E-2,9.366197E-2,-5.0598998E-2,-1.6472451E-2],"split_indices":[2280,3486,6967,5852,0,0,0,0,6967,0,0],"split_type":[0,0,0,0,0,0,0,0,0,0,0],"sum_hessian":[2.1439986E2,2.0330515E2,1.1094712E1,1.982718E2,5.03335E0,5.1954174E0,5.899295E0,1.8615604E2,1.2115766E1,6.9672422E0,5.148523E0],"tree_param":{"num_deleted":"0","num_feature":"7834","num_nodes":"11","size_leaf_vector":"0"}},{"base_weights":[-1.0035462E0,-1.045285E0,4.2129612E-1,-1.0982982E0,-1.6709661E-2,-1.1122899E0,-6.9871604E-1,-1.1221783E0,-6.72808E-1],"categories":[],"categories_nodes":[],"categories_segments":[],"categories_sizes":[],"default_left":[1,1,0,1,0,1,1,1,1],"id":28,"left_children":[1,3,-1,-1,-1,-1,-1,-1,-1],"loss_changes":[1.2725586E1,1.0940811E1,0E0,2.9133606E-1,0E0,4.008484E-2,0E0,0E0,0E0],"parents":[2147483647,0,0,1,1,3,3,5,5],"right_children":[2,4,-1,-1,-1,-1,-1,-1,-1],"split_conditions":[6.6291047E-3,2.2146897E-2,2.1064807E-2,-5.491491E-2,-8.354831E-4,-5.5614498E-2,-3.4935802E-2,-5.6108918E-2,-3.36404E-2],"split_indices":[3479,2280,0,933,0,2147483647,2147483647,2147483647,2147483647],"split_type":[0,0,0,0,0,0,0,0,0],"sum_hessian":[2.0557416E2,1.9998233E2,5.591821E0,1.901159E2,9.866431E0,1.8196072E2,8.15517E0,1.7643745E2,5.5232806E0],"tree_param":{"num_deleted":"4","num_feature":"7834","num_nodes":"9","size_leaf_vector":"0"}},{"base_weights":[-9.9358624E-1,-1.0589821E0,1.9562574E-1,-1.0927205E0,1.3593121E-1,-2.831384E-1,6.311316E-1,-1.1027372E0,-6.198231E-1,-1.1133595E0,-6.183495E-1],"categories":[],"categories_nodes":[],"categories_segments":[],"categories_sizes":[],"default_left":[1,1,1,1,0,0,0,1,1,1,1],"id":29,"left_children":[1,3,5,-1,-1,-1,-1,-1,-1,-1,-1],"loss_changes":[1.5578857E1,7.707901E0,2.5028665E0,1.8083191E-1,0E0,0E0,0E0,2.2434998E-1,0E0,0E0,0E0],"parents":[2147483647,0,0,1,1,2,2,3,3,7,7],"right_children":[2,4,6,-1,-1,-1,-1,-1,-1,-1,-1],"split_conditions":[2.2146897E-2,3.790676E-2,1.0372578E-1,-5.4636028E-2,6.7965607E-3,-1.415692E-2,3.155658E-2,-5.513686E-2,-3.0991156E-2,-5.5667974E-2,-3.0917475E-2],"split_indices":[2280,3486,6967,2454,0,0,0,2147483647,2147483647,2147483647,2147483647],"split_type":[0,0,0,0,0,0,0,0,0,0,0],"sum_hessian":[1.9665686E2,1.8651001E2,1.0146849E1,1.8147166E2,5.0383387E0,5.0000324E0,5.1468163E0,1.7640334E2,5.0683312E0,1.713473E2,5.0560255E0],"tree_param":{"num_deleted":"4","num_feature":"7834","num_nodes":"11","size_leaf_vector":"0"}},{"base_weights":[-9.801697E-1,-1.0426654E0,2.4340141E-1,-1.0825926E0,1.0838765E-1,-1.102996E0,-7.007502E-1,-9.647416E-1,-2.9364064E-1],"categories":[],"categories_nodes":[],"categories_segments":[],"categories_sizes":[],"default_left":[1,1,0,1,0,1,1,1,1],"id":30,"left_children":[1,3,-1,-1,-1,-1,-1,-1,-1],"loss_changes":[1.4865829E1,8.481308E0,0E0,5.98114E-1,0E0,0E0,9.7076416E-1,0E0,0E0],"parents":[2147483647,0,0,1,1,3,3,6,6],"right_children":[2,4,-1,-1,-1,-1,-1,-1,-1],"split_conditions":[2.2146897E-2,1.2227994E-2,1.2170071E-2,-5.412963E-2,5.4193824E-3,-5.51498E-2,-3.503751E-2,-4.823708E-2,-1.4682032E-2],"split_indices":[2280,3486,0,5852,0,2147483647,2147483647,2147483647,2147483647],"split_type":[0,0,0,0,0,0,0,0,0],"sum_hessian":[1.9008717E2,1.8099066E2,9.096516E0,1.749805E2,6.010161E0,1.6431201E2,1.0668477E1,5.6408906E0,5.0275865E0],"tree_param":{"num_deleted":"4","num_feature":"7834","num_nodes":"9","size_leaf_vector":"0"}},{"base_weights":[-9.695774E-1,-1.0140148E0,3.251028E-1,-1.0702361E0,-9.830292E-2,-1.0903774E0,-7.2302735E-1,3.5523927E-1,-5.15287E-1,-1.1020386E0,-6.2254816E-1,-9.8960114E-1,-2.9343107E-1,-1.1147535E0,-6.426537E-1],"categories":[],"categories_nodes":[],"categories_segments":[],"categories_sizes":[],"default_left":[1,1,0,1,1,1,1,0,0,1,1,0,0,1,1],"id":31,"left_children":[1,3,-1,5,7,-1,11,-1,-1,-1,-1,-1,-1,-1,-1],"loss_changes":[1.0825546E1,8.987808E0,0E0,3.7464905E-1,2.3234885E0,1.6070557E-1,1.0937614E0,0E0,0E0,1.6062927E-1,0E0,0E0,0E0,0E0,0E0],"parents":[2147483647,0,0,1,1,3,3,4,4,5,5,6,6,9,9],"right_children":[2,4,-1,6,8,-1,12,-1,-1,-1,-1,-1,-1,-1,-1],"split_conditions":[6.6291047E-3,2.2146897E-2,1.625514E-2,1.6784038E-2,1.2761111E-2,-5.4518875E-2,7.883313E-2,1.7761964E-2,-2.576435E-2,-5.510193E-2,-3.1127408E-2,-4.948006E-2,-1.4671554E-2,-5.5737674E-2,-3.2132685E-2],"split_indices":[3479,2280,0,5852,7455,2649,6967,0,0,2147483647,2147483647,0,0,2147483647,2147483647],"split_type":[0,0,0,0,0,0,0,0,0,0,0,0,0,0,0],"sum_hessian":[1.8143468E2,1.7562352E2,5.8111625E0,1.6530563E2,1.0317891E1,1.5421909E2,1.1086551E1,5.0132217E0,5.30467E0,1.4914583E2,5.0732546E0,6.0369377E0,5.0496125E0,1.437407E2,5.4051094E0],"tree_param":{"num_deleted":"4","num_feature":"7834","num_nodes":"15","size_leaf_vector":"0"}},{"base_weights":[-9.5548415E-1,-1.007434E0,6.709109E-1,-1.0463487E0,-1.4055059E-2,-1.0726216E0,-1.707931E-1,-1.0900278E0,-6.0148805E-1],"categories":[],"categories_nodes":[],"categories_segments":[],"categories_sizes":[],"default_left":[1,1,0,1,0,1,0,1,1],"id":32,"left_children":[1,3,-1,5,-1,-1,-1,-1,-1],"loss_changes":[1.5632217E1,6.631897E0,0E0,3.622528E0,0E0,6.600189E-1,0E0,0E0,0E0],"parents":[2147483647,0,0,1,1,3,3,5,5],"right_children":[2,4,-1,6,-1,-1,-1,-1,-1],"split_conditions":[1.5686074E-2,1.2227994E-2,3.3545546E-2,5.0559603E-2,-7.0275296E-4,-5.363108E-2,-8.539655E-3,-5.4501392E-2,-3.0074403E-2],"split_indices":[2275,3486,0,2280,0,933,0,2147483647,2147483647],"split_type":[0,0,0,0,0,0,0,0,0],"sum_hessian":[1.7601695E2,1.7093748E2,5.0794597E0,1.6444228E2,6.4952044E0,1.5943309E2,5.0091987E0,1.524858E2,6.94729E0],"tree_param":{"num_deleted":"2","num_feature":"7834","num_nodes":"9","size_leaf_vector":"0"}},{"base_weights":[-9.5982134E-1,-1.0066671E0,4.1331163E-1,-1.0384772E0,-1.0377181E-1,-1.0635276E0,-3.083256E-1,-1.0816659E0,-5.875947E-1],"categories":[],"categories_nodes":[],"categories_segments":[],"categories_sizes":[],"default_left":[1,1,0,1,0,1,0,1,1],"id":33,"left_children":[1,3,-1,5,-1,-1,-1,-1,-1],"loss_changes":[1.1366837E1,4.628769E0,0E0,2.5838013E0,0E0,6.895447E-1,0E0,0E0,0E0],"parents":[2147483647,0,0,1,1,3,3,5,5],"right_children":[2,4,-1,6,-1,-1,-1,-1,-1],"split_conditions":[1.5686074E-2,1.2227994E-2,2.0665582E-2,2.9164093E-2,-5.188591E-3,-5.317638E-2,-1.5416279E-2,-5.4083295E-2,-2.9379735E-2],"split_indices":[2275,3486,0,2280,0,933,0,2147483647,2147483647],"split_type":[0,0,0,0,0,0,0,0,0],"sum_hessian":[1.6924002E2,1.6391478E2,5.325233E0,1.5819138E2,5.7234144E0,1.5250264E2,5.688724E0,1.4567795E2,6.824692E0],"tree_param":{"num_deleted":"2","num_feature":"7834","num_nodes":"9","size_leaf_vector":"0"}},{"base_weights":[-9.515359E-1,-9.945876E-1,2.5357392E-1,-1.0460794E0,-2.4058653E-2,-1.0618109E0,-5.562153E-1,-1.0790662E0,-4.9615228E-1,-1.0916866E0,-6.198246E-1],"categories":[],"categories_nodes":[],"categories_segments":[],"categories_sizes":[],"default_left":[1,1,0,1,0,1,1,1,1,1,1],"id":34,"left_children":[1,3,-1,-1,-1,-1,-1,-1,-1,-1,-1],"loss_changes":[8.706757E0,7.847748E0,0E0,5.621033E-1,0E0,8.6842346E-1,0E0,1.273346E-1,0E0,0E0,0E0],"parents":[2147483647,0,0,1,1,3,3,5,5,7,7],"right_children":[2,4,-1,-1,-1,-1,-1,-1,-1,-1,-1],"split_conditions":[1.3268457E-2,2.2448635E-2,1.2678697E-2,-5.230397E-2,-1.2029327E-3,-5.3090543E-2,-2.7810765E-2,-5.395331E-2,-2.4807615E-2,-5.458433E-2,-3.099123E-2],"split_indices":[3479,2282,0,3646,0,2147483647,2147483647,2147483647,2147483647,2147483647,2147483647],"split_type":[0,0,0,0,0,0,0,0,0,0,0],"sum_hessian":[1.6195708E2,1.565395E2,5.417581E0,1.4857877E2,7.960738E0,1.4282452E2,5.75424E0,1.3771591E2,5.108607E0,1.3269223E2,5.02368E0],"tree_param":{"num_deleted":"6","num_feature":"7834","num_nodes":"11","size_leaf_vector":"0"}},{"base_weights":[-9.4310826E-1,-9.8889214E-1,3.46596E-1,-1.0175931E0,-1.4728835E-1,-1.048141E0,-2.1053672E-1,-1.0668083E0,-5.598623E-1,-1.0798385E0,-6.113481E-1],"categories":[],"categories_nodes":[],"categories_segments":[],"categories_sizes":[],"default_left":[1,1,0,1,0,1,0,1,1,1,1],"id":35,"left_children":[1,3,-1,5,-1,-1,-1,-1,-1,-1,-1],"loss_changes":[9.521515E0,3.4824524E0,0E0,3.36026E0,0E0,6.760864E-1,0E0,1.318512E-1,0E0,0E0,0E0],"parents":[2147483647,0,0,1,1,3,3,5,5,7,7],"right_children":[2,4,-1,6,-1,-1,-1,-1,-1,-1,-1],"split_conditions":[1.5686074E-2,2.7361156E-2,1.73298E-2,2.8392873E-3,-7.364418E-3,-5.2407052E-2,-1.0526836E-2,-5.3340416E-2,-2.7993117E-2,-5.3991925E-2,-3.0567406E-2],"split_indices":[2275,3486,0,2282,0,933,0,2147483647,2147483647,2147483647,2147483647],"split_type":[0,0,0,0,0,0,0,0,0,0,0],"sum_hessian":[1.5444662E2,1.4937704E2,5.0695767E0,1.4424866E2,5.1283903E0,1.387E2,5.5486493E0,1.3245145E2,6.2485538E0,1.274348E2,5.016648E0],"tree_param":{"num_deleted":"4","num_feature":"7834","num_nodes":"11","size_leaf_vector":"0"}},{"base_weights":[-9.4085467E-1,-1.0117116E0,-2.7166631E-2,-1.0424852E0,-1.5402606E-1,2.941012E-1,-3.460599E-1,-1.0628815E0,-6.3165796E-1,-1.0775706E0,-5.901973E-1],"categories":[],"categories_nodes":[],"categories_segments":[],"categories_sizes":[],"default_left":[1,1,1,1,0,0,0,1,1,1,1],"id":36,"left_children":[1,3,5,-1,-1,-1,-1,-1,-1,-1,-1],"loss_changes":[9.743347E0,3.5354462E0,1.3198365E0,4.5991516E-1,0E0,0E0,0E0,2.4690247E-1,0E0,0E0,0E0],"parents":[2147483647,0,0,1,1,2,2,3,3,7,7],"right_children":[2,4,6,-1,-1,-1,-1,-1,-1,-1,-1],"split_conditions":[2.2146897E-2,1.2590662E-1,1.1935056E-2,-5.212426E-2,-7.7013033E-3,1.4705061E-2,-1.7302996E-2,-5.3144075E-2,-3.15829E-2,-5.3878527E-2,-2.9509867E-2],"split_indices":[2280,3483,7455,1415,0,0,0,2147483647,2147483647,2147483647,2147483647],"split_type":[0,0,0,0,0,0,0,0,0,0,0],"sum_hessian":[1.4992142E2,1.3903212E2,1.0889293E1,1.3400845E2,5.023677E0,5.463178E0,5.4261146E0,1.2615794E2,7.8504987E0,1.2111453E2,5.0434146E0],"tree_param":{"num_deleted":"4","num_feature":"7834","num_nodes":"11","size_leaf_vector":"0"}},{"base_weights":[-9.086121E-1,-9.6339333E-1,4.8372984E-1,-1.0070747E0,1.7989625E-1,-1.0376669E0,-2.0717925E-1,-1.0591539E0,-4.818076E-1,-1.0742526E0,-5.86504E-1],"categories":[],"categories_nodes":[],"categories_segments":[],"categories_sizes":[],"default_left":[1,1,0,1,0,1,0,1,0,1,1],"id":37,"left_children":[1,3,-1,5,-1,7,-1,-1,-1,-1,-1],"loss_changes":[1.156781E1,7.191574E0,0E0,3.0973816E0,0E0,1.0438843E0,0E0,2.5805664E-1,0E0,0E0,0E0],"parents":[2147483647,0,0,1,1,3,3,5,5,7,7],"right_children":[2,4,-1,6,-1,8,-1,-1,-1,-1,-1],"split_conditions":[8.299191E-3,6.6291047E-3,2.4186492E-2,2.4267595E-2,8.994813E-3,1.651489E-2,-1.0358962E-2,-5.2957695E-2,-2.409038E-2,-5.3712633E-2,-2.93252E-2],"split_indices":[2275,3479,0,2280,0,933,0,1871,0,2147483647,2147483647],"split_type":[0,0,0,0,0,0,0,0,0,0,0],"sum_hessian":[1.44551E2,1.3937538E2,5.175603E0,1.3436102E2,5.014359E0,1.2912534E2,5.235684E0,1.2344798E2,5.6773605E0,1.1839309E2,5.054892E0],"tree_param":{"num_deleted":"2","num_feature":"7834","num_nodes":"11","size_leaf_vector":"0"}},{"base_weights":[-9.15629E-1,-9.883243E-1,-4.0644463E-2,-1.0359823E0,4.2159904E-2,3.731749E-1,-4.2207304E-1,-1.0584732E0,-4.939487E-1],"categories":[],"categories_nodes":[],"categories_segments":[],"categories_sizes":[],"default_left":[1,1,1,1,0,0,0,1,1],"id":38,"left_children":[1,3,5,-1,-1,-1,-1,-1,-1],"loss_changes":[8.943993E0,6.446068E0,2.03229E0,9.9668884E-1,0E0,0E0,0E0,0E0,0E0],"parents":[2147483647,0,0,1,1,2,2,3,3],"right_children":[2,4,6,-1,-1,-1,-1,-1,-1],"split_conditions":[2.2146897E-2,1.2227994E-2,1.0919461E-2,-5.1799115E-2,2.1079953E-3,1.8658746E-2,-2.1103652E-2,-5.292366E-2,-2.4697436E-2],"split_indices":[2280,3486,7455,933,0,0,0,2147483647,2147483647],"split_type":[0,0,0,0,0,0,0,0,0],"sum_hessian":[1.4024431E2,1.2936674E2,1.0877551E1,1.2364316E2,5.723592E0,5.227631E0,5.6499205E0,1.178023E2,5.840859E0],"tree_param":{"num_deleted":"2","num_feature":"7834","num_nodes":"9","size_leaf_vector":"0"}},{"base_weights":[-9.008089E-1,-9.5450103E-1,3.5594046E-1,-1.0095838E0,1.3440687E-2,-1.0347465E0,-5.211241E-1,-1.0570889E0,-6.480933E-1],"categories":[],"categories_nodes":[],"categories_segments":[],"categories_sizes":[],"default_left":[1,1,0,1,0,1,1,1,1],"id":39,"left_children":[1,3,-1,-1,-1,-1,-1,-1,-1],"loss_changes":[9.38089E0,6.8791504E0,0E0,9.5840454E-1,0E0,3.0719757E-1,0E0,0E0,0E0],"parents":[2147483647,0,0,1,1,3,3,5,5],"right_children":[2,4,-1,-1,-1,-1,-1,-1,-1],"split_conditions":[6.6291047E-3,5.7595905E-2,1.7797023E-2,-5.0479192E-2,6.720344E-4,-5.1737327E-2,-2.6056206E-2,-5.2854445E-2,-3.2404665E-2],"split_indices":[3479,2282,0,3646,0,2147483647,2147483647,2147483647,2147483647],"split_type":[0,0,0,0,0,0,0,0,0],"sum_hessian":[1.3298741E2,1.2776922E2,5.218188E0,1.2084902E2,6.920192E0,1.1386496E2,6.984068E0,1.060056E2,7.8593593E0],"tree_param":{"num_deleted":"4","num_feature":"7834","num_nodes":"9","size_leaf_vector":"0"}},{"base_weights":[-8.68669E-1,-9.309456E-1,5.212289E-1,-9.740853E-1,-9.4699495E-2,-1.0142585E0,-1.6613132E-1,-1.038798E0,-4.1308096E-1,-1.0562541E0,-5.745248E-1],"categories":[],"categories_nodes":[],"categories_segments":[],"categories_sizes":[],"default_left":[1,1,0,1,0,1,0,1,0,1,1],"id":40,"left_children":[1,3,-1,5,-1,7,-1,-1,-1,-1,-1],"loss_changes":[1.1808006E1,4.4373856E0,0E0,3.7035217E0,0E0,1.2445221E0,0E0,2.7117157E-1,0E0,0E0,0E0],"parents":[2147483647,0,0,1,1,3,3,5,5,7,7],"right_children":[2,4,-1,6,-1,8,-1,-1,-1,-1,-1],"split_conditions":[1.5686074E-2,1.2227994E-2,2.6061445E-2,2.9164093E-2,-4.734975E-3,1.6706083E-2,-8.306566E-3,-5.19399E-2,-2.0654049E-2,-5.2812707E-2,-2.872624E-2],"split_indices":[2275,3486,0,2280,0,933,0,3646,0,2147483647,2147483647],"split_type":[0,0,0,0,0,0,0,0,0,0,0],"sum_hessian":[1.2981114E2,1.2456022E2,5.2509146E0,1.1829298E2,6.2672453E0,1.12446556E2,5.8464217E0,1.0733721E2,5.1093407E0,1.0221881E2,5.118404E0],"tree_param":{"num_deleted":"2","num_feature":"7834","num_nodes":"11","size_leaf_vector":"0"}},{"base_weights":[-8.8466334E-1,-9.390553E-1,3.4318876E-1,-9.842276E-1,-1.4735265E-1,-1.0222151E0,-3.8323262E-1,-1.0516006E0,-3.7158832E-1,-1.0692382E0,-5.965648E-1],"categories":[],"categories_nodes":[],"categories_segments":[],"categories_sizes":[],"default_left":[1,1,0,1,0,1,0,1,0,1,1],"id":41,"left_children":[1,3,-1,5,-1,7,-1,-1,-1,-1,-1],"loss_changes":[8.617134E0,4.117958E0,0E0,2.1787338E0,0E0,1.6224136E0,0E0,1.6631317E-1,0E0,0E0,0E0],"parents":[2147483647,0,0,1,1,3,3,5,5,7,7],"right_children":[2,4,-1,6,-1,8,-1,-1,-1,-1,-1],"split_conditions":[8.299191E-3,1.2227994E-2,1.7159438E-2,1.4938684E-2,-7.367633E-3,3.502144E-2,-1.9161632E-2,-5.258003E-2,-1.8579416E-2,-5.346191E-2,-2.9828241E-2],"split_indices":[2275,3486,0,5852,0,3311,0,6742,0,2147483647,2147483647],"split_type":[0,0,0,0,0,0,0,0,0,0,0],"sum_hessian":[1.2320193E2,1.1820101E2,5.0009203E0,1.1159078E2,6.6102266E0,1.042975E2,7.2932816E0,9.920083E1,5.0966716E0,9.419977E1,5.001058E0],"tree_param":{"num_deleted":"2","num_feature":"7834","num_nodes":"11","size_leaf_vector":"0"}},{"base_weights":[-8.6145157E-1,-9.241267E-1,3.774479E-1,-9.695983E-1,2.8232634E-2,-1.0015769E0,-2.6241302E-1,-1.0280157E0,-3.996276E-1,-1.0470098E0,-5.6071234E-1],"categories":[],"categories_nodes":[],"categories_segments":[],"categories_sizes":[],"default_left":[1,1,0,1,0,1,0,1,0,1,1],"id":42,"left_children":[1,3,-1,5,-1,7,-1,-1,-1,-1,-1],"loss_changes":[9.651703E0,4.9784317E0,0E0,2.205513E0,0E0,1.2454453E0,0E0,2.9214478E-1,0E0,0E0,0E0],"parents":[2147483647,0,0,1,1,3,3,5,5,7,7],"right_children":[2,4,-1,6,-1,8,-1,-1,-1,-1,-1],"split_conditions":[1.5686074E-2,1.2227994E-2,1.8872395E-2,3.6649544E-2,1.4116317E-3,1.0626264E-2,-1.3120651E-2,-5.1400788E-2,-1.998138E-2,-5.235049E-2,-2.8035617E-2],"split_indices":[2275,3486,0,2280,0,933,0,3646,0,2147483647,2147483647],"split_type":[0,0,0,0,0,0,0,0,0,0,0],"sum_hessian":[1.1880822E2,1.13329056E2,5.4791694E0,1.08147316E2,5.1817365E0,1.0307025E2,5.077067E0,9.805562E1,5.0146317E0,9.3033646E1,5.0219765E0],"tree_param":{"num_deleted":"2","num_feature":"7834","num_nodes":"11","size_leaf_vector":"0"}},{"base_weights":[-8.5111934E-1,-9.358285E-1,-2.8371459E-2,-9.891389E-1,1.2084465E-1,-5.327501E-1,4.7713923E-1,-1.0155586E0,-3.9978352E-1,-1.0442512E0,-5.230318E-1],"categories":[],"categories_nodes":[],"categories_segments":[],"categories_sizes":[],"default_left":[1,1,1,1,0,0,0,1,0,1,1],"id":43,"left_children":[1,3,5,7,-1,-1,-1,-1,-1,-1,-1],"loss_changes":[8.161789E0,6.1183395E0,3.3134768E0,1.1741791E0,0E0,0E0,0E0,8.1729126E-1,0E0,0E0,0E0],"parents":[2147483647,0,0,1,1,2,2,3,3,7,7],"right_children":[2,4,6,8,-1,-1,-1,-1,-1,-1,-1],"split_conditions":[2.2146897E-2,1.743016E-1,9.4634876E-2,1.5634332E-2,6.0422323E-3,-2.6637508E-2,2.3856962E-2,-5.077793E-2,-1.9989176E-2,-5.2212562E-2,-2.6151588E-2],"split_indices":[2280,3483,6967,933,0,0,0,3646,0,2147483647,2147483647],"split_type":[0,0,0,0,0,0,0,0,0,0,0],"sum_hessian":[1.1648944E2,1.054908E2,1.0998647E1,1.00485115E2,5.0056806E0,5.4785147E0,5.5201316E0,9.5481674E1,5.003443E0,8.9166985E1,6.3146915E0],"tree_param":{"num_deleted":"2","num_feature":"7834","num_nodes":"11","size_leaf_vector":"0"}},{"base_weights":[-8.583816E-1,-9.3907034E-1,-6.395348E-2,-1.0009335E0,1.7894156E-1,-4.675633E-1,3.4912497E-1,-1.0191976E0,-5.557398E-1],"categories":[],"categories_nodes":[],"categories_segments":[],"categories_sizes":[],"default_left":[1,1,1,1,0,0,0,1,1],"id":44,"left_children":[1,3,5,-1,-1,-1,-1,-1,-1],"loss_changes":[7.1670837E0,7.252968E0,2.0753105E0,2.2283936E-1,0E0,0E0,0E0,0E0,0E0],"parents":[2147483647,0,0,1,1,2,2,3,3],"right_children":[2,4,6,-1,-1,-1,-1,-1,-1],"split_conditions":[2.2146897E-2,1.2227994E-2,1.0611496E-1,-5.004668E-2,8.947078E-3,-2.3378165E-2,1.7456248E-2,-5.095988E-2,-2.778699E-2],"split_indices":[2280,3486,6967,3646,0,0,0,2147483647,2147483647],"split_type":[0,0,0,0,0,0,0,0,0],"sum_hessian":[1.1174549E2,1.012769E2,1.0468592E1,9.606598E1,5.210924E0,5.2282677E0,5.240324E0,9.1041664E1,5.024312E0],"tree_param":{"num_deleted":"2","num_feature":"7834","num_nodes":"9","size_leaf_vector":"0"}},{"base_weights":[-8.036449E-1,-9.100621E-1,1.6157539E-1,-9.664119E-1,1.0694987E-1,5.782004E-1,-2.856373E-1,-9.944042E-1,-3.976542E-1,-1.0255148E0,-4.7105768E-1],"categories":[],"categories_nodes":[],"categories_segments":[],"categories_sizes":[],"default_left":[1,1,1,1,0,0,0,1,0,1,1],"id":45,"left_children":[1,3,5,7,-1,-1,-1,-1,-1,-1,-1],"loss_changes":[1.1335121E1,5.734291E0,2.3386862E0,1.0883636E0,0E0,0E0,0E0,9.5230865E-1,0E0,0E0,0E0],"parents":[2147483647,0,0,1,1,2,2,3,3,7,7],"right_children":[2,4,6,8,-1,-1,-1,-1,-1,-1,-1],"split_conditions":[2.2146897E-2,3.5718717E-2,1.1935056E-2,6.6264924E-3,5.3474936E-3,2.891002E-2,-1.4281864E-2,-4.972021E-2,-1.988271E-2,-5.127574E-2,-2.3552885E-2],"split_indices":[2280,3486,7455,933,0,0,0,3646,0,2147483647,2147483647],"split_type":[0,0,0,0,0,0,0,0,0,0,0],"sum_hessian":[1.07922325E2,9.7256744E1,1.066558E1,9.219806E1,5.0586853E0,5.369984E0,5.295595E0,8.7159966E1,5.038093E0,8.136372E1,5.7962403E0],"tree_param":{"num_deleted":"2","num_feature":"7834","num_nodes":"11","size_leaf_vector":"0"}},{"base_weights":[-8.339933E-1,-9.0438825E-1,3.8188985E-1,-9.8093E-1,-8.443986E-4,-1.0077103E0,-4.337485E-1,-1.0268459E0,-5.8259505E-1],"categories":[],"categories_nodes":[],"categories_segments":[],"categories_sizes":[],"default_left":[1,1,0,1,0,1,1,1,1],"id":46,"left_children":[1,3,-1,-1,-1,-1,-1,-1,-1],"loss_changes":[9.2552185E0,6.824913E0,0E0,8.962097E-1,0E0,1.01257324E-1,0E0,0E0,0E0],"parents":[2147483647,0,0,1,1,3,3,5,5],"right_children":[2,4,-1,-1,-1,-1,-1,-1,-1],"split_conditions":[6.6291047E-3,2.2448635E-2,1.9094493E-2,-4.9046498E-2,-4.221993E-5,-5.0385516E-2,-2.1687426E-2,-5.1342297E-2,-2.9129753E-2],"split_indices":[3479,2282,0,3609,0,2147483647,2147483647,2147483647,2147483647],"split_type":[0,0,0,0,0,0,0,0,0],"sum_hessian":[1.03096664E2,9.76966E1,5.4000664E0,8.998783E1,7.708768E0,8.498674E1,5.001091E0,7.997154E1,5.0152016E0],"tree_param":{"num_deleted":"4","num_feature":"7834","num_nodes":"9","size_leaf_vector":"0"}},{"base_weights":[-8.13235E-1,-8.9262956E-1,-1.05184674E-1,-9.5955896E-1,1.8283749E-1,2.1314225E-1,-4.041139E-1,-1.0021554E0,-3.2461497E-1],"categories":[],"categories_nodes":[],"categories_segments":[],"categories_sizes":[],"default_left":[1,1,1,1,0,0,0,0,0],"id":47,"left_children":[1,3,5,7,-1,-1,-1,-1,-1],"loss_changes":[5.5110397E0,6.619011E0,1.1505969E0,1.9583054E0,0E0,0E0,0E0,0E0,0E0],"parents":[2147483647,0,0,1,1,2,2,3,3],"right_children":[2,4,6,8,-1,-1,-1,-1,-1],"split_conditions":[2.2146897E-2,1.2227994E-2,1.2761111E-2,1.6868213E-2,9.1418745E-3,1.0657112E-2,-2.0205695E-2,-5.0107773E-2,-1.6230749E-2],"split_indices":[2280,3486,7455,5852,0,0,0,0,0],"split_type":[0,0,0,0,0,0,0,0,0],"sum_hessian":[9.870469E1,8.8518326E1,1.0186361E1,8.343378E1,5.084547E0,5.072105E0,5.1142564E0,7.764639E1,5.7873907E0],"tree_param":{"num_deleted":"0","num_feature":"7834","num_nodes":"9","size_leaf_vector":"0"}},{"base_weights":[-7.853331E-1,-8.555715E-1,3.2071438E-1,-9.4539016E-1,6.167592E-2,-9.862296E-1,-2.5682187E-1,-1.0152954E0,-6.107133E-1,-1.0422491E0,-5.5261487E-1],"categories":[],"categories_nodes":[],"categories_segments":[],"categories_sizes":[],"default_left":[1,1,0,1,0,1,0,1,1,1,1],"id":48,"left_children":[1,3,-1,5,-1,-1,-1,-1,-1,-1,-1],"loss_changes":[7.813118E0,7.5981064E0,0E0,2.092453E0,0E0,2.3560333E-1,0E0,3.1262207E-1,0E0,0E0,0E0],"parents":[2147483647,0,0,1,1,3,3,5,5,7,7],"right_children":[2,4,-1,6,-1,-1,-1,-1,-1,-1,-1],"split_conditions":[6.6291047E-3,2.2448635E-2,1.6035719E-2,1.2029186E-2,3.083796E-3,-4.931148E-2,-1.2841093E-2,-5.076477E-2,-3.0535666E-2,-5.2112456E-2,-2.7630745E-2],"split_indices":[3479,2282,0,933,0,6742,0,2147483647,2147483647,2147483647,2147483647],"split_type":[0,0,0,0,0,0,0,0,0,0,0],"sum_hessian":[9.603978E1,9.051799E1,5.52179E0,8.2416885E1,8.101104E0,7.739429E1,5.0225945E0,7.025282E1,7.1414623E0,6.5201836E1,5.050994E0],"tree_param":{"num_deleted":"4","num_feature":"7834","num_nodes":"11","size_leaf_vector":"0"}},{"base_weights":[-7.877802E-1,-8.6534E-1,3.9646506E-1,-9.3087804E-1,5.7734657E-2,-9.7062016E-1,-2.7128097E-1,-1.0039229E0,-6.1202204E-1],"categories":[],"categories_nodes":[],"categories_segments":[],"categories_sizes":[],"default_left":[1,1,0,1,0,1,0,1,1],"id":49,"left_children":[1,3,-1,5,-1,-1,-1,-1,-1],"loss_changes":[8.836075E0,5.322792E0,0E0,1.8700027E0,0E0,2.9759216E-1,0E0,0E0,0E0],"parents":[2147483647,0,0,1,1,3,3,5,5],"right_children":[2,4,-1,6,-1,-1,-1,-1,-1],"split_conditions":[1.5686074E-2,1.2227994E-2,1.9823253E-2,2.9164093E-2,2.8867328E-3,-4.8531007E-2,-1.3564049E-2,-5.019615E-2,-3.0601103E-2],"split_indices":[2275,3486,0,2280,0,5852,0,2147483647,2147483647],"split_type":[0,0,0,0,0,0,0,0,0],"sum_hessian":[9.146621E1,8.609676E1,5.369442E0,8.038126E1,5.7155023E0,7.536861E1,5.012657E0,6.7317314E1,8.051291E0],"tree_param":{"num_deleted":"2","num_feature":"7834","num_nodes":"9","size_leaf_vector":"0"}},{"base_weights":[-7.6246417E-1,-8.750395E-1,9.894421E-2,-9.393738E-1,-4.061466E-2,4.3225044E-1,-2.5240383E-1,-9.879902E-1,-2.355255E-1,-1.0145173E0,-5.462293E-1],"categories":[],"categories_nodes":[],"categories_segments":[],"categories_sizes":[],"default_left":[1,1,1,1,0,0,0,1,0,1,1],"id":50,"left_children":[1,3,5,7,-1,-1,-1,-1,-1,-1,-1],"loss_changes":[8.849808E0,4.2577057E0,1.4374745E0,2.3080597E0,0E0,0E0,0E0,2.56073E-1,0E0,0E0,0E0],"parents":[2147483647,0,0,1,1,2,2,3,3,7,7],"right_children":[2,4,6,8,-1,-1,-1,-1,-1,-1,-1],"split_conditions":[2.2146897E-2,1.2227994E-2,3.3381092E-3,1.6784038E-2,-2.030733E-3,2.1612523E-2,-1.2620191E-2,-4.939951E-2,-1.1776275E-2,-5.0725866E-2,-2.7311465E-2],"split_indices":[2280,3486,2283,5852,0,0,0,1402,0,2147483647,2147483647],"split_type":[0,0,0,0,0,0,0,0,0,0,0],"sum_hessian":[8.9367386E1,7.902409E1,1.034329E1,7.325068E1,5.7734127E0,5.189761E0,5.1535287E0,6.814037E1,5.11031E0,6.305734E1,5.083032E0],"tree_param":{"num_deleted":"2","num_feature":"7834","num_nodes":"11","size_leaf_vector":"0"}},{"base_weights":[-7.7123237E-1,-8.43508E-1,3.2897127E-1,-9.055823E-1,-5.5767734E-2,-9.602858E-1,-1.3531801E-1,-9.9915534E-1,-3.774632E-1],"categories":[],"categories_nodes":[],"categories_segments":[],"categories_sizes":[],"default_left":[1,1,0,1,0,1,0,0,0],"id":51,"left_children":[1,3,-1,5,-1,7,-1,-1,-1],"loss_changes":[7.238247E0,3.9797745E0,0E0,3.0865326E0,0E0,1.2337799E0,0E0,0E0,0E0],"parents":[2147483647,0,0,1,1,3,3,5,5],"right_children":[2,4,-1,6,-1,8,-1,-1,-1],"split_conditions":[1.5686074E-2,9.067793E-3,1.6448563E-2,2.9164093E-2,-2.7883868E-3,1.3810797E-2,-6.7659006E-3,-4.9957767E-2,-1.887316E-2],"split_indices":[2275,3486,0,2280,0,1402,0,0,0],"split_type":[0,0,0,0,0,0,0,0,0],"sum_hessian":[8.653695E1,8.142145E1,5.1155005E0,7.5335396E1,6.0860567E0,7.010957E1,5.225818E0,6.505649E1,5.053083E0],"tree_param":{"num_deleted":"0","num_feature":"7834","num_nodes":"9","size_leaf_vector":"0"}},{"base_weights":[-7.7911603E-1,-8.811821E-1,3.2513984E-2,-9.411233E-1,-5.961831E-2,-9.964933E-1,-2.6604226E-1,-1.0263255E0,-5.4481155E-1],"categories":[],"categories_nodes":[],"categories_segments":[],"categories_sizes":[],"default_left":[1,1,0,1,0,1,0,1,1],"id":52,"left_children":[1,3,-1,5,-1,-1,-1,-1,-1],"loss_changes":[6.9070435E0,3.5778503E0,0E0,2.303112E0,0E0,2.9156494E-1,0E0,0E0,0E0],"parents":[2147483647,0,0,1,1,3,3,5,5],"right_children":[2,4,-1,6,-1,-1,-1,-1,-1],"split_conditions":[2.8392873E-3,5.6893386E-2,1.6256992E-3,1.6868213E-2,-2.9809156E-3,-4.9824666E-2,-1.3302113E-2,-5.1316272E-2,-2.7240578E-2],"split_indices":[2282,3483,0,5852,0,946,0,2147483647,2147483647],"split_type":[0,0,0,0,0,0,0,0,0],"sum_hessian":[8.203236E1,7.279266E1,9.239694E0,6.770722E1,5.0854397E0,6.213483E1,5.5723934E0,5.709186E1,5.0429707E0],"tree_param":{"num_deleted":"2","num_feature":"7834","num_nodes":"9","size_leaf_vector":"0"}},{"base_weights":[-7.267957E-1,-8.3520263E-1,2.173078E-3,-9.1860783E-1,9.0063035E-2,5.4428476E-1,-5.678614E-1,-9.8756534E-1,-3.274101E-1],"categories":[],"categories_nodes":[],"categories_segments":[],"categories_sizes":[],"default_left":[1,1,1,1,0,0,0,0,0],"id":53,"left_children":[1,3,5,7,-1,-1,-1,-1,-1],"loss_changes":[6.4438095E0,5.559429E0,3.878526E0,2.3342361E0,0E0,0E0,0E0,0E0,0E0],"parents":[2147483647,0,0,1,1,2,2,3,3],"right_children":[2,4,6,8,-1,-1,-1,-1,-1],"split_conditions":[2.2146897E-2,1.2227994E-2,7.238821E-3,2.0413343E-3,4.503152E-3,2.7214238E-2,-2.839307E-2,-4.937827E-2,-1.6370505E-2],"split_indices":[2280,3486,2283,5852,0,0,0,0,0],"split_type":[0,0,0,0,0,0,0,0,0],"sum_hessian":[8.0518196E1,6.996742E1,1.05507765E1,6.418854E1,5.778884E0,5.430991E0,5.1197853E0,5.6883213E1,7.305324E0],"tree_param":{"num_deleted":"0","num_feature":"7834","num_nodes":"9","size_leaf_vector":"0"}},{"base_weights":[-7.8464335E-1,-8.448308E-1,-1.655966E-2,-9.04097E-1,-1.1578577E-1,-9.5934457E-1,-2.4983878E-1],"categories":[],"categories_nodes":[],"categories_segments":[],"categories_sizes":[],"default_left":[1,1,0,1,0,0,0],"id":54,"left_children":[1,3,-1,5,-1,-1,-1],"loss_changes":[3.60598E0,3.0319862E0,0E0,2.1817665E0,0E0,0E0,0E0],"parents":[2147483647,0,0,1,1,3,3],"right_children":[2,4,-1,6,-1,-1,-1],"split_conditions":[3.1180557E-2,4.1028835E-2,-8.27983E-4,6.879529E-1,-5.789289E-3,-4.796723E-2,-1.249194E-2],"split_indices":[5852,3311,0,6742,0,0,0],"split_type":[0,0,0,0,0,0,0],"sum_hessian":[7.730524E1,7.159509E1,5.710148E0,6.5990425E1,5.6046686E0,6.0421906E1,5.5685177E0],"tree_param":{"num_deleted":"0","num_feature":"7834","num_nodes":"7","size_leaf_vector":"0"}},{"base_weights":[-7.442113E-1,-8.225262E-1,2.8976893E-1,-9.012429E-1,9.104514E-3,-9.812097E-1,-3.9231476E-1,-1.0106863E0,-5.707102E-1],"categories":[],"categories_nodes":[],"categories_segments":[],"categories_sizes":[],"default_left":[1,1,0,1,0,1,0,1,1],"id":55,"left_children":[1,3,-1,5,-1,-1,-1,-1,-1],"loss_changes":[6.3878784E0,4.646679E0,0E0,2.249771E0,0E0,9.210968E-2,0E0,0E0,0E0],"parents":[2147483647,0,0,1,1,3,3,5,5],"right_children":[2,4,-1,6,-1,-1,-1,-1,-1],"split_conditions":[6.6291047E-3,6.329573E-2,1.44884465E-2,2.0413343E-3,4.5522567E-4,-4.9060486E-2,-1.9615738E-2,-5.0534315E-2,-2.853551E-2],"split_indices":[3479,2282,0,5852,0,946,0,2147483647,2147483647],"split_type":[0,0,0,0,0,0,0,0,0],"sum_hessian":[7.494263E1,6.985614E1,5.086482E0,6.3739292E1,6.1168485E0,5.4282074E1,9.457218E0,4.9281265E1,5.000812E0],"tree_param":{"num_deleted":"2","num_feature":"7834","num_nodes":"9","size_leaf_vector":"0"}},{"base_weights":[-7.435116E-1,-8.448272E-1,-4.896803E-2,-9.1495633E-1,-7.361169E-2,-9.747886E-1,-4.2657E-1],"categories":[],"categories_nodes":[],"categories_segments":[],"categories_sizes":[],"default_left":[1,1,0,1,0,0,0],"id":56,"left_children":[1,3,-1,5,-1,-1,-1],"loss_changes":[5.03384E0,3.3335228E0,0E0,1.2659225E0,0E0,0E0,0E0],"parents":[2147483647,0,0,1,1,3,3],"right_children":[2,4,-1,6,-1,-1,-1],"split_conditions":[2.2146897E-2,1.2227994E-2,-2.4484014E-3,1.9612415E-3,-3.6805847E-3,-4.873943E-2,-2.13285E-2],"split_indices":[2280,3486,0,5852,0,0,0],"split_type":[0,0,0,0,0,0,0],"sum_hessian":[7.11237E1,6.188058E1,9.24312E0,5.655176E1,5.32882E0,4.949249E1,7.05927E0],"tree_param":{"num_deleted":"0","num_feature":"7834","num_nodes":"7","size_leaf_vector":"0"}},{"base_weights":[-7.173585E-1,-8.3532244E-1,-1.74843E-2,-9.068277E-1,-1.0589955E-1,-4.2645082E-1,3.879257E-1,-9.517631E-1,-4.9699607E-1,-9.8748535E-1,-5.46081E-1],"categories":[],"categories_nodes":[],"categories_segments":[],"categories_sizes":[],"default_left":[1,1,1,1,0,0,0,1,1,1,1],"id":57,"left_children":[1,3,5,-1,-1,-1,-1,-1,-1,-1,-1],"loss_changes":[5.801605E0,3.0472717E0,2.019522E0,5.35305E-1,0E0,0E0,0E0,1.5998459E-1,0E0,0E0,0E0],"parents":[2147483647,0,0,1,1,2,2,3,3,7,7],"right_children":[2,4,6,-1,-1,-1,-1,-1,-1,-1,-1],"split_conditions":[2.2146897E-2,1.2227994E-2,1.0372578E-1,-4.5341384E-2,-5.2949777E-3,-2.1322541E-2,1.9396286E-2,-4.7588155E-2,-2.4849804E-2,-4.9374267E-2,-2.7304051E-2],"split_indices":[2280,3486,6967,3561,0,0,0,2147483647,2147483647,2147483647,2147483647],"split_type":[0,0,0,0,0,0,0,0,0,0,0],"sum_hessian":[6.944834E1,5.9265587E1,1.0182755E1,5.3752975E1,5.51261E0,5.0433064E0,5.139449E0,4.7249992E1,6.502985E0,4.2108044E1,5.1419497E0],"tree_param":{"num_deleted":"4","num_feature":"7834","num_nodes":"11","size_leaf_vector":"0"}},{"base_weights":[-6.802185E-1,-8.2481617E-1,1.4141291E-1,-9.014443E-1,-3.6097392E-2,4.832557E-1,-2.2502959E-1,-9.6878153E-1,-3.5467038E-1],"categories":[],"categories_nodes":[],"categories_segments":[],"categories_sizes":[],"default_left":[1,1,1,1,0,0,0,0,0],"id":58,"left_children":[1,3,5,7,-1,-1,-1,-1,-1],"loss_changes":[8.26314E0,3.5003395E0,1.5011024E0,1.616478E0,0E0,0E0,0E0,0E0,0E0],"parents":[2147483647,0,0,1,1,2,2,3,3],"right_children":[2,4,6,8,-1,-1,-1,-1,-1],"split_conditions":[2.32051E-2,1.3281301E-2,3.2497102E-3,1.9096203E-2,-1.8048696E-3,2.4162786E-2,-1.1251479E-2,-4.8439078E-2,-1.773352E-2],"split_indices":[2280,3486,2407,3561,0,0,0,0,0],"split_type":[0,0,0,0,0,0,0,0,0],"sum_hessian":[6.756977E1,5.7454556E1,1.0115216E1,5.2236576E1,5.217978E0,5.0683417E0,5.0468745E0,4.5821655E1,6.4149218E0],"tree_param":{"num_deleted":"0","num_feature":"7834","num_nodes":"9","size_leaf_vector":"0"}},{"base_weights":[-6.490269E-1,-7.434827E-1,4.0240794E-1,-8.187115E-1,9.8199904E-2,-8.897362E-1,-1.0879899E-1,-9.3205947E-1,-4.2663753E-1],"categories":[],"categories_nodes":[],"categories_segments":[],"categories_sizes":[],"default_left":[1,1,0,1,0,1,0,1,1],"id":59,"left_children":[1,3,-1,5,-1,-1,-1,-1,-1],"loss_changes":[7.067461E0,4.0621147E0,0E0,2.8191338E0,0E0,6.3002014E-1,0E0,0E0,0E0],"parents":[2147483647,0,0,1,1,3,3,5,5],"right_children":[2,4,-1,6,-1,-1,-1,-1,-1],"split_conditions":[1.5686074E-2,7.871529E-3,2.0120397E-2,5.1546E-2,4.9099955E-3,-4.448681E-2,-5.4399497E-3,-4.6602976E-2,-2.1331877E-2],"split_indices":[2275,3609,0,3311,0,5852,0,2147483647,2147483647],"split_type":[0,0,0,0,0,0,0,0,0],"sum_hessian":[6.7150154E1,6.188371E1,5.266447E0,5.6831463E1,5.052249E0,5.1432487E1,5.3989754E0,4.6197746E1,5.23474E0],"tree_param":{"num_deleted":"2","num_feature":"7834","num_nodes":"9","size_leaf_vector":"0"}},{"base_weights":[-6.5796006E-1,-7.904161E-1,6.0216174E-2,-8.8921833E-1,1.13624744E-1,-9.6132666E-1,-3.2930893E-1],"categories":[],"categories_nodes":[],"categories_segments":[],"categories_sizes":[],"default_left":[1,1,0,1,0,0,0],"id":60,"left_children":[1,3,-1,5,-1,-1,-1],"loss_changes":[6.20895E0,4.991825E0,0E0,1.6808891E0,0E0,0E0,0E0],"parents":[2147483647,0,0,1,1,3,3],"right_children":[2,4,-1,6,-1,-1,-1],"split_conditions":[2.2146897E-2,1.2227994E-2,3.0108087E-3,1.9096203E-2,5.681237E-3,-4.8066333E-2,-1.6465446E-2],"split_indices":[2280,3486,0,3561,0,0,0],"split_type":[0,0,0,0,0,0,0],"sum_hessian":[6.376989E1,5.3755047E1,1.0014844E1,4.847377E1,5.2812777E0,4.2308147E1,6.165619E0],"tree_param":{"num_deleted":"0","num_feature":"7834","num_nodes":"7","size_leaf_vector":"0"}},{"base_weights":[-7.029706E-1,-8.086339E-1,5.5633448E-2,-9.17721E-1,-2.4122712E-1,-1.0160538E0,-6.9737434E-1,-8.427194E-1,-3.191157E-1],"categories":[],"categories_nodes":[],"categories_segments":[],"categories_sizes":[],"default_left":[1,1,0,1,0,1,1,1,1],"id":61,"left_children":[1,3,-1,-1,-1,-1,-1,-1,-1],"loss_changes":[5.0293922E0,3.1609917E0,0E0,2.7679443E-1,0E0,0E0,6.7784405E-1,0E0,0E0],"parents":[2147483647,0,0,1,1,3,3,6,6],"right_children":[2,4,-1,-1,-1,-1,-1,-1,-1],"split_conditions":[1.8188985E-2,2.0413343E-3,2.7816724E-3,-4.588605E-2,-1.2061357E-2,-5.080269E-2,-3.4868717E-2,-4.213597E-2,-1.5955785E-2],"split_indices":[3646,5852,0,6967,0,2147483647,2147483647,2147483647,2147483647],"split_type":[0,0,0,0,0,0,0,0,0],"sum_hessian":[6.1183365E1,5.3645344E1,7.538022E0,4.4477E1,9.168341E0,2.8256142E1,1.622086E1,1.0831131E1,5.3897285E0],"tree_param":{"num_deleted":"4","num_feature":"7834","num_nodes":"9","size_leaf_vector":"0"}},{"base_weights":[-6.1434495E-1,-7.172828E-1,4.666943E-1,-8.129154E-1,4.458375E-2,-9.0647227E-1,-3.1635773E-1,-1.0009009E0,-6.8275404E-1,-2.5930625E-1,-8.5682523E-1],"categories":[],"categories_nodes":[],"categories_segments":[],"categories_sizes":[],"default_left":[1,1,0,1,0,1,0,1,1,1,1],"id":62,"left_children":[1,3,-1,5,-1,-1,-1,-1,-1,-1,-1],"loss_changes":[7.250454E0,4.1992683E0,0E0,2.0740318E0,0E0,2.0864868E-1,0E0,0E0,9.334998E-1,0E0,0E0],"parents":[2147483647,0,0,1,1,3,3,5,5,8,8],"right_children":[2,4,-1,6,-1,-1,-1,-1,-1,-1,-1],"split_conditions":[1.5686074E-2,1.2227994E-2,2.3334716E-2,1.0969108E-2,2.2291874E-3,-4.5323614E-2,-1.5817886E-2,-5.0045043E-2,-3.4137703E-2,-1.2965313E-2,-4.2841263E-2],"split_indices":[2275,3486,0,2407,0,6967,0,2147483647,2147483647,2147483647,2147483647],"split_type":[0,0,0,0,0,0,0,0,0,0,0],"sum_hessian":[6.1146954E1,5.6137924E1,5.009031E0,4.9817608E1,6.3203154E0,4.122488E1,8.592728E0,2.6546148E1,1.4678731E1,5.001551E0,9.677179E0],"tree_param":{"num_deleted":"4","num_feature":"7834","num_nodes":"11","size_leaf_vector":"0"}},{"base_weights":[-6.188692E-1,-7.649683E-1,1.2212395E-1,-8.7090987E-1,1.0722174E-1,-9.4956493E-1,-2.0597696E-1],"categories":[],"categories_nodes":[],"categories_segments":[],"categories_sizes":[],"default_left":[1,1,0,1,0,0,0],"id":63,"left_children":[1,3,-1,5,-1,-1,-1],"loss_changes":[6.5579205E0,4.7149906E0,0E0,2.1427078E0,0E0,0E0,0E0],"parents":[2147483647,0,0,1,1,3,3],"right_children":[2,4,-1,6,-1,-1,-1],"split_conditions":[2.2146897E-2,1.2227994E-2,6.1061974E-3,5.7914476E-3,5.361087E-3,-4.7478247E-2,-1.0298848E-2],"split_indices":[2280,3486,0,5852,0,0,0],"split_type":[0,0,0,0,0,0,0],"sum_hessian":[5.8713596E1,4.901677E1,9.696826E0,4.3709064E1,5.307705E0,3.870284E1,5.0062275E0],"tree_param":{"num_deleted":"0","num_feature":"7834","num_nodes":"7","size_leaf_vector":"0"}},{"base_weights":[-6.1394095E-1,-7.79919E-1,-1.7168006E-3,-8.6244935E-1,-1.7299993E-1,4.6267852E-1,-6.051707E-1,-9.873389E-1,-6.6006166E-1,-4.2723554E-1,-9.1909546E-1,-6.239383E-1,-1.5114965E-1],"categories":[],"categories_nodes":[],"categories_segments":[],"categories_sizes":[],"default_left":[1,1,1,1,0,0,0,1,1,1,1,1,1],"id":64,"left_children":[1,3,5,-1,-1,-1,-1,-1,-1,-1,-1,-1,-1],"loss_changes":[5.832306E0,2.1129417E0,3.9922419E0,3.4683228E-1,0E0,0E0,0E0,0E0,6.984601E-1,5.246084E-1,0E0,0E0,0E0],"parents":[2147483647,0,0,1,1,2,2,3,3,8,8,9,9],"right_children":[2,4,6,-1,-1,-1,-1,-1,-1,-1,-1,-1,-1],"split_conditions":[2.0413343E-3,3.146574E-2,4.7353793E-2,-4.3122467E-2,-8.6499965E-3,2.3133926E-2,-3.0258536E-2,-4.9366947E-2,-3.3003084E-2,-2.1361778E-2,-4.5954775E-2,-3.1196916E-2,-7.5574825E-3],"split_indices":[5852,2280,6621,6148,0,0,0,2147483647,2147483647,2147483647,2147483647,2147483647,2147483647],"split_type":[0,0,0,0,0,0,0,0,0,0,0,0,0],"sum_hessian":[5.6408867E1,4.416227E1,1.2246597E1,3.850521E1,5.65706E0,7.0525246E0,5.194073E0,2.1413124E1,1.7092087E1,1.0396653E1,6.6954336E0,5.3354006E0,5.061252E0],"tree_param":{"num_deleted":"6","num_feature":"7834","num_nodes":"13","size_leaf_vector":"0"}},{"base_weights":[-5.864769E-1,-7.465014E-1,1.2902357E-1,-8.51583E-1,-3.7216585E-2,4.0754056E-1,-1.7701699E-1,-9.371341E-1,-2.5133932E-1],"categories":[],"categories_nodes":[],"categories_segments":[],"categories_sizes":[],"default_left":[1,1,1,1,0,0,0,0,0],"id":65,"left_children":[1,3,5,7,-1,-1,-1,-1,-1],"loss_changes":[6.5488777E0,3.4119034E0,1.0227976E0,1.8285351E0,0E0,0E0,0E0,0E0,0E0],"parents":[2147483647,0,0,1,1,2,2,3,3],"right_children":[2,4,6,8,-1,-1,-1,-1,-1],"split_conditions":[2.2146897E-2,9.75038E-3,9.7487256E-2,2.0413343E-3,-1.8608293E-3,2.0377029E-2,-8.850849E-3,-4.6856705E-2,-1.2566966E-2],"split_indices":[2280,3483,2282,5852,0,0,0,0,0],"split_type":[0,0,0,0,0,0,0,0,0],"sum_hessian":[5.5355446E1,4.5202423E1,1.0153025E1,3.9195E1,6.007422E0,5.1419015E0,5.0111227E0,3.381429E1,5.380714E0],"tree_param":{"num_deleted":"0","num_feature":"7834","num_nodes":"9","size_leaf_vector":"0"}},{"base_weights":[-5.811744E-1,-7.217592E-1,1.9553587E-1,-8.248793E-1,-1.2405033E-2,-9.643284E-1,-1.206272E-1],"categories":[],"categories_nodes":[],"categories_segments":[],"categories_sizes":[],"default_left":[1,1,0,1,0,0,0],"id":66,"left_children":[1,3,-1,5,-1,-1,-1],"loss_changes":[6.020052E0,3.3400593E0,0E0,3.8092918E0,0E0,0E0,0E0],"parents":[2147483647,0,0,1,1,3,3],"right_children":[2,4,-1,6,-1,-1,-1],"split_conditions":[2.2448635E-2,1.2227994E-2,9.776793E-3,2.0413343E-3,-6.202517E-4,-4.821642E-2,-6.03136E-3],"split_indices":[2282,3486,0,5852,0,0,0],"split_type":[0,0,0,0,0,0,0],"sum_hessian":[5.2839405E1,4.4801132E1,8.038273E0,3.8972736E1,5.8283954E0,3.2222965E1,6.7497706E0],"tree_param":{"num_deleted":"0","num_feature":"7834","num_nodes":"7","size_leaf_vector":"0"}},{"base_weights":[-5.988668E-1,-7.634007E-1,1.0708672E-1,-8.422557E-1,-1.4141458E-1,-9.5814115E-1,-1.9922325E-1],"categories":[],"categories_nodes":[],"categories_segments":[],"categories_sizes":[],"default_left":[1,1,0,1,0,0,0],"id":67,"left_children":[1,3,-1,5,-1,-1,-1],"loss_changes":[6.2297726E0,1.9922924E0,0E0,2.6410542E0,0E0,0E0,0E0],"parents":[2147483647,0,0,1,1,3,3],"right_children":[2,4,-1,6,-1,-1,-1],"split_conditions":[2.32051E-2,1.8841809E-2,5.354336E-3,2.0413343E-3,-7.070729E-3,-4.790706E-2,-9.961163E-3],"split_indices":[2280,3486,0,5852,0,0,0],"split_type":[0,0,0,0,0,0,0],"sum_hessian":[5.193025E1,4.2048737E1,9.881515E0,3.7003338E1,5.045398E0,3.0937784E1,6.0655537E0],"tree_param":{"num_deleted":"0","num_feature":"7834","num_nodes":"7","size_leaf_vector":"0"}},{"base_weights":[-6.3814294E-1,-7.686433E-1,1.2885572E-1,-8.9128697E-1,-3.0487633E-1],"categories":[],"categories_nodes":[],"categories_segments":[],"categories_sizes":[],"default_left":[1,1,0,0,0],"id":68,"left_children":[1,3,-1,-1,-1],"loss_changes":[5.1379566E0,2.1834412E0,0E0,0E0,0E0],"parents":[2147483647,0,0,1,1],"right_children":[2,4,-1,-1,-1],"split_conditions":[3.0603673E-2,2.0413343E-3,6.442786E-3,-4.4564348E-2,-1.5243816E-2],"split_indices":[2282,5852,0,0,0],"split_type":[0,0,0,0,0],"sum_hessian":[4.9341972E1,4.2165596E1,7.1763773E0,3.2617916E1,9.547681E0],"tree_param":{"num_deleted":"0","num_feature":"7834","num_nodes":"5","size_leaf_vector":"0"}},{"base_weights":[-5.2753305E-1,-6.473244E-1,3.4456915E-1,-7.526381E-1,1.06587976E-1,-8.914383E-1,-1.8010852E-1,-9.5581585E-1,-5.052441E-1,-5.994728E-1,-1.0446846E0],"categories":[],"categories_nodes":[],"categories_segments":[],"categories_sizes":[],"default_left":[1,1,0,1,0,1,0,1,1,1,1],"id":69,"left_children":[1,3,-1,5,-1,-1,-1,-1,-1,-1,-1],"loss_changes":[5.48207E0,3.621952E0,0E0,2.9596672E0,0E0,2.9649925E-1,0E0,1.8915367E-1,0E0,0E0,0E0],"parents":[2147483647,0,0,1,1,3,3,5,5,7,7],"right_children":[2,4,-1,6,-1,-1,-1,-1,-1,-1,-1],"split_conditions":[6.611527E-1,5.7595905E-2,1.7228458E-2,7.590696E-2,5.329399E-3,-4.4571918E-2,-9.005426E-3,-4.779079E-2,-2.5262205E-2,-2.9973641E-2,-5.2234232E-2],"split_indices":[6742,2282,0,6148,0,979,0,2147483647,2147483647,2147483647,2147483647],"split_type":[0,0,0,0,0,0,0,0,0,0,0],"sum_hessian":[4.933988E1,4.36077E1,5.73218E0,3.826427E1,5.3434305E0,3.0349522E1,7.914748E0,2.4748972E1,5.6005497E0,6.4862466E0,1.8262726E1],"tree_param":{"num_deleted":"4","num_feature":"7834","num_nodes":"11","size_leaf_vector":"0"}},{"base_weights":[-6.289254E-1,-7.660663E-1,2.4314964E-2,-8.5701513E-1,-2.877891E-1,-4.0594536E-1,-9.596541E-1,-1.0363278E0,-6.242005E-1],"categories":[],"categories_nodes":[],"categories_segments":[],"categories_sizes":[],"default_left":[1,1,0,1,0,0,1,1,1],"id":70,"left_children":[1,3,-1,5,-1,-1,-1,-1,-1],"loss_changes":[4.387169E0,1.5078087E0,0E0,1.1559982E0,0E0,0E0,3.3742905E-2,0E0,0E0],"parents":[2147483647,0,0,1,1,3,3,6,6],"right_children":[2,4,-1,6,-1,-1,-1,-1,-1],"split_conditions":[4.243421E-3,2.7628489E-2,1.2157483E-3,4.4933724E-5,-1.4389455E-2,-2.0297268E-2,-4.7982704E-2,-5.1816393E-2,-3.1210026E-2],"split_indices":[5561,979,0,7455,0,0,6742,2147483647,2147483647],"split_type":[0,0,0,0,0,0,0,0,0],"sum_hessian":[4.7763668E1,3.9333332E1,8.430338E0,3.2383442E1,6.949888E0,6.9213066E0,2.5462135E1,1.9024437E1,6.437698E0],"tree_param":{"num_deleted":"2","num_feature":"7834","num_nodes":"9","size_leaf_vector":"0"}},{"base_weights":[-4.9663642E-1,-6.5828174E-1,1.2193246E-1,-7.576741E-1,-8.611515E-3,-8.467585E-1,-2.1958938E-1,-9.8251265E-1,-5.8887064E-1,-8.8956064E-1,-2.139373E-1],"categories":[],"categories_nodes":[],"categories_segments":[],"categories_sizes":[],"default_left":[1,1,0,1,0,1,0,0,1,0,0],"id":71,"left_children":[1,3,-1,5,-1,7,-1,-1,9,-1,-1],"loss_changes":[4.8251247E0,2.432928E0,0E0,1.3841381E0,0E0,3.9299774E-1,0E0,0E0,1.170064E0,0E0,0E0],"parents":[2147483647,0,0,1,1,3,3,5,5,8,8],"right_children":[2,4,-1,6,-1,8,-1,-1,10,-1,-1],"split_conditions":[2.2146897E-2,1.8084047E-2,6.0966234E-3,7.831127E-3,-4.3057578E-4,3.860078E-2,-1.0979469E-2,-4.9125634E-2,1.927722E-2,-4.4478033E-2,-1.0696865E-2],"split_indices":[2280,3646,0,1415,0,6148,0,0,7455,0,0],"split_type":[0,0,0,0,0,0,0,0,0,0,0],"sum_hessian":[4.645391E1,3.6778656E1,9.675254E0,3.1754349E1,5.024308E0,2.6751726E1,5.002623E0,1.5685115E1,1.106661E1,5.3796453E0,5.686965E0],"tree_param":{"num_deleted":"0","num_feature":"7834","num_nodes":"11","size_leaf_vector":"0"}},{"base_weights":[-5.038901E-1,-6.1683154E-1,3.0657277E-1,-7.272049E-1,1.265731E-1,-8.807847E-1,-1.2137992E-1,-9.547864E-1,-4.4443393E-1,-6.026668E-1,-1.0441241E0],"categories":[],"categories_nodes":[],"categories_segments":[],"categories_sizes":[],"default_left":[1,1,0,1,0,1,0,1,1,1,1],"id":72,"left_children":[1,3,-1,5,-1,-1,-1,-1,-1,-1,-1],"loss_changes":[4.4391136E0,3.4630394E0,0E0,3.2352448E0,0E0,4.9582863E-1,0E0,1.097908E-1,0E0,0E0,0E0],"parents":[2147483647,0,0,1,1,3,3,5,5,7,7],"right_children":[2,4,-1,6,-1,-1,-1,-1,-1,-1,-1],"split_conditions":[6.611527E-1,5.7595905E-2,1.5328638E-2,7.579795E-2,6.328655E-3,-4.4039235E-2,-6.068996E-3,-4.7739323E-2,-2.2221697E-2,-3.013334E-2,-5.2206207E-2],"split_indices":[6742,2282,0,6148,0,979,0,2147483647,2147483647,2147483647,2147483647],"split_type":[0,0,0,0,0,0,0,0,0,0,0],"sum_hessian":[4.543052E1,4.008361E1,5.346908E0,3.492072E1,5.1628914E0,2.7496382E1,7.424335E0,2.2493536E1,5.002847E0,6.1195602E0,1.6373974E1],"tree_param":{"num_deleted":"4","num_feature":"7834","num_nodes":"11","size_leaf_vector":"0"}},{"base_weights":[-5.1105326E-1,-6.229607E-1,2.7923876E-1,-7.4854636E-1,2.3472835E-1,-8.755713E-1,-1.7638369E-1,-1.001451E0,-5.6123215E-1],"categories":[],"categories_nodes":[],"categories_segments":[],"categories_sizes":[],"default_left":[1,1,0,1,0,1,0,1,1],"id":73,"left_children":[1,3,-1,5,-1,-1,-1,-1,-1],"loss_changes":[4.2865906E0,4.5966587E0,0E0,2.4649277E0,0E0,5.949631E-1,0E0,0E0,0E0],"parents":[2147483647,0,0,1,1,3,3,5,5],"right_children":[2,4,-1,6,-1,-1,-1,-1,-1],"split_conditions":[6.611527E-1,3.001158E-2,1.3961938E-2,8.444762E-3,1.1736418E-2,-4.3778565E-2,-8.819184E-3,-5.007255E-2,-2.8061608E-2],"split_indices":[6742,5852,0,5778,0,6967,0,2147483647,2147483647],"split_type":[0,0,0,0,0,0,0,0,0],"sum_hessian":[4.550222E1,4.0043663E1,5.458556E0,3.5040215E1,5.0034504E0,2.8240335E1,6.7998776E0,1.8604225E1,9.636111E0],"tree_param":{"num_deleted":"2","num_feature":"7834","num_nodes":"9","size_leaf_vector":"0"}},{"base_weights":[-4.497958E-1,-6.1109245E-1,1.12016626E-1,-7.6913035E-1,6.0820274E-2,-8.830529E-1,-3.768861E-1,-1.0487325E0,-5.3665006E-1],"categories":[],"categories_nodes":[],"categories_segments":[],"categories_sizes":[],"default_left":[1,1,0,1,0,1,1,1,1],"id":74,"left_children":[1,3,-1,-1,-1,-1,-1,-1,-1],"loss_changes":[4.166438E0,3.7941437E0,0E0,9.47134E-1,0E0,6.68375E-1,0E0,0E0,0E0],"parents":[2147483647,0,0,1,1,3,3,5,5],"right_children":[2,4,-1,-1,-1,-1,-1,-1,-1],"split_conditions":[6.557448E-3,6.1730747E-3,5.6008315E-3,-3.845652E-2,3.0410138E-3,-4.4152644E-2,-1.8844305E-2,-5.2436627E-2,-2.6832504E-2],"split_indices":[5852,5913,0,1956,0,2147483647,2147483647,2147483647,2147483647],"split_type":[0,0,0,0,0,0,0,0,0],"sum_hessian":[4.4222412E1,3.4290016E1,9.932396E0,2.7643429E1,6.6465874E0,2.0452085E1,7.1913424E0,1.2463481E1,7.988605E0],"tree_param":{"num_deleted":"4","num_feature":"7834","num_nodes":"9","size_leaf_vector":"0"}},{"base_weights":[-4.1011697E-1,-5.391861E-1,4.5955145E-1,-7.0054775E-1,3.5011217E-1,-8.4479386E-1,-7.9381496E-2,-9.027962E-1,-4.8874527E-1,-1.0141919E0,-5.9720093E-1],"categories":[],"categories_nodes":[],"categories_segments":[],"categories_sizes":[],"default_left":[1,1,0,1,0,1,0,1,1,1,1],"id":75,"left_children":[1,3,-1,5,-1,-1,-1,-1,-1,-1,-1],"loss_changes":[5.291755E0,5.926259E0,0E0,2.965231E0,0E0,1.2380791E-1,0E0,1.5507889E-1,0E0,0E0,0E0],"parents":[2147483647,0,0,1,1,3,3,5,5,7,7],"right_children":[2,4,-1,6,-1,-1,-1,-1,-1,-1,-1],"split_conditions":[6.6291047E-3,1.4588859E-2,2.2977574E-2,1.0969108E-2,1.7505608E-2,-4.2239692E-2,-3.9690747E-3,-4.5139812E-2,-2.4437264E-2,-5.0709594E-2,-2.9860048E-2],"split_indices":[3479,5852,0,2407,0,6742,0,2147483647,2147483647,2147483647,2147483647],"split_type":[0,0,0,0,0,0,0,0,0,0,0],"sum_hessian":[4.3936222E1,3.858914E1,5.347078E0,3.2842224E1,5.746918E0,2.6360764E1,6.481461E0,2.134753E1,5.013233E0,1.3945408E1,7.402122E0],"tree_param":{"num_deleted":"4","num_feature":"7834","num_nodes":"11","size_leaf_vector":"0"}},{"base_weights":[-4.188775E-1,-5.5300814E-1,4.8109287E-1,-7.163409E-1,2.9057634E-1,-8.63606E-1,-1.784505E-1,-9.6485126E-1,-5.068988E-1],"categories":[],"categories_nodes":[],"categories_segments":[],"categories_sizes":[],"default_left":[1,1,0,1,0,1,0,1,1],"id":76,"left_children":[1,3,-1,5,-1,-1,-1,-1,-1],"loss_changes":[5.605924E0,5.576723E0,0E0,2.4544907E0,0E0,4.3520737E-1,0E0,0E0,0E0],"parents":[2147483647,0,0,1,1,3,3,5,5],"right_children":[2,4,-1,6,-1,-1,-1,-1,-1],"split_conditions":[6.6291047E-3,1.4938684E-2,2.4054645E-2,2.2146897E-2,1.45288175E-2,-4.3180298E-2,-8.922525E-3,-4.8242565E-2,-2.5344942E-2],"split_indices":[3479,5852,0,2280,0,5778,0,2147483647,2147483647],"split_type":[0,0,0,0,0,0,0,0,0],"sum_hessian":[4.323591E1,3.796341E1,5.2725005E0,3.193171E1,6.0317E0,2.459302E1,7.3386884E0,1.7827972E1,6.7650485E0],"tree_param":{"num_deleted":"2","num_feature":"7834","num_nodes":"9","size_leaf_vector":"0"}},{"base_weights":[-4.2189512E-1,-5.4987353E-1,3.636275E-1,-7.5169504E-1,1.5533377E-1,-8.611242E-1,-2.1054032E-1],"categories":[],"categories_nodes":[],"categories_segments":[],"categories_sizes":[],"default_left":[1,1,0,1,0,0,0],"id":77,"left_children":[1,3,-1,5,-1,-1,-1],"loss_changes":[4.4850855E0,5.3902054E0,0E0,1.5347652E0,0E0,0E0,0E0],"parents":[2147483647,0,0,1,1,3,3],"right_children":[2,4,-1,6,-1,-1,-1],"split_conditions":[6.6291047E-3,2.9164093E-2,1.8181374E-2,8.427033E-3,7.7666887E-3,-4.3056212E-2,-1.0527017E-2],"split_indices":[3479,2280,0,5778,0,0,0],"split_type":[0,0,0,0,0,0,0],"sum_hessian":[4.1625473E1,3.6051846E1,5.573626E0,2.7978756E1,8.07309E0,2.2780867E1,5.1978893E0],"tree_param":{"num_deleted":"0","num_feature":"7834","num_nodes":"7","size_leaf_vector":"0"}},{"base_weights":[-4.4171447E-1,-5.886886E-1,5.250065E-1,-9.849913E-1,-2.1874681E-1,-2.8738884E-2,-6.553717E-1,-5.0658137E-1,2.5845507E-1],"categories":[],"categories_nodes":[],"categories_segments":[],"categories_sizes":[],"default_left":[1,1,0,0,1,1,0,0,0],"id":78,"left_children":[1,3,-1,-1,5,7,-1,-1,-1],"loss_changes":[6.2063217E0,5.135709E0,0E0,0E0,1.6539434E0,2.2024848E0,0E0,0E0,0E0],"parents":[2147483647,0,0,1,1,4,4,5,5],"right_children":[2,4,-1,-1,6,8,-1,-1,-1],"split_conditions":[6.6038346E-1,9.571341E-2,2.6250323E-2,-4.9249567E-2,8.498857E-3,3.2002047E-2,-3.276859E-2,-2.5329068E-2,1.2922754E-2],"split_indices":[6742,6967,0,0,7043,6148,0,0,0],"split_type":[0,0,0,0,0,0,0,0,0],"sum_hessian":[4.0505726E1,3.5499634E1,5.0060935E0,1.6336494E1,1.916314E1,1.4095124E1,5.0680146E0,5.004529E0,9.090595E0],"tree_param":{"num_deleted":"0","num_feature":"7834","num_nodes":"9","size_leaf_vector":"0"}},{"base_weights":[-3.8472268E-1,-5.2677226E-1,4.1049075E-1,-7.2050273E-1,7.955866E-2,-8.007328E-1,-3.0925035E-1,-1.027427E0,-4.0228525E-1],"categories":[],"categories_nodes":[],"categories_segments":[],"categories_sizes":[],"default_left":[1,1,0,1,0,1,0,0,0],"id":79,"left_children":[1,3,-1,5,-1,7,-1,-1,-1],"loss_changes":[4.851175E0,4.19808E0,0E0,6.371174E-1,0E0,1.5565224E0,0E0,0E0,0E0],"parents":[2147483647,0,0,1,1,3,3,5,5],"right_children":[2,4,-1,6,-1,8,-1,-1,-1],"split_conditions":[1.8188985E-2,2.0413343E-3,2.0524537E-2,5.002001E-3,3.9779334E-3,1.8446456E-1,-1.5462518E-2,-5.1371347E-2,-2.0114264E-2],"split_indices":[3646,5852,0,5913,0,6967,0,0,0],"split_type":[0,0,0,0,0,0,0,0,0],"sum_hessian":[4.0031784E1,3.4251064E1,5.7807226E0,2.5814653E1,8.436411E0,2.0808184E1,5.006469E0,1.2256406E1,8.551778E0],"tree_param":{"num_deleted":"0","num_feature":"7834","num_nodes":"9","size_leaf_vector":"0"}},{"base_weights":[-3.8533542E-1,-5.1308787E-1,4.083769E-1,-9.0107536E-1,-1.4734499E-1,-1.0495169E0,-4.562986E-1,-3.5691062E-1,1.9528526E-1,2.9418109E-2,-6.115896E-1],"categories":[],"categories_nodes":[],"categories_segments":[],"categories_sizes":[],"default_left":[1,1,0,1,1,1,1,1,0,0,0],"id":80,"left_children":[1,3,-1,-1,7,-1,-1,9,-1,-1,-1],"loss_changes":[4.4542794E0,5.0469074E0,0E0,6.7760944E-1,1.5046782E0,0E0,0E0,1.272851E0,0E0,0E0,0E0],"parents":[2147483647,0,0,1,1,3,3,4,4,7,7],"right_children":[2,4,-1,-1,8,-1,-1,10,-1,-1,-1],"split_conditions":[6.611527E-1,9.571341E-2,2.0418845E-2,-4.505377E-2,3.5173202E-1,-5.2475847E-2,-2.281493E-2,1.6172624E-1,9.764263E-3,1.4709055E-3,-3.0579481E-2],"split_indices":[6742,6967,0,5561,6742,2147483647,2147483647,6742,0,0,0],"split_type":[0,0,0,0,0,0,0,0,0,0,0],"sum_hessian":[4.0861946E1,3.550136E1,5.360584E0,1.6516567E1,1.8984797E1,1.1364188E1,5.152378E0,1.1753955E1,7.230842E0,5.0213842E0,6.7325706E0],"tree_param":{"num_deleted":"2","num_feature":"7834","num_nodes":"11","size_leaf_vector":"0"}},{"base_weights":[-4.4137573E-1,-6.3219655E-1,2.4298736E-1,-7.94324E-1,-1.1520099E-1,-3.829758E-1,-9.7837555E-1],"categories":[],"categories_nodes":[],"categories_segments":[],"categories_sizes":[],"default_left":[1,1,0,1,0,0,0],"id":81,"left_children":[1,3,-1,5,-1,-1,-1],"loss_changes":[5.309936E0,2.5197277E0,0E0,1.4079828E0,0E0,0E0,0E0],"parents":[2147483647,0,0,1,1,3,3],"right_children":[2,4,-1,6,-1,-1,-1],"split_conditions":[2.2448635E-2,1.6029932E-2,1.2149368E-2,3.2954465E-4,-5.7600494E-3,-1.914879E-2,-4.891878E-2],"split_indices":[2282,1492,0,5778,0,0,0],"split_type":[0,0,0,0,0,0,0],"sum_hessian":[3.848458E1,3.0153198E1,8.331384E0,2.2546345E1,7.6068535E0,7.9219356E0,1.462441E1],"tree_param":{"num_deleted":"0","num_feature":"7834","num_nodes":"7","size_leaf_vector":"0"}},{"base_weights":[-4.3251982E-1,-6.4095765E-1,2.1064731E-1,-7.7232057E-1,1.9503813E-3,-9.10414E-1,-2.707131E-1],"categories":[],"categories_nodes":[],"categories_segments":[],"categories_sizes":[],"default_left":[1,1,0,1,0,0,0],"id":82,"left_children":[1,3,-1,5,-1,-1,-1],"loss_changes":[5.3264055E0,2.4923592E0,0E0,1.450079E0,0E0,0E0,0E0],"parents":[2147483647,0,0,1,1,3,3],"right_children":[2,4,-1,6,-1,-1,-1],"split_conditions":[2.2146897E-2,2.6849157E-3,1.0532366E-2,1.6029932E-2,9.751907E-5,-4.55207E-2,-1.3535655E-2],"split_indices":[2280,3483,0,1492,0,0,0],"split_type":[0,0,0,0,0,0,0],"sum_hessian":[3.7724262E1,2.849351E1,9.230753E0,2.3492155E1,5.0013533E0,1.7781801E1,5.710354E0],"tree_param":{"num_deleted":"0","num_feature":"7834","num_nodes":"7","size_leaf_vector":"0"}},{"base_weights":[-3.1049052E-1,-5.041852E-1,2.3461993E-1,-6.8012995E-1,2.6305312E-1,-8.512131E-1,-1.0634514E-1],"categories":[],"categories_nodes":[],"categories_segments":[],"categories_sizes":[],"default_left":[1,1,0,1,0,0,0],"id":83,"left_children":[1,3,-1,5,-1,-1,-1],"loss_changes":[4.207533E0,4.079242E0,0E0,2.2440567E0,0E0,0E0,0E0],"parents":[2147483647,0,0,1,1,3,3],"right_children":[2,4,-1,6,-1,-1,-1],"split_conditions":[2.2146897E-2,1.2227994E-2,1.1730997E-2,1.6029932E-2,1.3152656E-2,-4.2560656E-2,-5.3172573E-3],"split_indices":[2280,3486,0,1492,0,0,0],"split_type":[0,0,0,0,0,0,0],"sum_hessian":[3.7729378E1,2.789315E1,9.836226E0,2.2782219E1,5.1109324E0,1.7177088E1,5.6051297E0],"tree_param":{"num_deleted":"0","num_feature":"7834","num_nodes":"7","size_leaf_vector":"0"}},{"base_weights":[-3.8068515E-1,-7.127475E-1,-3.6258385E-2,-8.9249176E-1,-1.5818961E-1,1.2911923E-1,-3.670309E-1,3.5895666E-1,-1.8649355E-1],"categories":[],"categories_nodes":[],"categories_segments":[],"categories_sizes":[],"default_left":[1,1,1,0,0,1,0,0,0],"id":84,"left_children":[1,3,5,-1,-1,7,-1,-1,-1],"loss_changes":[4.385481E0,1.8109226E0,1.1406854E0,0E0,0E0,1.0871513E0,0E0,0E0,0E0],"parents":[2147483647,0,0,1,1,2,2,5,5],"right_children":[2,4,6,-1,-1,8,-1,-1,-1],"split_conditions":[9.571341E-2,5.846424E-1,2.1858577E-2,-4.462459E-2,-7.9094805E-3,2.7650356E-2,-1.8351546E-2,1.7947834E-2,-9.324677E-3],"split_indices":[6967,6742,7801,0,0,7455,0,0,0],"split_type":[0,0,0,0,0,0,0,0,0],"sum_hessian":[3.757024E1,1.8584003E1,1.8986238E1,1.3574755E1,5.009248E0,1.3064149E1,5.9220896E0,7.479818E0,5.5843306E0],"tree_param":{"num_deleted":"0","num_feature":"7834","num_nodes":"9","size_leaf_vector":"0"}},{"base_weights":[-3.3600536E-1,-4.8698238E-1,4.8706704E-1,-7.276044E-1,1.7290053E-1,-8.545472E-1,-2.8373998E-1],"categories":[],"categories_nodes":[],"categories_segments":[],"categories_sizes":[],"default_left":[1,1,0,1,0,0,0],"id":85,"left_children":[1,3,-1,5,-1,-1,-1],"loss_changes":[4.8510766E0,5.186895E0,0E0,1.0844259E0,0E0,0E0,0E0],"parents":[2147483647,0,0,1,1,3,3],"right_children":[2,4,-1,6,-1,-1,-1],"split_conditions":[6.6291047E-3,2.2146897E-2,2.4353353E-2,1.6029932E-2,8.645027E-3,-4.2727362E-2,-1.4187E-2],"split_indices":[3479,2280,0,1492,0,0,0],"split_type":[0,0,0,0,0,0,0],"sum_hessian":[3.6129383E1,3.0874395E1,5.2549863E0,2.2549309E1,8.325087E0,1.6815052E1,5.7342563E0],"tree_param":{"num_deleted":"0","num_feature":"7834","num_nodes":"7","size_leaf_vector":"0"}},{"base_weights":[-3.3776662E-1,-4.7921968E-1,3.4935844E-1,-6.4392823E-1,1.4595595E-2,-7.7593815E-1,-2.5405294E-1,-1.051658E0,-4.4328567E-1],"categories":[],"categories_nodes":[],"categories_segments":[],"categories_sizes":[],"default_left":[1,1,0,1,0,1,0,0,0],"id":86,"left_children":[1,3,-1,5,-1,7,-1,-1,-1],"loss_changes":[3.7695394E0,2.5434213E0,0E0,1.0064287E0,0E0,1.0914688E0,0E0,0E0,0E0],"parents":[2147483647,0,0,1,1,3,3,5,5],"right_children":[2,4,-1,6,-1,8,-1,-1,-1],"split_conditions":[1.8188985E-2,2.0413343E-3,1.7467922E-2,6.19201E-3,7.297798E-4,2.8998888E-1,-1.2702647E-2,-5.25829E-2,-2.2164283E-2],"split_indices":[3646,5852,0,6477,0,6742,0,0,0],"split_type":[0,0,0,0,0,0,0,0,0],"sum_hessian":[3.6060387E1,3.0155151E1,5.9052334E0,2.2384857E1,7.770295E0,1.5982902E1,6.401955E0,7.557454E0,8.425447E0],"tree_param":{"num_deleted":"0","num_feature":"7834","num_nodes":"9","size_leaf_vector":"0"}},{"base_weights":[-2.8582478E-1,-4.2220792E-1,4.7958606E-1,-8.466884E-1,-5.884394E-2,-5.899667E-1,-1.0137806E0,2.2810246E-1,-4.9634907E-1,5.741753E-1,-1.5324043E-1],"categories":[],"categories_nodes":[],"categories_segments":[],"categories_sizes":[],"default_left":[1,1,0,1,1,1,1,1,0,0,0],"id":87,"left_children":[1,3,-1,-1,7,-1,-1,9,-1,-1,-1],"loss_changes":[4.025238E0,4.826312E0,0E0,2.4154663E-2,2.386478E0,0E0,0E0,1.6215912E0,0E0,0E0,0E0],"parents":[2147483647,0,0,1,1,3,3,4,4,7,7],"right_children":[2,4,-1,-1,8,-1,-1,10,-1,-1,-1],"split_conditions":[6.522978E-1,9.571341E-2,2.3979304E-2,-4.233442E-2,2.7650356E-2,-2.9498337E-2,-5.068903E-2,4.1241497E-2,-2.4817454E-2,2.8708765E-2,-7.6620216E-3],"split_indices":[6742,6967,0,3253,7455,2147483647,2147483647,6148,0,0,0],"split_type":[0,0,0,0,0,0,0,0,0,0,0],"sum_hessian":[3.5620213E1,3.0613754E1,5.0064588E0,1.35059805E1,1.7107775E1,7.1111484E0,6.394832E0,1.0620644E1,6.48713E0,5.3027096E0,5.317934E0],"tree_param":{"num_deleted":"2","num_feature":"7834","num_nodes":"11","size_leaf_vector":"0"}},{"base_weights":[-2.7905548E-1,-4.110082E-1,4.6342966E-1,-5.98041E-1,4.1419333E-1,-7.7274853E-1,-3.6730028E-3,-6.117561E-1,-9.6735734E-1,-7.476726E-1,-3.139386E-1],"categories":[],"categories_nodes":[],"categories_segments":[],"categories_sizes":[],"default_left":[1,1,0,1,0,1,0,1,1,1,1],"id":88,"left_children":[1,3,-1,5,-1,-1,-1,-1,-1,-1,-1],"loss_changes":[3.7830393E0,5.1349626E0,0E0,2.7202606E0,0E0,4.303074E-2,0E0,3.2424212E-1,0E0,0E0,0E0],"parents":[2147483647,0,0,1,1,3,3,5,5,7,7],"right_children":[2,4,-1,6,-1,-1,-1,-1,-1,-1,-1],"split_conditions":[6.6291047E-3,1.4938684E-2,2.3171483E-2,1.0969108E-2,2.0709667E-2,-3.8637426E-2,-1.8365015E-4,-3.0587805E-2,-4.836787E-2,-3.738363E-2,-1.569693E-2],"split_indices":[3479,5852,0,2407,0,7043,0,2147483647,2147483647,2147483647,2147483647],"split_type":[0,0,0,0,0,0,0,0,0,0,0],"sum_hessian":[3.5668953E1,3.0665579E1,5.003374E0,2.5223846E1,5.441733E0,1.9261913E1,5.961932E0,1.2809017E1,6.452897E0,7.7579665E0,5.0510507E0],"tree_param":{"num_deleted":"4","num_feature":"7834","num_nodes":"11","size_leaf_vector":"0"}},{"base_weights":[-3.811729E-1,-7.8430444E-1,-9.868614E-2,-1.0238216E0,-4.5217925E-1,1.3419311E-1,-6.834403E-1,-1.7274986E-1,5.1740247E-1],"categories":[],"categories_nodes":[],"categories_segments":[],"categories_sizes":[],"default_left":[1,1,1,1,1,1,0,0,0],"id":89,"left_children":[1,-1,5,-1,-1,7,-1,-1,-1],"loss_changes":[3.8343806E0,6.514578E-1,2.997905E0,0E0,0E0,1.9829652E0,0E0,0E0,0E0],"parents":[2147483647,0,0,1,1,2,2,5,5],"right_children":[2,-1,6,-1,-1,8,-1,-1,-1],"split_conditions":[6.962693E-2,-3.9215222E-2,8.498857E-3,-5.119108E-2,-2.2608964E-2,3.5214627E-1,-3.4172017E-2,-8.6374935E-3,2.5870124E-2],"split_indices":[6967,1383,7043,2147483647,2147483647,6742,0,0,0],"split_type":[0,0,0,0,0,0,0,0,0],"sum_hessian":[3.3350227E1,1.3008958E1,2.0341269E1,6.348211E0,6.660747E0,1.5098701E1,5.242567E0,8.68855E0,6.410151E0],"tree_param":{"num_deleted":"2","num_feature":"7834","num_nodes":"9","size_leaf_vector":"0"}},{"base_weights":[-2.3843636E-1,-4.696782E-1,4.071576E-1,-6.373524E-1,1.3391101E-1,-2.5847366E-1,-9.236312E-1],"categories":[],"categories_nodes":[],"categories_segments":[],"categories_sizes":[],"default_left":[1,1,0,1,0,0,0],"id":90,"left_children":[1,3,-1,5,-1,-1,-1],"loss_changes":[5.3723645E0,2.7184567E0,0E0,1.9885569E0,0E0,0E0,0E0],"parents":[2147483647,0,0,1,1,3,3],"right_children":[2,4,-1,6,-1,-1,-1],"split_conditions":[5.050634E-3,6.1730747E-3,2.035788E-2,2.1323513E-3,6.695551E-3,-1.2923683E-2,-4.618156E-2],"split_indices":[5852,5913,0,6621,0,0,0],"split_type":[0,0,0,0,0,0,0],"sum_hessian":[3.3705536E1,2.5017233E1,8.688302E0,1.953466E1,5.482572E0,9.226554E0,1.0308106E1],"tree_param":{"num_deleted":"0","num_feature":"7834","num_nodes":"7","size_leaf_vector":"0"}},{"base_weights":[-2.7649418E-1,-4.2998496E-2,-9.425473E-1,-4.0426353E-1,8.064173E-1,-8.0861E-1,-1.5869282E-1,1.5459989E-1,-5.3752995E-1],"categories":[],"categories_nodes":[],"categories_segments":[],"categories_sizes":[],"default_left":[1,1,0,1,0,0,1,0,0],"id":91,"left_children":[1,3,-1,5,-1,-1,7,-1,-1],"loss_changes":[5.266286E0,8.400659E0,0E0,1.7709711E0,0E0,0E0,1.6431763E0,0E0,0E0],"parents":[2147483647,0,0,1,1,3,3,6,6],"right_children":[2,4,-1,6,-1,-1,8,-1,-1],"split_conditions":[2.9739776E-5,2.0413343E-3,-4.7127366E-2,1.989933E-1,4.0320866E-2,-4.04305E-2,1.2338327E-2,7.7299946E-3,-2.6876498E-2],"split_indices":[5916,5852,0,6742,0,0,1383,0,0],"split_type":[0,0,0,0,0,0,0,0,0],"sum_hessian":[3.3122917E1,2.5313438E1,7.809478E0,1.8127642E1,7.185798E0,5.9831896E0,1.2144451E1,6.9712443E0,5.173207E0],"tree_param":{"num_deleted":"0","num_feature":"7834","num_nodes":"9","size_leaf_vector":"0"}},{"base_weights":[-2.1703856E-1,-7.3750117E-3,-9.024165E-1,-2.6006007E-1,5.292825E-1,9.889591E-3,-7.566354E-1,-5.596815E-1,4.2836857E-1],"categories":[],"categories_nodes":[],"categories_segments":[],"categories_sizes":[],"default_left":[1,1,0,1,0,1,0,0,0],"id":92,"left_children":[1,3,-1,5,-1,7,-1,-1,-1],"loss_changes":[4.9436975E0,3.8515968E0,0E0,2.5934525E0,0E0,3.4537902E0,0E0,0E0,0E0],"parents":[2147483647,0,0,1,1,3,3,5,5],"right_children":[2,4,-1,6,-1,8,-1,-1,-1],"split_conditions":[2.9739776E-5,1.9132468E-3,-4.5120828E-2,1.2610884E-2,2.6464125E-2,1.989933E-1,-3.7831772E-2,-2.7984073E-2,2.1418428E-2],"split_indices":[5916,5852,0,1383,0,6742,0,0,0],"split_type":[0,0,0,0,0,0,0,0,0],"sum_hessian":[3.344951E1,2.6387949E1,7.06156E0,1.8291029E1,8.096919E0,1.2484343E1,5.8066874E0,5.1447115E0,7.339631E0],"tree_param":{"num_deleted":"0","num_feature":"7834","num_nodes":"9","size_leaf_vector":"0"}},{"base_weights":[-2.2836429E-1,-4.4240353E-1,2.9200432E-1,-7.841806E-1,-9.744201E-2,3.032223E-1,-4.2765144E-1],"categories":[],"categories_nodes":[],"categories_segments":[],"categories_sizes":[],"default_left":[1,1,0,0,1,0,0],"id":93,"left_children":[1,3,-1,-1,5,-1,-1],"loss_changes":[3.898838E0,2.7978463E0,0E0,0E0,1.8859664E0,0E0,0E0],"parents":[2147483647,0,0,1,1,4,4],"right_children":[2,4,-1,-1,6,-1,-1],"split_conditions":[2.2146897E-2,3.6438398E-2,1.4600216E-2,-3.920903E-2,1.3054919E-3,1.5161115E-2,-2.1382572E-2],"split_indices":[2280,6148,0,0,5778,0,0],"split_type":[0,0,0,0,0,0,0],"sum_hessian":[3.2845192E1,2.3378798E1,9.466395E0,1.1104032E1,1.2274766E1,5.582675E0,6.6920905E0],"tree_param":{"num_deleted":"0","num_feature":"7834","num_nodes":"7","size_leaf_vector":"0"}},{"base_weights":[-2.8747442E-1,-5.202741E-1,2.7595463E-1,-9.33699E-1,-1.5527776E-1,1.3370396E-1,-4.8202974E-1],"categories":[],"categories_nodes":[],"categories_segments":[],"categories_sizes":[],"default_left":[1,1,0,0,1,0,0],"id":94,"left_children":[1,3,-1,-1,5,-1,-1],"loss_changes":[4.449417E0,3.4125996E0,0E0,0E0,1.360045E0,0E0,0E0],"parents":[2147483647,0,0,1,1,4,4],"right_children":[2,4,-1,-1,6,-1,-1],"split_conditions":[5.168174E-1,1.09631024E-1,1.3797732E-2,-4.668495E-2,2.3956522E-1,6.6851983E-3,-2.4101486E-2],"split_indices":[6742,6967,0,0,6967,0,0],"split_type":[0,0,0,0,0,0,0],"sum_hessian":[3.1827421E1,2.2575985E1,9.251435E0,9.855139E0,1.2720846E1,7.0641084E0,5.656738E0],"tree_param":{"num_deleted":"0","num_feature":"7834","num_nodes":"7","size_leaf_vector":"0"}},{"base_weights":[-2.4899672E-1,-4.0831518E-1,5.2232474E-1,-6.1207616E-1,3.1637222E-1,-8.852673E-1,-5.959747E-2],"categories":[],"categories_nodes":[],"categories_segments":[],"categories_sizes":[],"default_left":[1,1,0,1,0,0,0],"id":95,"left_children":[1,3,-1,5,-1,-1,-1],"loss_changes":[4.306078E0,4.352621E0,0E0,3.3167744E0,0E0,0E0,0E0],"parents":[2147483647,0,0,1,1,3,3],"right_children":[2,4,-1,6,-1,-1,-1],"split_conditions":[6.6291047E-3,1.6717935E-2,2.6116237E-2,2.2146897E-2,1.581861E-2,-4.4263367E-2,-2.9798734E-3],"split_indices":[3479,1492,0,2280,0,0,0],"split_type":[0,0,0,0,0,0,0],"sum_hessian":[3.230577E1,2.7165329E1,5.1404405E0,2.1324808E1,5.8405213E0,1.386597E1,7.458838E0],"tree_param":{"num_deleted":"0","num_feature":"7834","num_nodes":"7","size_leaf_vector":"0"}},{"base_weights":[-1.6488174E-1,2.4087515E-2,-7.3361075E-1,-2.3278607E-1,5.835537E-1,-4.13724E-3,-6.964846E-1,-4.401658E-1,3.3815753E-1],"categories":[],"categories_nodes":[],"categories_segments":[],"categories_sizes":[],"default_left":[1,1,0,1,0,1,0,0,0],"id":96,"left_children":[1,3,-1,5,-1,7,-1,-1,-1],"loss_changes":[3.5483336E0,3.8187284E0,0E0,1.9350069E0,0E0,2.1260397E0,0E0,0E0,0E0],"parents":[2147483647,0,0,1,1,3,3,5,5],"right_children":[2,4,-1,6,-1,8,-1,-1,-1],"split_conditions":[2.9739776E-5,2.0413343E-3,-3.668054E-2,1.2610884E-2,2.9177684E-2,2.1778655E-1,-3.4824234E-2,-2.200829E-2,1.6907876E-2],"split_indices":[5916,5852,0,1383,0,6742,0,0,0],"split_type":[0,0,0,0,0,0,0,0,0],"sum_hessian":[3.1851843E1,2.4626833E1,7.22501E0,1.7277805E1,7.349027E0,1.2247507E1,5.0302987E0,5.260522E0,6.9869857E0],"tree_param":{"num_deleted":"0","num_feature":"7834","num_nodes":"9","size_leaf_vector":"0"}},{"base_weights":[-1.7122512E-1,-3.2029226E-1,4.522706E-1,-5.637942E-1,4.551656E-1,-8.629725E-1,-1.6392216E-2],"categories":[],"categories_nodes":[],"categories_segments":[],"categories_sizes":[],"default_left":[1,1,0,1,0,0,0],"id":97,"left_children":[1,3,-1,5,-1,-1,-1],"loss_changes":[3.12555E0,5.254381E0,0E0,3.3577828E0,0E0,0E0,0E0],"parents":[2147483647,0,0,1,1,3,3],"right_children":[2,4,-1,6,-1,-1,-1],"split_conditions":[1.0765981E-2,1.6029932E-2,2.2613531E-2,2.0750549E-2,2.275828E-2,-4.3148626E-2,-8.1961084E-4],"split_indices":[3483,1492,0,2280,0,0,0],"split_type":[0,0,0,0,0,0,0],"sum_hessian":[3.1070196E1,2.5467619E1,5.602576E0,1.958932E1,5.8782997E0,1.2293769E1,7.2955513E0],"tree_param":{"num_deleted":"0","num_feature":"7834","num_nodes":"7","size_leaf_vector":"0"}},{"base_weights":[-2.708432E-1,-4.9273795E-1,1.8175338E-1,-7.2362256E-1,1.8982644E-1,4.6448505E-1,-1.1612311E-1,-2.1459295E-1,-9.634793E-1],"categories":[],"categories_nodes":[],"categories_segments":[],"categories_sizes":[],"default_left":[1,1,1,1,0,0,0,0,0],"id":98,"left_children":[1,3,5,7,-1,-1,-1,-1,-1],"loss_changes":[3.3429718E0,3.6055717E0,1.0130203E0,1.8264198E0,0E0,0E0,0E0,0E0,0E0],"parents":[2147483647,0,0,1,1,2,2,3,3],"right_children":[2,4,6,8,-1,-1,-1,-1,-1],"split_conditions":[1.8446456E-1,6.217561E-1,2.7386364E-1,2.1829528E-1,9.491323E-3,2.3224253E-2,-5.8061555E-3,-1.0729647E-2,-4.8173964E-2],"split_indices":[6967,6742,6967,6742,0,0,0,0,0],"split_type":[0,0,0,0,0,0,0,0,0],"sum_hessian":[3.1395243E1,2.1007296E1,1.0387947E1,1.5652515E1,5.354781E0,5.0425E0,5.345447E0,5.6200924E0,1.0032422E1],"tree_param":{"num_deleted":"0","num_feature":"7834","num_nodes":"9","size_leaf_vector":"0"}},{"base_weights":[-2.697841E-1,-8.0259883E-1,-4.3614108E-2,-2.8771552E-1,6.0934824E-1,-5.014413E-1,1.7437284E-1,-2.8244715E-2,-9.422551E-1],"categories":[],"categories_nodes":[],"categories_segments":[],"categories_sizes":[],"default_left":[1,0,1,1,0,1,0,0,0],"id":99,"left_children":[1,-1,3,5,-1,7,-1,-1,-1],"loss_changes":[3.7006068E0,0E0,3.8124506E0,1.7949135E0,0E0,2.4930594E0,0E0,0E0,0E0],"parents":[2147483647,0,0,2,2,3,3,5,5],"right_children":[2,-1,4,6,-1,8,-1,-1,-1],"split_conditions":[1.9386157E-2,-4.012994E-2,2.8392873E-3,7.590696E-2,3.0467412E-2,4.095611E-2,8.718642E-3,-1.4122358E-3,-4.7112755E-2],"split_indices":[6148,0,2282,6148,0,6148,0,0,0],"split_type":[0,0,0,0,0,0,0,0,0],"sum_hessian":[2.9999203E1,8.179994E0,2.1819208E1,1.6289108E1,5.530101E0,1.1079458E1,5.20965E0,5.856647E0,5.2228107E0],"tree_param":{"num_deleted":"0","num_feature":"7834","num_nodes":"9","size_leaf_vector":"0"}}]},"name":"gbtree"},"learner_model_param":{"base_score":"5E-1","num_class":"0","num_feature":"7834","num_target":"1"},"objective":{"name":"binary:logistic","reg_loss_param":{"scale_pos_weight":"1"}}},"version":[1,6,1]}